{"learner":{"attributes":{"best_iteration":"99","best_ntree_limit":"100","scikit_learn":"{\"n_estimators\": 100, \"objective\": \"reg:squarederror\", \"max_depth\": null, \"max_leaves\": null, \"max_bin\": null, \"grow_policy\": null, \"learning_rate\": null, \"verbosity\": null, \"booster\": null, \"tree_method\": null, \"gamma\": null, \"min_child_weight\": null, \"max_delta_step\": null, \"subsample\": null, \"sampling_method\": null, \"colsample_bytree\": null, \"colsample_bylevel\": null, \"colsample_bynode\": null, \"reg_alpha\": null, \"reg_lambda\": null, \"scale_pos_weight\": null, \"base_score\": null, \"missing\": NaN, \"num_parallel_tree\": null, \"random_state\": null, \"n_jobs\": null, \"monotone_constraints\": null, \"interaction_constraints\": null, \"importance_type\": null, \"gpu_id\": null, \"validate_parameters\": null, \"predictor\": null, \"enable_categorical\": false, \"feature_types\": null, \"max_cat_to_onehot\": null, \"max_cat_threshold\": null, \"eval_metric\": null, \"early_stopping_rounds\": null, \"callbacks\": null, \"evals_result_\": {\"validation_0\": {\"mae\": [0.35861147971877755, 0.25104671339689943, 0.17574951682036666, 0.12303712527856274, 0.0861355029853163, 0.06030169846535777, 0.04221711436810927, 0.02955996178442368, 0.02070895864808495, 0.01454450741471696, 0.01029768431818378, 0.0074356417527205, 0.00554893290293575, 0.00432736007877024, 0.00354412180516968, 0.00304565168950963, 0.00271772419478449, 0.00249383493135575, 0.00234256749598467, 0.00223694732085735, 0.00216171033892091, 0.00210453445409003, 0.00206416324412396, 0.00202921511953238, 0.00200335510851714, 0.00198362005069909, 0.00196444489780003, 0.001953448369137, 0.00194190025649034, 0.00193071943129665, 0.00192499711464662, 0.00191959147963927, 0.00191088074510222, 0.00190443507379018, 0.00189782649769623, 0.00188892677911679, 0.00188237530163723, 0.00187443325848585, 0.00186681935639052, 0.00186158666852463, 0.0018564683435862, 0.00185095177428823, 0.00184479208489167, 0.00184117086265206, 0.00183539069224081, 0.00183098003208326, 0.00182628474835331, 0.00182392490396766, 0.00181791366188934, 0.00181143709454287, 0.00180743026344882, 0.00180058049268251, 0.00179552843365607, 0.00178950569793595, 0.00178406518297392, 0.001779793095665, 0.0017766453645338, 0.00177299192609473, 0.00176605048351148, 0.00176330379493795, 0.00175917669877269, 0.00175397333536288, 0.00175117175079026, 0.0017474991518729, 0.00174461611220507, 0.00174228177837974, 0.00173907232172554, 0.00173502391768255, 0.0017299236191617, 0.00172603840956855, 0.00172378352098373, 0.00171860959888529, 0.00171540440692745, 0.00171167280622334, 0.00170807231373528, 0.00170444198895998, 0.00169949403046903, 0.00169261336130444, 0.00168879554803452, 0.00168455949138674, 0.00167959512331764, 0.0016746926206627, 0.00167030101358276, 0.00166742169361661, 0.00166533075696481, 0.00166102728842776, 0.00165847310952207, 0.00165731429911285, 0.00165541175104118, 0.00165348014508405, 0.00165165344712298, 0.00165067689078129, 0.00164858278675814, 0.0016442730930904, 0.00164063729743989, 0.00163704938588273, 0.00163437152158407, 0.00163090441203443, 0.00162925588948359, 0.0016250033178706]}, \"validation_1\": {\"mae\": [0.3585447220458855, 0.2509948448139638, 0.17570926113847204, 0.12300356240305446, 0.08610616503435013, 0.06027727789928547, 0.04219408148134923, 0.0295401009482185, 0.02069269426228058, 0.01453339835389728, 0.0102919190904536, 0.00743494597164113, 0.00555479929625866, 0.0043427657238251, 0.00356728800326486, 0.00307338126881915, 0.0027487634790576, 0.00252770577098623, 0.00237805798103212, 0.00227370598044333, 0.00220073679968949, 0.00214607297982999, 0.0021081344201421, 0.00207405103745646, 0.00204977443758141, 0.00203135379548732, 0.00201453006441502, 0.00200417954105021, 0.00199425155982802, 0.00198483662212286, 0.00197993367671034, 0.00197552003522761, 0.00196775268764273, 0.0019627312258359, 0.00195740168371365, 0.00195013741174104, 0.00194488641017409, 0.00193858301004071, 0.00193243962975165, 0.00192842836888552, 0.00192429562879584, 0.00191999340684646, 0.00191516680349533, 0.00191223770344407, 0.00190771454132906, 0.00190432046138636, 0.00190059431308188, 0.00189899979439221, 0.00189428542726713, 0.00188931314683089, 0.00188618032396722, 0.00188141156497834, 0.00187744026455514, 0.00187271414893947, 0.00186879440384738, 0.00186548109925915, 0.00186316294851521, 0.00186056995896192, 0.00185545901197937, 0.00185344650108065, 0.00185025784354792, 0.00184621034519543, 0.00184434882613585, 0.00184168796369388, 0.00183961779375809, 0.00183791397529342, 0.00183516539124213, 0.00183230336709625, 0.00182919735975832, 0.00182639670364979, 0.00182505913184128, 0.00182090939845957, 0.00181870965575693, 0.00181605902405256, 0.00181359105434538, 0.00181088119235266, 0.00180752876290012, 0.00180205757967759, 0.00179938882754954, 0.00179623146906766, 0.00179285863001382, 0.00178911939391593, 0.00178620422634892, 0.00178427458995632, 0.00178272856503658, 0.00177989467265503, 0.00177828233345612, 0.00177741703034432, 0.00177625054707894, 0.00177501847854436, 0.00177363769114937, 0.00177314321056527, 0.0017717890095291, 0.0017689974117017, 0.0017669746481453, 0.00176444569382868, 0.00176259630714371, 0.00176031283168691, 0.0017592680405319, 0.00175631351640824]}}, \"_estimator_type\": \"regressor\"}"},"feature_names":[],"feature_types":[],"gradient_booster":{"model":{"gbtree_model_param":{"num_parallel_tree":"1","num_trees":"600","size_leaf_vector":"0"},"tree_info":[0,1,2,3,4,5,0,1,2,3,4,5,0,1,2,3,4,5,0,1,2,3,4,5,0,1,2,3,4,5,0,1,2,3,4,5,0,1,2,3,4,5,0,1,2,3,4,5,0,1,2,3,4,5,0,1,2,3,4,5,0,1,2,3,4,5,0,1,2,3,4,5,0,1,2,3,4,5,0,1,2,3,4,5,0,1,2,3,4,5,0,1,2,3,4,5,0,1,2,3,4,5,0,1,2,3,4,5,0,1,2,3,4,5,0,1,2,3,4,5,0,1,2,3,4,5,0,1,2,3,4,5,0,1,2,3,4,5,0,1,2,3,4,5,0,1,2,3,4,5,0,1,2,3,4,5,0,1,2,3,4,5,0,1,2,3,4,5,0,1,2,3,4,5,0,1,2,3,4,5,0,1,2,3,4,5,0,1,2,3,4,5,0,1,2,3,4,5,0,1,2,3,4,5,0,1,2,3,4,5,0,1,2,3,4,5,0,1,2,3,4,5,0,1,2,3,4,5,0,1,2,3,4,5,0,1,2,3,4,5,0,1,2,3,4,5,0,1,2,3,4,5,0,1,2,3,4,5,0,1,2,3,4,5,0,1,2,3,4,5,0,1,2,3,4,5,0,1,2,3,4,5,0,1,2,3,4,5,0,1,2,3,4,5,0,1,2,3,4,5,0,1,2,3,4,5,0,1,2,3,4,5,0,1,2,3,4,5,0,1,2,3,4,5,0,1,2,3,4,5,0,1,2,3,4,5,0,1,2,3,4,5,0,1,2,3,4,5,0,1,2,3,4,5,0,1,2,3,4,5,0,1,2,3,4,5,0,1,2,3,4,5,0,1,2,3,4,5,0,1,2,3,4,5,0,1,2,3,4,5,0,1,2,3,4,5,0,1,2,3,4,5,0,1,2,3,4,5,0,1,2,3,4,5,0,1,2,3,4,5,0,1,2,3,4,5,0,1,2,3,4,5,0,1,2,3,4,5,0,1,2,3,4,5,0,1,2,3,4,5,0,1,2,3,4,5,0,1,2,3,4,5,0,1,2,3,4,5,0,1,2,3,4,5,0,1,2,3,4,5,0,1,2,3,4,5,0,1,2,3,4,5,0,1,2,3,4,5,0,1,2,3,4,5,0,1,2,3,4,5,0,1,2,3,4,5,0,1,2,3,4,5,0,1,2,3,4,5,0,1,2,3,4,5,0,1,2,3,4,5,0,1,2,3,4,5,0,1,2,3,4,5,0,1,2,3,4,5,0,1,2,3,4,5,0,1,2,3,4,5,0,1,2,3,4,5,0,1,2,3,4,5,0,1,2,3,4,5,0,1,2,3,4,5,0,1,2,3,4,5],"trees":[{"base_weights":[-4.9858615E-1,-5.3355825E-1,-4.9300173E-1,-5.657281E-1,-5.0721186E-1,-4.980163E-1,-4.62177E-1,-6.0688514E-1,-5.3730583E-1,-5.28872E-1,-4.7812212E-1,-4.9864563E-1,-4.8399675E-1,-4.191258E-1,-4.8981726E-1,-6.564163E-1,-5.9733397E-1,-5.563144E-1,-5.254057E-1,-5.4816705E-1,-5.194371E-1,-4.9220696E-1,-4.7016007E-1,-4.48136E-1,-3.7248656E-1,-5.678966E-1,-4.6808827E-1,-4.6152678E-1,-4.3227303E-1,-3.944421E-1,-3.5065922E-1,-4.8247376E-1,-4.3363598E-1,-3.4297344E-1,-3.9167836E-1,-4.9722192E-1,-4.7556257E-1,-4.449177E-1,-4.1750714E-1],"categories":[],"categories_nodes":[],"categories_segments":[],"categories_sizes":[],"default_left":[1,1,1,1,1,1,1,1,1,1,1,0,0,1,1,0,0,0,0,0,0,0,0,1,1,0,1,0,0,0,1,1,1,0,0,0,0,0,0],"id":0,"left_children":[1,3,5,7,9,11,13,15,17,19,21,-1,-1,23,25,-1,-1,-1,-1,-1,-1,-1,-1,27,29,-1,31,-1,-1,-1,33,35,37,-1,-1,-1,-1,-1,-1],"loss_changes":[1.4300781E1,8.405518E0,9.711914E0,5.0654297E0,3.3059082E0,2.4609375E-1,1.0519775E1,4.9493408E-1,3.2641602E-1,3.0291748E-1,4.0100098E-2,0E0,0E0,4.6105347E0,9.036499E0,0E0,0E0,0E0,0E0,0E0,0E0,0E0,0E0,2.6190186E-1,5.13443E-1,0E0,1.9194336E0,0E0,0E0,0E0,8.351135E-2,7.147217E-2,4.624939E-2,0E0,0E0,0E0,0E0,0E0,0E0],"parents":[2147483647,0,0,1,1,2,2,3,3,4,4,5,5,6,6,7,7,8,8,9,9,10,10,13,13,14,14,23,23,24,24,26,26,30,30,31,31,32,32],"right_children":[2,4,6,8,10,12,14,16,18,20,22,-1,-1,24,26,-1,-1,-1,-1,-1,-1,-1,-1,28,30,-1,32,-1,-1,-1,34,36,38,-1,-1,-1,-1,-1,-1],"split_conditions":[-6.108398E-2,9.8900867E-1,8.001092E-2,-2.248434E-1,-1.6553223E-2,3.706035E-2,9.708564E-1,-2.6929012E-1,-1.3244775E-1,9.971608E-1,2.244192E-2,-1.495937E-1,-1.4519903E-1,2.6073438E-1,-7.735881E-2,-1.969249E-1,-1.792002E-1,-1.6689433E-1,-1.5762171E-1,-1.6445012E-1,-1.5583113E-1,-1.4766209E-1,-1.4104803E-1,1.5174821E-1,4.0233487E-1,-1.7036898E-1,1.0128322E-1,-1.3845804E-1,-1.2968192E-1,-1.1833264E-1,8.992597E-1,3.3837035E-2,1.6020864E-1,-1.02892034E-1,-1.1750352E-1,-1.4916658E-1,-1.4266878E-1,-1.3347532E-1,-1.2525214E-1],"split_indices":[1,6,1,1,10,1,6,11,1,6,10,0,0,1,10,0,0,0,0,0,0,0,0,1,1,0,10,0,0,0,6,10,10,0,0,0,0,0,0],"split_type":[0,0,0,0,0,0,0,0,0,0,0,0,0,0,0,0,0,0,0,0,0,0,0,0,0,0,0,0,0,0,0,0,0,0,0,0,0,0,0],"sum_hessian":[7.4571E4,1.0255E4,6.4316E4,4.608E3,5.647E3,5.5304E4,9.012E3,1.874E3,2.734E3,3.227E3,2.42E3,5.2895E4,2.409E3,3.53E3,5.482E3,2.92E2,1.582E3,1.035E3,1.699E3,1.041E3,2.186E3,8.52E2,1.568E3,2.171E3,1.359E3,1.188E3,4.294E3,1.162E3,1.009E3,6.69E2,6.9E2,3.02E3,1.274E3,5.89E2,1.01E2,9.41E2,2.079E3,7.34E2,5.4E2],"tree_param":{"num_deleted":"0","num_feature":"12","num_nodes":"39","size_leaf_vector":"0"}},{"base_weights":[-5.008067E-1,-4.6576762E-1,-5.0564045E-1,-4.2423186E-1,-4.912672E-1,-5.6253767E-1,-5.02776E-1,-3.7886775E-1,-4.5305905E-1,-5.762334E-1,-4.6815136E-1,-5.114726E-1,-5.777062E-1,-5.012361E-1,-5.6911576E-1,-4.580656E-1,-3.7166432E-1,-4.3595365E-1,-4.6840885E-1,-5.9786624E-1,-5.5794555E-1,-4.8662627E-1,-4.309084E-1,-4.739988E-1,-5.221645E-1,-5.936235E-1,-5.477972E-1,-5.02631E-1,-4.2376718E-1,-5.2550757E-1,-6.0635066E-1,-3.5903606E-1,-3.9326426E-1,-5.0039476E-1,-4.731113E-1,-4.4321275E-1,-4.0450108E-1,-5.6729525E-1,-6.081002E-1,-5.022063E-1,-5.728515E-1,-4.1738576E-1,-4.9871635E-1,-5.514059E-1,-5.0185585E-1,-6.3622606E-1,-5.667594E-1,-5.006763E-1,-5.14421E-1,-5.426456E-1,-6.217084E-1,-4.2715794E-1,-3.9716387E-1],"categories":[],"categories_nodes":[],"categories_segments":[],"categories_sizes":[],"default_left":[1,1,1,1,1,1,1,1,1,1,1,1,1,1,1,0,1,0,0,0,0,1,1,0,0,1,0,1,1,1,1,0,0,0,0,0,0,0,0,1,1,1,0,0,0,0,0,0,0,0,0,0,0],"id":1,"left_children":[1,3,5,7,9,11,13,15,17,19,21,23,25,27,29,-1,31,-1,-1,-1,-1,33,35,-1,-1,37,-1,39,41,43,45,-1,-1,-1,-1,-1,-1,-1,-1,47,49,51,-1,-1,-1,-1,-1,-1,-1,-1,-1,-1,-1],"loss_changes":[1.2394531E1,9.380005E0,1.0394531E1,4.3412476E0,1.0734985E1,2.1304321E0,6.088867E0,5.9820557E-1,3.4848022E-1,1.3876343E-1,2.824585E0,4.3395996E-2,8.2073975E-1,6.3759766E0,1.9675903E0,0E0,1.9702148E-1,0E0,0E0,0E0,0E0,3.1030273E-1,2.9870605E-1,0E0,0E0,2.4920654E-1,0E0,1.5E0,3.1077576E-1,1.2510681E-1,5.300598E-1,0E0,0E0,0E0,0E0,0E0,0E0,0E0,0E0,8.5546875E-1,1.8357849E-1,2.9144287E-2,0E0,0E0,0E0,0E0,0E0,0E0,0E0,0E0,0E0,0E0,0E0],"parents":[2147483647,0,0,1,1,2,2,3,3,4,4,5,5,6,6,7,7,8,8,9,9,10,10,11,11,12,12,13,13,14,14,16,16,21,21,22,22,25,25,27,27,28,28,29,29,30,30,39,39,40,40,41,41],"right_children":[2,4,6,8,10,12,14,16,18,20,22,24,26,28,30,-1,32,-1,-1,-1,-1,34,36,-1,-1,38,-1,40,42,44,46,-1,-1,-1,-1,-1,-1,-1,-1,48,50,52,-1,-1,-1,-1,-1,-1,-1,-1,-1,-1,-1],"split_conditions":[-8.252096E-2,9.602344E-1,-8.7352425E-2,-2.9210365E-1,-7.329355E-2,1.3430564E-1,9.8144794E-1,-9.451685E-1,-1.604077E-1,9.8232436E-1,1.0142423E-1,-2.4245799E-1,9.8648536E-1,1.4132604E-1,2.1260393E-1,-1.3741969E-1,-4.0499732E-1,-1.307861E-1,-1.4052266E-1,-1.7935988E-1,-1.6738367E-1,4.078313E-2,1.8580668E-1,-1.4219965E-1,-1.5664937E-1,3.383131E-1,-1.6433917E-1,1.2067509E0,6.787739E-1,-5.3255296E-1,-5.4805535E-1,-1.0771082E-1,-1.1797928E-1,-1.5011844E-1,-1.419334E-1,-1.3296384E-1,-1.21350326E-1,-1.7018858E-1,-1.8243006E-1,4.433202E-2,3.6045557E-1,2.1741825E-1,-1.4961492E-1,-1.6542178E-1,-1.5055676E-1,-1.9086783E-1,-1.7002782E-1,-1.5020289E-1,-1.543263E-1,-1.6279368E-1,-1.8651253E-1,-1.281474E-1,-1.1914916E-1],"split_indices":[0,9,11,0,11,0,4,8,0,9,11,6,9,11,0,0,0,0,0,0,0,11,11,0,0,0,0,3,4,9,6,0,0,0,0,0,0,0,0,0,0,11,0,0,0,0,0,0,0,0,0,0,0],"split_type":[0,0,0,0,0,0,0,0,0,0,0,0,0,0,0,0,0,0,0,0,0,0,0,0,0,0,0,0,0,0,0,0,0,0,0,0,0,0,0,0,0,0,0,0,0,0,0,0,0,0,0,0,0],"sum_hessian":[7.4571E4,9.052E3,6.5519E4,3.45E3,5.602E3,3.131E3,6.2388E4,1.346E3,2.104E3,1.193E3,4.409E3,7.25E2,2.406E3,6.0981E4,1.407E3,1.07E2,1.239E3,1.009E3,1.095E3,5.32E2,6.61E2,2.939E3,1.47E3,1.71E2,5.54E2,1.558E3,8.48E2,5.9897E4,1.084E3,6.55E2,7.52E2,7.93E2,4.46E2,1.438E3,1.501E3,9.92E2,4.78E2,5.67E2,9.91E2,5.9545E4,3.52E2,1.005E3,7.9E1,3.02E2,3.53E2,4.2E2,3.32E2,5.2954E4,6.591E3,2.25E2,1.27E2,6.64E2,3.41E2],"tree_param":{"num_deleted":"0","num_feature":"12","num_nodes":"53","size_leaf_vector":"0"}},{"base_weights":[-5.7421166E-1,-5.603858E-1,-5.802827E-1,-5.6292325E-1,-5.276311E-1,-5.807262E-1,-5.198714E-1,-5.3226477E-1,-5.6576794E-1,-5.33086E-1,-4.8115364E-1,-5.255631E-1,-5.8119E-1,-5.0795025E-1,-5.387105E-1,-5.6869304E-1,-5.538125E-1,-5.338886E-1,-5.813995E-1,-5.7777727E-1,-5.647182E-1,-5.555341E-1,-5.0475687E-1,-5.297485E-1,-5.811768E-1],"categories":[],"categories_nodes":[],"categories_segments":[],"categories_sizes":[],"default_left":[1,1,1,1,1,1,0,1,1,0,0,0,1,0,0,1,1,0,0,1,0,0,0,0,0],"id":2,"left_children":[1,3,5,7,9,11,-1,13,15,-1,-1,-1,17,-1,-1,19,21,-1,-1,23,-1,-1,-1,-1,-1],"loss_changes":[5.935547E0,1.5961914E0,1.0859375E0,1.5415039E0,1.628418E-1,1.0097656E0,0E0,1.0192871E-2,3.6132812E-1,0E0,0E0,0E0,1.953125E-1,0E0,0E0,2.3242188E-1,4.35791E-2,0E0,0E0,4.547119E-1,0E0,0E0,0E0,0E0,0E0],"parents":[2147483647,0,0,1,1,2,2,3,3,4,4,5,5,7,7,8,8,12,12,15,15,16,16,19,19],"right_children":[2,4,6,8,10,12,-1,14,16,-1,-1,-1,18,-1,-1,20,22,-1,-1,24,-1,-1,-1,-1,-1],"split_conditions":[1.6240144E0,2.0646694E-1,1.6378306E0,-1.9346109E-1,3.646562E-1,-1.6496922E0,-1.5596142E-1,-3.1571677E-1,1.5937409E-1,-1.599258E-1,-1.443461E-1,-1.5766895E-1,-1.7644827E0,-1.5238509E-1,-1.6161315E-1,8.2887626E-1,3.395126E-1,-1.6016658E-1,-1.7441985E-1,-2.6934093E-1,-1.6941546E-1,-1.6666025E-1,-1.5142706E-1,-1.5892455E-1,-1.7435305E-1],"split_indices":[5,11,4,11,11,4,0,11,3,0,0,0,3,0,0,6,10,0,0,10,0,0,0,0,0],"split_type":[0,0,0,0,0,0,0,0,0,0,0,0,0,0,0,0,0,0,0,0,0,0,0,0,0],"sum_hessian":[7.4571E4,2.2782E4,5.1789E4,2.1129E4,1.653E3,5.1403E4,3.86E2,1.81E3,1.9319E4,1.47E3,1.83E2,4.38E2,5.0965E4,3.96E2,1.414E3,1.5484E4,3.835E3,2.36E2,5.0729E4,4.669E3,1.0815E4,3.695E3,1.4E2,3.19E2,4.35E3],"tree_param":{"num_deleted":"0","num_feature":"12","num_nodes":"25","size_leaf_vector":"0"}},{"base_weights":[-5.000016E-1],"categories":[],"categories_nodes":[],"categories_segments":[],"categories_sizes":[],"default_left":[0],"id":3,"left_children":[-1],"loss_changes":[0E0],"parents":[2147483647],"right_children":[-1],"split_conditions":[-1.5000048E-1],"split_indices":[0],"split_type":[0],"sum_hessian":[7.4571E4],"tree_param":{"num_deleted":"0","num_feature":"12","num_nodes":"1","size_leaf_vector":"0"}},{"base_weights":[-4.999895E-1],"categories":[],"categories_nodes":[],"categories_segments":[],"categories_sizes":[],"default_left":[0],"id":4,"left_children":[-1],"loss_changes":[0E0],"parents":[2147483647],"right_children":[-1],"split_conditions":[-1.4999686E-1],"split_indices":[0],"split_type":[0],"sum_hessian":[7.4571E4],"tree_param":{"num_deleted":"0","num_feature":"12","num_nodes":"1","size_leaf_vector":"0"}},{"base_weights":[-4.9999318E-1],"categories":[],"categories_nodes":[],"categories_segments":[],"categories_sizes":[],"default_left":[0],"id":5,"left_children":[-1],"loss_changes":[0E0],"parents":[2147483647],"right_children":[-1],"split_conditions":[-1.4999796E-1],"split_indices":[0],"split_type":[0],"sum_hessian":[7.4571E4],"tree_param":{"num_deleted":"0","num_feature":"12","num_nodes":"1","size_leaf_vector":"0"}},{"base_weights":[-3.490496E-1,-3.7240833E-1,-3.4488767E-1,-3.9149776E-1,-3.5492152E-1,-3.483742E-1,-3.2341394E-1,-4.274685E-1,-3.7423968E-1,-3.7327287E-1,-3.3769965E-1,-3.491291E-1,-3.415334E-1,-2.9222146E-1,-3.4303707E-1,-4.355725E-1,-3.916206E-1,-3.9296067E-1,-3.6721674E-1,-3.8734004E-1,-3.6768752E-1,-3.4347036E-1,-3.2275632E-1,-3.404608E-1,-3.6315095E-1,-3.0905932E-1,-2.5359815E-1,-4.002111E-1,-3.2812384E-1,-4.5673084E-1,-4.152679E-1,-3.174153E-1,-3.693195E-1,-3.348748E-1,-3.5141096E-1,-2.8178832E-1,-3.409398E-1,-3.1924546E-1,-2.9361188E-1,-2.5726798E-1,-2.0542096E-1,-4.1161352E-1,-3.8676274E-1,-3.4194162E-1,-3.089361E-1,-4.487552E-1,-4.0640256E-1,-3.9027432E-1,-3.6643556E-1,-3.2344672E-1,-2.9965028E-1,-2.961331E-1,-2.3959154E-1,-2.0453541E-1,-2.6022062E-1,-3.5512686E-1,-3.3801904E-1,-3.1796432E-1,-2.957393E-1],"categories":[],"categories_nodes":[],"categories_segments":[],"categories_sizes":[],"default_left":[1,1,1,1,1,1,1,1,1,1,1,0,1,1,1,1,0,0,1,0,0,1,0,1,0,1,1,1,1,0,1,0,1,0,0,0,0,1,1,1,0,0,0,1,1,0,0,0,0,0,0,0,0,0,0,0,0,0,0],"id":6,"left_children":[1,3,5,7,9,11,13,15,17,19,21,-1,23,25,27,29,-1,-1,31,-1,-1,33,-1,35,-1,37,39,41,43,-1,45,-1,47,-1,-1,-1,-1,49,51,53,-1,-1,-1,55,57,-1,-1,-1,-1,-1,-1,-1,-1,-1,-1,-1,-1,-1,-1],"loss_changes":[7.1220703E0,3.62146E0,4.6274414E0,3.1773682E0,1.7354126E0,1.6259766E-1,5.321045E0,3.3377075E-1,3.343811E-1,8.087158E-2,1.5203857E-1,0E0,2.9296875E-3,2.1503296E0,4.4994507E0,4.1479492E-1,0E0,0E0,1.6168213E-1,0E0,0E0,3.1402588E-2,0E0,5.0476074E-2,0E0,2.8108215E-1,1.3208771E-1,1.2390137E-2,1.0378723E0,0E0,3.4049988E-2,0E0,1.1047363E-2,0E0,0E0,0E0,0E0,2.0309448E-2,5.9661865E-2,9.749603E-2,0E0,0E0,0E0,9.185791E-3,1.2232971E-1,0E0,0E0,0E0,0E0,0E0,0E0,0E0,0E0,0E0,0E0,0E0,0E0,0E0,0E0],"parents":[2147483647,0,0,1,1,2,2,3,3,4,4,5,5,6,6,7,7,8,8,9,9,10,10,12,12,13,13,14,14,15,15,18,18,21,21,23,23,25,25,26,26,27,27,28,28,30,30,32,32,37,37,38,38,39,39,43,43,44,44],"right_children":[2,4,6,8,10,12,14,16,18,20,22,-1,24,26,28,30,-1,-1,32,-1,-1,34,-1,36,-1,38,40,42,44,-1,46,-1,48,-1,-1,-1,-1,50,52,54,-1,-1,-1,56,58,-1,-1,-1,-1,-1,-1,-1,-1,-1,-1,-1,-1,-1,-1],"split_conditions":[-4.64233E-2,9.8900867E-1,8.419791E-2,-2.451523E-1,-2.7023638E-2,2.7270682E-2,9.708564E-1,9.7297704E-1,-1.453821E-1,9.953058E-1,5.428317E-2,-1.04738735E-1,2.873438E-1,3.2815683E-1,-1.0418443E-1,-3.8469714E-1,-1.1748619E-1,-1.17888205E-1,-4.0567186E-2,-1.1620202E-1,-1.1030626E-1,-7.1042114E-1,-9.68269E-2,-3.2872632E-2,-1.0894529E-1,1.8887255E-1,1.6041799E-1,-1.7304534E-1,7.3336855E-2,-1.3701926E-1,-2.648284E-1,-9.52246E-2,-1.0492086E-1,-1.00462444E-1,-1.05423294E-1,-8.45365E-2,-1.0228194E-1,1.4729479E-1,1.10038936E-1,-4.2666984E-1,-6.162629E-2,-1.2348406E-1,-1.1602882E-1,1.7744634E-2,1.3330004E-1,-1.3462657E-1,-1.2192077E-1,-1.170823E-1,-1.0993067E-1,-9.703402E-2,-8.9895085E-2,-8.883993E-2,-7.1877465E-2,-6.1360624E-2,-7.8066185E-2,-1.06538065E-1,-1.0140572E-1,-9.53893E-2,-8.872179E-2],"split_indices":[1,6,1,1,10,1,6,6,1,6,10,0,0,1,10,1,0,0,2,0,0,0,0,5,0,1,2,10,10,0,11,0,11,0,0,0,0,11,2,10,0,0,0,10,10,0,0,0,0,0,0,0,0,0,0,0,0,0,0],"split_type":[0,0,0,0,0,0,0,0,0,0,0,0,0,0,0,0,0,0,0,0,0,0,0,0,0,0,0,0,0,0,0,0,0,0,0,0,0,0,0,0,0,0,0,0,0,0,0,0,0,0,0,0,0,0,0,0,0,0,0],"sum_hessian":[7.4571E4,1.1264E4,6.3307E4,5.375E3,5.889E3,5.4451E4,8.856E3,1.735E3,3.64E3,2.841E3,3.048E3,4.8994E4,5.457E3,3.426E3,5.43E3,1.406E3,3.29E2,9.78E2,2.662E3,7.88E2,2.053E3,2.183E3,8.65E2,5.215E3,2.42E2,2.381E3,1.045E3,1.118E3,4.312E3,6.78E2,7.28E2,1.14E2,2.548E3,1.069E3,1.114E3,4.7E1,5.168E3,1.423E3,9.58E2,9.67E2,7.8E1,5.89E2,5.29E2,2.497E3,1.815E3,1.42E2,5.86E2,2.92E2,2.256E3,1.159E3,2.64E2,9.11E2,4.7E1,5.5E1,9.12E2,5.52E2,1.945E3,1.064E3,7.51E2],"tree_param":{"num_deleted":"0","num_feature":"12","num_nodes":"59","size_leaf_vector":"0"}},{"base_weights":[-3.506193E-1,-3.2791805E-1,-3.5433936E-1,-3.047714E-1,-3.4425735E-1,-3.9036357E-1,-3.5186377E-1,-2.7029252E-1,-3.255904E-1,-4.0542024E-1,-3.3007777E-1,-3.5783008E-1,-3.96983E-1,-3.504479E-1,-3.9427042E-1,-2.4625538E-1,-2.8138298E-1,-3.1118792E-1,-3.308445E-1,-3.7913156E-1,-4.130976E-1,-3.4342203E-1,-3.042102E-1,-4.1351753E-1,-3.799295E-1,-3.5168442E-1,-2.9372737E-1,-3.5836998E-1,-4.1641006E-1,-2.1033557E-1,-2.5041103E-1,-3.3046836E-1,-2.7608678E-1,-3.2922414E-1,-3.786397E-1,-3.5660714E-1,-3.3564833E-1,-2.8406465E-1,-3.1371337E-1,-3.8979104E-1,-4.286854E-1,-4.092649E-1,-3.514716E-1,-4.265486E-1,-2.919782E-1,-2.9922548E-1,-3.6087114E-1,-3.5757762E-1,-4.2529353E-1,-2.2685832E-1,-2.5908464E-1,-2.6595193E-1,-2.850054E-1,-3.587214E-1,-3.2664126E-1,-3.9628047E-1,-3.5615057E-1,-4.3870366E-1,-3.4960958E-1,-3.5120204E-1,-3.9213625E-1,-2.9453412E-1,-2.5630227E-1,-4.1006118E-1,-4.5468977E-1],"categories":[],"categories_nodes":[],"categories_segments":[],"categories_sizes":[],"default_left":[1,1,1,1,1,1,1,1,1,1,1,0,1,1,1,1,1,0,1,0,0,1,1,1,0,1,1,1,1,0,1,0,1,1,0,0,0,0,0,1,0,1,1,0,1,0,0,0,1,0,0,0,0,0,0,0,0,0,0,0,0,0,0,0,0],"id":7,"left_children":[1,3,5,7,9,11,13,15,17,19,21,-1,23,25,27,29,31,-1,33,-1,-1,35,37,39,-1,41,43,45,47,-1,49,-1,51,53,-1,-1,-1,-1,-1,55,-1,57,59,-1,61,-1,-1,-1,63,-1,-1,-1,-1,-1,-1,-1,-1,-1,-1,-1,-1,-1,-1,-1,-1],"loss_changes":[6.1816406E0,3.8710938E0,5.5751953E0,3.0409546E0,5.2042236E0,7.43103E-1,3.4614258E0,3.6977386E-1,1.0232544E-1,7.6293945E-2,1.6221313E0,0E0,8.032837E-1,3.9663086E0,1.3839722E0,2.614212E-2,1.9992828E-1,0E0,2.809143E-2,0E0,0E0,2.1774292E-1,2.384491E-1,4.512024E-1,0E0,5.517578E-1,1.6448212E-1,1.9226074E-3,4.683075E-1,0E0,3.6830902E-2,0E0,1.612854E-2,2.87323E-2,0E0,0E0,0E0,0E0,0E0,7.522583E-3,0E0,2.0312881E-1,4.8242188E-1,0E0,3.6750793E-2,0E0,0E0,0E0,2.7296448E-1,0E0,0E0,0E0,0E0,0E0,0E0,0E0,0E0,0E0,0E0,0E0,0E0,0E0,0E0,0E0,0E0],"parents":[2147483647,0,0,1,1,2,2,3,3,4,4,5,5,6,6,7,7,8,8,9,9,10,10,12,12,13,13,14,14,15,15,16,16,18,18,21,21,22,22,23,23,25,25,26,26,27,27,28,28,30,30,32,32,33,33,39,39,41,41,42,42,44,44,48,48],"right_children":[2,4,6,8,10,12,14,16,18,20,22,-1,24,26,28,30,32,-1,34,-1,-1,36,38,40,-1,42,44,46,48,-1,50,-1,52,54,-1,-1,-1,-1,-1,56,-1,58,60,-1,62,-1,-1,-1,64,-1,-1,-1,-1,-1,-1,-1,-1,-1,-1,-1,-1,-1,-1,-1,-1],"split_conditions":[-5.1616307E-2,9.602344E-1,-6.2883765E-2,-2.4630454E-1,-8.967739E-2,9.16505E-2,6.4914906E-1,-5.086228E-1,-1.568834E-1,-4.4417363E-1,8.212173E-2,-1.0734903E-1,9.799692E-1,1.0673881E-1,1.4859633E-1,-2.8778946E0,-9.5461714E-1,-9.335638E-2,3.8416018E0,-1.1373947E-1,-1.23929285E-1,1.3132009E-2,-8.2688475E-1,2.6998758E-1,-1.13978855E-1,-1.4591322E0,-1.4085805E0,3.2493923E-2,-9.581423E-1,-6.310067E-2,-1.6053896E-2,-9.914051E-2,-3.5357952E-1,4.594614E-1,-1.1359192E-1,-1.0698215E-1,-1.006945E-1,-8.52194E-2,-9.411401E-2,8.872012E-1,-1.2860562E-1,-2.0217828E-1,1.3948187E-1,-1.2796459E-1,2.775629E-1,-8.976765E-2,-1.0826135E-1,-1.0727329E-1,3.8971037E-1,-6.80575E-2,-7.7725396E-2,-7.9785585E-2,-8.550162E-2,-1.07616425E-1,-9.799238E-2,-1.18884146E-1,-1.0684518E-1,-1.3161111E-1,-1.0488288E-1,-1.0536062E-1,-1.17640875E-1,-8.8360235E-2,-7.6890685E-2,-1.2301836E-1,-1.3640694E-1],"split_indices":[0,9,11,0,11,0,4,0,0,1,11,0,9,11,0,4,8,0,5,0,0,11,0,0,0,3,3,5,8,0,2,0,0,5,0,0,0,0,0,8,0,7,10,0,11,0,0,0,0,0,0,0,0,0,0,0,0,0,0,0,0,0,0,0,0],"split_type":[0,0,0,0,0,0,0,0,0,0,0,0,0,0,0,0,0,0,0,0,0,0,0,0,0,0,0,0,0,0,0,0,0,0,0,0,0,0,0,0,0,0,0,0,0,0,0,0,0,0,0,0,0,0,0,0,0,0,0,0,0,0,0,0,0],"sum_hessian":[7.4571E4,1.0512E4,6.4059E4,4.358E3,6.154E3,4.109E3,5.995E4,1.646E3,2.712E3,1.153E3,5.001E3,7.04E2,3.405E3,5.8022E4,1.928E3,5.27E2,1.119E3,7.41E2,1.971E3,2.72E2,8.81E2,3.291E3,1.71E3,1.717E3,1.688E3,5.6779E4,1.243E3,7.42E2,1.186E3,6E1,4.67E2,1.03E2,1.016E3,1.914E3,5.7E1,1.204E3,2.087E3,5.58E2,1.152E3,6.8E2,1.037E3,2.02E2,5.6577E4,1.3E1,1.23E3,3.5E1,7.07E2,1.61E2,1.025E3,1.33E2,3.34E2,4.9E2,5.26E2,1.43E2,1.771E3,5.61E2,1.19E2,1.31E2,7.1E1,5.6214E4,3.63E2,1.141E3,8.9E1,6.85E2,3.4E2],"tree_param":{"num_deleted":"0","num_feature":"12","num_nodes":"65","size_leaf_vector":"0"}},{"base_weights":[-4.0197614E-1,-3.9230734E-1,-4.0620434E-1,-3.9486116E-1,-3.74565E-1,-3.6864156E-1,-4.066065E-1,-3.7981007E-1,-3.9834404E-1,-3.791958E-1,-3.5033974E-1,-4.0688145E-1,-3.6181837E-1,-3.6471993E-1,-3.8490784E-1,-3.990049E-1,-3.6910313E-1,-3.7430453E-1,-4.0705335E-1,-3.2989728E-1,-3.6940947E-1,-4.0567815E-1,-3.9621913E-1,-4.0737435E-1,-3.924537E-1,-3.760636E-1,-4.0753713E-1],"categories":[],"categories_nodes":[],"categories_segments":[],"categories_sizes":[],"default_left":[1,1,1,1,1,0,1,1,1,0,0,1,0,1,0,1,0,0,1,0,0,1,0,0,0,0,0],"id":8,"left_children":[1,3,5,7,9,-1,11,13,15,-1,-1,17,-1,19,-1,21,-1,-1,23,-1,-1,25,-1,-1,-1,-1,-1],"loss_changes":[2.8896484E0,8.815918E-1,6.3378906E-1,8.886719E-1,1.9000244E-1,0E0,4.84375E-1,1.4807129E-1,1.6381836E-1,0E0,0E0,1.3378906E-1,0E0,3.5888672E-2,0E0,1.3134766E-1,0E0,0E0,7.8125E-2,0E0,0E0,9.9365234E-2,0E0,0E0,0E0,0E0,0E0],"parents":[2147483647,0,0,1,1,2,2,3,3,4,4,6,6,7,7,8,8,11,11,13,13,15,15,18,18,21,21],"right_children":[2,4,6,8,10,-1,12,14,16,-1,-1,18,-1,20,-1,22,-1,-1,24,-1,-1,26,-1,-1,-1,-1,-1],"split_conditions":[1.6214917E0,1.450184E-1,-2.5550714E-1,-8.94023E-2,1.9659061E0,-1.1059247E-1,2.8792942E-1,-2.592036E-1,2.2467092E-1,-1.1375875E-1,-1.0510193E-1,-2.876234E-1,-1.0854552E-1,-6.6055405E-1,-1.15472354E-1,8.632342E-1,-1.10730946E-1,-1.12291366E-1,1.3644491E-1,-9.896919E-2,-1.1082285E-1,-1.5941029E0,-1.1886574E-1,-1.2221231E-1,-1.17736116E-1,-1.1281908E-1,-1.22261144E-1],"split_indices":[5,11,1,11,4,0,1,11,10,0,0,0,0,6,0,9,0,0,0,0,0,3,0,0,0,0,0],"split_type":[0,0,0,0,0,0,0,0,0,0,0,0,0,0,0,0,0,0,0,0,0,0,0,0,0,0,0],"sum_hessian":[7.4571E4,2.2717E4,5.1854E4,1.984E4,2.877E3,5.59E2,5.1295E4,3.749E3,1.6091E4,2.403E3,4.74E2,5.0974E4,3.21E2,9.65E2,2.784E3,1.5723E4,3.68E2,2.79E2,5.0695E4,1.23E2,8.42E2,4.588E3,1.1135E4,4.9578E4,1.117E3,2.83E2,4.305E3],"tree_param":{"num_deleted":"0","num_feature":"12","num_nodes":"27","size_leaf_vector":"0"}},{"base_weights":[-3.5000312E-1],"categories":[],"categories_nodes":[],"categories_segments":[],"categories_sizes":[],"default_left":[0],"id":9,"left_children":[-1],"loss_changes":[0E0],"parents":[2147483647],"right_children":[-1],"split_conditions":[-1.0500094E-1],"split_indices":[0],"split_type":[0],"sum_hessian":[7.4571E4],"tree_param":{"num_deleted":"0","num_feature":"12","num_nodes":"1","size_leaf_vector":"0"}},{"base_weights":[-3.4999463E-1],"categories":[],"categories_nodes":[],"categories_segments":[],"categories_sizes":[],"default_left":[0],"id":10,"left_children":[-1],"loss_changes":[0E0],"parents":[2147483647],"right_children":[-1],"split_conditions":[-1.04998395E-1],"split_indices":[0],"split_type":[0],"sum_hessian":[7.4571E4],"tree_param":{"num_deleted":"0","num_feature":"12","num_nodes":"1","size_leaf_vector":"0"}},{"base_weights":[-3.4999722E-1],"categories":[],"categories_nodes":[],"categories_segments":[],"categories_sizes":[],"default_left":[0],"id":11,"left_children":[-1],"loss_changes":[0E0],"parents":[2147483647],"right_children":[-1],"split_conditions":[-1.0499917E-1],"split_indices":[0],"split_type":[0],"sum_hessian":[7.4571E4],"tree_param":{"num_deleted":"0","num_feature":"12","num_nodes":"1","size_leaf_vector":"0"}},{"base_weights":[-2.4437578E-1,-2.6280302E-1,-2.417304E-1,-2.8226876E-1,-2.4886453E-1,-2.4432738E-1,-2.2738162E-1,-3.055103E-1,-2.7063775E-1,-2.5869232E-1,-2.3215912E-1,-2.4418661E-1,-2.7186286E-1,-2.1006358E-1,-2.4016502E-1,-3.156348E-1,-2.762632E-1,-2.9437834E-1,-2.6604128E-1,-2.4600573E-1,-2.6395878E-1,-2.175667E-1,-2.348014E-1,-2.4631655E-1,-2.4265353E-1,-2.2344047E-1,-1.8321852E-1,-2.7726865E-1,-2.2938666E-1,-3.4634688E-1,-3.0711046E-1,-2.2263995E-1,-2.9941624E-1,-2.1709697E-1,-2.6757732E-1,-2.7486303E-1,-2.6078752E-1,-2.4109037E-1,-2.4718848E-1,-2.2979274E-1,-2.4287145E-1,-2.2768645E-1,-2.0595585E-1,-1.9456282E-1,-1.6959928E-1,-2.5658685E-1,-2.8399655E-1,-2.3719715E-1,-2.1386242E-1,-3.3256006E-1,-2.9924682E-1,-2.8062162E-1,-3.1573695E-1,-2.3594649E-1,-2.6915714E-1,-1.8560481E-1,-2.4157408E-1,-2.509503E-1,-2.4620213E-1,-1.8720694E-1,-2.3356909E-1,-2.528958E-1,-2.2434898E-1,-1.9726053E-1,-2.2345829E-1,-2.0076863E-1,-1.7895709E-1,-1.6234295E-1,-1.9310333E-1,-2.3980543E-1,-2.2923394E-1,-2.1833926E-1,-1.991891E-1],"categories":[],"categories_nodes":[],"categories_segments":[],"categories_sizes":[],"default_left":[1,1,1,1,1,1,1,1,1,1,1,1,0,1,1,1,0,1,1,0,1,0,0,1,1,1,1,1,1,0,1,0,1,0,1,0,0,1,1,1,0,1,1,1,1,0,0,1,1,0,0,0,0,0,0,0,0,0,0,0,0,0,0,0,0,0,0,0,0,0,0,0,0],"id":12,"left_children":[1,3,5,7,9,11,13,15,17,19,21,23,-1,25,27,29,-1,31,33,-1,35,-1,-1,37,39,41,43,45,47,-1,49,-1,51,-1,53,-1,-1,55,57,59,-1,61,63,65,67,-1,-1,69,71,-1,-1,-1,-1,-1,-1,-1,-1,-1,-1,-1,-1,-1,-1,-1,-1,-1,-1,-1,-1,-1,-1,-1,-1],"loss_changes":[3.5717773E0,2.4666138E0,2.375E0,9.699402E-1,8.3584595E-1,1.4746094E-1,2.1655884E0,2.950821E-1,2.0584106E-1,1.6404724E-1,2.722168E-2,1.19628906E-1,0E0,1.4884796E0,2.2367249E0,1.4286804E-1,0E0,8.259964E-2,1.0668945E-1,0E0,1.159668E-2,0E0,0E0,4.4921875E-2,3.3935547E-2,1.638031E-1,1.8669891E-1,1.0662079E-1,4.9041748E-1,0E0,5.1376343E-2,0E0,2.8877258E-2,0E0,4.2495728E-2,0E0,0E0,4.423523E-2,1.0864258E-2,4.5045853E-2,0E0,1.3459015E-1,4.1906357E-2,3.8547516E-2,8.0192566E-2,0E0,0E0,6.500244E-3,5.530548E-2,0E0,0E0,0E0,0E0,0E0,0E0,0E0,0E0,0E0,0E0,0E0,0E0,0E0,0E0,0E0,0E0,0E0,0E0,0E0,0E0,0E0,0E0,0E0,0E0],"parents":[2147483647,0,0,1,1,2,2,3,3,4,4,5,5,6,6,7,7,8,8,9,9,10,10,11,11,13,13,14,14,15,15,17,17,18,18,20,20,23,23,24,24,25,25,26,26,27,27,28,28,30,30,32,32,34,34,37,37,38,38,39,39,41,41,42,42,43,43,44,44,47,47,48,48],"right_children":[2,4,6,8,10,12,14,16,18,20,22,24,-1,26,28,30,-1,32,34,-1,36,-1,-1,38,40,42,44,46,48,-1,50,-1,52,-1,54,-1,-1,56,58,60,-1,62,64,66,68,-1,-1,70,72,-1,-1,-1,-1,-1,-1,-1,-1,-1,-1,-1,-1,-1,-1,-1,-1,-1,-1,-1,-1,-1,-1,-1,-1],"split_conditions":[-8.3206184E-2,9.8892915E-1,5.9044607E-2,-3.236342E-1,-2.3233085E-3,4.555855E-1,9.708564E-1,9.4236404E-1,-1.7764682E-1,-2.2001661E-1,9.9432915E-1,-3.6509386E-3,-8.155886E-2,2.500925E-1,-5.0136484E-2,-5.653501E-1,-8.287896E-2,-5.706485E-1,-4.7174238E-2,-7.380172E-2,9.936155E-1,-6.5270014E-2,-7.044042E-2,2.059001E-1,-9.968141E-2,1.3396198E-1,4.149021E-1,-4.3586352E-1,9.188168E-2,-1.0390407E-1,-3.1761563E-1,-6.679199E-2,7.1722835E-2,-6.5129094E-2,-4.6769798E-1,-8.245891E-2,-7.823626E-2,-5.7400596E-1,-2.8802162E-2,-3.48975E-2,-7.286144E-2,1.2582566E0,2.143365E-2,2.3036337E-1,7.810658E-1,-7.697606E-2,-8.519897E-2,5.1084455E-2,1.8318433E-1,-9.976802E-2,-8.977405E-2,-8.418649E-2,-9.472109E-2,-7.078395E-2,-8.074714E-2,-5.5681445E-2,-7.247223E-2,-7.528509E-2,-7.386064E-2,-5.6162085E-2,-7.007073E-2,-7.586874E-2,-6.730469E-2,-5.9178162E-2,-6.703749E-2,-6.0230594E-2,-5.368713E-2,-4.870289E-2,-5.7931002E-2,-7.194163E-2,-6.8770185E-2,-6.550178E-2,-5.975673E-2],"split_indices":[1,6,1,1,10,0,6,6,11,0,6,1,0,1,10,1,0,7,2,0,6,0,0,5,0,11,1,0,10,0,11,0,10,0,0,0,0,3,1,5,0,5,10,11,6,0,0,10,10,0,0,0,0,0,0,0,0,0,0,0,0,0,0,0,0,0,0,0,0,0,0,0,0],"split_type":[0,0,0,0,0,0,0,0,0,0,0,0,0,0,0,0,0,0,0,0,0,0,0,0,0,0,0,0,0,0,0,0,0,0,0,0,0,0,0,0,0,0,0,0,0,0,0,0,0,0,0,0,0,0,0,0,0,0,0,0,0,0,0,0,0,0,0,0,0,0,0,0,0],"sum_hessian":[7.4571E4,9.349E3,6.5222E4,3.893E3,5.456E3,5.5213E4,1.0009E4,1.29E3,2.603E3,3.426E3,2.03E3,5.4942E4,2.71E2,4.258E3,5.751E3,9.51E2,3.39E2,4.12E2,2.191E3,1.019E3,2.407E3,3.24E2,1.706E3,2.2928E4,3.2014E4,2.837E3,1.421E3,1.289E3,4.462E3,1.98E2,7.53E2,3E1,3.82E2,7.1E1,2.12E3,5.23E2,1.884E3,3.318E3,1.961E4,5.51E2,3.1463E4,2.273E3,5.64E2,7.68E2,6.53E2,3.26E2,9.63E2,2.959E3,1.503E3,1.68E2,5.85E2,1.86E2,1.96E2,1.08E2,2.012E3,3.2E1,3.286E3,4.021E3,1.5589E4,4.9E1,5.02E2,2.57E2,2.016E3,3.85E2,1.79E2,5.41E2,2.27E2,5.05E2,1.48E2,2.207E3,7.52E2,1.141E3,3.62E2],"tree_param":{"num_deleted":"0","num_feature":"12","num_nodes":"73","size_leaf_vector":"0"}},{"base_weights":[-2.4547914E-1,-2.3049644E-1,-2.482976E-1,-2.3662761E-1,-2.0260179E-1,-2.7152535E-1,-2.4627668E-1,-2.199389E-1,-2.477395E-1,-2.1050574E-1,-1.8967597E-1,-2.851336E-1,-2.6336578E-1,-2.4519514E-1,-2.7789903E-1,-1.930442E-1,-2.3028353E-1,-2.862407E-1,-2.3896053E-1,-1.9306642E-1,-2.1254846E-1,-1.8418576E-1,-2.4340874E-1,-2.91415E-1,-2.4571629E-1,-2.4530025E-1,-2.6658103E-1,-2.4615146E-1,-2.0710735E-1,-2.6250482E-1,-3.032022E-1,-1.6410896E-1,-2.0267718E-1,-2.7166778E-1,-2.2804995E-1,-3.0079195E-1,-2.767885E-1,-2.4757512E-1,-2.3190323E-1,-1.8303734E-1,-2.3767467E-1,-1.8722063E-1,-1.4936933E-1,-2.684657E-1,-2.9694325E-1,-2.1670358E-1,-2.5414622E-1,-2.3325163E-1,-2.5687703E-1,-2.654001E-1,-3.1865704E-1,-2.4606793E-1,-3.321418E-1,-2.746877E-1,-2.0359603E-1,-2.742385E-1,-2.4732485E-1,-2.787882E-1,-3.228201E-1,-2.0843299E-1,-1.5744175E-1,-2.3491186E-1,-1.9563907E-1,-2.2686648E-1,-2.638431E-1,-2.5465453E-1,-2.433977E-1,-2.186584E-1,-2.3464741E-1,-1.6971494E-1,-1.9020312E-1,-3.1053278E-1,-2.8093362E-1,-2.73135E-1,-2.6071066E-1,-2.7756524E-1,-2.4586594E-1,-2.3481007E-1,-3.0414054E-1,-2.088603E-1,-1.9498321E-1,-2.5842288E-1,-2.8279406E-1,-2.1839549E-1,-2.522189E-1,-2.4624589E-1,-2.8840917E-1],"categories":[],"categories_nodes":[],"categories_segments":[],"categories_sizes":[],"default_left":[1,1,1,1,1,1,1,1,1,1,1,1,1,1,1,1,1,1,1,1,0,1,0,1,1,1,1,1,1,1,1,1,1,0,1,0,0,1,1,0,0,1,0,0,1,0,0,0,0,1,0,1,0,1,1,1,1,1,0,0,0,0,0,0,0,0,0,0,0,0,0,0,0,0,0,0,0,0,0,0,0,0,0,0,0,0,0],"id":13,"left_children":[1,3,5,7,9,11,13,15,17,19,21,23,25,27,29,31,33,35,37,39,-1,41,-1,43,45,47,49,51,53,55,57,59,61,-1,63,-1,-1,65,67,-1,-1,69,-1,-1,71,-1,-1,-1,-1,73,-1,75,-1,77,79,81,83,85,-1,-1,-1,-1,-1,-1,-1,-1,-1,-1,-1,-1,-1,-1,-1,-1,-1,-1,-1,-1,-1,-1,-1,-1,-1,-1,-1,-1,-1],"loss_changes":[3.0922852E0,1.9738159E0,2.878662E0,1.7415771E0,1.7839813E-1,4.8153687E-1,1.90625E0,1.0350189E0,1.894043E0,5.8784485E-3,1.973648E-1,3.9064026E-1,1.1740112E-1,1.9831543E0,6.612854E-1,2.6888657E-1,1.9657898E-1,6.4315796E-2,2.3040771E-1,2.3156643E-2,0E0,5.1179886E-2,0E0,1.23916626E-1,9.24778E-3,8.150101E-3,7.902527E-2,3.0932617E-1,2.7012253E-1,1.4413452E-1,2.5149536E-1,4.8747063E-2,1.3757706E-1,0E0,5.281067E-2,0E0,0E0,6.2561035E-4,4.385376E-2,0E0,0E0,3.4828186E-3,0E0,0E0,1.9210815E-1,0E0,0E0,0E0,0E0,2.3361206E-2,0E0,2.783203E-1,0E0,4.928112E-3,1.8669128E-2,1.6498566E-2,1.9813538E-2,3.0735016E-2,0E0,0E0,0E0,0E0,0E0,0E0,0E0,0E0,0E0,0E0,0E0,0E0,0E0,0E0,0E0,0E0,0E0,0E0,0E0,0E0,0E0,0E0,0E0,0E0,0E0,0E0,0E0,0E0,0E0],"parents":[2147483647,0,0,1,1,2,2,3,3,4,4,5,5,6,6,7,7,8,8,9,9,10,10,11,11,12,12,13,13,14,14,15,15,16,16,17,17,18,18,19,19,21,21,23,23,24,24,25,25,26,26,27,27,28,28,29,29,30,30,31,31,32,32,34,34,37,37,38,38,41,41,44,44,49,49,51,51,53,53,54,54,55,55,56,56,57,57],"right_children":[2,4,6,8,10,12,14,16,18,20,22,24,26,28,30,32,34,36,38,40,-1,42,-1,44,46,48,50,52,54,56,58,60,62,-1,64,-1,-1,66,68,-1,-1,70,-1,-1,72,-1,-1,-1,-1,74,-1,76,-1,78,80,82,84,86,-1,-1,-1,-1,-1,-1,-1,-1,-1,-1,-1,-1,-1,-1,-1,-1,-1,-1,-1,-1,-1,-1,-1,-1,-1,-1,-1,-1,-1],"split_conditions":[-3.7469722E-2,1.2588835E-1,-4.7686227E-2,8.828722E-1,2.1996233E-1,-1.371566E-1,6.2331784E-1,-2.3813856E-1,-1.1326654E-1,-1.6159552E-1,7.831154E-1,8.743566E-1,5.3937715E-2,9.036835E-2,2.6917386E-1,-5.3980947E-1,3.4830284E-1,9.758619E-1,2.5434485E-2,4.036817E-1,-6.376454E-2,2.786746E0,-7.302263E-2,1.7630124E-1,7.166183E-2,3.6593756E-1,2.7573538E-1,2.2978282E0,8.619703E-1,-4.702307E-1,-8.028639E-1,-9.119668E-1,3.6335194E-1,-8.150034E-2,4.348659E0,-9.023759E-2,-8.303656E-2,-1.2739175E-2,-1.719401E-1,-5.4911204E-2,-7.130241E-2,-1.6626388E-1,-4.48108E-2,-8.053971E-2,9.615457E-1,-6.501108E-2,-7.624387E-2,-6.9975495E-2,-7.706311E-2,9.938367E-1,-9.559712E-2,-1.0412638E0,-9.964254E-2,7.848379E-2,1.9625196E-1,1.00450814E-1,8.860847E-2,-9.6189094E-1,-9.684604E-2,-6.25299E-2,-4.7232527E-2,-7.047356E-2,-5.8691725E-2,-6.805995E-2,-7.915293E-2,-7.639636E-2,-7.301931E-2,-6.559753E-2,-7.0394225E-2,-5.0914485E-2,-5.706094E-2,-9.315984E-2,-8.428009E-2,-8.19405E-2,-7.82132E-2,-8.3269574E-2,-7.375979E-2,-7.044303E-2,-9.1242164E-2,-6.2658094E-2,-5.8494966E-2,-7.752687E-2,-8.483822E-2,-6.551865E-2,-7.5665675E-2,-7.387377E-2,-8.652276E-2],"split_indices":[0,11,11,6,11,11,4,0,11,10,8,8,0,11,0,0,5,9,11,1,0,4,0,0,0,6,10,3,6,6,8,8,5,0,5,0,0,11,3,0,0,10,0,0,9,0,0,0,0,9,0,3,0,0,11,0,5,8,0,0,0,0,0,0,0,0,0,0,0,0,0,0,0,0,0,0,0,0,0,0,0,0,0,0,0,0,0],"split_type":[0,0,0,0,0,0,0,0,0,0,0,0,0,0,0,0,0,0,0,0,0,0,0,0,0,0,0,0,0,0,0,0,0,0,0,0,0,0,0,0,0,0,0,0,0,0,0,0,0,0,0,0,0,0,0,0,0,0,0,0,0,0,0,0,0,0,0,0,0,0,0,0,0,0,0,0,0,0,0,0,0,0,0,0,0,0,0],"sum_hessian":[7.4571E4,1.182E4,6.2751E4,9.684E3,2.136E3,5.012E3,5.7739E4,3.879E3,5.805E3,1.316E3,8.2E2,1.866E3,3.146E3,5.5838E4,1.901E3,1.083E3,2.796E3,1.072E3,4.733E3,1.48E2,1.168E3,7.48E2,7.2E1,1.604E3,2.62E2,4.87E2,2.659E3,5.4465E4,1.373E3,1.189E3,7.12E2,2.75E2,8.08E2,1.37E2,2.659E3,4.1E2,6.62E2,2.116E3,2.617E3,1.25E2,2.3E1,6.84E2,6.4E1,3.21E2,1.283E3,6.5E1,1.97E2,2.49E2,2.38E2,2.606E3,5.3E1,5.4416E4,4.9E1,6.4E1,1.309E3,6.61E2,5.28E2,3.24E2,3.88E2,3.2E1,2.43E2,1.39E2,6.69E2,2.581E3,7.8E1,7.63E2,1.353E3,4.63E2,2.154E3,1.08E2,5.76E2,6.84E2,5.99E2,9.62E2,1.644E3,3.38E2,5.4078E4,3.1E1,3.3E1,7.98E2,5.11E2,2.43E2,4.18E2,8.3E1,4.45E2,8E1,2.44E2],"tree_param":{"num_deleted":"0","num_feature":"12","num_nodes":"87","size_leaf_vector":"0"}},{"base_weights":[-2.8140447E-1,-2.8266478E-1,-2.6497573E-1,-2.6607597E-1,-2.838758E-1,-2.6855412E-1,-2.4465074E-1,-2.3649843E-1,-2.6791334E-1,-2.793315E-1,-2.8529063E-1,-2.3520419E-1,-2.6933247E-1,-2.509042E-1,-2.2310345E-1,-2.6907104E-1,-2.4574065E-1,-2.803316E-1,-2.6913843E-1,-2.8591517E-1,-2.813134E-1,-2.703874E-1,-2.5100306E-1,-2.3092557E-1,-2.6962256E-1,-2.8052822E-1,-2.3666152E-1,-2.2070926E-1,-2.7011135E-1,-2.5402606E-1,-2.8601095E-1,-2.6241815E-1,-2.7251264E-1,-2.8464362E-1,-2.7861774E-1],"categories":[],"categories_nodes":[],"categories_segments":[],"categories_sizes":[],"default_left":[1,1,1,1,1,1,1,0,1,1,1,0,1,0,0,1,0,1,1,1,0,0,0,0,1,1,0,0,0,0,0,0,0,0,0],"id":14,"left_children":[1,3,5,7,9,11,13,-1,15,17,19,-1,21,-1,-1,23,-1,25,27,29,-1,-1,-1,-1,31,33,-1,-1,-1,-1,-1,-1,-1,-1,-1],"loss_changes":[1.4697266E0,1.3154297E0,3.218689E-1,1.9354248E-1,3.3544922E-1,5.4016113E-2,5.303192E-2,0E0,4.7943115E-2,8.105469E-2,4.1748047E-2,0E0,1.7456055E-2,0E0,0E0,2.633667E-2,0E0,5.3588867E-2,6.248474E-3,5.6884766E-2,0E0,0E0,0E0,0E0,1.4831543E-2,3.0029297E-2,0E0,0E0,0E0,0E0,0E0,0E0,0E0,0E0,0E0],"parents":[2147483647,0,0,1,1,2,2,3,3,4,4,5,5,6,6,8,8,9,9,10,10,12,12,15,15,17,17,18,18,19,19,24,24,25,25],"right_children":[2,4,6,8,10,12,14,-1,16,18,20,-1,22,-1,-1,24,-1,26,28,30,-1,-1,-1,-1,32,34,-1,-1,-1,-1,-1,-1,-1,-1,-1],"split_conditions":[1.0505662E-1,-1.0787684E-1,2.9126632E-1,-2.6138544E0,1.608223E0,-3.5332727E-1,2.7513912E0,-7.094953E-2,2.8591734E-1,3.4689105E-1,3.6034045E0,-7.056126E-2,2.0433088E-1,-7.527126E-2,-6.693104E-2,-3.2016996E-1,-7.37222E-2,3.8343614E-1,-4.0462077E-1,-3.878992E-2,-8.439402E-2,-8.111623E-2,-7.530092E-2,-6.9277674E-2,-2.3785406E-1,6.64896E-1,-7.099846E-2,-6.621278E-2,-8.103341E-2,-7.620782E-2,-8.5803285E-2,-7.872545E-2,-8.17538E-2,-8.5393086E-2,-8.358532E-2],"split_indices":[11,11,11,4,5,10,4,0,10,1,5,0,10,0,0,10,0,10,10,2,0,0,0,0,11,6,0,0,0,0,0,0,0,0,0],"split_type":[0,0,0,0,0,0,0,0,0,0,0,0,0,0,0,0,0,0,0,0,0,0,0,0,0,0,0,0,0,0,0,0,0,0,0],"sum_hessian":[7.4571E4,6.9243E4,5.328E3,4.726E3,6.4517E4,4.52E3,8.08E2,2.84E2,4.442E3,1.5365E4,4.9152E4,1.1E2,4.41E3,6.18E2,1.9E2,4.211E3,2.31E2,1.3968E4,1.397E3,4.242E4,6.732E3,4.157E3,2.53E2,6.6E1,4.145E3,1.39E4,6.8E1,3.2E1,1.365E3,1.35E2,4.2285E4,1.213E3,2.932E3,4.36E3,9.54E3],"tree_param":{"num_deleted":"0","num_feature":"12","num_nodes":"35","size_leaf_vector":"0"}},{"base_weights":[-2.4500358E-1],"categories":[],"categories_nodes":[],"categories_segments":[],"categories_sizes":[],"default_left":[0],"id":15,"left_children":[-1],"loss_changes":[0E0],"parents":[2147483647],"right_children":[-1],"split_conditions":[-7.350108E-2],"split_indices":[0],"split_type":[0],"sum_hessian":[7.4571E4],"tree_param":{"num_deleted":"0","num_feature":"12","num_nodes":"1","size_leaf_vector":"0"}},{"base_weights":[-2.4499765E-1],"categories":[],"categories_nodes":[],"categories_segments":[],"categories_sizes":[],"default_left":[0],"id":16,"left_children":[-1],"loss_changes":[0E0],"parents":[2147483647],"right_children":[-1],"split_conditions":[-7.34993E-2],"split_indices":[0],"split_type":[0],"sum_hessian":[7.4571E4],"tree_param":{"num_deleted":"0","num_feature":"12","num_nodes":"1","size_leaf_vector":"0"}},{"base_weights":[-2.4499947E-1],"categories":[],"categories_nodes":[],"categories_segments":[],"categories_sizes":[],"default_left":[0],"id":17,"left_children":[-1],"loss_changes":[0E0],"parents":[2147483647],"right_children":[-1],"split_conditions":[-7.349984E-2],"split_indices":[0],"split_type":[0],"sum_hessian":[7.4571E4],"tree_param":{"num_deleted":"0","num_feature":"12","num_nodes":"1","size_leaf_vector":"0"}},{"base_weights":[-1.7109905E-1,-1.8251726E-1,-1.6895641E-1,-1.9152759E-1,-1.7396966E-1,-1.7090309E-1,-1.596887E-1,-2.0755747E-1,-1.8111947E-1,-1.8497375E-1,-1.6619682E-1,-1.707907E-1,-1.838635E-1,-1.4919879E-1,-1.6833685E-1,-2.3282516E-1,-2.0427439E-1,-1.9819507E-1,-1.790892E-1,-1.8974037E-1,-1.8116178E-1,-1.7087011E-1,-1.5933913E-1,-1.6969754E-1,-1.7208652E-1,-1.7859477E-1,-2.2866076E-1,-1.5908279E-1,-1.3030663E-1,-1.9213898E-1,-1.6013142E-1,-1.8278992E-1,-2.0864016E-1,-1.8761508E-1,-2.3072436E-1,-1.5293099E-1,-1.8013093E-1,-1.6818011E-1,-1.8067102E-1,-1.5757903E-1,-1.7233436E-1,-1.6985415E-1,-1.4369282E-1,-1.6333692E-1,-1.7243578E-1,-1.8166327E-1,-1.5019698E-1,-1.6256689E-1,-1.4878705E-1,-1.3690627E-1,-1.17882736E-1,-2.0167232E-1,-1.8207197E-1,-1.6449378E-1,-1.4727567E-1,-1.7381679E-1,-2.0819223E-1,-2.1209386E-1,-1.8908158E-1,-1.406772E-1,-1.9072045E-1,-1.3579026E-1,-1.8073143E-1,-1.797152E-1,-1.6967547E-1,-1.1687966E-1,-1.6382216E-1,-1.7032519E-1,-1.7358011E-1,-1.7669763E-1,-2.1560545E-1,-1.9055337E-1,-1.5994795E-1,-1.1370823E-1,-1.5146738E-1,-1.3320316E-1,-1.5597571E-1,-1.130388E-1,-1.42035E-1,-1.5961087E-1,-1.689262E-1,-1.521482E-1,-1.3985397E-1],"categories":[],"categories_nodes":[],"categories_segments":[],"categories_sizes":[],"default_left":[1,1,1,1,1,1,1,1,1,1,1,1,1,1,1,0,1,1,1,0,0,1,1,1,1,1,0,1,1,1,1,1,1,1,0,0,1,0,0,0,0,1,0,1,1,1,0,1,1,1,1,0,0,1,1,0,0,0,0,0,0,0,0,0,0,0,0,0,0,0,0,0,0,0,0,0,0,0,0,0,0,0,0],"id":18,"left_children":[1,3,5,7,9,11,13,15,17,19,21,23,25,27,29,-1,31,33,35,-1,-1,37,39,41,43,45,-1,47,49,51,53,55,57,59,-1,-1,61,-1,-1,-1,-1,63,-1,65,67,69,-1,71,73,75,77,-1,-1,79,81,-1,-1,-1,-1,-1,-1,-1,-1,-1,-1,-1,-1,-1,-1,-1,-1,-1,-1,-1,-1,-1,-1,-1,-1,-1,-1,-1,-1],"loss_changes":[1.793457E0,8.731384E-1,1.105835E0,9.1674805E-1,4.868164E-1,4.4311523E-2,9.65271E-1,1.3867188E-1,8.5006714E-2,1.0986328E-2,8.673096E-2,4.3701172E-2,6.1361313E-2,9.0208435E-1,1.136383E0,0E0,1.4898682E-1,8.0610275E-2,5.7395935E-2,0E0,0E0,2.5009155E-2,6.149292E-3,8.959961E-2,4.3518066E-2,6.872177E-3,0E0,9.2033386E-2,1.234951E-1,1.0983276E-1,2.2533417E-1,4.245186E-2,7.141876E-2,1.354599E-2,0E0,0E0,5.5122375E-2,0E0,0E0,0E0,0E0,1.8493652E-2,0E0,1.5926361E-3,2.4902344E-2,2.072525E-2,0E0,1.4616394E-1,6.090927E-2,5.7325363E-2,5.390644E-2,0E0,0E0,4.4761658E-2,1.9838333E-2,0E0,0E0,0E0,0E0,0E0,0E0,0E0,0E0,0E0,0E0,0E0,0E0,0E0,0E0,0E0,0E0,0E0,0E0,0E0,0E0,0E0,0E0,0E0,0E0,0E0,0E0,0E0,0E0],"parents":[2147483647,0,0,1,1,2,2,3,3,4,4,5,5,6,6,7,7,8,8,9,9,10,10,11,11,12,12,13,13,14,14,16,16,17,17,18,18,21,21,22,22,23,23,24,24,25,25,27,27,28,28,29,29,30,30,31,31,32,32,33,33,36,36,41,41,43,43,44,44,45,45,47,47,48,48,49,49,50,50,53,53,54,54],"right_children":[2,4,6,8,10,12,14,16,18,20,22,24,26,28,30,-1,32,34,36,-1,-1,38,40,42,44,46,-1,48,50,52,54,56,58,60,-1,-1,62,-1,-1,-1,-1,64,-1,66,68,70,-1,72,74,76,78,-1,-1,80,82,-1,-1,-1,-1,-1,-1,-1,-1,-1,-1,-1,-1,-1,-1,-1,-1,-1,-1,-1,-1,-1,-1,-1,-1,-1,-1,-1,-1],"split_conditions":[-4.0732116E-2,9.8892915E-1,4.4154875E-2,-1.8376997E-1,-3.8614772E-2,2.0445612E-1,9.708564E-1,-3.0423924E-1,-1.2153068E-1,9.9739707E-1,3.0712547E-2,2.0355009E-2,9.3079066E-1,2.1185666E-1,-5.19873E-3,-6.9847554E-2,-2.951339E-1,8.830354E-1,-4.0567186E-2,-5.6922115E-2,-5.4348536E-2,4.0751275E-1,8.3204067E-1,7.6735914E-2,-9.929519E-3,1.2679296E0,-6.859823E-2,7.546285E-2,4.3277088E-1,-1.4433098E-1,1.0874824E-1,1.6585696E0,9.820852E-1,-7.617328E-1,-6.921731E-2,-4.5879297E-2,-8.813708E-1,-5.0454035E-2,-5.420131E-2,-4.7273714E-2,-5.170031E-2,-3.891311E-2,-4.310785E-2,-3.8882887E-1,-4.3872547E-1,1.5780348E-1,-4.5059096E-2,1.1646352E0,-5.0459698E-2,4.2890692E-1,8.741025E-1,-6.05017E-2,-5.4621592E-2,-2.8287344E-2,4.3429755E-2,-5.2145038E-2,-6.245767E-2,-6.362816E-2,-5.6724478E-2,-4.2203162E-2,-5.7216138E-2,-4.0737078E-2,-5.4219432E-2,-5.3914562E-2,-5.0902642E-2,-3.50639E-2,-4.914665E-2,-5.109756E-2,-5.2074034E-2,-5.300929E-2,-6.468164E-2,-5.7166014E-2,-4.7984388E-2,-3.411247E-2,-4.5440216E-2,-3.996095E-2,-4.6792716E-2,-3.391164E-2,-4.26105E-2,-4.788326E-2,-5.0677862E-2,-4.5644462E-2,-4.1956194E-2],"split_indices":[1,6,1,1,10,0,6,11,11,6,10,8,7,1,10,0,0,7,2,0,0,0,0,11,11,4,0,11,1,10,10,4,6,7,0,0,4,0,0,0,0,11,0,0,6,11,0,5,5,0,1,0,0,0,11,0,0,0,0,0,0,0,0,0,0,0,0,0,0,0,0,0,0,0,0,0,0,0,0,0,0,0,0],"split_type":[0,0,0,0,0,0,0,0,0,0,0,0,0,0,0,0,0,0,0,0,0,0,0,0,0,0,0,0,0,0,0,0,0,0,0,0,0,0,0,0,0,0,0,0,0,0,0,0,0,0,0,0,0,0,0,0,0,0,0,0,0,0,0,0,0,0,0,0,0,0,0,0,0,0,0,0,0,0,0,0,0,0,0],"sum_hessian":[7.4571E4,1.1769E4,6.2802E4,5.719E3,6.05E3,5.1886E4,1.0916E4,2.244E3,3.475E3,2.495E3,3.555E3,5.1454E4,4.32E2,4.941E3,5.975E3,2.5E2,1.994E3,3.59E2,3.116E3,1.087E3,1.408E3,2.1E3,1.455E3,2.7981E4,2.3473E4,3.91E2,4.1E1,3.239E3,1.702E3,1.526E3,4.449E3,3.44E2,1.65E3,2.76E2,8.3E1,1.25E2,2.991E3,1.662E3,4.38E2,1.293E3,1.62E2,2.7808E4,1.73E2,9.19E2,2.2554E4,3.48E2,4.3E1,2.409E3,8.3E2,1.105E3,5.97E2,7.74E2,7.52E2,3.313E3,1.136E3,2.6E2,8.4E1,1.394E3,2.56E2,2E1,2.56E2,4.3E1,2.948E3,4.77E2,2.7331E4,1.2E1,9.07E2,7.982E3,1.4572E4,3.09E2,3.9E1,2E2,2.209E3,6.2E1,7.68E2,9.32E2,1.73E2,5.02E2,9.5E1,1.594E3,1.719E3,6.74E2,4.62E2],"tree_param":{"num_deleted":"0","num_feature":"12","num_nodes":"83","size_leaf_vector":"0"}},{"base_weights":[-1.7187889E-1,-1.6983105E-1,-1.8304151E-1,-1.7106862E-1,-1.4825875E-1,-1.963557E-1,-1.7137025E-1,-1.4448553E-1,-1.7170747E-1,-1.4246507E-1,-1.6196305E-1,-1.8972118E-1,-2.1495214E-1,-1.8285517E-1,-1.4689904E-1,-1.3229944E-1,-1.6522421E-1,-2.0395291E-1,-1.7121167E-1,-1.3191478E-1,-1.5150408E-1,-1.7638037E-1,-1.5622695E-1,-1.8340968E-1,-1.9630009E-1,-1.9699612E-1,-2.2968236E-1,-1.7984931E-1,-1.9596842E-1,-1.4033148E-1,-1.5623406E-1,-1.1863914E-1,-1.4148358E-1,-1.4254512E-1,-1.7585884E-1,-2.0456074E-1,-9.9272706E-2,-1.5980385E-1,-1.7161994E-1,-1.4217237E-1,-1.2595339E-1,-1.4411943E-1,-1.5576221E-1,-1.3345334E-1,-1.575947E-1,-1.692334E-1,-1.8585324E-1,-1.7531298E-1,-1.9818437E-1,-1.2909229E-1,-2.1332711E-1,-2.1934155E-1,-2.468234E-1,-1.8307324E-1,-1.7102067E-1,-1.4437918E-1,-1.3547224E-1,-1.4454241E-1,-1.5904073E-1,-1.07448846E-1,-1.2539373E-1,-1.1659937E-1,-1.475455E-1,-1.0332437E-1,-1.4828467E-1,-1.6119279E-1,-2.0125723E-1,-2.1553043E-1,-1.9991578E-1,-1.6076155E-1,-9.394363E-2,-1.6987376E-1,-1.7320757E-1,-1.3120158E-1,-1.0914144E-1,-1.8632409E-1,-1.4452308E-1,-1.672626E-1,-2.0959122E-1,-1.6750352E-1,-1.9923902E-1,-1.2062905E-1,-1.4641833E-1,-1.8255255E-1,-2.1974953E-1,-1.9061878E-1,-1.8076585E-1,-1.5009858E-1,-1.3757303E-1,-1.488783E-1,-1.3159887E-1],"categories":[],"categories_nodes":[],"categories_segments":[],"categories_sizes":[],"default_left":[1,1,1,1,1,1,1,1,1,1,1,1,1,1,1,1,1,1,1,1,1,0,1,1,1,1,1,1,0,1,1,1,1,1,1,1,0,1,1,0,1,0,0,0,0,0,1,1,1,1,1,0,0,1,0,1,1,0,0,0,0,0,0,0,0,0,0,0,0,0,0,0,0,0,0,0,0,0,0,0,0,0,0,0,0,0,0,0,0,0,0],"id":19,"left_children":[1,3,5,7,9,11,13,15,17,19,21,23,25,27,29,31,33,35,37,39,41,-1,43,45,47,49,51,53,-1,55,57,59,61,63,65,67,-1,69,71,-1,73,-1,-1,-1,-1,-1,75,77,79,81,83,-1,-1,85,-1,87,89,-1,-1,-1,-1,-1,-1,-1,-1,-1,-1,-1,-1,-1,-1,-1,-1,-1,-1,-1,-1,-1,-1,-1,-1,-1,-1,-1,-1,-1,-1,-1,-1,-1,-1],"loss_changes":[1.6738281E0,1.6573486E0,1.7606506E0,9.873047E-1,2.4902344E-1,6.2387085E-1,1.7047119E0,3.3321762E-1,8.955078E-1,2.1051025E-1,5.605316E-2,1.2922668E-1,3.2743073E-1,1.2986755E-1,9.903717E-2,9.487152E-2,9.9383354E-2,3.5427094E-2,2.3962402E-1,5.0764084E-2,1.82724E-2,0E0,1.7681122E-3,3.942108E-2,4.1732788E-2,6.8439865E-1,8.198929E-2,6.603241E-2,0E0,3.414154E-3,3.4618378E-3,1.4039993E-2,6.2293053E-2,2.2947073E-2,9.681511E-2,1.2435913E-3,0E0,1.1072922E-1,1.2402344E-1,0E0,4.9120903E-2,0E0,0E0,0E0,0E0,0E0,6.8359375E-3,1.1303425E-2,2.3803711E-2,9.6035004E-4,6.1870575E-2,0E0,0E0,8.911133E-3,0E0,3.5629272E-3,8.811951E-3,0E0,0E0,0E0,0E0,0E0,0E0,0E0,0E0,0E0,0E0,0E0,0E0,0E0,0E0,0E0,0E0,0E0,0E0,0E0,0E0,0E0,0E0,0E0,0E0,0E0,0E0,0E0,0E0,0E0,0E0,0E0,0E0,0E0,0E0],"parents":[2147483647,0,0,1,1,2,2,3,3,4,4,5,5,6,6,7,7,8,8,9,9,10,10,11,11,12,12,13,13,14,14,15,15,16,16,17,17,18,18,19,19,20,20,22,22,23,23,24,24,25,25,26,26,27,27,29,29,30,30,31,31,32,32,33,33,34,34,35,35,37,37,38,38,40,40,46,46,47,47,48,48,49,49,50,50,53,53,55,55,56,56],"right_children":[2,4,6,8,10,12,14,16,18,20,22,24,26,28,30,32,34,36,38,40,42,-1,44,46,48,50,52,54,-1,56,58,60,62,64,66,68,-1,70,72,-1,74,-1,-1,-1,-1,-1,76,78,80,82,84,-1,-1,86,-1,88,90,-1,-1,-1,-1,-1,-1,-1,-1,-1,-1,-1,-1,-1,-1,-1,-1,-1,-1,-1,-1,-1,-1,-1,-1,-1,-1,-1,-1,-1,-1,-1,-1,-1,-1],"split_conditions":[4.9293734E-2,7.689099E-2,9.664044E-1,-8.443581E-1,-1.8097001E-1,3.471769E-1,2.54797E-3,-3.3304673E-1,-1.5445063E-1,9.75875E-1,-3.2802618E-1,1.1632848E-1,4.5333278E-1,3.4671545E-1,6.621908E-2,-3.4880373E-1,-8.148339E-1,1.535442E0,-9.375344E-2,-3.2870997E-2,-7.115613E-1,-5.2914113E-2,-2.1243113E-1,-8.701174E-1,6.650042E-1,-5.228862E-2,4.9870253E-1,-3.254983E-2,-5.8790527E-2,9.898889E-1,9.8322487E-1,3.3718884E-1,-4.493391E-1,-4.5792675E-1,6.725706E-2,9.664533E-1,-2.9781813E-2,2.9960747E0,-2.7424865E-3,-4.2651713E-2,1.5912005E0,-4.323583E-2,-4.6728663E-2,-4.0036004E-2,-4.727841E-2,-5.0770022E-2,3.4493575E0,-2.18276E-1,-2.1480846E0,3.8868964E-1,-9.4389623E-1,-6.580247E-2,-7.404702E-2,9.9305165E-1,-5.1306203E-2,1.848279E-1,3.3470273E-2,-4.3362726E-2,-4.771222E-2,-3.2234654E-2,-3.7618123E-2,-3.4979813E-2,-4.4263653E-2,-3.0997312E-2,-4.4485405E-2,-4.835784E-2,-6.037717E-2,-6.465913E-2,-5.9974737E-2,-4.822847E-2,-2.8183091E-2,-5.096213E-2,-5.196227E-2,-3.9360475E-2,-3.2742433E-2,-5.589723E-2,-4.3356925E-2,-5.017878E-2,-6.287737E-2,-5.025106E-2,-5.9771705E-2,-3.6188718E-2,-4.39255E-2,-5.4765765E-2,-6.592486E-2,-5.718564E-2,-5.422976E-2,-4.5029573E-2,-4.127191E-2,-4.4663493E-2,-3.9479665E-2],"split_indices":[0,11,9,4,0,0,11,6,11,9,6,0,5,1,1,0,7,3,1,7,0,0,10,7,5,10,0,11,0,9,9,7,7,0,10,9,0,3,0,0,4,0,0,0,0,0,5,6,4,1,8,0,0,9,0,11,11,0,0,0,0,0,0,0,0,0,0,0,0,0,0,0,0,0,0,0,0,0,0,0,0,0,0,0,0,0,0,0,0,0,0],"split_type":[0,0,0,0,0,0,0,0,0,0,0,0,0,0,0,0,0,0,0,0,0,0,0,0,0,0,0,0,0,0,0,0,0,0,0,0,0,0,0,0,0,0,0,0,0,0,0,0,0,0,0,0,0,0,0,0,0,0,0,0,0,0,0,0,0,0,0,0,0,0,0,0,0,0,0,0,0,0,0,0,0,0,0,0,0,0,0,0,0,0,0],"sum_hessian":[7.4571E4,6.3025E4,1.1546E4,5.9599E4,3.426E3,5.386E3,6.16E3,1.404E3,5.8195E4,2.416E3,1.01E3,3.978E3,1.408E3,4.188E3,1.972E3,8.89E2,5.15E2,8.75E2,5.732E4,1.122E3,1.294E3,2.79E2,7.31E2,2.045E3,1.933E3,6.41E2,7.67E2,3.419E3,7.69E2,1.167E3,8.05E2,3.63E2,5.26E2,1.69E2,3.46E2,8.69E2,6E0,1.994E3,5.5326E4,4.04E2,7.18E2,4.86E2,8.08E2,4.7E1,6.84E2,3.11E2,1.734E3,1.67E2,1.766E3,1.26E2,5.15E2,4.87E2,2.8E2,2.49E3,9.29E2,6.21E2,5.46E2,1.66E2,6.39E2,1.43E2,2.2E2,1.07E2,4.19E2,2.4E1,1.45E2,2.24E2,1.22E2,2.45E2,6.24E2,1.964E3,3E1,2.6399E4,2.8927E4,5.42E2,1.76E2,1.711E3,2.3E1,1.4E2,2.7E1,6.4E1,1.702E3,9E1,3.6E1,9.4E1,4.21E2,5.64E2,1.926E3,3.26E2,2.95E2,1.14E2,4.32E2],"tree_param":{"num_deleted":"0","num_feature":"12","num_nodes":"91","size_leaf_vector":"0"}},{"base_weights":[-1.970016E-1,-1.8543455E-1,-1.9789615E-1,-1.7134629E-1,-1.8707873E-1,-1.9873366E-1,-1.8670523E-1,-1.5729804E-1,-1.7527606E-1,-1.8765682E-1,-1.5282476E-1,-1.9503269E-1,-1.9974814E-1,-1.8944517E-1,-1.755639E-1,-1.6280945E-1,-1.8808892E-1,-1.8377589E-1,-1.9564311E-1,-1.998446E-1,-1.7302679E-1,-1.90065E-1,-1.5601854E-1,-1.7831896E-1,-1.5755092E-1,-1.9193865E-1,-1.8467733E-1,-1.9596359E-1,-1.7961602E-1,-1.7943823E-1,-1.9992821E-1,-1.6378556E-1,-1.9081274E-1,-1.9532219E-1,-2.0099196E-1,-2.0039019E-1,-1.9693163E-1,-1.8175349E-1,-1.9200516E-1],"categories":[],"categories_nodes":[],"categories_segments":[],"categories_sizes":[],"default_left":[1,1,1,1,1,1,1,0,0,1,0,1,1,1,1,0,1,0,1,1,0,1,0,0,0,0,0,1,0,0,1,0,1,0,0,0,0,0,0],"id":20,"left_children":[1,3,5,7,9,11,13,-1,-1,15,-1,17,19,21,23,-1,25,-1,27,29,-1,31,-1,-1,-1,-1,-1,33,-1,-1,35,-1,37,-1,-1,-1,-1,-1,-1],"loss_changes":[7.351074E-1,9.2300415E-2,6.1157227E-1,4.0607452E-3,6.63147E-2,2.0263672E-1,1.1433411E-1,0E0,0E0,1.9989014E-2,0E0,5.9509277E-2,9.5581055E-2,5.0476074E-2,1.9943237E-2,0E0,2.5314331E-2,0E0,3.2409668E-2,4.9926758E-2,0E0,4.3304443E-2,0E0,0E0,0E0,0E0,0E0,2.3498535E-3,0E0,0E0,2.9907227E-2,0E0,4.8675537E-3,0E0,0E0,0E0,0E0,0E0,0E0],"parents":[2147483647,0,0,1,1,2,2,3,3,4,4,5,5,6,6,9,9,11,11,12,12,13,13,14,14,16,16,18,18,19,19,21,21,27,27,30,30,32,32],"right_children":[2,4,6,8,10,12,14,-1,-1,16,-1,18,20,22,24,-1,26,-1,28,30,-1,32,-1,-1,-1,-1,-1,34,-1,-1,36,-1,38,-1,-1,-1,-1,-1,-1],"split_conditions":[-8.499694E-2,-2.9882658E-1,8.703039E-2,-8.6692905E-1,3.8055307E-1,4.7272855E-1,2.3768064E-1,-4.7189415E-2,-5.258282E-2,-2.5331035E0,-4.584743E-2,-2.1784484E-1,2.351945E0,2.5870879E0,8.123511E-1,-4.8842836E-2,9.179559E-1,-5.513277E-2,2.466037E-1,-2.0605235E0,-5.190804E-2,-3.5208213E-1,-4.6805564E-2,-5.349569E-2,-4.7265276E-2,-5.75816E-2,-5.5403203E-2,9.5374715E-1,-5.3884808E-2,-5.3831473E-2,3.4606872E0,-4.913567E-2,-5.160142E-1,-5.859666E-2,-6.029759E-2,-6.011706E-2,-5.907949E-2,-5.452605E-2,-5.760155E-2],"split_indices":[10,10,10,6,11,5,10,0,0,4,0,11,4,4,8,0,6,0,11,4,0,11,0,0,0,0,0,7,0,0,5,0,0,0,0,0,0,0,0],"split_type":[0,0,0,0,0,0,0,0,0,0,0,0,0,0,0,0,0,0,0,0,0,0,0,0,0,0,0,0,0,0,0,0,0,0,0,0,0,0,0],"sum_hessian":[7.4571E4,5.368E3,6.9203E4,5.72E2,4.796E3,6.4369E4,4.834E3,1.34E2,4.38E2,4.712E3,8.4E1,1.389E4,5.0479E4,3.867E3,9.67E2,8.7E1,4.625E3,7.3E2,1.316E4,5.0291E4,1.88E2,3.792E3,7.5E1,8.31E2,1.36E2,2.147E3,2.478E3,1.2891E4,2.69E2,2.14E2,5.0077E4,1.11E2,3.681E3,1.1468E4,1.423E3,4.3331E4,6.746E3,4.46E2,3.235E3],"tree_param":{"num_deleted":"0","num_feature":"12","num_nodes":"39","size_leaf_vector":"0"}},{"base_weights":[-1.7150348E-1],"categories":[],"categories_nodes":[],"categories_segments":[],"categories_sizes":[],"default_left":[0],"id":21,"left_children":[-1],"loss_changes":[0E0],"parents":[2147483647],"right_children":[-1],"split_conditions":[-5.1451046E-2],"split_indices":[0],"split_type":[0],"sum_hessian":[7.4571E4],"tree_param":{"num_deleted":"0","num_feature":"12","num_nodes":"1","size_leaf_vector":"0"}},{"base_weights":[-1.7149933E-1],"categories":[],"categories_nodes":[],"categories_segments":[],"categories_sizes":[],"default_left":[0],"id":22,"left_children":[-1],"loss_changes":[0E0],"parents":[2147483647],"right_children":[-1],"split_conditions":[-5.14498E-2],"split_indices":[0],"split_type":[0],"sum_hessian":[7.4571E4],"tree_param":{"num_deleted":"0","num_feature":"12","num_nodes":"1","size_leaf_vector":"0"}},{"base_weights":[-1.7150061E-1],"categories":[],"categories_nodes":[],"categories_segments":[],"categories_sizes":[],"default_left":[0],"id":23,"left_children":[-1],"loss_changes":[0E0],"parents":[2147483647],"right_children":[-1],"split_conditions":[-5.1450185E-2],"split_indices":[0],"split_type":[0],"sum_hessian":[7.4571E4],"tree_param":{"num_deleted":"0","num_feature":"12","num_nodes":"1","size_leaf_vector":"0"}},{"base_weights":[-1.19798094E-1,-1.2945758E-1,-1.1850557E-1,-1.412468E-1,-1.2217521E-1,-1.19663164E-1,-1.1049499E-1,-1.551916E-1,-1.3444334E-1,-1.2914442E-1,-1.1575645E-1,-1.194949E-1,-1.2883006E-1,-9.601926E-2,-1.1693489E-1,-1.591659E-1,-1.3889971E-1,-1.2658806E-1,-1.3878079E-1,-1.2279364E-1,-1.3123299E-1,-1.1417827E-1,-1.2703417E-1,-1.02446064E-1,-1.1957594E-1,-1.2501332E-1,-1.639773E-1,-9.916636E-2,-7.037137E-2,-1.3815801E-1,-1.11949876E-1,-1.8613835E-1,-1.540962E-1,-1.419965E-1,-1.2248825E-1,-1.3473599E-1,-1.5376931E-1,-1.1868867E-1,-1.1083718E-1,-8.815714E-2,-1.140153E-1,-1.20298296E-1,-1.1775547E-1,-1.2760654E-1,-1.1014779E-1,-9.545699E-2,-1.157889E-1,-6.761605E-2,-9.740331E-2,-1.4747398E-1,-1.3316579E-1,-1.1824548E-1,-1.06197685E-1,-1.19426176E-1,-1.8889676E-1,-1.4692189E-1,-1.6667247E-1,-1.4607185E-1,-1.0299266E-1,-1.1624739E-1,-1.3879912E-1,-1.3612488E-1,-1.0732834E-1,-1.6046928E-1,-1.4207557E-1,-9.957734E-2,-1.1202831E-1,-1.2849881E-1,-1.05075546E-1,-9.61368E-2,-1.2033808E-1,-1.1785561E-1,-9.2178755E-2,-1.2276549E-1,-1.4092278E-1,-9.727793E-2,-6.987241E-2,-1.01048745E-1,-1.4008075E-1,-9.552859E-2,-6.564721E-2,-1.2942283E-1,-1.4119126E-1,-1.2239919E-1,-1.1482797E-1,-1.0923304E-1,-9.855776E-2],"categories":[],"categories_nodes":[],"categories_segments":[],"categories_sizes":[],"default_left":[1,1,1,1,1,1,1,1,1,1,1,1,1,1,1,1,0,1,1,0,0,1,0,1,1,1,0,1,1,1,1,1,1,1,1,1,1,0,1,0,1,1,1,1,0,1,1,1,0,0,1,1,1,0,0,0,0,0,0,0,0,0,0,0,0,0,0,0,0,0,0,0,0,0,0,0,0,0,0,0,0,0,0,0,0,0,0],"id":24,"left_children":[1,3,5,7,9,11,13,15,17,19,21,23,25,27,29,31,-1,33,35,-1,-1,37,-1,39,41,43,-1,45,47,49,51,53,55,57,59,61,63,-1,65,-1,67,69,71,73,-1,75,77,79,-1,-1,81,83,85,-1,-1,-1,-1,-1,-1,-1,-1,-1,-1,-1,-1,-1,-1,-1,-1,-1,-1,-1,-1,-1,-1,-1,-1,-1,-1,-1,-1,-1,-1,-1,-1,-1,-1],"loss_changes":[9.157715E-1,7.3739624E-1,5.9680176E-1,2.9695892E-1,2.2844696E-1,7.324219E-2,7.642822E-1,4.8599243E-2,5.939865E-2,1.8371582E-2,3.6079407E-2,6.573486E-2,1.1673355E-1,2.0022202E-1,5.931854E-1,9.041977E-2,0E0,3.409195E-2,6.688881E-2,0E0,0E0,2.456665E-2,0E0,3.5244465E-2,5.9692383E-2,2.1678925E-2,0E0,1.29776E-1,1.4566779E-2,3.1053543E-2,1.5634155E-1,1.9154549E-3,4.2188644E-2,1.1183262E-2,5.013275E-2,2.901268E-2,7.05719E-4,0E0,8.333206E-3,0E0,5.660534E-3,2.6977539E-2,3.010559E-2,3.3176422E-2,0E0,8.046341E-2,1.3336754E-1,8.072138E-3,0E0,0E0,3.3540726E-3,1.743126E-2,4.5980453E-2,0E0,0E0,0E0,0E0,0E0,0E0,0E0,0E0,0E0,0E0,0E0,0E0,0E0,0E0,0E0,0E0,0E0,0E0,0E0,0E0,0E0,0E0,0E0,0E0,0E0,0E0,0E0,0E0,0E0,0E0,0E0,0E0,0E0,0E0],"parents":[2147483647,0,0,1,1,2,2,3,3,4,4,5,5,6,6,7,7,8,8,9,9,10,10,11,11,12,12,13,13,14,14,15,15,17,17,18,18,21,21,23,23,24,24,25,25,27,27,28,28,29,29,30,30,31,31,32,32,33,33,34,34,35,35,36,36,38,38,40,40,41,41,42,42,43,43,45,45,46,46,47,47,50,50,51,51,52,52],"right_children":[2,4,6,8,10,12,14,16,18,20,22,24,26,28,30,32,-1,34,36,-1,-1,38,-1,40,42,44,-1,46,48,50,52,54,56,58,60,62,64,-1,66,-1,68,70,72,74,-1,76,78,80,-1,-1,82,84,86,-1,-1,-1,-1,-1,-1,-1,-1,-1,-1,-1,-1,-1,-1,-1,-1,-1,-1,-1,-1,-1,-1,-1,-1,-1,-1,-1,-1,-1,-1,-1,-1,-1,-1],"split_conditions":[-9.8159246E-2,9.874389E-1,1.0116812E-1,-3.3863533E-1,-3.567934E-2,1.9782567E-1,8.487048E-1,9.403618E-1,-1.1125742E-1,-1.0969517E-1,8.6335105E-1,-1.3100445E-1,9.3655515E-1,4.9125996E-1,-1.0941898E-1,-5.9665734E-1,-4.1669916E-2,-1.9399315E-1,1.4270389E-1,-3.6838092E-2,-3.93699E-2,1.2876028E-2,-3.8110252E-2,1.6087887E0,9.145662E-3,7.696667E-1,-4.9193192E-2,3.589568E-1,8.315011E-1,-1.9351622E-1,6.533925E-2,-4.842536E-1,2.3910534E-2,1.3287086E0,8.90488E-2,2.163761E0,-9.285664E-2,-3.5606604E-2,9.916048E-1,-2.6447143E-2,-2.596617E-1,-8.693395E-1,1.2584898E-1,-3.5689857E-2,-3.304434E-2,7.649702E-2,9.441334E-1,-4.5469606E-1,-2.9220995E-2,-4.4242196E-2,1.835398E-1,-2.650556E-2,1.72562E-1,-3.5827853E-2,-5.666903E-2,-4.407657E-2,-5.0001744E-2,-4.382156E-2,-3.08978E-2,-3.487422E-2,-4.1639738E-2,-4.0837467E-2,-3.2198504E-2,-4.8140787E-2,-4.262267E-2,-2.9873202E-2,-3.3608492E-2,-3.8549643E-2,-3.1522665E-2,-2.8841041E-2,-3.6101427E-2,-3.5356686E-2,-2.7653627E-2,-3.6829647E-2,-4.2276837E-2,-2.918338E-2,-2.0961724E-2,-3.0314624E-2,-4.2024225E-2,-2.8658578E-2,-1.9694163E-2,-3.882685E-2,-4.2357378E-2,-3.6719758E-2,-3.4448393E-2,-3.276991E-2,-2.956733E-2],"split_indices":[1,6,1,1,10,0,6,6,0,0,0,10,7,1,10,1,0,11,10,0,0,10,0,5,1,4,0,0,7,10,10,0,2,3,11,4,11,0,6,0,6,0,10,11,0,2,7,0,0,0,5,11,10,0,0,0,0,0,0,0,0,0,0,0,0,0,0,0,0,0,0,0,0,0,0,0,0,0,0,0,0,0,0,0,0,0,0],"split_type":[0,0,0,0,0,0,0,0,0,0,0,0,0,0,0,0,0,0,0,0,0,0,0,0,0,0,0,0,0,0,0,0,0,0,0,0,0,0,0,0,0,0,0,0,0,0,0,0,0,0,0,0,0,0,0,0,0,0,0,0,0,0,0,0,0,0,0,0,0,0,0,0,0,0,0,0,0,0,0,0,0,0,0,0,0,0,0],"sum_hessian":[7.4571E4,8.789E3,6.5782E4,3.349E3,5.44E3,5.7464E4,8.318E3,1.091E3,2.258E3,2.599E3,2.841E3,5.6442E4,1.022E3,2.566E3,5.752E3,8.7E2,2.21E2,8.14E2,1.444E3,6.58E2,1.941E3,2.502E3,3.39E2,2.73E2,5.6169E4,9.26E2,9.6E1,2.283E3,2.83E2,1.089E3,4.663E3,1.32E2,7.38E2,1.64E2,6.5E2,1.145E3,2.99E2,1.05E3,1.452E3,1.26E2,1.47E2,4.0166E4,1.6003E4,7.82E2,1.44E2,1.872E3,4.11E2,2.6E2,2.3E1,3.7E2,7.19E2,2.217E3,2.446E3,7E0,1.25E2,4.78E2,2.6E2,1.46E2,1.8E1,4.76E2,1.74E2,1.086E3,5.9E1,1.82E2,1.17E2,1.47E2,1.305E3,5.1E1,9.6E1,7E1,4.0096E4,1.5937E4,6.6E1,5.81E2,2.01E2,1.745E3,1.27E2,2.59E2,1.52E2,1.4E1,2.46E2,5.02E2,2.17E2,9.85E2,1.232E3,1.741E3,7.05E2],"tree_param":{"num_deleted":"0","num_feature":"12","num_nodes":"87","size_leaf_vector":"0"}},{"base_weights":[-1.2034484E-1,-1.18798405E-1,-1.2791972E-1,-1.1958284E-1,-1.0148176E-1,-1.3625056E-1,-1.1993924E-1,-1.0603515E-1,-1.2023103E-1,-9.7429365E-2,-1.1141069E-1,-1.3050458E-1,-1.4797057E-1,-1.2746085E-1,-1.0141294E-1,-9.169187E-2,-1.1197175E-1,-1.4172933E-1,-1.1981418E-1,-8.923806E-2,-1.04252346E-1,-1.07940026E-1,-1.2939742E-1,-1.1870908E-1,-1.3180795E-1,-1.3697012E-1,-1.5393098E-1,-1.1823688E-1,-1.303725E-1,-9.74329E-2,-1.0750868E-1,-1.1102156E-1,-8.6021915E-2,-1.5442945E-1,-1.10325E-1,-1.334556E-1,-1.4592975E-1,-1.1270882E-1,-1.2019189E-1,-8.140994E-2,-9.704099E-2,-9.441988E-2,-1.0660879E-1,-1.20289855E-1,-1.0598431E-1,-1.1000505E-1,-1.2507594E-1,-1.2811163E-1,-1.3557976E-1,-9.241738E-2,-1.4756489E-1,-1.4498912E-1,-1.677464E-1,-1.22228704E-1,-1.11978956E-1,-1.3953096E-1,-1.2756766E-1,-1.0103713E-1,-9.2973895E-2,-9.831239E-2,-1.2678504E-1,-9.0591565E-2,-7.074372E-2,-1.5927209E-1,-8.878436E-2,-1.0130284E-1,-1.1475745E-1,-1.5204008E-1,-1.4055136E-1,-1.1331344E-1,-6.552625E-2,-1.2007083E-1,-1.3510518E-1,-9.615717E-2,-7.696791E-2,-1.268307E-1,-9.5675096E-2,-9.9809684E-2,-1.0938698E-1,-1.2870336E-1,-1.0412367E-1,-1.21646434E-1,-1.3650487E-1,-1.0880402E-1,-8.640291E-2,-1.3305801E-1,-1.5537858E-1,-1.4700222E-1,-1.2359596E-1,-1.6997507E-1,-1.2671877E-1,-1.0634494E-1,-9.728578E-2],"categories":[],"categories_nodes":[],"categories_segments":[],"categories_sizes":[],"default_left":[1,1,1,1,1,1,1,1,1,1,1,1,1,1,1,1,1,1,1,1,1,1,0,1,1,1,1,1,1,1,0,1,1,1,1,0,1,1,1,1,1,0,0,0,1,0,0,1,1,1,1,1,1,0,0,0,0,1,0,0,0,0,0,0,0,0,0,0,0,0,0,0,0,0,0,0,0,0,0,0,0,0,0,0,0,0,0,0,0,0,0,0,0],"id":25,"left_children":[1,3,5,7,9,11,13,15,17,19,21,23,25,27,29,31,33,35,37,39,41,43,-1,45,47,49,51,53,55,57,-1,59,61,63,65,-1,67,69,71,73,75,-1,-1,-1,77,-1,-1,79,81,83,85,87,89,-1,-1,-1,-1,91,-1,-1,-1,-1,-1,-1,-1,-1,-1,-1,-1,-1,-1,-1,-1,-1,-1,-1,-1,-1,-1,-1,-1,-1,-1,-1,-1,-1,-1,-1,-1,-1,-1,-1,-1],"loss_changes":[8.5839844E-1,8.2928467E-1,8.2336426E-1,5.075073E-1,9.741974E-2,3.9632416E-1,8.871231E-1,2.2082901E-1,4.8968506E-1,9.794998E-2,3.4288406E-2,4.8164368E-2,1.1155701E-1,1.0786438E-1,3.4893036E-2,7.812834E-2,1.1685562E-1,1.771164E-2,1.3537598E-1,4.5791626E-2,1.4053345E-2,3.0469894E-3,0E0,9.682655E-3,3.4599304E-2,3.2622147E-1,1.3677025E-1,1.4091492E-2,7.156372E-2,8.95977E-3,0E0,2.319622E-2,3.7086964E-2,7.7939034E-3,6.2236786E-2,0E0,1.6012192E-3,7.2906494E-2,7.891846E-2,2.1749735E-2,5.5651665E-3,0E0,0E0,0E0,1.121521E-3,0E0,0E0,1.358223E-2,6.958008E-3,4.4956207E-3,4.507065E-2,1.6241074E-2,2.4727821E-2,0E0,0E0,0E0,0E0,1.9993782E-3,0E0,0E0,0E0,0E0,0E0,0E0,0E0,0E0,0E0,0E0,0E0,0E0,0E0,0E0,0E0,0E0,0E0,0E0,0E0,0E0,0E0,0E0,0E0,0E0,0E0,0E0,0E0,0E0,0E0,0E0,0E0,0E0,0E0,0E0,0E0],"parents":[2147483647,0,0,1,1,2,2,3,3,4,4,5,5,6,6,7,7,8,8,9,9,10,10,11,11,12,12,13,13,14,14,15,15,16,16,17,17,18,18,19,19,20,20,21,21,23,23,24,24,25,25,26,26,27,27,28,28,29,29,31,31,32,32,33,33,34,34,36,36,37,37,38,38,39,39,40,40,44,44,47,47,48,48,49,49,50,50,51,51,52,52,57,57],"right_children":[2,4,6,8,10,12,14,16,18,20,22,24,26,28,30,32,34,36,38,40,42,44,-1,46,48,50,52,54,56,58,-1,60,62,64,66,-1,68,70,72,74,76,-1,-1,-1,78,-1,-1,80,82,84,86,88,90,-1,-1,-1,-1,92,-1,-1,-1,-1,-1,-1,-1,-1,-1,-1,-1,-1,-1,-1,-1,-1,-1,-1,-1,-1,-1,-1,-1,-1,-1,-1,-1,-1,-1,-1,-1,-1,-1,-1,-1],"split_conditions":[3.3973426E-2,1.0649124E-1,9.664044E-1,-3.4606063E-1,-2.2641219E-1,2.4387407E-1,1.8332712E-2,-2.6996723E-1,-1.14695475E-1,9.7144175E-1,7.231382E-1,-8.852583E-1,4.5333278E-1,-3.6342162E-1,7.43968E-2,-8.969476E-1,2.3541304E-1,-1.11580715E-1,-4.6095558E-2,-1.2344219E-2,-6.311884E-1,-7.5155926E-1,-3.8819227E-2,-4.0581875E-2,8.537111E-2,-6.0244188E-2,4.1534907E-1,-3.142643E-2,9.9479926E-1,9.898889E-1,-3.2252606E-2,-3.684768E-2,1.9823577E-2,-9.6742466E-2,-1.09303385E-1,-4.0036682E-2,-2.0166254E-1,4.2366523E-1,7.894442E-1,-8.514887E-1,-6.712299E-1,-2.8325966E-2,-3.1982638E-2,-3.6086958E-2,1.7569916E0,-3.3001516E-2,-3.752278E-2,3.4613137E0,-9.514884E-1,8.242352E-1,5.7116157E-1,9.512809E-1,9.5490766E-1,-3.6668614E-2,-3.359369E-2,-4.1859288E-2,-3.8270302E-2,1.7016563E-1,-2.789217E-2,-2.949372E-2,-3.8035512E-2,-2.717747E-2,-2.1223117E-2,-4.7781628E-2,-2.663531E-2,-3.0390853E-2,-3.4427237E-2,-4.5612026E-2,-4.216541E-2,-3.3994034E-2,-1.9657874E-2,-3.602125E-2,-4.0531553E-2,-2.8847152E-2,-2.3090374E-2,-3.804921E-2,-2.870253E-2,-2.9942906E-2,-3.2816097E-2,-3.861101E-2,-3.1237101E-2,-3.649393E-2,-4.0951464E-2,-3.2641206E-2,-2.5920874E-2,-3.9917406E-2,-4.6613574E-2,-4.410067E-2,-3.707879E-2,-5.0992522E-2,-3.8015634E-2,-3.1903483E-2,-2.9185735E-2],"split_indices":[0,11,9,4,0,0,11,0,11,9,8,7,5,1,1,8,5,1,1,3,1,6,0,9,0,10,0,11,9,9,0,10,2,1,0,0,11,10,1,8,1,0,0,0,5,0,0,5,8,0,0,8,8,0,0,0,0,11,0,0,0,0,0,0,0,0,0,0,0,0,0,0,0,0,0,0,0,0,0,0,0,0,0,0,0,0,0,0,0,0,0,0,0],"split_type":[0,0,0,0,0,0,0,0,0,0,0,0,0,0,0,0,0,0,0,0,0,0,0,0,0,0,0,0,0,0,0,0,0,0,0,0,0,0,0,0,0,0,0,0,0,0,0,0,0,0,0,0,0,0,0,0,0,0,0,0,0,0,0,0,0,0,0,0,0,0,0,0,0,0,0,0,0,0,0,0,0,0,0,0,0,0,0,0,0,0,0,0,0],"sum_hessian":[7.4571E4,6.1942E4,1.2629E4,5.9252E4,2.69E3,6.171E3,6.458E3,2.713E3,5.6539E4,1.918E3,7.72E2,4.149E3,2.022E3,4.589E3,1.869E3,7.99E2,1.914E3,1.069E3,5.547E4,8.78E2,1.04E3,6.53E2,1.19E2,4.22E2,3.727E3,7.19E2,1.303E3,1.111E3,3.478E3,1.141E3,7.28E2,1.77E2,6.22E2,6.8E1,1.846E3,3.71E2,6.98E2,2.815E3,5.2655E4,4.44E2,4.34E2,2.09E2,8.31E2,8.1E1,5.72E2,1.86E2,2.36E2,1.9E3,1.827E3,1.4E2,5.79E2,7.98E2,5.05E2,6.67E2,4.44E2,8.04E2,2.674E3,6.19E2,5.22E2,1.02E2,7.5E1,4.75E2,1.47E2,6.2E1,6E0,6.16E2,1.23E3,3.14E2,3.84E2,2.778E3,3.7E1,5.224E4,4.15E2,9.8E1,3.46E2,1.5E1,4.19E2,2.14E2,3.58E2,1.85E3,5E1,1.22E2,1.705E3,3.3E1,1.07E2,2.09E2,3.7E2,7.24E2,7.4E1,4.76E2,2.9E1,2.45E2,3.74E2],"tree_param":{"num_deleted":"0","num_feature":"12","num_nodes":"93","size_leaf_vector":"0"}},{"base_weights":[-1.3791546E-1,-1.3862607E-1,-1.2971759E-1,-1.3099045E-1,-1.3939261E-1,-1.3125658E-1,-1.1708637E-1,-1.21499255E-1,-1.3269211E-1,-1.39895E-1,-1.3702133E-1,-1.2380192E-1,-1.3267805E-1,-1.2146768E-1,-1.0661624E-1,-1.07875474E-1,-1.2350745E-1,-1.3296832E-1,-1.0796898E-1,-1.2553073E-1,-1.3997859E-1,-1.3299695E-1,-1.3776907E-1,-1.057911E-1,-1.2518153E-1,-1.3363925E-1,-1.2414534E-1,-1.0261917E-1,-1.2358782E-1,-1.2525275E-1,-1.04963146E-1,-1.2375756E-1,-1.3376261E-1,-1.0687219E-1,-1.2800491E-1,-1.4004315E-1,-1.2916276E-1,-1.3910134E-1,-1.3609384E-1,-1.2913682E-1,-1.18869774E-1,-1.03661835E-1,-1.2566836E-1,-1.0794268E-1,-1.2645349E-1,-1.3583168E-1,-1.3125022E-1,-1.4038064E-1,-1.3793913E-1],"categories":[],"categories_nodes":[],"categories_segments":[],"categories_sizes":[],"default_left":[1,1,1,1,1,1,1,1,1,1,1,1,1,1,0,0,1,1,0,1,1,0,1,0,1,0,0,0,1,1,0,0,1,0,0,1,0,0,0,0,0,0,0,0,0,0,0,0,0],"id":26,"left_children":[1,3,5,7,9,11,13,15,17,19,21,23,25,27,-1,-1,29,31,-1,33,35,-1,37,-1,39,-1,-1,-1,41,43,-1,-1,45,-1,-1,47,-1,-1,-1,-1,-1,-1,-1,-1,-1,-1,-1,-1,-1],"loss_changes":[4.165039E-1,3.8330078E-1,1.0056305E-1,8.5243225E-2,5.517578E-2,3.982544E-2,1.7188072E-2,1.3105392E-2,2.191925E-2,4.4128418E-2,1.461792E-2,8.2502365E-3,1.9851685E-2,5.5394173E-3,0E0,0E0,1.3878822E-2,2.1842957E-2,0E0,4.9209595E-4,1.763916E-2,0E0,1.6021729E-3,0E0,4.5719147E-3,0E0,0E0,0E0,3.7631989E-3,2.1047592E-3,0E0,0E0,7.209778E-3,0E0,0E0,1.6784668E-2,0E0,0E0,0E0,0E0,0E0,0E0,0E0,0E0,0E0,0E0,0E0,0E0,0E0],"parents":[2147483647,0,0,1,1,2,2,3,3,4,4,5,5,6,6,7,7,8,8,9,9,10,10,11,11,12,12,13,13,16,16,17,17,19,19,20,20,22,22,24,24,28,28,29,29,32,32,35,35],"right_children":[2,4,6,8,10,12,14,16,18,20,22,24,26,28,-1,-1,30,32,-1,34,36,-1,38,-1,40,-1,-1,-1,42,44,-1,-1,46,-1,-1,48,-1,-1,-1,-1,-1,-1,-1,-1,-1,-1,-1,-1,-1],"split_conditions":[8.79303E-2,-7.007764E-2,3.1050125E-1,-2.7601838E-1,9.9617493E-1,-1.6255364E-1,3.8558856E-1,-3.9674103E-1,3.744492E-1,-1.8083738E-1,9.958428E-1,-2.7981062E0,1.7592788E-1,-2.4275875E-1,-3.1984873E-2,-3.2362644E-2,2.620936E-1,-1.9200635E-1,-3.2390695E-2,-3.214091E-1,2.2166814E-1,-3.9899085E-2,-1.4861755E-2,-3.173733E-2,8.423413E-1,-4.0091775E-2,-3.72436E-2,-3.0785752E-2,-3.539639E-2,-1.7234954E-1,-3.1488944E-2,-3.712727E-2,-2.8013384E-1,-3.206166E-2,-3.8401473E-2,3.1710877E0,-3.874883E-2,-4.1730404E-2,-4.0828153E-2,-3.8741045E-2,-3.5660934E-2,-3.1098552E-2,-3.770051E-2,-3.2382805E-2,-3.7936047E-2,-4.0749505E-2,-3.9375067E-2,-4.211419E-2,-4.138174E-2],"split_indices":[11,11,11,11,9,10,11,11,10,1,6,3,10,10,0,0,10,10,0,10,1,0,7,0,6,0,0,0,2,10,0,0,4,0,0,5,0,0,0,0,0,0,0,0,0,0,0,0,0],"split_type":[0,0,0,0,0,0,0,0,0,0,0,0,0,0,0,0,0,0,0,0,0,0,0,0,0,0,0,0,0,0,0,0,0,0,0,0,0,0,0,0,0,0,0,0,0,0,0,0,0],"sum_hessian":[7.4571E4,6.8608E4,5.963E3,6.275E3,6.2333E4,5.307E3,6.56E2,9.65E2,5.31E3,5.1388E4,1.0945E4,8.64E2,4.443E3,4.55E2,2.01E2,1.31E2,8.34E2,5.247E3,6.3E1,3.06E2,5.1082E4,1.743E3,9.202E3,6.7E1,7.97E2,3.98E3,4.63E2,5.1E1,4.04E2,7.57E2,7.7E1,4.29E2,4.818E3,4.1E1,2.65E2,5.0767E4,3.15E2,5.08E3,4.122E3,4.78E2,3.19E2,4.3E1,3.61E2,5.5E1,7.02E2,2.613E3,2.205E3,4.3693E4,7.074E3],"tree_param":{"num_deleted":"0","num_feature":"12","num_nodes":"49","size_leaf_vector":"0"}},{"base_weights":[-1.20053135E-1],"categories":[],"categories_nodes":[],"categories_segments":[],"categories_sizes":[],"default_left":[0],"id":27,"left_children":[-1],"loss_changes":[0E0],"parents":[2147483647],"right_children":[-1],"split_conditions":[-3.6015943E-2],"split_indices":[0],"split_type":[0],"sum_hessian":[7.4571E4],"tree_param":{"num_deleted":"0","num_feature":"12","num_nodes":"1","size_leaf_vector":"0"}},{"base_weights":[-1.2005021E-1],"categories":[],"categories_nodes":[],"categories_segments":[],"categories_sizes":[],"default_left":[0],"id":28,"left_children":[-1],"loss_changes":[0E0],"parents":[2147483647],"right_children":[-1],"split_conditions":[-3.6015064E-2],"split_indices":[0],"split_type":[0],"sum_hessian":[7.4571E4],"tree_param":{"num_deleted":"0","num_feature":"12","num_nodes":"1","size_leaf_vector":"0"}},{"base_weights":[-1.20051116E-1],"categories":[],"categories_nodes":[],"categories_segments":[],"categories_sizes":[],"default_left":[0],"id":29,"left_children":[-1],"loss_changes":[0E0],"parents":[2147483647],"right_children":[-1],"split_conditions":[-3.6015335E-2],"split_indices":[0],"split_type":[0],"sum_hessian":[7.4571E4],"tree_param":{"num_deleted":"0","num_feature":"12","num_nodes":"1","size_leaf_vector":"0"}},{"base_weights":[-8.388014E-2,-8.964341E-2,-8.2746536E-2,-9.375682E-2,-8.476173E-2,-7.595339E-2,-8.344896E-2,-9.9593915E-2,-8.885426E-2,-8.79055E-2,-7.95212E-2,-7.9227604E-2,-6.8938866E-2,-8.366252E-2,-6.441589E-2,-1.02743074E-1,-9.020545E-2,-8.964966E-2,-5.9386235E-2,-8.3474845E-2,-9.016343E-2,-7.677218E-2,-8.330367E-2,-5.121082E-2,-8.0781244E-2,-4.8196733E-2,-7.15479E-2,-6.5353684E-2,-8.38134E-2,-6.8063274E-2,-4.0186033E-2,-1.1954516E-1,-9.959332E-2,-9.559182E-2,-7.028083E-2,-9.0955235E-2,-8.176843E-2,-8.870004E-2,-9.2612974E-2,-7.82187E-2,-6.812382E-2,-7.745907E-2,-8.654918E-2,-5.8800455E-2,-4.260819E-2,-6.936571E-2,-8.28676E-2,-5.383834E-2,-3.367932E-2,-6.973643E-2,-8.426858E-2,-4.3226857E-2,-6.8244696E-2,-8.356219E-2,-9.234885E-2,-9.628044E-2,-6.540356E-2,-4.427226E-2,-2.8608201E-2,-1.1328883E-1,-1.5579262E-1,-6.66791E-2,-1.005908E-1,-9.0270564E-2,-1.0266428E-1,-6.329581E-2,-8.390757E-2,-6.7634195E-2,-4.9714446E-2,-5.612919E-2,-7.4256085E-2,-8.717413E-2,-7.931136E-2,-6.0427636E-2,-4.8955772E-2,-2.9655306E-2,-4.535771E-2,-7.0974305E-2,-6.3501045E-2,-9.271164E-2,-6.702293E-2,-3.0131947E-2,-4.7282755E-2,-5.6867417E-2,-7.3890954E-2,-4.3242212E-2,-8.359362E-2,-8.623687E-2,-1.0040332E-1,-7.477665E-2,-6.147265E-2,-4.7699153E-2,-3.1652924E-2],"categories":[],"categories_nodes":[],"categories_segments":[],"categories_sizes":[],"default_left":[1,1,1,1,1,1,1,1,1,1,1,1,1,1,1,1,1,1,0,0,1,1,1,1,1,1,1,1,1,1,1,1,1,0,0,1,1,0,0,0,0,0,0,1,0,1,1,1,1,1,1,1,1,1,1,0,1,1,0,0,0,0,0,0,0,0,0,0,0,0,0,0,0,0,0,0,0,0,0,0,0,0,0,0,0,0,0,0,0,0,0,0,0],"id":30,"left_children":[1,3,5,7,9,11,13,15,17,19,21,23,25,27,29,31,33,35,-1,-1,37,39,41,43,45,47,49,51,53,55,57,59,61,-1,-1,63,65,-1,-1,-1,-1,-1,-1,67,-1,69,71,73,75,77,79,81,83,85,87,-1,89,91,-1,-1,-1,-1,-1,-1,-1,-1,-1,-1,-1,-1,-1,-1,-1,-1,-1,-1,-1,-1,-1,-1,-1,-1,-1,-1,-1,-1,-1,-1,-1,-1,-1,-1,-1],"loss_changes":[4.7979736E-1,2.379303E-1,2.9107666E-1,1.8104935E-1,8.543396E-2,1.2893677E-1,2.2418213E-1,8.0049515E-2,7.9431534E-2,2.745819E-2,1.5585899E-2,1.6923714E-1,9.7750664E-2,1.487732E-1,5.3030014E-2,1.0743523E-1,7.559681E-2,2.8770447E-2,0E0,0E0,4.5776367E-5,1.0146618E-2,9.950638E-3,1.1336267E-2,8.408928E-2,1.5549868E-2,3.2351494E-2,2.6539683E-2,1.1105347E-1,3.475499E-2,2.7547777E-3,6.1948776E-2,5.5835724E-2,0E0,0E0,1.4862061E-2,1.4841795E-2,0E0,0E0,0E0,0E0,0E0,0E0,5.4665804E-3,0E0,3.3958673E-2,4.1849136E-2,1.8998086E-3,1.5685335E-3,6.747246E-3,2.3198724E-2,1.549527E-3,2.1878958E-2,6.460571E-2,6.882763E-2,0E0,1.3936043E-2,1.1281297E-3,0E0,0E0,0E0,0E0,0E0,0E0,0E0,0E0,0E0,0E0,0E0,0E0,0E0,0E0,0E0,0E0,0E0,0E0,0E0,0E0,0E0,0E0,0E0,0E0,0E0,0E0,0E0,0E0,0E0,0E0,0E0,0E0,0E0,0E0,0E0],"parents":[2147483647,0,0,1,1,2,2,3,3,4,4,5,5,6,6,7,7,8,8,9,9,10,10,11,11,12,12,13,13,14,14,15,15,16,16,17,17,20,20,21,21,22,22,23,23,24,24,25,25,26,26,27,27,28,28,29,29,30,30,31,31,32,32,35,35,36,36,43,43,45,45,46,46,47,47,48,48,49,49,50,50,51,51,52,52,53,53,54,54,56,56,57,57],"right_children":[2,4,6,8,10,12,14,16,18,20,22,24,26,28,30,32,34,36,-1,-1,38,40,42,44,46,48,50,52,54,56,58,60,62,-1,-1,64,66,-1,-1,-1,-1,-1,-1,68,-1,70,72,74,76,78,80,82,84,86,88,-1,90,92,-1,-1,-1,-1,-1,-1,-1,-1,-1,-1,-1,-1,-1,-1,-1,-1,-1,-1,-1,-1,-1,-1,-1,-1,-1,-1,-1,-1,-1,-1,-1,-1,-1,-1,-1],"split_conditions":[-3.601774E-2,9.9229246E-1,-5.3917915E-2,-1.6820371E-1,1.0502217E-3,5.848596E-2,1.2178283E0,9.8401666E-1,4.3509245E0,-1.726206E-1,1.0022065E-1,-3.1353846E-1,-1.3206884E-1,-1.1062154E0,1.19130865E-1,-5.342406E-1,3.909711E-3,9.3359995E-1,-1.7815871E-2,-2.5042454E-2,4.8228592E-1,5.7345428E-2,9.9665385E-1,1.489164E-2,-7.627158E-1,2.4922322E-1,8.4415543E-1,-3.9574945E-1,4.2390803E-1,1.5743221E-1,1.9295302E-1,3.9521968E-1,-6.402751E-1,-2.8677547E-2,-2.1084249E-2,2.0883225E-1,-3.4238044E-2,-2.6610013E-2,-2.7783893E-2,-2.3465611E-2,-2.0437146E-2,-2.323772E-2,-2.5964754E-2,1.2357917E-2,-1.2782457E-2,1.6647365E0,-4.0070545E-3,1.2074475E-1,-1.0404379E0,1.9706511E-1,-1.7348474E-1,1.3234222E-1,1.7611983E-1,-1.9049459E0,1.3918815E-2,-2.8884133E-2,1.9595347E-1,5.7884926E-1,-8.582461E-3,-3.398665E-2,-4.673779E-2,-2.000373E-2,-3.0177241E-2,-2.7081171E-2,-3.0799285E-2,-1.8988743E-2,-2.517227E-2,-2.029026E-2,-1.4914335E-2,-1.6838757E-2,-2.2276826E-2,-2.615224E-2,-2.379341E-2,-1.812829E-2,-1.4686733E-2,-8.896592E-3,-1.3607314E-2,-2.1292292E-2,-1.9050315E-2,-2.7813494E-2,-2.0106878E-2,-9.039585E-3,-1.4184827E-2,-1.7060226E-2,-2.2167288E-2,-1.2972664E-2,-2.5078088E-2,-2.5871063E-2,-3.0120997E-2,-2.2432996E-2,-1.8441796E-2,-1.4309746E-2,-9.495878E-3],"split_indices":[1,6,0,1,10,10,4,6,5,0,0,10,11,4,2,1,10,8,0,0,0,10,6,2,8,10,4,11,0,11,2,7,0,0,0,10,11,0,0,0,0,0,0,11,0,5,10,1,4,10,7,0,0,3,5,0,1,0,0,0,0,0,0,0,0,0,0,0,0,0,0,0,0,0,0,0,0,0,0,0,0,0,0,0,0,0,0,0,0,0,0,0,0],"split_type":[0,0,0,0,0,0,0,0,0,0,0,0,0,0,0,0,0,0,0,0,0,0,0,0,0,0,0,0,0,0,0,0,0,0,0,0,0,0,0,0,0,0,0,0,0,0,0,0,0,0,0,0,0,0,0,0,0,0,0,0,0,0,0,0,0,0,0,0,0,0,0,0,0,0,0,0,0,0,0,0,0,0,0,0,0,0,0,0,0,0,0,0,0],"sum_hessian":[7.4571E4,1.2244E4,6.2327E4,6.635E3,5.609E3,5.851E3,5.6476E4,3.02E3,3.615E3,3.496E3,2.113E3,3.982E3,1.869E3,5.5846E4,6.3E2,2.254E3,7.66E2,3.518E3,9.7E1,1.193E3,2.303E3,1.236E3,8.77E2,2.11E2,3.771E3,2.11E2,1.658E3,4.6E2,5.5386E4,5.46E2,8.4E1,3.5E2,1.904E3,6E2,1.66E2,3.009E3,5.09E2,1.465E3,8.38E2,1.052E3,1.84E2,3.22E2,5.55E2,1.09E2,1.02E2,5.88E2,3.183E3,1.5E2,6.1E1,1.457E3,2.01E2,5.5E1,4.05E2,5.3813E4,1.573E3,4.4E1,5.02E2,6E1,2.4E1,3.02E2,4.8E1,5.8E1,1.846E3,2.851E3,1.58E2,5.6E1,4.53E2,5.2E1,5.7E1,1.62E2,4.26E2,1.429E3,1.754E3,5.9E1,9.1E1,4.8E1,1.3E1,1.207E3,2.5E2,1.32E2,6.9E1,1.5E1,4E1,1.38E2,2.67E2,4.3E1,5.377E4,9.01E2,6.72E2,1.43E2,3.59E2,4.5E1,1.5E1],"tree_param":{"num_deleted":"0","num_feature":"12","num_nodes":"93","size_leaf_vector":"0"}},{"base_weights":[-8.426331E-2,-7.98732E-2,-8.583212E-2,-8.10846E-2,-6.8468854E-2,-9.3413405E-2,-8.492009E-2,-8.656071E-2,-7.828986E-2,-9.5200345E-2,-6.752682E-2,-9.912171E-2,-9.0925835E-2,-8.587131E-2,-7.9107344E-2,-9.463179E-2,-8.128365E-2,-6.384497E-2,-7.9919785E-2,-1.0923388E-1,-7.955773E-2,-5.613494E-2,-6.88573E-2,-8.2890525E-2,-1.0196398E-1,-8.84326E-2,-9.592983E-2,-8.514515E-2,-1.01494804E-1,-8.325848E-2,-6.965231E-2,-6.723136E-2,-9.613283E-2,-7.279404E-2,-8.341463E-2,-6.11108E-2,-8.2977675E-2,-7.944725E-2,-9.117702E-2,-4.8372567E-2,-6.7357376E-2,-6.1730307E-2,-7.069323E-2,-7.02668E-2,-8.704136E-2,-9.276413E-2,-1.0710935E-1,-7.562458E-2,-8.924471E-2,-1.0390314E-1,-9.363437E-2,-8.404753E-2,-8.6574756E-2,-9.765448E-2,-1.1615812E-1,-8.5686415E-2,-8.1283234E-2,-6.266496E-2,-7.11279E-2,-5.189759E-2,-7.233408E-2,-1.05413765E-1,-9.3358964E-2,-4.7116343E-2,-7.378066E-2,-1.0622455E-1,-8.2728416E-2,-4.9693964E-2,-6.500871E-2,-6.331139E-2,-9.050017E-2,-7.575462E-2,-8.078394E-2,-8.311809E-2,-9.958596E-2,-3.830587E-2,-5.813125E-2,-7.125308E-2,-4.3815047E-2,-2.7388668E-2,-7.1100615E-2,-7.357461E-2,-9.492897E-2,-1.1489727E-1,-1.04440935E-1,-8.622877E-2,-9.1802076E-2,-1.1728495E-1,-9.3068406E-2,-8.338176E-2,-8.7346114E-2,-9.02076E-2,-8.6182155E-2,-8.2406014E-2,-1.0031202E-1,-1.2893029E-1,-1.0079603E-1,-8.242961E-2,-8.8074625E-2,-7.777617E-2,-8.2243405E-2,-7.262475E-2,-6.6935085E-2],"categories":[],"categories_nodes":[],"categories_segments":[],"categories_sizes":[],"default_left":[1,1,1,1,1,1,1,1,1,1,1,1,1,1,1,1,1,1,1,0,0,1,1,1,1,1,1,1,1,1,1,1,1,1,1,1,1,1,1,1,0,0,1,1,0,1,1,0,1,0,1,1,1,1,1,1,1,0,1,0,0,0,0,0,0,0,0,0,0,0,0,0,0,0,0,0,0,0,0,0,0,0,0,0,0,0,0,0,0,0,0,0,0,0,0,0,0,0,0,0,0,0,0],"id":31,"left_children":[1,3,5,7,9,11,13,15,17,19,21,23,25,27,29,31,33,35,37,-1,-1,39,41,43,45,47,49,51,53,55,57,59,61,63,65,67,69,71,73,75,-1,-1,77,79,-1,81,83,-1,85,-1,87,89,91,93,95,97,99,-1,101,-1,-1,-1,-1,-1,-1,-1,-1,-1,-1,-1,-1,-1,-1,-1,-1,-1,-1,-1,-1,-1,-1,-1,-1,-1,-1,-1,-1,-1,-1,-1,-1,-1,-1,-1,-1,-1,-1,-1,-1,-1,-1,-1,-1],"loss_changes":[5.067749E-1,2.6587677E-1,3.718567E-1,2.649536E-1,4.1241646E-2,7.459259E-2,2.6431274E-1,2.4743271E-1,2.7191162E-1,4.9198866E-3,2.3900986E-2,7.3480606E-2,4.2835236E-2,4.6939087E-1,2.6537323E-1,9.068298E-2,5.957985E-2,5.7599068E-2,4.8980713E-2,0E0,0E0,1.3902903E-2,1.7043114E-2,8.031607E-3,6.1401367E-2,2.1938324E-2,1.5089035E-2,5.5908203E-2,9.3732834E-2,1.6036987E-2,1.7338753E-2,6.1047673E-3,4.7748566E-2,1.51696205E-2,3.6510468E-2,4.35853E-2,1.6017318E-2,4.399109E-2,2.0117044E-2,9.561777E-3,0E0,0E0,1.6349792E-2,6.2686205E-4,0E0,1.5781403E-2,7.949829E-3,0E0,1.2044907E-2,0E0,3.3130646E-3,4.2800903E-2,1.7120361E-2,5.1911354E-2,6.1955452E-2,9.329796E-3,2.5749207E-3,0E0,6.046295E-3,0E0,0E0,0E0,0E0,0E0,0E0,0E0,0E0,0E0,0E0,0E0,0E0,0E0,0E0,0E0,0E0,0E0,0E0,0E0,0E0,0E0,0E0,0E0,0E0,0E0,0E0,0E0,0E0,0E0,0E0,0E0,0E0,0E0,0E0,0E0,0E0,0E0,0E0,0E0,0E0,0E0,0E0,0E0,0E0],"parents":[2147483647,0,0,1,1,2,2,3,3,4,4,5,5,6,6,7,7,8,8,9,9,10,10,11,11,12,12,13,13,14,14,15,15,16,16,17,17,18,18,21,21,22,22,23,23,24,24,25,25,26,26,27,27,28,28,29,29,30,30,31,31,32,32,33,33,34,34,35,35,36,36,37,37,38,38,39,39,42,42,43,43,45,45,46,46,48,48,50,50,51,51,52,52,53,53,54,54,55,55,56,56,58,58],"right_children":[2,4,6,8,10,12,14,16,18,20,22,24,26,28,30,32,34,36,38,-1,-1,40,42,44,46,48,50,52,54,56,58,60,62,64,66,68,70,72,74,76,-1,-1,78,80,-1,82,84,-1,86,-1,88,90,92,94,96,98,100,-1,102,-1,-1,-1,-1,-1,-1,-1,-1,-1,-1,-1,-1,-1,-1,-1,-1,-1,-1,-1,-1,-1,-1,-1,-1,-1,-1,-1,-1,-1,-1,-1,-1,-1,-1,-1,-1,-1,-1,-1,-1,-1,-1,-1,-1],"split_conditions":[-1.7315615E-2,1.3750741E-1,-3.343527E-2,4.451114E-1,-3.789699E-1,-1.3902354E-1,9.737071E-1,-9.305144E-3,-1.9141577E-1,-2.842345E-2,-1.2856231E0,-7.0626366E-1,6.5031074E-2,1.1632848E-1,2.3680888E-2,-2.6251286E-1,-8.178054E-2,3.549828E-1,4.0900927E0,-3.2770164E-2,-2.386732E-2,-3.4073615E-1,-9.795344E-1,-1.0751724E-1,-1.9610894E-1,6.6619245E-3,-3.2808922E-2,6.1536646E-3,4.239964E-1,-1.4027578E-3,-1.6891515E-2,-1.547424E0,-2.0872603E-1,-2.6495072E-1,-5.149207E-1,1.4944167E0,-1.8834358E0,2.4025463E-1,-2.862465E-2,2.3364864E-2,-2.0207213E-2,-1.8519092E-2,3.1139317E0,-3.2479778E-1,-2.611241E-2,-2.2235617E-1,-2.9230565E-1,-2.2687374E-2,-1.6145167E-1,-3.1170942E-2,-2.2227075E0,4.3991003E0,-1.3374137E-2,3.4711295E-1,7.678268E-1,-2.9718474E-2,-1.161184E-2,-1.879949E-2,8.137665E-1,-1.5569277E-2,-2.1700226E-2,-3.162413E-2,-2.800769E-2,-1.4134903E-2,-2.21342E-2,-3.1867366E-2,-2.4818527E-2,-1.490819E-2,-1.9502614E-2,-1.8993419E-2,-2.7150052E-2,-2.2726387E-2,-2.4235183E-2,-2.4935428E-2,-2.9875789E-2,-1.1491762E-2,-1.7439377E-2,-2.1375926E-2,-1.31445145E-2,-8.216601E-3,-2.1330185E-2,-2.2072384E-2,-2.8478693E-2,-3.4469184E-2,-3.133228E-2,-2.5868634E-2,-2.7540624E-2,-3.5185486E-2,-2.7920524E-2,-2.5014529E-2,-2.6203835E-2,-2.706228E-2,-2.5854647E-2,-2.4721805E-2,-3.0093607E-2,-3.8679086E-2,-3.0238809E-2,-2.4728885E-2,-2.6422389E-2,-2.3332853E-2,-2.4673022E-2,-2.1787426E-2,-2.0080525E-2],"split_indices":[0,11,11,5,6,11,6,11,0,2,3,7,1,0,11,6,3,1,5,0,0,0,0,6,1,0,8,0,0,11,7,3,11,6,7,5,4,9,2,2,0,0,4,6,0,6,11,0,1,0,3,5,10,5,7,1,1,0,0,0,0,0,0,0,0,0,0,0,0,0,0,0,0,0,0,0,0,0,0,0,0,0,0,0,0,0,0,0,0,0,0,0,0,0,0,0,0,0,0,0,0,0,0],"split_type":[0,0,0,0,0,0,0,0,0,0,0,0,0,0,0,0,0,0,0,0,0,0,0,0,0,0,0,0,0,0,0,0,0,0,0,0,0,0,0,0,0,0,0,0,0,0,0,0,0,0,0,0,0,0,0,0,0,0,0,0,0,0,0,0,0,0,0,0,0,0,0,0,0,0,0,0,0,0,0,0,0,0,0,0,0,0,0,0,0,0,0,0,0,0,0,0,0,0,0,0,0,0,0],"sum_hessian":[7.4571E4,1.9646E4,5.4925E4,1.7754E4,1.892E3,5.887E3,4.9038E4,5.989E3,1.1765E4,6.1E1,1.831E3,1.775E3,4.112E3,4.213E4,6.908E3,2.361E3,3.628E3,1.197E3,1.0568E4,2.9E1,3.2E1,1.96E2,1.635E3,2.69E2,1.506E3,2.757E3,1.355E3,4.0265E4,1.865E3,4.795E3,2.113E3,1.25E2,2.236E3,7.35E2,2.893E3,1.051E3,1.46E2,1.015E4,4.18E2,1.19E2,7.7E1,3.42E2,1.293E3,7.1E1,1.98E2,5.47E2,9.59E2,1.7E2,2.587E3,2.93E2,1.062E3,2.2811E4,1.7454E4,1.484E3,3.81E2,2.132E3,2.663E3,3.76E2,1.737E3,3.4E1,9.1E1,5.06E2,1.73E3,2.9E1,7.06E2,8E1,2.813E3,2.71E2,7.8E2,4.3E1,1.03E2,2.713E3,7.437E3,2.19E2,1.99E2,6.1E1,5.8E1,1.265E3,2.8E1,2E0,6.9E1,5.9E1,4.88E2,2.34E2,7.25E2,1.203E3,1.384E3,2E1,1.042E3,1.9002E4,3.809E3,1.68E3,1.5774E4,2.25E2,1.259E3,2.04E2,1.77E2,9.17E2,1.215E3,5.9E2,2.073E3,1.268E3,4.69E2],"tree_param":{"num_deleted":"0","num_feature":"12","num_nodes":"103","size_leaf_vector":"0"}},{"base_weights":[-9.655307E-2,-9.6920624E-2,-8.8516735E-2,-9.0094775E-2,-9.7333156E-2,-8.939783E-2,-7.4823156E-2,-8.352037E-2,-9.133105E-2,-9.2389256E-2,-9.753749E-2,-8.0464534E-2,-9.014752E-2,-8.5688196E-2,-7.416185E-2,-7.932411E-2,-9.188814E-2,-7.6231316E-2,-9.310832E-2,-9.7695075E-2,-9.142631E-2,-8.19641E-2,-6.042337E-2,-9.053023E-2,-7.3048085E-2,-7.6120436E-2,-8.805815E-2,-8.415196E-2,-6.920844E-2,-9.21573E-2,-7.418631E-2,-8.9167915E-2,-9.4452314E-2,-9.612303E-2,-9.808185E-2,-9.257697E-2,-8.2836285E-2,-8.9711905E-2,-9.58688E-2,-9.015821E-2,-7.7476874E-2,-9.5960885E-2,-9.119686E-2,-7.2386086E-2,-9.621468E-2,-9.833725E-2,-9.65613E-2,-9.179139E-2,-1.013868E-1,-8.844108E-2,-9.241757E-2],"categories":[],"categories_nodes":[],"categories_segments":[],"categories_sizes":[],"default_left":[1,1,1,1,1,1,0,1,1,1,1,1,1,1,0,1,1,0,1,1,1,0,0,1,0,0,1,0,0,1,0,0,0,1,1,1,0,1,0,0,0,0,0,0,0,0,0,0,0,0,0],"id":32,"left_children":[1,3,5,7,9,11,-1,13,15,17,19,21,23,25,-1,27,29,-1,31,33,35,-1,-1,37,-1,-1,39,-1,-1,41,-1,-1,-1,43,45,47,-1,49,-1,-1,-1,-1,-1,-1,-1,-1,-1,-1,-1,-1,-1],"loss_changes":[2.1173096E-1,1.9195557E-1,3.2800674E-2,2.550888E-2,5.8898926E-2,1.3307571E-2,0E0,6.9737434E-3,1.5592575E-2,2.412033E-2,5.316162E-2,2.4704933E-3,1.1867523E-2,5.2468777E-3,0E0,1.9410849E-3,8.710861E-3,0E0,5.1784515E-3,2.8869629E-2,8.522034E-3,0E0,0E0,3.4484863E-3,0E0,0E0,2.259016E-3,0E0,0E0,2.9754639E-3,0E0,0E0,0E0,2.016449E-2,1.0101318E-2,6.313324E-4,0E0,1.02996826E-4,0E0,0E0,0E0,0E0,0E0,0E0,0E0,0E0,0E0,0E0,0E0,0E0,0E0],"parents":[2147483647,0,0,1,1,2,2,3,3,4,4,5,5,7,7,8,8,9,9,10,10,11,11,12,12,13,13,15,15,16,16,18,18,19,19,20,20,23,23,26,26,29,29,33,33,34,34,35,35,37,37],"right_children":[2,4,6,8,10,12,-1,14,16,18,20,22,24,26,-1,28,30,-1,32,34,36,-1,-1,38,-1,-1,40,-1,-1,42,-1,-1,-1,44,46,48,-1,50,-1,-1,-1,-1,-1,-1,-1,-1,-1,-1,-1,-1,-1],"split_conditions":[1.6539806E-1,-1.3050757E-1,3.8489032E-1,-3.1041014E-1,-1.0687462E-1,-1.7366105E0,-2.2446947E-2,1.8100777E-1,-2.3251304E-1,-4.034687E-1,1.3874067E-1,4.613319E-1,2.2820241E0,-3.1391919E0,-2.2248555E-2,4.6131E-1,3.6590976E-1,-2.2869395E-2,-4.208861E-1,1.6341206E-1,2.574654E0,-2.4589231E-2,-1.8127011E-2,9.251791E-1,-2.1914426E-2,-2.2836132E-2,8.780655E-1,-2.524559E-2,-2.0762533E-2,-2.1018612E-1,-2.2255894E-2,-2.6750376E-2,-2.8335696E-2,-9.878745E-1,3.1561136E0,9.343875E-1,-2.4850886E-2,1.386631E0,-2.8760642E-2,-2.7047465E-2,-2.3243062E-2,-2.8788267E-2,-2.735906E-2,-2.1715827E-2,-2.8864406E-2,-2.9501176E-2,-2.896839E-2,-2.7537419E-2,-3.0416042E-2,-2.6532326E-2,-2.7725272E-2],"split_indices":[11,11,11,11,10,3,0,10,10,10,10,0,3,4,0,6,10,0,1,5,3,0,0,7,0,0,0,0,0,6,0,0,0,7,5,7,0,5,0,0,0,0,0,0,0,0,0,0,0,0,0],"split_type":[0,0,0,0,0,0,0,0,0,0,0,0,0,0,0,0,0,0,0,0,0,0,0,0,0,0,0,0,0,0,0,0,0,0,0,0,0,0,0,0,0,0,0,0,0,0,0,0,0,0,0],"sum_hessian":[7.4571E4,7.1299E4,3.272E3,4.076E3,6.7223E4,3.069E3,2.03E2,6.56E2,3.42E3,2.686E3,6.4537E4,2.46E2,2.823E3,5.26E2,1.3E2,1.58E2,3.262E3,1.19E2,2.567E3,6.29E4,1.637E3,2.26E2,2E1,2.757E3,6.6E1,1.11E2,4.15E2,1.02E2,5.6E1,3.209E3,5.3E1,6.7E2,1.897E3,1.2469E4,5.0431E4,1.435E3,2.02E2,2.406E3,3.51E2,3.4E2,7.5E1,6.27E2,2.582E3,5.1E1,1.2418E4,4.3124E4,7.307E3,1.328E3,1.07E2,1.66E3,7.46E2],"tree_param":{"num_deleted":"0","num_feature":"12","num_nodes":"51","size_leaf_vector":"0"}},{"base_weights":[-8.403768E-2],"categories":[],"categories_nodes":[],"categories_segments":[],"categories_sizes":[],"default_left":[0],"id":33,"left_children":[-1],"loss_changes":[0E0],"parents":[2147483647],"right_children":[-1],"split_conditions":[-2.5211304E-2],"split_indices":[0],"split_type":[0],"sum_hessian":[7.4571E4],"tree_param":{"num_deleted":"0","num_feature":"12","num_nodes":"1","size_leaf_vector":"0"}},{"base_weights":[-8.403563E-2],"categories":[],"categories_nodes":[],"categories_segments":[],"categories_sizes":[],"default_left":[0],"id":34,"left_children":[-1],"loss_changes":[0E0],"parents":[2147483647],"right_children":[-1],"split_conditions":[-2.521069E-2],"split_indices":[0],"split_type":[0],"sum_hessian":[7.4571E4],"tree_param":{"num_deleted":"0","num_feature":"12","num_nodes":"1","size_leaf_vector":"0"}},{"base_weights":[-8.403626E-2],"categories":[],"categories_nodes":[],"categories_segments":[],"categories_sizes":[],"default_left":[0],"id":35,"left_children":[-1],"loss_changes":[0E0],"parents":[2147483647],"right_children":[-1],"split_conditions":[-2.521088E-2],"split_indices":[0],"split_type":[0],"sum_hessian":[7.4571E4],"tree_param":{"num_deleted":"0","num_feature":"12","num_nodes":"1","size_leaf_vector":"0"}},{"base_weights":[-5.8729675E-2,-6.1913773E-2,-5.7667427E-2,-6.1278284E-2,-7.4074E-2,-5.2909683E-2,-5.8228914E-2,-6.65096E-2,-6.003979E-2,-8.3132155E-2,-5.6883886E-2,-5.3926673E-2,-4.122914E-2,-5.8392886E-2,-4.5113128E-2,-6.495711E-2,-8.529867E-2,-5.9130132E-2,-6.539674E-2,-9.037872E-2,-6.998624E-2,-5.0612763E-2,-8.835157E-2,-4.642865E-2,-5.574852E-2,-4.776838E-2,-3.0137686E-2,-4.65772E-2,-5.8537953E-2,-5.3053983E-2,-3.9224997E-2,-6.679985E-2,-5.2254427E-2,-7.8420155E-2,-9.517618E-2,-6.0559087E-2,-5.486253E-2,-6.657562E-2,-4.531118E-2,-9.928978E-2,-8.035893E-2,-7.175111E-2,-5.653468E-2,-6.01005E-2,-4.658612E-2,-3.250527E-2,-4.81715E-2,-4.8093513E-2,-5.724537E-2,-4.083316E-2,-5.065344E-2,-3.357511E-2,-2.1030657E-2,-4.335244E-2,-6.258885E-2,-5.8303714E-2,-6.383441E-2,-4.258668E-2,-5.9150156E-2,-4.194339E-2,-2.5168248E-2,-9.293903E-2,-6.594478E-2,-4.3904785E-2,-5.706933E-2,-5.5861324E-2,-6.0986776E-2,-5.450513E-2,-8.729085E-2,-7.009731E-2,-6.2093843E-2,-3.6468707E-2,-4.921482E-2,-8.418146E-2,-1.05205745E-1,-7.414547E-2,-8.702116E-2,-4.8066977E-2,-3.4652844E-2,-3.7250362E-2,-2.7622996E-2,-4.9192626E-2,-3.763333E-2,-5.4322492E-2,-4.2987287E-2,-3.1587567E-2,-5.7687204E-2,-2.6604189E-2,-4.168198E-2,-1.7775606E-2,-3.42013E-2,-1.2639502E-2,-2.1850383E-2,-5.432058E-2,-3.9255526E-2,-5.8382798E-2,-4.8262242E-2,-6.004848E-2,-7.036065E-2,-2.835292E-2,-4.5160428E-2,-5.439533E-2,-6.9408685E-2,-4.378265E-2,-2.9889617E-2,-2.7131991E-2,-1.794947E-2],"categories":[],"categories_nodes":[],"categories_segments":[],"categories_sizes":[],"default_left":[1,1,1,1,1,1,1,1,1,1,1,1,1,1,1,1,1,1,1,1,1,1,0,1,1,1,1,1,1,1,1,1,1,0,0,1,1,1,1,1,1,0,0,0,1,1,1,1,1,1,0,1,1,1,0,1,1,1,1,1,1,0,0,0,0,0,0,0,0,0,0,0,0,0,0,0,0,0,0,0,0,0,0,0,0,0,0,0,0,0,0,0,0,0,0,0,0,0,0,0,0,0,0,0,0,0,0],"id":36,"left_children":[1,3,5,7,9,11,13,15,17,19,21,23,25,27,29,31,33,35,37,39,41,43,-1,45,47,49,51,53,55,57,59,61,63,-1,-1,65,67,69,71,73,75,-1,-1,-1,77,79,81,83,85,87,-1,89,91,93,-1,95,97,99,101,103,105,-1,-1,-1,-1,-1,-1,-1,-1,-1,-1,-1,-1,-1,-1,-1,-1,-1,-1,-1,-1,-1,-1,-1,-1,-1,-1,-1,-1,-1,-1,-1,-1,-1,-1,-1,-1,-1,-1,-1,-1,-1,-1,-1,-1,-1,-1],"loss_changes":[2.4862671E-1,1.3951874E-1,1.4634705E-1,1.10816956E-1,1.3868093E-1,6.803894E-2,1.0491943E-1,9.31406E-2,6.600571E-2,5.092764E-2,5.8873773E-2,7.169628E-2,3.322959E-2,8.19397E-2,2.7001739E-2,6.975269E-2,9.8615885E-3,7.149124E-2,4.6045303E-2,2.6307583E-2,1.1190176E-3,7.515192E-3,0E0,2.4374962E-2,4.7320366E-2,3.914237E-3,4.928738E-3,2.8473377E-2,5.680847E-2,1.41993165E-2,1.2738824E-2,5.4865837E-2,1.3615727E-2,0E0,0E0,1.5041351E-2,3.1030655E-2,2.6503563E-2,2.2782981E-3,8.9303255E-3,1.2472868E-3,0E0,0E0,0E0,1.7625988E-3,1.797393E-3,8.350134E-3,2.059722E-2,3.9557457E-2,1.4334917E-5,0E0,6.683171E-4,8.150004E-5,2.0604968E-2,0E0,3.4301758E-2,4.6574593E-2,2.382949E-3,4.1752458E-3,5.3645372E-3,3.7771836E-4,0E0,0E0,0E0,0E0,0E0,0E0,0E0,0E0,0E0,0E0,0E0,0E0,0E0,0E0,0E0,0E0,0E0,0E0,0E0,0E0,0E0,0E0,0E0,0E0,0E0,0E0,0E0,0E0,0E0,0E0,0E0,0E0,0E0,0E0,0E0,0E0,0E0,0E0,0E0,0E0,0E0,0E0,0E0,0E0,0E0,0E0],"parents":[2147483647,0,0,1,1,2,2,3,3,4,4,5,5,6,6,7,7,8,8,9,9,10,10,11,11,12,12,13,13,14,14,15,15,16,16,17,17,18,18,19,19,20,20,21,21,23,23,24,24,25,25,26,26,27,27,28,28,29,29,30,30,31,31,32,32,35,35,36,36,37,37,38,38,39,39,40,40,44,44,45,45,46,46,47,47,48,48,49,49,51,51,52,52,53,53,55,55,56,56,57,57,58,58,59,59,60,60],"right_children":[2,4,6,8,10,12,14,16,18,20,22,24,26,28,30,32,34,36,38,40,42,44,-1,46,48,50,52,54,56,58,60,62,64,-1,-1,66,68,70,72,74,76,-1,-1,-1,78,80,82,84,86,88,-1,90,92,94,-1,96,98,100,102,104,106,-1,-1,-1,-1,-1,-1,-1,-1,-1,-1,-1,-1,-1,-1,-1,-1,-1,-1,-1,-1,-1,-1,-1,-1,-1,-1,-1,-1,-1,-1,-1,-1,-1,-1,-1,-1,-1,-1,-1,-1,-1,-1,-1,-1,-1,-1],"split_conditions":[-2.1111775E-2,1.5146409E-1,-4.6655707E-2,-6.363785E-2,5.17529E-1,7.776234E-1,1.2178283E0,7.8399694E-1,7.338443E-2,-5.2205868E-2,1.9417584E-1,-2.5033621E-2,1.07149616E-1,-8.882579E-1,2.375885E-1,8.416978E-1,1.5483373E-1,1.4716067E-2,3.2175517E0,7.62884E-1,7.4330145E-1,-7.1267545E-1,-2.6505472E-2,-6.520253E-1,-4.3300584E-1,-8.856079E-2,1.4037652E0,2.6163343E-1,3.4240162E-1,2.210328E-1,5.165504E-1,-2.6962967E0,-3.2492825E-1,-2.3526048E-2,-2.8552856E-2,-5.235351E-1,2.6538942E0,-3.588202E-2,-1.4303168E-2,6.2815547E-1,1.4657766E0,-2.1525335E-2,-1.6960405E-2,-1.803015E-2,-8.159363E-2,1.3652727E-1,5.809925E-1,5.6486845E-2,-3.495437E-1,-5.0671095E-1,-1.5196032E-2,2.6553804E-2,1.4155542E0,-1.3322923E-1,-1.8776655E-2,9.54277E-2,2.1036398E-2,-1.8888791E0,5.3267366E-1,1.2662697E-1,1.9902855E-1,-2.788171E-2,-1.9783435E-2,-1.3171436E-2,-1.71208E-2,-1.6758397E-2,-1.8296033E-2,-1.635154E-2,-2.6187258E-2,-2.1029195E-2,-1.8628154E-2,-1.0940612E-2,-1.4764447E-2,-2.5254438E-2,-3.1561725E-2,-2.2243643E-2,-2.6106348E-2,-1.4420094E-2,-1.0395854E-2,-1.1175109E-2,-8.286899E-3,-1.4757789E-2,-1.1289999E-2,-1.6296748E-2,-1.2896187E-2,-9.4762705E-3,-1.7306162E-2,-7.981257E-3,-1.2504594E-2,-5.3326823E-3,-1.0260391E-2,-3.7918508E-3,-6.5551153E-3,-1.6296174E-2,-1.1776659E-2,-1.751484E-2,-1.4478673E-2,-1.8014545E-2,-2.1108197E-2,-8.505876E-3,-1.3548129E-2,-1.6318599E-2,-2.0822607E-2,-1.3134796E-2,-8.9668855E-3,-8.139598E-3,-5.384841E-3],"split_indices":[1,10,0,10,8,8,4,8,7,11,11,5,1,4,11,7,11,10,5,5,0,6,0,3,8,11,3,7,0,0,1,3,0,0,0,0,4,6,10,3,5,0,0,0,1,2,3,11,10,0,0,10,5,10,0,11,5,3,0,2,2,0,0,0,0,0,0,0,0,0,0,0,0,0,0,0,0,0,0,0,0,0,0,0,0,0,0,0,0,0,0,0,0,0,0,0,0,0,0,0,0,0,0,0,0,0,0],"split_type":[0,0,0,0,0,0,0,0,0,0,0,0,0,0,0,0,0,0,0,0,0,0,0,0,0,0,0,0,0,0,0,0,0,0,0,0,0,0,0,0,0,0,0,0,0,0,0,0,0,0,0,0,0,0,0,0,0,0,0,0,0,0,0,0,0,0,0,0,0,0,0,0,0,0,0,0,0,0,0,0,0,0,0,0,0,0,0,0,0,0,0,0,0,0,0,0,0,0,0,0,0,0,0,0,0,0,0],"sum_hessian":[7.4571E4,1.864E4,5.5931E4,1.772E4,9.2E2,5.914E3,5.0017E4,3.382E3,1.4338E4,6E2,3.2E2,5.437E3,4.77E2,4.9396E4,6.21E2,3.128E3,2.54E2,1.2267E4,2.071E3,3.83E2,2.17E2,2.69E2,5.1E1,1.068E3,4.369E3,2.98E2,1.79E2,6.03E2,4.8793E4,2.61E2,3.6E2,2.728E3,4E2,1.55E2,9.9E1,9.18E3,3.087E3,1.954E3,1.17E2,1.98E2,1.85E2,1.88E2,2.9E1,7.6E1,1.93E2,1.21E2,9.47E2,7.2E2,3.649E3,9.2E1,2.06E2,1.28E2,5.1E1,5.05E2,9.8E1,4.6738E4,2.055E3,9.9E1,1.62E2,3E2,6E1,8.3E1,2.645E3,1.5E2,2.5E2,7.77E2,8.403E3,3.056E3,3.1E1,1.086E3,8.68E2,3.9E1,7.8E1,6E1,1.38E2,1.02E2,8.3E1,1.69E2,2.4E1,5.8E1,6.3E1,8.6E2,8.7E1,3.2E2,4E2,6.3E1,3.586E3,7E0,8.5E1,6E0,1.22E2,6E0,4.5E1,1.34E2,3.71E2,4.6368E4,3.7E2,1.307E3,7.48E2,1.7E1,8.2E1,1.15E2,4.7E1,2.58E2,4.2E1,4.5E1,1.5E1],"tree_param":{"num_deleted":"0","num_feature":"12","num_nodes":"107","size_leaf_vector":"0"}},{"base_weights":[-5.9001226E-2,-5.606056E-2,-6.0145512E-2,-5.5363648E-2,-6.6194125E-2,-6.5499805E-2,-5.948937E-2,-5.6546018E-2,-4.9910948E-2,-7.056504E-2,-5.880394E-2,-6.478693E-2,-7.918973E-2,-6.0237415E-2,-5.5596508E-2,-4.9083695E-2,-5.7556827E-2,-6.733284E-2,-4.883865E-2,-4.6690192E-2,-7.167334E-2,-6.0895175E-2,-5.2512635E-2,-5.842303E-2,-6.633104E-2,-6.9683485E-2,-9.186498E-2,-5.9712928E-2,-7.173853E-2,-5.7956506E-2,-4.8070353E-2,-3.457825E-2,-5.157453E-2,-6.100451E-2,-5.6111824E-2,-6.488259E-2,-8.006718E-2,-3.786471E-2,-4.9836956E-2,-2.2768347E-2,-4.9457077E-2,-7.354192E-2,-6.6768475E-2,-8.273063E-2,-5.683388E-2,-7.649415E-2,-6.495657E-2,-7.1635954E-2,-4.6779785E-2,-5.8087327E-2,-6.0521364E-2,-6.859762E-2,-8.1325024E-2,-5.9413042E-2,-5.552777E-2,-4.6626866E-2,-5.393155E-2,-4.4306234E-2,-2.3894772E-2,-4.999312E-2,-6.629772E-2,-7.0450895E-2,-5.9327185E-2,-3.702513E-2,-5.649231E-2,-6.164214E-2,-7.827398E-2,-4.3288346E-2,-3.2771572E-2,-4.9430568E-2,-7.4474186E-2,-7.1212396E-2,-1.0347301E-1,-5.0803658E-2,-5.8250945E-2,-7.255563E-2,-8.161917E-2,-6.118784E-2,-6.769616E-2,-5.7131242E-2,-6.159879E-2,-6.0332667E-2,-6.801258E-2,-7.255162E-2,-6.30168E-2,-8.747868E-2,-6.417883E-2,-5.8274742E-2,-6.306411E-2,-5.5248633E-2,-6.496589E-2,-4.8451487E-2,-4.3053903E-2,-5.1334143E-2,-5.867693E-2],"categories":[],"categories_nodes":[],"categories_segments":[],"categories_sizes":[],"default_left":[1,1,1,1,1,1,1,1,1,1,1,1,1,1,1,1,1,1,1,1,1,0,0,1,1,1,0,1,1,1,1,1,1,1,1,1,0,1,1,0,0,0,0,1,1,1,1,0,0,1,1,1,1,1,1,1,1,0,0,0,0,0,0,0,0,0,0,0,0,0,0,0,0,0,0,0,0,0,0,0,0,0,0,0,0,0,0,0,0,0,0,0,0,0,0],"id":37,"left_children":[1,3,5,7,9,11,13,15,17,19,21,23,25,27,29,31,33,35,37,39,41,-1,-1,43,45,47,-1,49,51,53,55,57,59,61,63,65,-1,67,69,-1,-1,-1,-1,71,73,75,77,-1,-1,79,81,83,85,87,89,91,93,-1,-1,-1,-1,-1,-1,-1,-1,-1,-1,-1,-1,-1,-1,-1,-1,-1,-1,-1,-1,-1,-1,-1,-1,-1,-1,-1,-1,-1,-1,-1,-1,-1,-1,-1,-1,-1,-1],"loss_changes":[2.475586E-1,1.4395905E-1,1.846466E-1,1.2331009E-1,3.913498E-2,5.1950455E-2,1.3589478E-1,1.18400574E-1,6.2003136E-2,1.8800735E-2,3.4331083E-3,5.080986E-2,2.7939439E-2,2.3762512E-1,1.3435173E-1,6.773186E-2,6.706238E-2,1.0455251E-3,3.4222126E-2,1.5215054E-3,2.4032593E-3,0E0,0E0,3.7596464E-2,5.748558E-2,4.116893E-3,0E0,4.689026E-2,4.6933174E-2,1.7477036E-2,1.31287575E-2,2.8560996E-2,3.4870625E-2,6.1844826E-2,7.040024E-2,2.682209E-3,0E0,6.28829E-3,2.6535988E-2,0E0,0E0,0E0,0E0,8.160949E-3,5.850792E-3,4.7154427E-3,3.658867E-2,0E0,0E0,3.933716E-2,3.2073975E-2,2.4556637E-2,3.92282E-2,1.15242E-2,2.251625E-3,7.6344013E-3,1.4127493E-3,0E0,0E0,0E0,0E0,0E0,0E0,0E0,0E0,0E0,0E0,0E0,0E0,0E0,0E0,0E0,0E0,0E0,0E0,0E0,0E0,0E0,0E0,0E0,0E0,0E0,0E0,0E0,0E0,0E0,0E0,0E0,0E0,0E0,0E0,0E0,0E0,0E0,0E0],"parents":[2147483647,0,0,1,1,2,2,3,3,4,4,5,5,6,6,7,7,8,8,9,9,10,10,11,11,12,12,13,13,14,14,15,15,16,16,17,17,18,18,19,19,20,20,23,23,24,24,25,25,27,27,28,28,29,29,30,30,31,31,32,32,33,33,34,34,35,35,37,37,38,38,43,43,44,44,45,45,46,46,49,49,50,50,51,51,52,52,53,53,54,54,55,55,56,56],"right_children":[2,4,6,8,10,12,14,16,18,20,22,24,26,28,30,32,34,36,38,40,42,-1,-1,44,46,48,-1,50,52,54,56,58,60,62,64,66,-1,68,70,-1,-1,-1,-1,72,74,76,78,-1,-1,80,82,84,86,88,90,92,94,-1,-1,-1,-1,-1,-1,-1,-1,-1,-1,-1,-1,-1,-1,-1,-1,-1,-1,-1,-1,-1,-1,-1,-1,-1,-1,-1,-1,-1,-1,-1,-1,-1,-1,-1,-1,-1,-1],"split_conditions":[-1.5178837E-2,4.441774E-1,-3.3692136E-2,6.014138E-2,3.0817587E-2,9.0202737E-1,9.252285E-1,-3.3803293E-1,-3.371085E-1,-1.7202232E0,1.6762343E-1,5.7068324E-1,-9.4967383E-1,1.203707E-1,3.493365E-2,1.4494455E0,1.1984316E0,1.9977598E0,-1.2553012E0,-6.1099946E-1,-3.0988356E-2,-1.8268554E-2,-1.575379E-2,-2.0343058E0,-2.3959735E-1,2.7274443E-2,-2.7559495E-2,-6.3836336E-1,4.0609717E-1,4.6967207E-3,3.8503847E-1,-1.5315095E-1,2.2105837E0,-1.6965526E-1,-2.2119653E-1,2.760408E-1,-2.4020156E-2,3.3172584E-1,8.8796246E-1,-6.830504E-3,-1.4837123E-2,-2.2062575E-2,-2.0030543E-2,-9.1365266E-1,-7.54501E-1,3.4529783E-2,-9.177823E-2,-2.1490786E-2,-1.4033936E-2,-1.5537321E-4,4.7513947E-2,-4.770927E-1,8.314302E-2,7.559691E-3,5.750519E-1,9.942907E-1,9.903904E-1,-1.329187E-2,-7.1684318E-3,-1.4997937E-2,-1.9889316E-2,-2.1135269E-2,-1.7798156E-2,-1.110754E-2,-1.6947694E-2,-1.8492643E-2,-2.3482196E-2,-1.29865045E-2,-9.831472E-3,-1.4829171E-2,-2.2342257E-2,-2.136372E-2,-3.1041903E-2,-1.5241098E-2,-1.7475285E-2,-2.176669E-2,-2.4485754E-2,-1.8356353E-2,-2.0308848E-2,-1.7139373E-2,-1.8479638E-2,-1.8099802E-2,-2.0403774E-2,-2.1765487E-2,-1.8905042E-2,-2.6243607E-2,-1.925365E-2,-1.7482424E-2,-1.8919235E-2,-1.6574591E-2,-1.9489767E-2,-1.4535447E-2,-1.2916171E-2,-1.5400243E-2,-1.7603079E-2],"split_indices":[0,1,11,11,11,7,6,6,6,4,11,9,8,0,11,5,5,5,3,0,11,0,0,3,11,2,0,8,0,11,1,1,5,11,0,11,0,6,8,0,0,0,0,4,9,8,1,0,0,10,1,9,2,1,1,9,6,0,0,0,0,0,0,0,0,0,0,0,0,0,0,0,0,0,0,0,0,0,0,0,0,0,0,0,0,0,0,0,0,0,0,0,0,0,0],"split_type":[0,0,0,0,0,0,0,0,0,0,0,0,0,0,0,0,0,0,0,0,0,0,0,0,0,0,0,0,0,0,0,0,0,0,0,0,0,0,0,0,0,0,0,0,0,0,0,0,0,0,0,0,0,0,0,0,0,0,0,0,0,0,0,0,0,0,0,0,0,0,0,0,0,0,0,0,0,0,0,0,0,0,0,0,0,0,0,0,0,0,0,0,0,0,0],"sum_hessian":[7.4571E4,2.0903E4,5.3668E4,1.9564E4,1.339E3,5.848E3,4.782E4,1.607E4,3.494E3,8.36E2,5.03E2,5.564E3,2.84E2,4.01E4,7.72E3,1.923E3,1.4147E4,1.99E2,3.295E3,3.9E1,7.97E2,3.71E2,1.32E2,1.094E3,4.47E3,1.66E2,1.18E2,3.8357E4,1.743E3,5.872E3,1.848E3,2.84E2,1.639E3,4.166E3,9.981E3,1.72E2,2.7E1,2.78E2,3.017E3,5E0,3.4E1,5.67E2,2.3E2,6.4E1,1.03E3,5.26E2,3.944E3,1.51E2,1.5E1,1.2764E4,2.5593E4,1.319E3,4.24E2,3.656E3,2.216E3,1.49E3,3.58E2,1.47E2,1.37E2,1.484E3,1.55E2,6.22E2,3.544E3,1.97E2,9.784E3,1.43E2,2.9E1,1.31E2,1.47E2,2.971E3,4.6E1,4.4E1,2E1,2.03E2,8.27E2,3.06E2,2.2E2,1.67E3,2.274E3,1.0046E4,2.718E3,2.4973E4,6.2E2,7.65E2,5.54E2,3.09E2,1.15E2,2.8E3,8.56E2,2.159E3,5.7E1,9.78E2,5.12E2,2.39E2,1.19E2],"tree_param":{"num_deleted":"0","num_feature":"12","num_nodes":"95","size_leaf_vector":"0"}},{"base_weights":[-6.7595996E-2,-6.79729E-2,-6.353738E-2,-6.184178E-2,-6.82249E-2,-6.4660095E-2,-5.797222E-2,-6.257263E-2,-5.4936696E-2,-6.843739E-2,-6.552696E-2,-6.0652286E-2,-6.535116E-2,-4.56032E-2,-5.853055E-2,-5.403642E-2,-6.3196726E-2,-4.8940796E-2,-5.7329793E-2,-6.718644E-2,-6.8753675E-2,-5.673272E-2,-6.5788314E-2,-6.276411E-2,-5.530246E-2,-6.605883E-2,-6.2315084E-2,-5.9699994E-2,-5.1302988E-2,-5.343583E-2,-6.37803E-2,-6.2098198E-2,-4.9992383E-2,-5.5329937E-2,-6.729678E-2,-6.87681E-2,-5.6966085E-2,-4.854606E-2,-6.1879855E-2,-6.632687E-2,-6.167511E-2,-4.266019E-2,-6.354719E-2,-5.1569328E-2,-5.9253454E-2,-6.853777E-2,-6.529298E-2,-6.276178E-2,-4.321386E-2,-6.044078E-2,-4.7760267E-2,-5.5284064E-2,-4.2112436E-2,-6.5683186E-2,-6.1400168E-2,-5.5688888E-2,-2.2887455E-2,-6.742333E-2,-6.247399E-2,-9.0992056E-2,-6.875886E-2,-6.2263522E-2,-6.700932E-2,-4.270894E-2,