{"learner":{"attributes":{"best_iteration":"99","best_ntree_limit":"100","scikit_learn":"{\"n_estimators\": 100, \"objective\": \"reg:squarederror\", \"max_depth\": null, \"max_leaves\": null, \"max_bin\": null, \"grow_policy\": null, \"learning_rate\": null, \"verbosity\": null, \"booster\": null, \"tree_method\": null, \"gamma\": null, \"min_child_weight\": null, \"max_delta_step\": null, \"subsample\": null, \"sampling_method\": null, \"colsample_bytree\": null, \"colsample_bylevel\": null, \"colsample_bynode\": null, \"reg_alpha\": null, \"reg_lambda\": null, \"scale_pos_weight\": null, \"base_score\": null, \"missing\": NaN, \"num_parallel_tree\": null, \"random_state\": null, \"n_jobs\": null, \"monotone_constraints\": null, \"interaction_constraints\": null, \"importance_type\": null, \"gpu_id\": null, \"validate_parameters\": null, \"predictor\": null, \"enable_categorical\": false, \"feature_types\": null, \"max_cat_to_onehot\": null, \"max_cat_threshold\": null, \"eval_metric\": null, \"early_stopping_rounds\": null, \"callbacks\": null, \"evals_result_\": {\"validation_0\": {\"rmse\": [0.4736608822481006, 0.33521103450651063, 0.23886351505378722, 0.17275121235124738, 0.127497311133521, 0.09754240921269054, 0.0781296980917378, 0.06610028166865782, 0.05862791384821517, 0.05411674998270253, 0.05162409748662225, 0.04953094635211003, 0.04807542136345979, 0.0471728492093382, 0.04635459416851813, 0.04589751890549422, 0.04532146826943032, 0.0448326342926683, 0.04402901402031709, 0.04340181826571956, 0.04294724727373484, 0.04277946108823846, 0.04239323468023275, 0.04199667152191986, 0.04169409255761873, 0.04137864086808122, 0.04126292554458417, 0.04109288795044999, 0.04083035915596552, 0.04050517184627671, 0.04040450977162782, 0.04024475902649106, 0.04013319933713873, 0.03995806547176674, 0.03980574939449293, 0.03968552327070789, 0.03962018013192247, 0.03942562529878879, 0.0392965144568233, 0.03918796496555955, 0.03906517256844758, 0.03898293322363979, 0.03873496677239609, 0.03868381195103791, 0.03859929241272136, 0.03848747410429623, 0.0383799401507166, 0.03830289626524769, 0.03820870596923159, 0.03804247204132297, 0.03792523066144356, 0.0378838927076379, 0.03772583795841489, 0.03766359936902186, 0.03755366518672527, 0.03750557944837302, 0.03745560727672854, 0.03738957798750335, 0.03731831902001349, 0.03722414416880606, 0.03711171109135708, 0.03702619139362895, 0.03692894770730051, 0.03682208143549603, 0.03673605038737367, 0.03665183210315877, 0.03658779146251955, 0.0364699417282596, 0.03639083593264357, 0.03635064643123134, 0.03626132373290215, 0.03621653908972453, 0.03615008178872158, 0.03612016270176922, 0.03606759014429135, 0.03601447199725376, 0.03595069789578394, 0.03584478905803409, 0.03572372768973006, 0.03560975982450373, 0.03555417754421453, 0.03551498037227297, 0.0354756306748227, 0.0354324438877093, 0.03532525157451195, 0.03527688579412208, 0.03520420382514002, 0.0351206202461086, 0.03505220247841906, 0.03496708634183993, 0.03492579727295289, 0.03487428448953701, 0.0348542689828685, 0.03478807497389564, 0.03473165669900753, 0.03470333448584964, 0.03466182556727156, 0.0346106649203968, 0.03457572236166877, 0.03448488499590133]}, \"validation_1\": {\"rmse\": [0.41561273092261586, 0.3104675400396831, 0.24931648282647972, 0.21297032549672637, 0.19252350278409291, 0.18520346766953039, 0.18120403369001126, 0.17999808681914967, 0.17738282930791738, 0.1762762402645389, 0.1764763821726454, 0.17808793619363847, 0.17812392440947478, 0.17825732257173008, 0.17847525907553374, 0.17815700409255347, 0.1771643405729001, 0.17566712887520178, 0.17551438017547322, 0.17564218876654725, 0.17557531360947906, 0.17552314584873568, 0.17556604956260038, 0.1747617094608314, 0.17487417137046365, 0.17426187441699467, 0.17404836789668746, 0.17403313614311136, 0.17384835301422955, 0.1736862113277607, 0.1742302842812779, 0.1741240208325563, 0.1739558891622057, 0.17404114104132967, 0.17402638148233543, 0.17424278153106082, 0.17419999525755997, 0.17431611630443272, 0.17405090848978902, 0.17403720161745434, 0.17397657180640955, 0.17394714783929258, 0.17394538504287752, 0.1741749453887526, 0.1739378279326154, 0.17420465769259566, 0.1741187350575409, 0.1742852065665626, 0.17406853683659207, 0.17416802214266122, 0.1742598956005268, 0.17454029607932012, 0.17447180216779812, 0.17443846045818084, 0.1744308957330933, 0.1744207329377663, 0.17437817280982054, 0.17431154222067446, 0.1742272146205833, 0.17417561879010562, 0.174043447924348, 0.17391592119005558, 0.17398581012132133, 0.17387030843354703, 0.17385180441226114, 0.17382632154815889, 0.17399750581039353, 0.17397693473551548, 0.17406874748204143, 0.17388568845749883, 0.17375027339815127, 0.17409649635165447, 0.17393173067494794, 0.1739445388950633, 0.17394409959483578, 0.17373337931148122, 0.1736022639946806, 0.17335004199028714, 0.17338556551177825, 0.1733604343635291, 0.17339538073144142, 0.17328024027143493, 0.17338571207175882, 0.17344269576698793, 0.17332498248400477, 0.1733273725804115, 0.17329489534921894, 0.1732830512171795, 0.17330262821628084, 0.1733050951727139, 0.17334116607509356, 0.17335556759604923, 0.17326690430490901, 0.1731961929669143, 0.17321000783195764, 0.17326923173714517, 0.1730184243368788, 0.17308229438589096, 0.1730431914216348, 0.17299543793366687]}}, \"_estimator_type\": \"regressor\"}"},"feature_names":["Vel X","Vel Y","Vel Z","Gyr X","Gyr Y","Gyr Z"],"feature_types":["float","float","float","float","float","float"],"gradient_booster":{"model":{"gbtree_model_param":{"num_parallel_tree":"1","num_trees":"300","size_leaf_vector":"0"},"tree_info":[0,1,2,0,1,2,0,1,2,0,1,2,0,1,2,0,1,2,0,1,2,0,1,2,0,1,2,0,1,2,0,1,2,0,1,2,0,1,2,0,1,2,0,1,2,0,1,2,0,1,2,0,1,2,0,1,2,0,1,2,0,1,2,0,1,2,0,1,2,0,1,2,0,1,2,0,1,2,0,1,2,0,1,2,0,1,2,0,1,2,0,1,2,0,1,2,0,1,2,0,1,2,0,1,2,0,1,2,0,1,2,0,1,2,0,1,2,0,1,2,0,1,2,0,1,2,0,1,2,0,1,2,0,1,2,0,1,2,0,1,2,0,1,2,0,1,2,0,1,2,0,1,2,0,1,2,0,1,2,0,1,2,0,1,2,0,1,2,0,1,2,0,1,2,0,1,2,0,1,2,0,1,2,0,1,2,0,1,2,0,1,2,0,1,2,0,1,2,0,1,2,0,1,2,0,1,2,0,1,2,0,1,2,0,1,2,0,1,2,0,1,2,0,1,2,0,1,2,0,1,2,0,1,2,0,1,2,0,1,2,0,1,2,0,1,2,0,1,2,0,1,2,0,1,2,0,1,2,0,1,2,0,1,2,0,1,2,0,1,2,0,1,2,0,1,2,0,1,2,0,1,2,0,1,2,0,1,2,0,1,2,0,1,2,0,1,2,0,1,2],"trees":[{"base_weights":[-4.6167108E-1,-6.3913894E-1,-4.365235E-1,-5.4481053E-1,-7.720667E-1,-4.5967835E-1,-2.770458E-1,-5.322764E-1,-1.1056402E0,-1.0044711E0,-6.56008E-1,-4.6290967E-1,-3.9683664E-1,-3.8028383E-1,-1.16257384E-1,-3.8137448E-1,-5.681309E-1,-9.423014E-1,-1.1681296E0,-1.1020631E0,-9.153941E-1,-7.4897623E-1,-6.018644E-1,-4.7713956E-1,-4.5728007E-1,-3.8852927E-1,-5.028828E-1,-3.1752938E-1,-6.812084E-1,-2.2318268E-1,1.1973829E-1,-5.9706354E-1,-3.7654805E-1,-6.0292137E-1,-4.779859E-1,-1.3010628E0,-1.0661376E0,-1.0692253E0,-8.7093616E-1,-8.291193E-1,-7.338283E-1,-3.09627E-1,-6.0937375E-1,-4.749793E-1,-5.5774605E-1,-3.886944E-1,-4.5787784E-1,-1.4123514E-1,-3.922861E-1,-5.2175754E-1,-2.925098E-1,-3.3434218E-1,1.6535223E-1,-7.502063E-1,3.6100373E-1,-2.843572E-1,-1.4790659E-1,1.566948E-2,2.2127181E-1,-3.2959512E-1,-3.91955E-1,-6.7465E-1,-5.679993E-1,-3.805844E-1,-5.412325E-1,-1.3517146E0,-1.0220675E0,-1.2054378E0,-1.0277612E0,-8.212074E-1,-1.1288251E0,-7.788397E-1,-8.9510626E-1,-7.8433645E-1,-9.340155E-1,-6.504993E-1,-7.5259316E-1,-6.4978534E-1,-5.81454E-1,-4.3976945E-1,-4.7943404E-1,-5.4479724E-1,-7.039495E-1,-1.721656E-1,-4.1883188E-1,-4.576034E-1,-5.686355E-1,-1.8862113E-1,-8.112688E-2,-4.2660943E-1,-3.8244542E-1,-3.7924007E-1,-5.393084E-1,-3.5526875E-1,-1.493317E-1,1.1176089E-1,3.6888483E-1,-5.583721E-1,-7.7762866E-1,4.0782753E-1,2.2117935E-1,-3.1733316E-1,-2.6076797E-1,-1.6620222E-1,-7.392009E-2,-2.0283565E-2,5.3614877E-2,1.9044377E-1,3.3983615E-1],"categories":[],"categories_nodes":[],"categories_segments":[],"categories_sizes":[],"default_left":[1,1,1,1,1,1,1,1,1,1,1,1,1,1,1,1,1,0,0,1,1,1,1,1,1,1,1,1,1,1,1,0,1,1,1,1,1,1,1,1,1,0,1,1,1,1,1,1,1,1,0,1,1,1,1,1,1,1,1,0,0,0,0,0,0,0,0,0,0,0,0,0,0,0,0,0,0,0,0,0,0,0,0,0,0,0,0,0,0,0,0,0,0,0,0,0,0,0,0,0,0,0,0,0,0,0,0,0,0],"id":0,"left_children":[1,3,5,7,9,11,13,15,17,19,21,23,25,27,29,31,33,-1,-1,35,37,39,41,43,45,47,49,51,53,55,57,-1,59,61,63,65,67,69,71,73,75,-1,77,79,81,83,85,87,89,91,-1,93,95,97,99,101,103,105,107,-1,-1,-1,-1,-1,-1,-1,-1,-1,-1,-1,-1,-1,-1,-1,-1,-1,-1,-1,-1,-1,-1,-1,-1,-1,-1,-1,-1,-1,-1,-1,-1,-1,-1,-1,-1,-1,-1,-1,-1,-1,-1,-1,-1,-1,-1,-1,-1,-1,-1],"loss_changes":[4.577578E2,1.5927393E2,3.3183398E2,5.1802734E1,1.4186401E2,1.5755859E1,1.8918988E2,3.9236816E1,5.527954E-1,1.4273804E1,1.7302856E1,5.7626953E0,3.19281E0,1.3087872E2,1.1254472E2,1.2357178E0,1.8183838E1,0E0,0E0,4.5753174E0,5.3948975E0,9.624634E-1,4.713928E0,3.4160156E0,2.015625E0,3.262207E0,9.4329834E-1,4.6704773E1,8.634772E1,1.4090607E1,1.4694496E1,0E0,8.654938E-1,1.0252686E1,9.927704E0,3.5662842E-1,2.5673218E0,2.0737305E0,9.1223145E-1,1.9754028E-1,1.225769E0,0E0,2.0784912E0,3.0195312E0,6.501312E-1,2.988411E0,1.3525391E0,1.413536E-1,1.0247192E0,4.2580414E-1,0E0,2.1446106E1,2.0748444E0,5.4734497E0,4.0083027E-1,1.233429E0,1.8530159E0,9.396933E-1,2.5084763E0,0E0,0E0,0E0,0E0,0E0,0E0,0E0,0E0,0E0,0E0,0E0,0E0,0E0,0E0,0E0,0E0,0E0,0E0,0E0,0E0,0E0,0E0,0E0,0E0,0E0,0E0,0E0,0E0,0E0,0E0,0E0,0E0,0E0,0E0,0E0,0E0,0E0,0E0,0E0,0E0,0E0,0E0,0E0,0E0,0E0,0E0,0E0,0E0,0E0,0E0],"parents":[2147483647,0,0,1,1,2,2,3,3,4,4,5,5,6,6,7,7,8,8,9,9,10,10,11,11,12,12,13,13,14,14,15,15,16,16,19,19,20,20,21,21,22,22,23,23,24,24,25,25,26,26,27,27,28,28,29,29,30,30,32,32,33,33,34,34,35,35,36,36,37,37,38,38,39,39,40,40,42,42,43,43,44,44,45,45,46,46,47,47,48,48,49,49,51,51,52,52,53,53,54,54,55,55,56,56,57,57,58,58],"right_children":[2,4,6,8,10,12,14,16,18,20,22,24,26,28,30,32,34,-1,-1,36,38,40,42,44,46,48,50,52,54,56,58,-1,60,62,64,66,68,70,72,74,76,-1,78,80,82,84,86,88,90,92,-1,94,96,98,100,102,104,106,108,-1,-1,-1,-1,-1,-1,-1,-1,-1,-1,-1,-1,-1,-1,-1,-1,-1,-1,-1,-1,-1,-1,-1,-1,-1,-1,-1,-1,-1,-1,-1,-1,-1,-1,-1,-1,-1,-1,-1,-1,-1,-1,-1,-1,-1,-1,-1,-1,-1,-1],"split_conditions":[-6.811294E-2,3.1982484E-1,8.381371E-2,1.1723024E-1,-2.451523E-1,3.6054693E-2,4.5172492E-1,-7.108655E-1,1.4500213E-1,-3.8469714E-1,-1.4654657E-1,-1.0469802E-2,2.9317513E-1,3.0160103E-2,2.86309E-1,-1.5800514E0,4.327292E-3,-2.8269044E-1,-3.504389E-1,9.935207E-1,-1.8773167E0,-1.3410383E0,-4.7878668E-2,1.334257E-1,-1.4284636E-1,-3.2941677E-2,1.7597417E0,1.0841359E-1,7.2719485E-2,1.619902E-1,4.1508764E-1,-1.7911907E-1,-1.944064E-2,-1.3340616E-2,-1.6151378E-2,5.288205E-1,-5.970268E-1,-1.0317198E0,-1.1799826E-2,3.2418215E-1,-1.8132259E-1,-9.28881E-2,-1.0169058E-1,2.4624608E-1,1.7529569E0,-2.9205205E-2,4.4783095E-1,-4.9239814E-1,1.2264864E0,-8.697226E-1,-8.775294E-2,8.363922E-1,1.8745744E-1,-5.962682E-1,4.9739897E-1,1.0703428E-1,1.3410382E0,3.4484524E-1,5.967612E-1,-9.887854E-2,-1.175865E-1,-2.02395E-1,-1.703998E-1,-1.1417532E-1,-1.6236976E-1,-4.055144E-1,-3.0662027E-1,-3.6163133E-1,-3.083284E-1,-2.4636222E-1,-3.3864754E-1,-2.3365192E-1,-2.685319E-1,-2.3530094E-1,-2.8020465E-1,-1.951498E-1,-2.2577795E-1,-1.949356E-1,-1.744362E-1,-1.3193084E-1,-1.4383022E-1,-1.6343918E-1,-2.1118486E-1,-5.1649682E-2,-1.2564957E-1,-1.3728103E-1,-1.7059067E-1,-5.6586344E-2,-2.4338067E-2,-1.2798284E-1,-1.1473363E-1,-1.1377203E-1,-1.6179253E-1,-1.0658063E-1,-4.4799514E-2,3.352827E-2,1.10665455E-1,-1.6751163E-1,-2.332886E-1,1.22348264E-1,6.6353805E-2,-9.519995E-2,-7.8230396E-2,-4.9860667E-2,-2.217603E-2,-6.08507E-3,1.6084464E-2,5.7133134E-2,1.0195085E-1],"split_indices":[1,5,1,2,1,1,5,0,2,1,1,1,0,5,1,4,5,0,0,5,4,4,2,0,0,5,4,2,2,1,1,0,2,2,2,0,1,3,2,3,0,0,1,5,3,5,0,0,5,4,0,1,2,0,0,1,4,1,1,0,0,0,0,0,0,0,0,0,0,0,0,0,0,0,0,0,0,0,0,0,0,0,0,0,0,0,0,0,0,0,0,0,0,0,0,0,0,0,0,0,0,0,0,0,0,0,0,0,0],"split_type":[0,0,0,0,0,0,0,0,0,0,0,0,0,0,0,0,0,0,0,0,0,0,0,0,0,0,0,0,0,0,0,0,0,0,0,0,0,0,0,0,0,0,0,0,0,0,0,0,0,0,0,0,0,0,0,0,0,0,0,0,0,0,0,0,0,0,0,0,0,0,0,0,0,0,0,0,0,0,0,0,0,0,0,0,0,0,0,0,0,0,0,0,0,0,0,0,0,0,0,0,0,0,0,0,0,0,0,0,0],"sum_hessian":[1.02631E5,1.2735E4,8.9896E4,7.452E3,5.283E3,7.8497E4,1.1399E4,7.291E3,1.61E2,1.757E3,3.526E3,7.4652E4,3.845E3,6.941E3,4.458E3,1.402E3,5.889E3,4.9E1,1.12E2,8.33E2,9.24E2,1.293E3,2.233E3,2.1138E4,5.3514E4,3.57E3,2.75E2,5.745E3,1.196E3,3.068E3,1.39E3,2.8E1,1.374E3,4.245E3,1.644E3,1.22E2,7.11E2,2.02E2,7.22E2,1.97E2,1.096E3,5.7E1,2.176E3,2.0593E4,5.45E2,4.68E2,5.3046E4,5.4E1,3.516E3,2.51E2,2.4E1,5.552E3,1.93E2,1.122E3,7.4E1,1.691E3,1.377E3,6.87E2,7.03E2,3.45E2,1.029E3,1.384E3,2.861E3,6.5E2,9.94E2,1E2,2.2E1,1.47E2,5.64E2,4.2E1,1.6E2,1.57E2,5.65E2,1.44E2,5.3E1,2.08E2,8.88E2,8.8E2,1.296E3,2.324E3,1.8269E4,5.05E2,4E1,5.8E1,4.1E2,5.292E4,1.26E2,2.9E1,2.5E1,7.74E2,2.742E3,3E1,2.21E2,4.987E3,5.65E2,1.54E2,3.9E1,1.43E2,9.79E2,5.4E1,2E1,7E2,9.91E2,1.103E3,2.74E2,3.53E2,3.34E2,5.6E2,1.43E2],"tree_param":{"num_deleted":"0","num_feature":"6","num_nodes":"109","size_leaf_vector":"0"}},{"base_weights":[-4.6948212E-1,-2.8668442E-1,-4.9295828E-1,-3.9344704E-1,-1.2667325E-1,-4.7229445E-1,-6.4274746E-1,-3.2395345E-1,-6.614136E-1,1.3241927E-1,-2.3796831E-1,-4.6848163E-1,-5.351077E-1,-5.364752E-1,-8.6001855E-1,-2.3681775E-1,-4.141908E-1,-5.9014374E-1,-8.2343376E-1,2.2262089E-1,3.2432113E-2,-1.3964133E-1,-2.9484704E-1,-4.4500974E-1,-4.7387806E-1,-4.6972483E-1,-5.664901E-1,-7.5984335E-1,-4.7672936E-1,-7.5957286E-1,-1.0902504E0,1.0233366E-1,-2.610907E-1,-3.3095503E-1,-4.8793662E-1,-7.3210007E-1,-4.1129866E-1,-9.718333E-1,-7.474427E-1,3.8108206E-1,1.8753365E-1,4.9324416E-2,-7.253992E-2,-8.8079065E-2,-1.7153144E-1,-2.50983E-1,-3.1738248E-1,-3.9359525E-1,-4.51678E-1,-4.6863225E-1,-4.8138547E-1,-4.9541432E-1,-3.218911E-1,-5.325758E-1,-5.865236E-1,-8.745634E-1,-6.74838E-1,-5.1055795E-1,-2.0697638E-1,-7.0931774E-1,-8.444564E-1,-1.0382627E0,-1.2148944E0,2.4542989E-1,-3.967507E-3,-1.006758E-1,-3.193339E-1,1.9329028E-1,-3.4107E-1,-4.720899E-1,-7.8400844E-1,-6.418507E-1,-8.511261E-1,-1.7721532E-2,-4.3755746E-1,-7.5222325E-1,-2.1279936E-1,4.076349E-1,3.3331108E-1,1.6600637E-1,3.585594E-1,1.6963163E-1,2.551008E-2,1.3363177E-1,-1.1076821E-1,-9.585713E-2,3.1092705E-2,-1.5965922E-1,-2.1964288E-1,-2.0853132E-1,-2.61546E-1,-3.1157523E-1,-4.1177726E-1,-3.8357016E-1,-5.382036E-1,-4.9350116E-1,-4.4694892E-1,-4.6548554E-1,-4.8403704E-1,-4.4882601E-1,-4.8312908E-1,-4.7554278E-1,-5.9526104E-1,-4.9617726E-1,-3.0131593E-1,-5.389259E-1,-4.0079787E-1,-5.8169794E-1,-6.697526E-1,-6.987698E-1,-9.4556636E-1,-5.820126E-2,-7.0117754E-1,-4.9411452E-1,-9.1648644E-1,-5.1393545E-1,-1.0713747E-1,-6.5448844E-1,-7.374185E-1,-8.251582E-1,-9.935901E-1,-9.660361E-1,-1.1267403E0],"categories":[],"categories_nodes":[],"categories_segments":[],"categories_sizes":[],"default_left":[1,1,1,1,1,1,1,1,1,1,1,1,1,1,1,1,1,1,1,1,1,1,1,1,1,1,1,1,1,1,1,1,1,1,1,1,1,0,1,1,1,1,1,1,1,1,1,1,1,1,1,1,1,1,1,1,1,1,1,1,1,1,0,0,0,0,0,0,0,0,0,0,0,0,0,0,0,0,0,0,0,0,0,0,0,0,0,0,0,0,0,0,0,0,0,0,0,0,0,0,0,0,0,0,0,0,0,0,0,0,0,0,0,0,0,0,0,0,0,0,0,0,0],"id":1,"left_children":[1,3,5,7,9,11,13,15,17,19,21,23,25,27,29,31,33,35,37,39,41,43,45,47,49,51,53,55,57,59,61,63,65,67,69,71,73,-1,75,77,79,81,83,85,87,89,91,93,95,97,99,101,103,105,107,109,111,113,115,117,119,121,-1,-1,-1,-1,-1,-1,-1,-1,-1,-1,-1,-1,-1,-1,-1,-1,-1,-1,-1,-1,-1,-1,-1,-1,-1,-1,-1,-1,-1,-1,-1,-1,-1,-1,-1,-1,-1,-1,-1,-1,-1,-1,-1,-1,-1,-1,-1,-1,-1,-1,-1,-1,-1,-1,-1,-1,-1,-1,-1,-1,-1],"loss_changes":[4.4028906E2,1.9953333E2,2.8120703E2,1.3026965E2,1.3489615E2,1.8892578E1,2.540586E2,4.366681E1,1.61651E1,1.2673498E1,1.8258194E1,9.3359375E0,9.104736E0,9.845972E1,8.286401E1,2.3356796E1,1.6614471E1,2.521402E1,4.2129517E0,4.037346E0,1.1880884E0,1.9597263E0,1.9685059E0,4.657959E0,2.1865234E0,5.4878235E0,1.7808838E0,1.4632385E1,5.3232056E1,1.0163574E1,5.847168E0,2.89112E0,2.4680298E1,6.890518E0,6.4188843E0,5.458435E0,4.611931E0,0E0,5.9135437E-1,3.2836914E-2,2.1752796E0,1.6459339E0,7.4779034E-1,4.3029356E-1,3.881836E-1,2.6293564E-1,6.199646E-1,2.152237E0,2.2473145E0,1.5249023E0,1.2114258E0,2.2268066E0,6.5016365E-1,7.505493E-1,3.8433838E-1,7.5897827E0,1.459317E1,3.420984E1,1.9957073E1,1.968689E0,1.8653564E0,3.9025269E0,0E0,0E0,0E0,0E0,0E0,0E0,0E0,0E0,0E0,0E0,0E0,0E0,0E0,0E0,0E0,0E0,0E0,0E0,0E0,0E0,0E0,0E0,0E0,0E0,0E0,0E0,0E0,0E0,0E0,0E0,0E0,0E0,0E0,0E0,0E0,0E0,0E0,0E0,0E0,0E0,0E0,0E0,0E0,0E0,0E0,0E0,0E0,0E0,0E0,0E0,0E0,0E0,0E0,0E0,0E0,0E0,0E0,0E0,0E0,0E0,0E0],"parents":[2147483647,0,0,1,1,2,2,3,3,4,4,5,5,6,6,7,7,8,8,9,9,10,10,11,11,12,12,13,13,14,14,15,15,16,16,17,17,18,18,19,19,20,20,21,21,22,22,23,23,24,24,25,25,26,26,27,27,28,28,29,29,30,30,31,31,32,32,33,33,34,34,35,35,36,36,38,38,39,39,40,40,41,41,42,42,43,43,44,44,45,45,46,46,47,47,48,48,49,49,50,50,51,51,52,52,53,53,54,54,55,55,56,56,57,57,58,58,59,59,60,60,61,61],"right_children":[2,4,6,8,10,12,14,16,18,20,22,24,26,28,30,32,34,36,38,40,42,44,46,48,50,52,54,56,58,60,62,64,66,68,70,72,74,-1,76,78,80,82,84,86,88,90,92,94,96,98,100,102,104,106,108,110,112,114,116,118,120,122,-1,-1,-1,-1,-1,-1,-1,-1,-1,-1,-1,-1,-1,-1,-1,-1,-1,-1,-1,-1,-1,-1,-1,-1,-1,-1,-1,-1,-1,-1,-1,-1,-1,-1,-1,-1,-1,-1,-1,-1,-1,-1,-1,-1,-1,-1,-1,-1,-1,-1,-1,-1,-1,-1,-1,-1,-1,-1,-1,-1,-1],"split_conditions":[-8.252096E-2,5.585369E-1,1.170392E-1,1.50391795E-2,-2.9316336E-1,3.9599895E-2,4.5024315E-1,-2.018078E-2,1.6681454E-1,-4.15603E-1,-1.821717E-1,-1.8051542E-2,1.4558433E0,-6.9784574E-2,3.4749103E-1,-1.3250048E0,6.7171305E-2,-7.8563094E-1,-3.9205454E-2,-6.2150854E-1,3.6875808E-1,-2.3948497E-1,-1.3686071E-1,-1.7624229E-1,5.376426E-3,2.1214345E-1,5.900097E-2,-1.3044551E-1,8.435566E-1,2.2447516E-1,1.7115111E0,-5.0186443E-1,-7.5751954E-1,-1.2456189E0,5.3668E-1,-3.663713E-1,-1.0369722E0,-2.9155E-1,1.1387121E-1,-6.690473E-1,2.6805816E0,1.3014519E0,-4.069899E-2,2.2691038E-2,1.2815237E0,-8.82578E-1,1.5937657E0,4.183611E0,4.2321813E-1,4.3540316E0,8.426063E-2,1.44467E-1,-7.290605E-1,2.1120925E0,1.2697339E0,3.5016888E-1,-3.8625136E-2,3.0676018E-2,-7.525337E-1,1.4539158E-1,2.0619664E0,4.6862823E-1,-3.6446834E-1,7.362897E-2,-1.1902521E-3,-3.020274E-2,-9.5800176E-2,5.7987086E-2,-1.0232101E-1,-1.4162697E-1,-2.3520254E-1,-1.9255522E-1,-2.5533783E-1,-5.3164596E-3,-1.3126725E-1,-2.2566698E-1,-6.383981E-2,1.2229048E-1,9.9993326E-2,4.9801912E-2,1.07567824E-1,5.0889492E-2,7.6530245E-3,4.0089533E-2,-3.3230465E-2,-2.875714E-2,9.327812E-3,-4.7897767E-2,-6.589287E-2,-6.2559396E-2,-7.84638E-2,-9.347257E-2,-1.2353318E-1,-1.1507105E-1,-1.6146109E-1,-1.4805035E-1,-1.3408469E-1,-1.3964567E-1,-1.4521112E-1,-1.3464782E-1,-1.4493874E-1,-1.4266284E-1,-1.7857832E-1,-1.4885318E-1,-9.039478E-2,-1.6167778E-1,-1.2023937E-1,-1.7450939E-1,-2.0092578E-1,-2.0963095E-1,-2.8366992E-1,-1.746038E-2,-2.1035327E-1,-1.4823437E-1,-2.7494594E-1,-1.5418065E-1,-3.2141242E-2,-1.9634654E-1,-2.2122554E-1,-2.4754746E-1,-2.9807705E-1,-2.8981084E-1,-3.380221E-1],"split_indices":[0,5,0,5,0,0,5,5,1,0,0,0,5,5,0,3,1,0,2,0,1,0,0,3,0,4,0,5,0,0,4,0,0,3,1,1,3,0,2,0,4,5,2,2,3,4,3,5,5,5,5,3,3,5,3,0,2,2,3,0,4,0,0,0,0,0,0,0,0,0,0,0,0,0,0,0,0,0,0,0,0,0,0,0,0,0,0,0,0,0,0,0,0,0,0,0,0,0,0,0,0,0,0,0,0,0,0,0,0,0,0,0,0,0,0,0,0,0,0,0,0,0,0],"split_type":[0,0,0,0,0,0,0,0,0,0,0,0,0,0,0,0,0,0,0,0,0,0,0,0,0,0,0,0,0,0,0,0,0,0,0,0,0,0,0,0,0,0,0,0,0,0,0,0,0,0,0,0,0,0,0,0,0,0,0,0,0,0,0,0,0,0,0,0,0,0,0,0,0,0,0,0,0,0,0,0,0,0,0,0,0,0,0,0,0,0,0,0,0,0,0,0,0,0,0,0,0,0,0,0,0,0,0,0,0,0,0,0,0,0,0,0,0,0,0,0,0,0,0],"sum_hessian":[1.02631E5,1.1682E4,9.0949E4,7.006E3,4.676E3,7.9927E4,1.1022E4,5.565E3,1.441E3,1.405E3,3.271E3,7.5361E4,4.566E3,7.404E3,3.618E3,2.833E3,2.732E3,1.004E3,4.37E2,7.38E2,6.67E2,1.2E3,2.071E3,1.4103E4,6.1258E4,1.486E3,3.08E3,1.56E3,5.844E3,2.522E3,1.096E3,1.89E2,2.644E3,1.286E3,1.446E3,5.58E2,4.46E2,1.44E2,2.93E2,1.32E2,6.06E2,5.75E2,9.2E1,4.6E2,7.4E2,7.07E2,1.364E3,1.626E3,1.2477E4,3.6098E4,2.516E4,1.264E3,2.22E2,1.154E3,1.926E3,6.6E2,9E2,5.192E3,6.52E2,1.59E3,9.32E2,7.8E2,3.16E2,8E1,1.09E2,7.05E2,1.939E3,2.4E1,1.262E3,1.375E3,7.1E1,3.21E2,2.37E2,2.8E1,4.18E2,2.9E2,3E0,8E1,5.2E1,5.4E2,6.6E1,9.4E1,4.81E2,1.4E1,7.8E1,4.32E2,2.8E1,5.97E2,1.43E2,1.45E2,5.62E2,1.289E3,7.5E1,1.524E3,1.02E2,1.257E3,1.122E4,3.0001E4,6.097E3,1.292E3,2.3868E4,1.059E3,2.05E2,2.1E1,2.01E2,1.098E3,5.6E1,1.828E3,9.8E1,1.93E2,4.67E2,3.7E1,8.63E2,4.992E3,2E2,1.59E2,4.93E2,5.47E2,1.043E3,8.31E2,1.01E2,4.36E2,3.44E2],"tree_param":{"num_deleted":"0","num_feature":"6","num_nodes":"123","size_leaf_vector":"0"}},{"base_weights":[-9.165705E-1,-7.610611E-1,-9.7704786E-1,-7.782749E-1,-1.3051347E-1,-9.822646E-1,-2.8217098E-1,-2.192815E-1,-7.921915E-1,-2.1550237E-1,2.193777E-1,-4.1527042E-1,-9.8842496E-1,-4.1660056E-1,8.087754E-2,1.0558508E-1,-3.0659318E-1,-8.278032E-1,-6.4429593E-1,-2.8059658E-1,1.5830156E-1,2.7507874E-1,-7.013069E-2,-2.4219999E-1,-6.0042423E-1,-4.536633E-1,-9.905574E-1,-2.5198227E-1,-5.239542E-1,2.2282E-1,5.070649E-2,1.4027955E-1,-2.906352E-1,-3.5280344E-1,5.9782192E-2,-4.118485E-1,-8.4214264E-1,-6.8298286E-1,-3.3118576E-1,2.2480002E-1,-3.171551E-1,-1.12377845E-1,2.0426625E-1,1.1585865E-1,2.9082245E-1,-2.9808879E-2,-9.968291E-2,-1.4093499E-1,-4.8289958E-1,-6.3689643E-1,-1.1786777E-1,-1.3724746E-1,-5.999916E-1,-9.928385E-1,-6.7331994E-1,-7.7094875E-2,-3.5789266E-1,-5.6987756E-1,-3.3989224E-1,1.2509355E-1,2.9765028E-1,-1.051536E-1,6.9736265E-2,1.9542708E-1,1.0178269E-1,-3.059488E-1,-6.1092794E-2,-3.58619E-2,-3.732397E-1,-1.5998827E-1,1.0089608E-1,-4.7234517E-1,-9.07288E-3,-7.598896E-1,-8.844664E-1,-6.886431E-1,-1.5151772E-1,-4.1883162E-1,-9.166922E-2,1.4554487E-1,2.9596934E-1,-2.8115442E-1,-6.504987E-1,-1.2564172E-1,3.0026257E-2,2.3829725E-1,1.2573007E-1,-2.2202376E-2,2.3736843E-1,3.1344035E-1,1.6123599E-1,7.530421E-3,-3.3887945E-2,-2.1783574E-1,-2.3705963E-2,-3.5346386E-1,-5.1631767E-1,-4.7149077E-1,-6.8424577E-1,-2.3177822E-1,-6.071467E-2,-1.7097002E-1,-9.222793E-2,-6.4372987E-1,-4.414711E-1,-9.963107E-1,-8.698024E-1,-7.5900066E-1,-5.171434E-1,8.700079E-2,-8.401474E-2,-4.1230336E-1,-2.4506411E-1,-4.481232E-1,-6.2962294E-1,-3.3144303E-2,-1.9564193E-1,8.942479E-2,1.1732578E-3],"categories":[],"categories_nodes":[],"categories_segments":[],"categories_sizes":[],"default_left":[1,1,1,1,1,1,1,1,1,1,1,1,1,1,1,1,1,1,1,1,1,1,1,1,1,1,1,1,1,1,1,1,1,1,1,1,1,1,1,1,1,1,1,1,1,1,0,1,1,1,1,1,1,1,1,1,1,1,0,0,0,1,1,0,0,0,0,0,0,0,0,0,0,0,0,0,0,0,0,0,0,0,0,0,0,0,0,0,0,0,0,0,0,0,0,0,0,0,0,0,0,0,0,0,0,0,0,0,0,0,0,0,0,0,0,0,0,0,0],"id":2,"left_children":[1,3,5,7,9,11,13,15,17,19,21,23,25,27,29,31,33,35,37,39,41,43,45,47,49,51,53,55,57,59,61,63,65,67,69,71,73,75,77,79,81,83,85,87,89,91,-1,93,95,97,99,101,103,105,107,109,111,113,-1,-1,-1,115,117,-1,-1,-1,-1,-1,-1,-1,-1,-1,-1,-1,-1,-1,-1,-1,-1,-1,-1,-1,-1,-1,-1,-1,-1,-1,-1,-1,-1,-1,-1,-1,-1,-1,-1,-1,-1,-1,-1,-1,-1,-1,-1,-1,-1,-1,-1,-1,-1,-1,-1,-1,-1,-1,-1,-1,-1],"loss_changes":[9.644922E2,3.118672E2,2.6758594E2,2.1747656E2,2.2795975E1,2.5575781E2,2.6973755E1,1.9348698E1,1.4324023E2,1.503322E1,2.4381795E0,2.5169846E1,8.228125E1,6.989937E0,6.310845E-1,2.0340347E0,9.112667E0,1.3085645E2,6.3998535E1,9.771492E0,1.1675906E0,2.8215218E-1,2.6818544E-2,9.925468E0,6.630493E0,1.334483E1,5.1632812E1,2.9545135E0,1.860321E0,1.5290117E-1,3.7808082E-1,2.645917E-1,2.349019E-2,3.076191E0,5.67315E-1,1.7905151E1,7.334961E1,1.4088135E1,1.2242302E1,1.5998256E-1,5.697403E0,3.0216187E-2,1.8117976E-1,2.2335508E-1,2.8359413E-1,2.0829048E-3,0E0,2.6091862E0,3.4088326E-1,2.4498444E0,1.6821706E-1,1.2542188E-1,1.088623E0,2.978125E1,6.5523834E0,7.771158E-2,5.128679E-1,1.1217842E0,0E0,0E0,0E0,8.473961E-2,1.5108436E-1,0E0,0E0,0E0,0E0,0E0,0E0,0E0,0E0,0E0,0E0,0E0,0E0,0E0,0E0,0E0,0E0,0E0,0E0,0E0,0E0,0E0,0E0,0E0,0E0,0E0,0E0,0E0,0E0,0E0,0E0,0E0,0E0,0E0,0E0,0E0,0E0,0E0,0E0,0E0,0E0,0E0,0E0,0E0,0E0,0E0,0E0,0E0,0E0,0E0,0E0,0E0,0E0,0E0,0E0,0E0,0E0],"parents":[2147483647,0,0,1,1,2,2,3,3,4,4,5,5,6,6,7,7,8,8,9,9,10,10,11,11,12,12,13,13,14,14,15,15,16,16,17,17,18,18,19,19,20,20,21,21,22,22,23,23,24,24,25,25,26,26,27,27,28,28,29,29,30,30,31,31,32,32,33,33,34,34,35,35,36,36,37,37,38,38,39,39,40,40,41,41,42,42,43,43,44,44,45,45,47,47,48,48,49,49,50,50,51,51,52,52,53,53,54,54,55,55,56,56,57,57,61,61,62,62],"right_children":[2,4,6,8,10,12,14,16,18,20,22,24,26,28,30,32,34,36,38,40,42,44,46,48,50,52,54,56,58,60,62,64,66,68,70,72,74,76,78,80,82,84,86,88,90,92,-1,94,96,98,100,102,104,106,108,110,112,114,-1,-1,-1,116,118,-1,-1,-1,-1,-1,-1,-1,-1,-1,-1,-1,-1,-1,-1,-1,-1,-1,-1,-1,-1,-1,-1,-1,-1,-1,-1,-1,-1,-1,-1,-1,-1,-1,-1,-1,-1,-1,-1,-1,-1,-1,-1,-1,-1,-1,-1,-1,-1,-1,-1,-1,-1,-1,-1,-1,-1],"split_conditions":[1.6214187E0,1.8332696E0,1.6378306E0,-1.7624474E0,2.7525969E0,-1.4932823E0,2.564991E0,-2.7372632E0,1.6437268E-1,1.152017E-1,7.619789E-1,-2.051418E0,-1.7820823E0,-1.4436733E-2,-5.0349474E-1,1.0966757E-1,1.6903815E0,-1.7087966E0,1.9602808E0,-1.8396516E0,-4.6399076E-2,2.7918139E0,2.8754034E0,8.249558E-3,3.9668387E-1,-3.6997918E-2,1.4294786E0,1.593553E-1,2.9188484E-1,2.8054576E0,-2.0610966E-1,-1.4217886E-1,-4.9461848E-1,-2.1506166E0,-3.252889E-3,5.2577806E-1,-3.979308E-2,1.5828115E-1,2.7931108E0,5.5855036E-1,7.412727E-2,2.161748E0,5.1464826E-1,5.2620775E-1,3.4952207E0,7.719555E-1,-2.9904874E-2,2.2576885E-1,-2.3460038E-1,-8.000181E-3,1.7276778E0,1.5099293E-1,2.2869524E-1,6.013888E-1,2.0416675E0,-6.959866E-1,-1.2008261E-1,-5.535245E-1,-1.0196768E-1,3.7528068E-2,8.929509E-2,-4.79435E-1,-2.1560654E-1,5.8628123E-2,3.0534808E-2,-9.178464E-2,-1.832784E-2,-1.0758569E-2,-1.11971915E-1,-4.7996484E-2,3.0268826E-2,-1.4170356E-1,-2.7218643E-3,-2.2796689E-1,-2.6533994E-1,-2.0659293E-1,-4.5455318E-2,-1.256495E-1,-2.7500765E-2,4.3663464E-2,8.8790804E-2,-8.434633E-2,-1.9514962E-1,-3.7692517E-2,9.007878E-3,7.148918E-2,3.7719022E-2,-6.6607133E-3,7.121053E-2,9.403211E-2,4.8370797E-2,2.2591264E-3,-1.0166384E-2,-6.5350726E-2,-7.111789E-3,-1.0603916E-1,-1.548953E-1,-1.4144723E-1,-2.0527373E-1,-6.953347E-2,-1.82144E-2,-5.1291008E-2,-2.766838E-2,-1.9311897E-1,-1.3244134E-1,-2.988932E-1,-2.6094073E-1,-2.277002E-1,-1.5514304E-1,2.6100237E-2,-2.5204424E-2,-1.23691015E-1,-7.351924E-2,-1.3443696E-1,-1.888869E-1,-9.943292E-3,-5.8692582E-2,2.6827438E-2,3.5197736E-4],"split_indices":[5,4,4,4,4,4,4,4,3,2,0,4,3,2,1,2,3,3,3,3,0,4,4,2,0,2,3,0,0,4,1,1,0,3,2,1,1,2,3,0,2,4,0,0,4,0,0,0,1,2,5,0,1,4,3,1,1,3,0,0,0,0,0,0,0,0,0,0,0,0,0,0,0,0,0,0,0,0,0,0,0,0,0,0,0,0,0,0,0,0,0,0,0,0,0,0,0,0,0,0,0,0,0,0,0,0,0,0,0,0,0,0,0,0,0,0,0,0,0],"split_type":[0,0,0,0,0,0,0,0,0,0,0,0,0,0,0,0,0,0,0,0,0,0,0,0,0,0,0,0,0,0,0,0,0,0,0,0,0,0,0,0,0,0,0,0,0,0,0,0,0,0,0,0,0,0,0,0,0,0,0,0,0,0,0,0,0,0,0,0,0,0,0,0,0,0,0,0,0,0,0,0,0,0,0,0,0,0,0,0,0,0,0,0,0,0,0,0,0,0,0,0,0,0,0,0,0,0,0,0,0,0,0,0,0,0,0,0,0,0,0],"sum_hessian":[1.02631E5,2.8741E4,7.389E4,2.7977E4,7.64E2,7.3339E4,5.51E2,6.8E2,2.7297E4,6.15E2,1.49E2,7.89E2,7.255E4,4.02E2,1.49E2,1.44E2,5.36E2,2.1996E4,5.301E3,5.24E2,9.1E1,1.25E2,2.4E1,4.09E2,3.8E2,2.89E2,7.2261E4,1.6E2,2.42E2,2.5E1,1.24E2,1.33E2,1.1E1,4.76E2,6E1,7.34E2,2.1262E4,4.717E3,5.84E2,3.5E1,4.89E2,1.3E1,7.8E1,1.2E1,1.13E2,1.1E1,1.3E1,2.89E2,1.2E2,3.53E2,2.7E1,9.2E1,1.97E2,7.1743E4,5.18E2,6.1E1,9.9E1,1.92E2,5E1,1.2E1,1.3E1,1.3E1,1.11E2,5.3E1,8E1,1E1,1E0,2.9E1,4.47E2,9E0,5.1E1,6.38E2,9.6E1,7.23E3,1.4032E4,4.667E3,5E1,4.27E2,1.57E2,1.8E1,1.7E1,4.43E2,4.6E1,1.2E1,1E0,5.3E1,2.5E1,6E0,6E0,9.5E1,1.8E1,1E0,1E1,1.74E2,1.15E2,2.7E1,9.3E1,8.1E1,2.72E2,8E0,1.9E1,5.1E1,4.1E1,1.52E2,4.5E1,6.9767E4,1.976E3,3.32E2,1.86E2,2E0,5.9E1,6.5E1,3.4E1,6.6E1,1.26E2,8E0,5E0,8.6E1,2.5E1],"tree_param":{"num_deleted":"0","num_feature":"6","num_nodes":"119","size_leaf_vector":"0"}},{"base_weights":[-3.2324442E-1,-4.460144E-1,-3.0525416E-1,-3.8100588E-1,-5.3403264E-1,-3.2167163E-1,-1.9502552E-1,-3.723328E-1,-7.816623E-1,-6.945651E-1,-4.4950897E-1,-3.248887E-1,-2.9161647E-1,-2.6648128E-1,-8.647402E-2,-2.6695165E-1,-3.9716148E-1,-6.8985844E-1,-8.378048E-1,-7.53009E-1,-6.078845E-1,-5.013388E-1,-4.064728E-1,-3.5578474E-1,-3.2353777E-1,-2.4956639E-1,-2.9974595E-1,-2.2057362E-1,-4.708363E-1,-1.6537185E-1,7.5081214E-2,-4.407833E-1,-2.6362836E-1,-5.203104E-1,-3.820919E-1,-7.196664E-1,-8.6334944E-1,-6.8802583E-1,-5.8118176E-1,-5.299928E-1,-4.7169015E-1,-2.1331726E-1,-4.125421E-1,-3.638579E-1,-2.3507297E-1,-3.2683653E-1,-3.1649092E-1,-9.820775E-2,-2.5794137E-1,-3.3953455E-1,-2.9425037E-1,-2.3237118E-1,1.1648983E-1,-5.225095E-1,1.8085116E-1,-2.0713781E-1,-1.1466364E-1,1.4026479E-4,1.5111965E-1,-1.6956685E-1,-2.6834548E-1,-5.435472E-1,-4.773429E-1,-4.0001923E-1,-3.175858E-1,-9.144399E-1,-6.9992447E-1,-9.7502375E-1,-8.1192404E-1,-6.2948424E-1,-7.7049613E-1,-5.038088E-1,-6.006892E-1,-2.318731E-1,-5.3187764E-1,-4.757548E-1,-3.1688738E-1,-4.6118146E-1,-4.0555948E-1,-3.2721326E-1,-3.800901E-1,-3.2649857E-1,-3.8402018E-1,-3.141403E-1,-3.323657E-1,-6.57631E-2,-1.4559324E-1,-2.6436663E-1,-1.8205874E-1,-2.99421E-1,-3.8926286E-1,-3.0428225E-1,-2.6688963E-1,-1.4947987E-1,-2.6639995E-1,6.719275E-2,2.3677205E-1,-3.7292328E-1,-5.4847735E-1,2.5945655E-1,-1.08494304E-1,-2.0232593E-1,-3.114139E-1,-5.1102336E-2,-1.2646075E-1,-2.1219502E-1,5.5553387E-3,1.0633638E-1,2.0351289E-1],"categories":[],"categories_nodes":[],"categories_segments":[],"categories_sizes":[],"default_left":[1,1,1,1,1,1,1,1,1,1,1,1,1,1,1,1,1,0,0,1,1,1,1,1,1,1,1,1,1,1,1,0,1,1,1,1,1,1,1,1,1,0,1,1,0,1,1,1,1,1,1,1,1,1,1,1,1,1,1,0,0,0,0,0,0,0,0,0,0,0,0,0,0,0,0,0,0,0,0,0,0,0,0,0,0,0,0,0,0,0,0,0,0,0,0,0,0,0,0,0,0,0,0,0,0,0,0,0,0],"id":3,"left_children":[1,3,5,7,9,11,13,15,17,19,21,23,25,27,29,31,33,-1,-1,35,37,39,41,43,45,47,49,51,53,55,57,-1,59,61,63,65,67,69,71,73,75,-1,77,79,-1,81,83,85,87,89,91,93,95,97,99,101,103,105,107,-1,-1,-1,-1,-1,-1,-1,-1,-1,-1,-1,-1,-1,-1,-1,-1,-1,-1,-1,-1,-1,-1,-1,-1,-1,-1,-1,-1,-1,-1,-1,-1,-1,-1,-1,-1,-1,-1,-1,-1,-1,-1,-1,-1,-1,-1,-1,-1,-1,-1],"loss_changes":[2.2654395E2,7.48396E1,1.6193555E2,2.5934082E1,7.525244E1,7.4384766E0,9.000821E1,1.9227173E1,2.4153137E-1,9.263794E0,7.9400635E0,2.8222656E0,2.5037231E0,6.555698E1,5.8760376E1,6.994934E-1,1.0895203E1,0E0,0E0,3.5801392E0,1.2650452E0,1.1534729E0,2.2566223E0,2.7776184E0,1.4638672E0,1.5313034E0,1.281189E0,2.2760864E1,4.3299286E1,6.5353165E0,8.621649E0,0E0,5.703583E-1,3.885193E-1,6.036682E0,2.7552795E0,7.0150757E-1,4.2746735E-1,5.878601E-1,3.4417725E-1,3.658142E-1,0E0,4.711914E-1,1.5126038E0,0E0,7.6171875E-1,6.989746E-1,9.189409E-2,5.189209E-1,1.3994751E0,1.4440918E0,1.55416565E1,1.1344259E0,4.414032E0,2.18884E0,7.8848267E-1,1.0440617E0,8.784848E-1,1.7404594E0,0E0,0E0,0E0,0E0,0E0,0E0,0E0,0E0,0E0,0E0,0E0,0E0,0E0,0E0,0E0,0E0,0E0,0E0,0E0,0E0,0E0,0E0,0E0,0E0,0E0,0E0,0E0,0E0,0E0,0E0,0E0,0E0,0E0,0E0,0E0,0E0,0E0,0E0,0E0,0E0,0E0,0E0,0E0,0E0,0E0,0E0,0E0,0E0,0E0,0E0],"parents":[2147483647,0,0,1,1,2,2,3,3,4,4,5,5,6,6,7,7,8,8,9,9,10,10,11,11,12,12,13,13,14,14,15,15,16,16,19,19,20,20,21,21,22,22,23,23,24,24,25,25,26,26,27,27,28,28,29,29,30,30,32,32,33,33,34,34,35,35,36,36,37,37,38,38,39,39,40,40,42,42,43,43,45,45,46,46,47,47,48,48,49,49,50,50,51,51,52,52,53,53,54,54,55,55,56,56,57,57,58,58],"right_children":[2,4,6,8,10,12,14,16,18,20,22,24,26,28,30,32,34,-1,-1,36,38,40,42,44,46,48,50,52,54,56,58,-1,60,62,64,66,68,70,72,74,76,-1,78,80,-1,82,84,86,88,90,92,94,96,98,100,102,104,106,108,-1,-1,-1,-1,-1,-1,-1,-1,-1,-1,-1,-1,-1,-1,-1,-1,-1,-1,-1,-1,-1,-1,-1,-1,-1,-1,-1,-1,-1,-1,-1,-1,-1,-1,-1,-1,-1,-1,-1,-1,-1,-1,-1,-1,-1,-1,-1,-1,-1,-1],"split_conditions":[-6.1091505E-2,3.1982484E-1,7.965666E-2,1.2003993E-1,-2.2774935E-1,2.7259063E-2,4.5172492E-1,-7.108655E-1,1.5634046E-1,-3.388251E-1,-1.2137957E-1,-3.527258E-2,-4.2796377E-2,2.2205893E-2,2.7203202E-1,-1.741245E0,-6.214186E-1,-2.0695753E-1,-2.5134146E-1,2.4016893E-2,-1.5428245E0,-1.6820371E-1,-4.7073483E-2,2.5832996E0,5.1379455E-3,-3.2941677E-2,1.0751258E0,1.0841359E-1,5.670358E-1,1.5174821E-1,4.0233487E-1,-1.3223499E-1,-4.562228E-2,-1.413561E-3,1.24770515E-2,-2.169517E0,-5.141584E-1,-8.379759E-2,-2.6806277E-1,-6.6358274E-1,2.4109845E0,-6.399518E-2,-7.1116877E-1,3.4234907E-2,-7.052189E-2,2.0866174E-1,3.3083768E0,-2.4501267E-1,8.016074E-1,5.232404E-2,4.4082552E-2,-9.8608965E-3,1.6992283E-1,1.1654283E-1,8.992599E-1,4.3538487E-1,-1.389621E0,-5.5952452E-2,4.9125996E-1,-5.0870057E-2,-8.050364E-2,-1.6306417E-1,-1.4320287E-1,-1.2000577E-1,-9.5275745E-2,-2.74332E-1,-2.0997734E-1,-2.9250714E-1,-2.4357723E-1,-1.8884528E-1,-2.3114885E-1,-1.5114264E-1,-1.8020676E-1,-6.956193E-2,-1.595633E-1,-1.4272645E-1,-9.506622E-2,-1.3835445E-1,-1.2166785E-1,-9.8163985E-2,-1.1402703E-1,-9.794957E-2,-1.15206055E-1,-9.424209E-2,-9.970971E-2,-1.972893E-2,-4.3677974E-2,-7.930999E-2,-5.4617625E-2,-8.982631E-2,-1.1677886E-1,-9.128468E-2,-8.006689E-2,-4.484396E-2,-7.991999E-2,2.0157825E-2,7.1031615E-2,-1.1187699E-1,-1.6454321E-1,7.783697E-2,-3.2548293E-2,-6.069778E-2,-9.342418E-2,-1.5330701E-2,-3.7938226E-2,-6.365851E-2,1.6666016E-3,3.1900916E-2,6.105387E-2],"split_indices":[1,5,1,2,1,1,5,0,2,1,1,1,0,5,1,4,1,0,0,2,4,1,2,5,1,5,5,2,4,1,1,0,2,2,5,4,1,3,0,0,4,0,4,5,0,0,5,3,3,0,1,2,2,3,3,0,4,2,1,0,0,0,0,0,0,0,0,0,0,0,0,0,0,0,0,0,0,0,0,0,0,0,0,0,0,0,0,0,0,0,0,0,0,0,0,0,0,0,0,0,0,0,0,0,0,0,0,0,0],"split_type":[0,0,0,0,0,0,0,0,0,0,0,0,0,0,0,0,0,0,0,0,0,0,0,0,0,0,0,0,0,0,0,0,0,0,0,0,0,0,0,0,0,0,0,0,0,0,0,0,0,0,0,0,0,0,0,0,0,0,0,0,0,0,0,0,0,0,0,0,0,0,0,0,0,0,0,0,0,0,0,0,0,0,0,0,0,0,0,0,0,0,0,0,0,0,0,0,0,0,0,0,0,0,0,0,0,0,0,0,0],"sum_hessian":[1.02631E5,1.3114E4,8.9517E4,7.546E3,5.568E3,7.7911E4,1.1606E4,7.388E3,1.58E2,1.918E3,3.65E3,7.0369E4,7.542E3,6.998E3,4.608E3,1.411E3,5.977E3,6.5E1,9.3E1,1.141E3,7.77E2,1.651E3,1.999E3,2.937E3,6.7432E4,1.227E3,6.315E3,5.716E3,1.282E3,3.096E3,1.512E3,2.4E1,1.387E3,6.48E2,5.329E3,8.82E2,2.59E2,1.88E2,5.89E2,8.31E2,8.2E2,6.2E1,1.937E3,2.751E3,1.86E2,4.59E4,2.1532E4,6.5E1,1.162E3,7.59E2,5.556E3,5.523E3,1.93E2,1.188E3,9.4E1,1.696E3,1.4E3,7.62E2,7.5E2,6.8E1,1.319E3,4.13E2,2.35E2,4.166E3,1.163E3,7.7E1,8.05E2,7.6E1,1.83E2,1.15E2,7.3E1,1.24E2,4.65E2,6E0,8.25E2,7.97E2,2.3E1,2.35E2,1.702E3,8.51E2,1.9E3,4.5637E4,2.63E2,1.8773E4,2.759E3,4E1,2.5E1,1.069E3,9.3E1,4.24E2,3.35E2,4.058E3,1.498E3,1.609E3,3.914E3,1.38E2,5.5E1,1.78E2,1.01E3,7.4E1,2E1,1.624E3,7.2E1,2.2E2,1.18E3,1.8E1,7.44E2,4.06E2,3.44E2],"tree_param":{"num_deleted":"0","num_feature":"6","num_nodes":"109","size_leaf_vector":"0"}},{"base_weights":[-3.2870874E-1,-1.9774911E-1,-3.448805E-1,-2.7423975E-1,-7.8342766E-2,-3.2971683E-1,-4.4608265E-1,-2.2564624E-1,-4.719234E-1,1.0228431E-1,-1.5477923E-1,-2.900704E-1,-3.3203903E-1,-3.7430954E-1,-5.750142E-1,4.625169E-2,-2.4089052E-1,-1.6451856E-1,-4.920944E-1,1.8866694E-1,5.3784307E-2,-8.915663E-2,-1.9692536E-1,-3.4189755E-1,-2.7542803E-1,-3.2987335E-1,-3.6863E-1,-5.157395E-1,-3.266808E-1,-4.8747918E-1,-7.272511E-1,1.6166134E-1,-2.0649351E-2,1.7929466E-2,-2.5487593E-1,7.880697E-2,-2.136082E-1,-5.545753E-1,-3.867969E-1,2.4660078E-1,1.4029406E-1,6.87146E-2,-5.5060737E-2,-4.9575258E-2,-1.12934075E-1,-1.8223922E-1,-2.2666754E-1,-3.2743067E-1,-4.4820553E-1,-2.698643E-1,-4.5663562E-1,-3.235247E-1,-3.3438316E-1,-3.2109177E-1,-3.8300774E-1,-2.8745198E-1,-5.529696E-1,-3.6209795E-1,-1.8284833E-1,-4.382957E-1,-5.281627E-1,-6.5332866E-1,-8.0372494E-1,3.60321E-2,1.7698967E-1,1.5807543E-2,-8.9319326E-2,-7.552945E-2,6.938996E-2,-2.0747927E-1,-3.054882E-1,1.2993345E-1,5.5197556E-2,-1.5952444E-1,-3.435456E-1,-4.2474255E-1,-6.0985434E-1,-3.1696108E-1,-5.110476E-1,1.1258137E-1,2.5474915E-1,1.09766655E-1,2.8696734E-1,1.4553003E-1,4.191375E-2,8.863179E-2,-1.3144685E-1,-2.9668236E-1,-4.5072075E-2,-1.1834737E-1,-2.2524396E-2,-1.7315893E-1,-2.2037378E-1,-1.7204183E-1,-2.3575637E-1,-2.3327E-1,-3.429553E-1,-1.1617051E-1,-4.593245E-1,-2.5809348E-1,-3.079589E-1,-4.9919143E-1,-3.821834E-1,-3.211524E-1,-3.3778057E-1,-3.240087E-1,-3.36437E-1,-3.801695E-1,-2.8092343E-1,-3.8521E-1,-2.7877986E-1,-1.7159271E-1,-3.4475362E-1,-6.117388E-1,-5.061059E-1,-1.3452937E-1,-3.7033626E-1,-1.2826353E-1,-7.99093E-1,-3.440538E-1,-4.5339483E-1,-4.8342305E-1,-5.4714644E-1,-6.188412E-1,-7.388601E-1,-7.666873E-1,-8.885974E-1],"categories":[],"categories_nodes":[],"categories_segments":[],"categories_sizes":[],"default_left":[1,1,1,1,1,1,1,1,1,1,1,1,1,1,1,1,1,1,1,1,1,1,1,1,1,1,1,1,1,1,1,1,1,1,1,1,1,1,1,1,1,1,1,1,1,1,1,1,1,1,1,1,1,1,1,1,1,1,1,1,1,1,1,0,0,0,0,0,0,0,0,0,0,0,0,0,0,0,0,0,0,0,0,0,0,0,0,0,0,0,0,0,0,0,0,0,0,0,0,0,0,0,0,0,0,0,0,0,0,0,0,0,0,0,0,0,0,0,0,0,0,0,0,0,0,0,0],"id":4,"left_children":[1,3,5,7,9,11,13,15,17,19,21,23,25,27,29,31,33,35,37,39,41,43,45,47,49,51,53,55,57,59,61,63,65,67,69,71,73,75,77,79,81,83,85,87,89,91,93,95,97,99,101,103,105,107,109,111,113,115,117,119,121,123,125,-1,-1,-1,-1,-1,-1,-1,-1,-1,-1,-1,-1,-1,-1,-1,-1,-1,-1,-1,-1,-1,-1,-1,-1,-1,-1,-1,-1,-1,-1,-1,-1,-1,-1,-1,-1,-1,-1,-1,-1,-1,-1,-1,-1,-1,-1,-1,-1,-1,-1,-1,-1,-1,-1,-1,-1,-1,-1,-1,-1,-1,-1,-1,-1],"loss_changes":[2.1729102E2,1.0303134E2,1.4003809E2,6.595502E1,6.0861065E1,7.21875E0,1.0991455E2,2.28992E1,8.327118E0,5.482362E0,8.547928E0,3.2478943E0,5.826172E0,5.1349487E1,5.6334595E1,2.27332E0,1.8932037E1,1.0321383E0,8.154114E0,1.285347E0,1.370482E0,1.1360083E0,7.820587E-1,1.3388824E0,3.3439636E0,1.9199219E0,2.7374268E0,1.6201904E1,2.9092651E1,5.179138E0,8.242859E0,2.0159674E-1,4.6956527E-1,1.298981E0,1.1837341E1,1.0933988E-2,4.4414878E-1,5.453888E0,3.9770203E0,2.0392513E-1,1.1281867E0,1.5173519E0,1.1312141E0,4.9516296E-1,3.678217E-1,4.005661E-1,2.667637E-1,1.1683884E0,3.6382484E-1,1.4177551E0,1.2922287E-1,8.8793945E-1,7.734375E-1,2.2140503E0,6.289978E-1,1.7466278E0,4.2457275E0,8.559143E0,3.8008896E1,1.5942688E0,9.8825073E-1,1.8848877E0,1.7014465E0,0E0,0E0,0E0,0E0,0E0,0E0,0E0,0E0,0E0,0E0,0E0,0E0,0E0,0E0,0E0,0E0,0E0,0E0,0E0,0E0,0E0,0E0,0E0,0E0,0E0,0E0,0E0,0E0,0E0,0E0,0E0,0E0,0E0,0E0,0E0,0E0,0E0,0E0,0E0,0E0,0E0,0E0,0E0,0E0,0E0,0E0,0E0,0E0,0E0,0E0,0E0,0E0,0E0,0E0,0E0,0E0,0E0,0E0,0E0,0E0,0E0,0E0,0E0,0E0],"parents":[2147483647,0,0,1,1,2,2,3,3,4,4,5,5,6,6,7,7,8,8,9,9,10,10,11,11,12,12,13,13,14,14,15,15,16,16,17,17,18,18,19,19,20,20,21,21,22,22,23,23,24,24,25,25,26,26,27,27,28,28,29,29,30,30,31,31,32,32,33,33,34,34,35,35,36,36,37,37,38,38,39,39,40,40,41,41,42,42,43,43,44,44,45,45,46,46,47,47,48,48,49,49,50,50,51,51,52,52,53,53,54,54,55,55,56,56,57,57,58,58,59,59,60,60,61,61,62,62],"right_children":[2,4,6,8,10,12,14,16,18,20,22,24,26,28,30,32,34,36,38,40,42,44,46,48,50,52,54,56,58,60,62,64,66,68,70,72,74,76,78,80,82,84,86,88,90,92,94,96,98,100,102,104,106,108,110,112,114,116,118,120,122,124,126,-1,-1,-1,-1,-1,-1,-1,-1,-1,-1,-1,-1,-1,-1,-1,-1,-1,-1,-1,-1,-1,-1,-1,-1,-1,-1,-1,-1,-1,-1,-1,-1,-1,-1,-1,-1,-1,-1,-1,-1,-1,-1,-1,-1,-1,-1,-1,-1,-1,-1,-1,-1,-1,-1,-1,-1,-1,-1,-1,-1,-1,-1,-1,-1],"split_conditions":[-8.8863485E-2,4.813327E-1,9.5675185E-2,1.604397E-2,-3.1017092E-1,-3.70965E-2,4.5024315E-1,-1.0176616E0,-1.3616157E-1,-4.9652022E-1,-1.8822347E-1,1.1931779E0,3.4897164E-2,-6.0262285E-2,2.724907E-1,-5.105147E-1,-1.0094051E0,-1.2470934E0,-4.1853964E-1,-5.723654E-1,2.5053673E0,-2.5268164E-1,-1.1605923E-1,1.6577998E-1,4.36863E0,-3.3425281E-3,9.842265E-2,-5.394579E-1,6.598064E-1,1.4681941E-1,4.135952E-1,-2.1931007E0,-8.165218E-2,-8.669089E-1,7.405508E-2,-7.106173E-1,-4.1266423E-1,-5.089383E-1,6.5322137E-1,-4.506602E-1,2.5911374E0,1.3030559E0,-1.6685645E-1,-6.478415E-1,2.444917E-2,1.0043576E0,-8.3680344E-1,-4.2923307E-1,-5.2712244E-1,2.0505943E0,-5.8143325E-2,3.187562E0,1.7372596E0,-1.9952392E-2,2.2304847E0,-6.9257575E-1,-1.2072666E-1,-5.8404404E-1,3.1959295E-2,1.4726756E0,-1.3151018E-2,1.5870119E0,1.57792E0,1.080963E-2,5.3096905E-2,4.742263E-3,-2.6795799E-2,-2.2658836E-2,2.081699E-2,-6.2243782E-2,-9.164646E-2,3.8980037E-2,1.6559267E-2,-4.7857333E-2,-1.0306368E-1,-1.2742276E-1,-1.8295631E-1,-9.5088325E-2,-1.5331429E-1,3.3774413E-2,7.642475E-2,3.2929998E-2,8.609021E-2,4.365901E-2,1.2574126E-2,2.6589537E-2,-3.9434057E-2,-8.900471E-2,-1.3521623E-2,-3.550421E-2,-6.757319E-3,-5.194768E-2,-6.611214E-2,-5.1612552E-2,-7.0726916E-2,-6.9981E-2,-1.02886595E-1,-3.4851156E-2,-1.3779736E-1,-7.742804E-2,-9.2387676E-2,-1.4975743E-1,-1.14655025E-1,-9.634572E-2,-1.0133418E-1,-9.7202614E-2,-1.009311E-1,-1.1405086E-1,-8.4277034E-2,-1.15563005E-1,-8.363396E-2,-5.1477816E-2,-1.0342609E-1,-1.8352164E-1,-1.5183178E-1,-4.035881E-2,-1.1110088E-1,-3.847906E-2,-2.3972791E-1,-1.0321615E-1,-1.3601846E-1,-1.4502692E-1,-1.6414393E-1,-1.8565236E-1,-2.2165804E-1,-2.3000619E-1,-2.6657924E-1],"split_indices":[0,5,0,5,0,0,5,3,4,0,0,5,0,5,0,0,0,3,0,0,3,0,0,3,5,0,5,1,0,0,0,4,5,1,1,0,0,1,1,1,4,5,4,1,2,3,4,1,1,5,0,5,5,4,5,1,5,1,2,5,2,4,4,0,0,0,0,0,0,0,0,0,0,0,0,0,0,0,0,0,0,0,0,0,0,0,0,0,0,0,0,0,0,0,0,0,0,0,0,0,0,0,0,0,0,0,0,0,0,0,0,0,0,0,0,0,0,0,0,0,0,0,0,0,0,0,0],"split_type":[0,0,0,0,0,0,0,0,0,0,0,0,0,0,0,0,0,0,0,0,0,0,0,0,0,0,0,0,0,0,0,0,0,0,0,0,0,0,0,0,0,0,0,0,0,0,0,0,0,0,0,0,0,0,0,0,0,0,0,0,0,0,0,0,0,0,0,0,0,0,0,0,0,0,0,0,0,0,0,0,0,0,0,0,0,0,0,0,0,0,0,0,0,0,0,0,0,0,0,0,0,0,0,0,0,0,0,0,0,0,0,0,0,0,0,0,0,0,0,0,0,0,0,0,0,0,0],"sum_hessian":[1.02631E5,1.1282E4,9.1349E4,6.876E3,4.406E3,7.9449E4,1.19E4,5.521E3,1.355E3,1.31E3,3.096E3,4.403E3,7.5046E4,7.647E3,4.253E3,2.93E2,5.228E3,8.4E1,1.271E3,4.7E2,8.4E2,1.212E3,1.884E3,9.65E2,3.438E3,7.0862E4,4.184E3,1.924E3,5.723E3,2.703E3,1.55E3,1.07E2,1.86E2,2.68E2,4.96E3,1.4E1,7E1,7.95E2,4.76E2,2.12E2,2.58E2,7.39E2,1.01E2,4.56E2,7.56E2,1.266E3,6.18E2,8.53E2,1.12E2,3.338E3,1E2,2.9461E4,4.1401E4,9.77E2,3.207E3,2.71E2,1.653E3,4.591E3,1.132E3,1.229E3,1.474E3,7.93E2,7.57E2,1.2E1,9.5E1,1.22E2,6.4E1,9.5E1,1.73E2,2.564E3,2.396E3,3E0,1.1E1,5.1E1,1.9E1,2.4E2,5.55E2,3.07E2,1.69E2,1.3E1,1.99E2,2.15E2,4.3E1,1.9E2,5.49E2,3.5E1,6.6E1,7E0,4.49E2,7.13E2,4.3E1,1.027E3,2.39E2,9.1E1,5.27E2,1.23E2,7.3E2,4E0,1.08E2,2.556E3,7.82E2,6E1,4E1,2.5278E4,4.183E3,6.868E3,3.4533E4,3.92E2,5.85E2,3.138E3,6.9E1,9.1E1,1.8E2,7.28E2,9.25E2,1.61E2,4.43E3,1.041E3,9.1E1,1.73E2,1.056E3,4.47E2,1.027E3,5.71E2,2.22E2,5.34E2,2.23E2],"tree_param":{"num_deleted":"0","num_feature":"6","num_nodes":"127","size_leaf_vector":"0"}},{"base_weights":[-6.416359E-1,-5.3255755E-1,-6.838925E-1,-5.485591E-1,-1.820898E-1,-6.87971E-1,-2.43294E-1,-1.4089769E-1,-5.582376E-1,-2.7475354E-1,2.2140369E-2,-3.3431602E-1,-6.9301224E-1,-6.4697035E-2,-4.0565556E-1,7.3597215E-2,-2.0257825E-1,-5.8657247E-1,-4.6237433E-1,1.1075571E-1,-2.9315647E-1,-3.9161686E-2,2.0396525E-1,-1.7457955E-1,-4.4949353E-1,-4.1101336E-1,-6.948843E-1,2.7042996E-2,-2.3940837E-1,-4.7684965E-1,-3.0470335E-1,9.905947E-2,-2.1262066E-1,-2.3503648E-1,5.6068294E-2,-4.9123698E-1,-6.1612314E-1,-4.859451E-1,-2.5536463E-1,1.5875846E-2,1.3040066E-1,-3.1305692E-1,5.7856884E-2,1.10049516E-1,-1.4864545E-1,2.1370432E-1,-8.0763526E-2,-9.922051E-2,-3.355002E-1,-4.7138065E-1,-7.191675E-2,-9.468295E-2,-4.7230786E-1,-6.980089E-1,-5.7775843E-1,-3.3669487E-2,8.0594905E-2,-2.8800073E-1,-1.4106885E-1,-2.5036833E-1,-4.932395E-1,-3.7648144E-1,-2.3891115E-1,1.3788463E-1,7.126684E-2,-2.250847E-1,-3.7758008E-2,-1.5889559E-2,-2.4932481E-1,3.6941067E-4,1.563078E-1,-2.7730042E-1,-5.152473E-1,-5.9365785E-1,-7.3143023E-1,-5.328322E-1,-4.3137512E-1,-3.121755E-1,-6.436449E-2,7.0309825E-2,-3.0846506E-2,1.3679788E-1,2.082918E-2,-3.3860314E-1,-2.2366967E-2,5.516733E-3,1.7335887E-1,1.5876944E-1,-3.0586947E-2,1.738124E-1,-1.8097241E-1,2.71223E-1,1.6777626E-1,-2.3167907E-1,-5.262082E-2,-4.3558455E-1,-3.0366582E-1,-2.7096328E-1,-4.9505293E-1,-1.0879171E-1,-4.3908842E-2,-1.803933E-1,-7.9646766E-2,-3.9728832E-1,-4.921303E-1,-7.0567006E-1,-6.50527E-1,-3.1525728E-1,-5.9177804E-1,9.046684E-2,-4.8304982E-2,6.883096E-2,2.808741E-1,-3.3435708E-1,-2.352853E-1,-4.296742E-2,-1.5423179E-1,-5.2479255E-1,-4.1687483E-1,7.1539483E-3,-2.452312E-1],"categories":[],"categories_nodes":[],"categories_segments":[],"categories_sizes":[],"default_left":[1,1,1,1,1,1,1,1,1,1,1,1,1,1,1,1,1,1,1,1,1,1,1,1,1,1,1,1,1,1,1,1,1,1,1,1,1,1,1,1,1,1,1,1,1,1,0,1,1,1,1,1,1,1,1,1,1,1,1,0,1,0,1,0,0,0,0,0,0,0,0,0,0,0,0,0,0,0,0,0,0,0,0,0,0,0,0,0,0,0,0,0,0,0,0,0,0,0,0,0,0,0,0,0,0,0,0,0,0,0,0,0,0,0,0,0,0,0,0,0,0],"id":5,"left_children":[1,3,5,7,9,11,13,15,17,19,21,23,25,27,29,31,33,35,37,39,41,43,45,47,49,51,53,55,57,59,61,63,65,67,69,71,73,75,77,79,81,83,85,87,89,91,-1,93,95,97,99,101,103,105,107,109,111,113,115,-1,117,-1,119,-1,-1,-1,-1,-1,-1,-1,-1,-1,-1,-1,-1,-1,-1,-1,-1,-1,-1,-1,-1,-1,-1,-1,-1,-1,-1,-1,-1,-1,-1,-1,-1,-1,-1,-1,-1,-1,-1,-1,-1,-1,-1,-1,-1,-1,-1,-1,-1,-1,-1,-1,-1,-1,-1,-1,-1,-1,-1],"loss_changes":[4.726953E2,1.606377E2,1.3275781E2,1.0806836E2,2.3718761E1,1.304375E2,1.9691906E1,8.442524E0,7.24541E1,6.147934E0,4.377313E0,1.8908318E1,3.786328E1,5.215582E0,2.4133453E0,1.0632107E0,4.168808E0,5.7907227E1,2.9703491E1,7.248622E-2,5.767029E0,4.8192015E0,2.9178572E-1,5.2297535E0,4.9162827E0,9.24276E0,2.5867188E1,6.984852E-1,4.945693E-1,6.4488983E-1,6.1841965E-1,1.3260853E-1,1.7655194E-2,1.3737831E0,3.1260306E-1,2.4995972E1,4.0414062E1,1.3809326E1,6.783409E0,2.251508E-2,2.028209E-2,5.7773056E0,2.7108625E-1,8.613312E-1,1.80355E0,2.081008E-1,0E0,1.8210495E0,3.0741405E-1,2.5511475E0,3.033796E-2,8.744401E-2,4.0079498E-1,2.4972656E1,6.6990356E0,1.8786645E-1,2.4925959E-1,1.02164745E-1,4.3733835E-2,0E0,2.4386215E-1,0E0,1.2772083E-1,0E0,0E0,0E0,0E0,0E0,0E0,0E0,0E0,0E0,0E0,0E0,0E0,0E0,0E0,0E0,0E0,0E0,0E0,0E0,0E0,0E0,0E0,0E0,0E0,0E0,0E0,0E0,0E0,0E0,0E0,0E0,0E0,0E0,0E0,0E0,0E0,0E0,0E0,0E0,0E0,0E0,0E0,0E0,0E0,0E0,0E0,0E0,0E0,0E0,0E0,0E0,0E0,0E0,0E0,0E0,0E0,0E0,0E0],"parents":[2147483647,0,0,1,1,2,2,3,3,4,4,5,5,6,6,7,7,8,8,9,9,10,10,11,11,12,12,13,13,14,14,15,15,16,16,17,17,18,18,19,19,20,20,21,21,22,22,23,23,24,24,25,25,26,26,27,27,28,28,29,29,30,30,31,31,32,32,33,33,34,34,35,35,36,36,37,37,38,38,39,39,40,40,41,41,42,42,43,43,44,44,45,45,47,47,48,48,49,49,50,50,51,51,52,52,53,53,54,54,55,55,56,56,57,57,58,58,60,60,62,62],"right_children":[2,4,6,8,10,12,14,16,18,20,22,24,26,28,30,32,34,36,38,40,42,44,46,48,50,52,54,56,58,60,62,64,66,68,70,72,74,76,78,80,82,84,86,88,90,92,-1,94,96,98,100,102,104,106,108,110,112,114,116,-1,118,-1,120,-1,-1,-1,-1,-1,-1,-1,-1,-1,-1,-1,-1,-1,-1,-1,-1,-1,-1,-1,-1,-1,-1,-1,-1,-1,-1,-1,-1,-1,-1,-1,-1,-1,-1,-1,-1,-1,-1,-1,-1,-1,-1,-1,-1,-1,-1,-1,-1,-1,-1,-1,-1,-1,-1,-1,-1,-1,-1],"split_conditions":[1.6186249E0,1.2611918E0,1.4979776E0,-1.821677E0,2.4335794E0,-1.2578468E0,-1.6062004E-2,-2.7372632E0,1.20006084E-1,-2.3219948E0,2.9200263E0,-1.9995346E0,-2.3064184E-1,1.3128027E-1,1.9529928E0,1.0966757E-1,1.6723835E0,-1.4737633E-1,1.7898148E0,9.696065E-1,1.6356051E-1,1.2374789E0,7.101201E-1,7.5242817E-3,4.2980516E-1,-2.403286E0,1.0170695E-1,2.778636E0,-8.897217E-2,-1.2994273E0,1.945075E-2,-1.4217886E-1,9.516394E-2,-2.1506166E0,3.7062556E-1,-2.0499403E0,1.3538808E-1,2.4908808E-1,2.7931108E0,3.918024E-2,1.0859271E0,2.1696343E0,-4.6399076E-2,7.523253E-1,-4.1253424E-1,3.1807013E0,-2.4229059E-2,-2.4969377E-1,-1.242554E0,-4.507454E-1,1.7348388E0,-1.3345975E-1,-3.765976E-2,3.3792324E0,-2.8955974E-2,-6.959866E-1,1.3747187E-2,3.317914E-1,1.6648477E-1,-7.51105E-2,6.001704E-1,-1.1294444E-1,-4.4009435E-1,4.1365393E-2,2.1380052E-2,-6.752542E-2,-1.1327403E-2,-4.766868E-3,-7.4797444E-2,1.108232E-4,4.689234E-2,-8.319013E-2,-1.5457419E-1,-1.7809737E-1,-2.1942908E-1,-1.5984967E-1,-1.2941255E-1,-9.365266E-2,-1.930935E-2,2.1092948E-2,-9.253953E-3,4.1039363E-2,6.2487544E-3,-1.0158095E-1,-6.71009E-3,1.6550199E-3,5.2007664E-2,4.7630835E-2,-9.176085E-3,5.2143723E-2,-5.4291725E-2,8.1366904E-2,5.0332878E-2,-6.9503725E-2,-1.5786247E-2,-1.3067538E-1,-9.109975E-2,-8.1288986E-2,-1.4851588E-1,-3.2637514E-2,-1.31726535E-2,-5.411799E-2,-2.389403E-2,-1.191865E-1,-1.476391E-1,-2.1170102E-1,-1.9515811E-1,-9.4577186E-2,-1.7753342E-1,2.7140053E-2,-1.4491496E-2,2.0649288E-2,8.426224E-2,-1.0030713E-1,-7.058559E-2,-1.2890226E-2,-4.6269536E-2,-1.5743777E-1,-1.2506245E-1,2.1461847E-3,-7.3569365E-2],"split_indices":[5,4,4,4,4,4,2,4,3,3,4,4,1,0,4,2,3,3,3,5,2,5,0,2,0,3,1,4,1,3,0,1,5,3,1,3,5,1,3,2,5,3,0,0,1,4,0,0,3,0,5,0,2,5,2,1,0,0,0,0,3,0,1,0,0,0,0,0,0,0,0,0,0,0,0,0,0,0,0,0,0,0,0,0,0,0,0,0,0,0,0,0,0,0,0,0,0,0,0,0,0,0,0,0,0,0,0,0,0,0,0,0,0,0,0,0,0,0,0,0,0],"split_type":[0,0,0,0,0,0,0,0,0,0,0,0,0,0,0,0,0,0,0,0,0,0,0,0,0,0,0,0,0,0,0,0,0,0,0,0,0,0,0,0,0,0,0,0,0,0,0,0,0,0,0,0,0,0,0,0,0,0,0,0,0,0,0,0,0,0,0,0,0,0,0,0,0,0,0,0,0,0,0,0,0,0,0,0,0,0,0,0,0,0,0,0,0,0,0,0,0,0,0,0,0,0,0,0,0,0,0,0,0,0,0,0,0,0,0,0,0,0,0,0,0],"sum_hessian":[1.02631E5,2.8661E4,7.397E4,2.7409E4,1.252E3,7.3291E4,6.79E2,6.36E2,2.6773E4,8.61E2,3.91E2,1.031E3,7.226E4,3.24E2,3.55E2,1.42E2,4.94E2,2.0661E4,6.112E3,3.9E1,8.22E2,2.93E2,9.8E1,4.33E2,5.98E2,4.78E2,7.1782E4,2.13E2,1.11E2,2.06E2,1.49E2,1.31E2,1.1E1,4.39E2,5.5E1,4.893E3,1.5768E4,5.486E3,6.26E2,7E0,3.2E1,7.78E2,4.4E1,1.24E2,1.69E2,9.5E1,3E0,2.96E2,1.37E2,5.65E2,3.3E1,7.8E1,4E2,6.9912E4,1.87E3,1E2,1.13E2,7.3E1,3.8E1,1.5E1,1.91E2,6.9E1,8E1,5.3E1,7.8E1,1E1,1E0,2.7E1,4.12E2,3.6E1,1.9E1,4.95E2,4.398E3,1.3202E4,2.566E3,2.946E3,2.54E3,4.82E2,1.44E2,3E0,4E0,3E1,2E0,7.15E2,6.3E1,3.1E1,1.3E1,9.2E1,3.2E1,1.5E1,1.54E2,4E1,5.5E1,7.6E1,2.2E2,3E1,1.07E2,6.1E1,5.04E2,1.3E1,2E1,1E1,6.8E1,8.8E1,3.12E2,6.0187E4,9.725E3,9.6E1,1.774E3,1E1,9E1,1.08E2,5E0,3.6E1,3.7E1,5E0,3.3E1,1.31E2,6E1,2E0,7.8E1],"tree_param":{"num_deleted":"0","num_feature":"6","num_nodes":"121","size_leaf_vector":"0"}},{"base_weights":[-2.263248E-1,-3.1789416E-1,-2.1434458E-1,-2.6837352E-1,-3.9603826E-1,-2.2534384E-1,-1.3280164E-1,-2.616544E-1,-5.4914695E-1,-5.12378E-1,-3.427501E-1,-2.2709645E-1,-1.8928704E-1,-1.8544878E-1,-4.5313593E-2,-1.9338338E-1,-2.8326976E-1,-9.243675E-2,-5.54063E-1,-6.242215E-1,-4.8188058E-1,-3.9615545E-1,-3.1762385E-1,-2.5686848E-1,-2.2573566E-1,-1.8253574E-1,-2.595792E-1,-1.4714481E-1,-3.142663E-1,-9.478036E-2,7.601329E-2,-3.2007676E-1,-1.8826592E-1,-5.7500803E-1,-2.7798507E-1,-5.0740623E-1,-5.962389E-1,-4.2395073E-1,-6.3380903E-1,-5.967957E-1,-4.5340955E-1,-4.017219E-1,-2.7912736E-1,-1.4362514E-1,-3.209321E-1,-2.6100728E-1,-1.6152784E-1,-2.254843E-1,-3.0970767E-1,-3.9831784E-2,-1.8522519E-1,-2.7205023E-1,-1.06658526E-1,-9.329518E-2,-1.9095555E-1,-3.4423783E-1,1.1705271E-1,-1.2580623E-1,-5.1461272E-2,4.6373285E-2,1.4012161E-1,-2.4596547E-1,-3.5480523E-1,-1.07828714E-1,-1.9257408E-1,-4.1873786E-1,-6.4069057E-1,-3.2978868E-1,-2.4953595E-1,-6.1370265E-1,-7.409503E-1,-3.434251E-1,-6.200665E-1,-4.3480885E-1,-5.4344946E-1,-3.9306617E-1,-4.8950258E-1,-2.0708416E-1,-3.3489308E-1,-3.624266E-1,-3.127705E-1,-2.2380705E-1,-2.730971E-1,-1.7664582E-1,-1.2953804E-1,-2.2824019E-1,-2.1810174E-1,-4.3484893E-1,-2.7496457E-1,-8.056007E-2,1.8964764E-2,-1.8192105E-1,-2.9575536E-1,-2.4836646E-1,-3.6377996E-1,-1.1427733E-1,-3.6185775E-2,-2.1911409E-2,-1.9583517E-1,-4.505258E-2,-2.009597E-1,-2.4035111E-1,-3.8398662E-1,-8.568395E-2,1.884772E-1,-1.2069527E-1,-2.1361284E-1,-7.208138E-2,-1.5468434E-3,6.00985E-2,-2.6689755E-2,1.19166374E-1,2.3342349E-1],"categories":[],"categories_nodes":[],"categories_segments":[],"categories_sizes":[],"default_left":[1,1,1,1,1,1,1,1,1,1,1,1,1,1,1,1,1,0,1,1,1,1,1,1,1,1,1,1,1,1,1,1,1,1,1,0,0,0,1,1,1,1,1,0,1,1,1,1,1,1,1,1,1,1,1,1,1,1,1,1,1,0,0,0,0,0,0,0,0,0,0,0,0,0,0,0,0,0,0,0,0,0,0,0,0,0,0,0,0,0,0,0,0,0,0,0,0,0,0,0,0,0,0,0,0,0,0,0,0,0,0,0,0],"id":6,"left_children":[1,3,5,7,9,11,13,15,17,19,21,23,25,27,29,31,33,-1,35,37,39,41,43,45,47,49,51,53,55,57,59,61,63,65,67,-1,-1,-1,69,71,73,75,77,-1,79,81,83,85,87,89,91,93,95,97,99,101,103,105,107,109,111,-1,-1,-1,-1,-1,-1,-1,-1,-1,-1,-1,-1,-1,-1,-1,-1,-1,-1,-1,-1,-1,-1,-1,-1,-1,-1,-1,-1,-1,-1,-1,-1,-1,-1,-1,-1,-1,-1,-1,-1,-1,-1,-1,-1,-1,-1,-1,-1,-1,-1,-1,-1],"loss_changes":[1.1252197E2,4.5835327E1,8.137451E1,1.3571472E1,2.836084E1,5.010498E0,4.9690277E1,1.0425659E1,3.2822418E-1,4.6246033E0,4.114502E0,3.03125E0,1.7146759E0,3.3190704E1,2.4343893E1,1.0490685E0,8.15329E0,0E0,2.6088715E-2,3.1884766E-1,3.4559631E0,5.4385376E-1,1.1938019E0,1.2702637E0,1.4702148E0,1.294075E0,5.869694E-1,1.2235832E1,1.9987122E1,3.8656235E0,2.226203E0,8.002472E-2,5.4997635E-1,7.068176E-1,7.7257385E0,0E0,0E0,0E0,1.6999817E-1,1.1018906E0,1.2994995E0,5.362549E-1,1.275084E-1,0E0,6.022186E-1,1.3717499E0,4.5308113E-2,1.4294434E0,8.152065E-1,1.5478751E-1,1.1616058E0,5.570545E-1,9.824663E-3,1.7065228E1,4.169876E0,5.866394E0,1.478666E0,7.272644E-1,1.2390943E0,8.088628E-1,6.9754887E-1,0E0,0E0,0E0,0E0,0E0,0E0,0E0,0E0,0E0,0E0,0E0,0E0,0E0,0E0,0E0,0E0,0E0,0E0,0E0,0E0,0E0,0E0,0E0,0E0,0E0,0E0,0E0,0E0,0E0,0E0,0E0,0E0,0E0,0E0,0E0,0E0,0E0,0E0,0E0,0E0,0E0,0E0,0E0,0E0,0E0,0E0,0E0,0E0,0E0,0E0,0E0,0E0],"parents":[2147483647,0,0,1,1,2,2,3,3,4,4,5,5,6,6,7,7,8,8,9,9,10,10,11,11,12,12,13,13,14,14,15,15,16,16,18,18,19,19,20,20,21,21,22,22,23,23,24,24,25,25,26,26,27,27,28,28,29,29,30,30,31,31,32,32,33,33,34,34,38,38,39,39,40,40,41,41,42,42,44,44,45,45,46,46,47,47,48,48,49,49,50,50,51,51,52,52,53,53,54,54,55,55,56,56,57,57,58,58,59,59,60,60],"right_children":[2,4,6,8,10,12,14,16,18,20,22,24,26,28,30,32,34,-1,36,38,40,42,44,46,48,50,52,54,56,58,60,62,64,66,68,-1,-1,-1,70,72,74,76,78,-1,80,82,84,86,88,90,92,94,96,98,100,102,104,106,108,110,112,-1,-1,-1,-1,-1,-1,-1,-1,-1,-1,-1,-1,-1,-1,-1,-1,-1,-1,-1,-1,-1,-1,-1,-1,-1,-1,-1,-1,-1,-1,-1,-1,-1,-1,-1,-1,-1,-1,-1,-1,-1,-1,-1,-1,-1,-1,-1,-1,-1,-1,-1,-1],"split_conditions":[-8.3206184E-2,3.1982484E-1,9.7404145E-2,1.1345032E-1,-2.8563672E-1,4.111195E-2,4.5172492E-1,-4.7054273E-1,-7.182143E-1,-5.5857605E-1,-1.8376997E-1,-4.0732116E-2,2.9317513E-1,1.45058E-2,3.2283807E-1,-1.4442466E0,-7.565307E-1,-2.7731027E-2,1.5930663E-1,-4.7028032E-1,-1.9711206E0,2.3084016E0,-4.9632438E-2,2.579126E0,4.6481955E-1,-3.5690363E-2,1.7637653E0,-3.3683427E-2,5.705255E-1,1.9284749E-1,4.8446012E-1,-7.4006426E-1,-1.0114619E-1,-8.987482E-1,-3.25614E-2,-1.5222187E-1,-1.7887168E-1,-1.2718523E-1,3.3500038E-2,-1.0206639E0,2.7705312E-2,1.5242474E0,-3.7009597E-1,-4.3087542E-2,-8.204707E-1,5.2426774E-2,-2.7422756E-2,9.0520345E-3,5.751803E-1,-3.6600673E-1,4.3465114E0,8.4701145E-1,8.973718E-2,3.3072415E-1,-1.9716192E-2,1.17167674E-1,2.9705524E-1,4.3174183E-1,1.1783803E0,3.6408502E-1,6.731569E-1,-7.378964E-2,-1.0644157E-1,-3.2348614E-2,-5.7772227E-2,-1.2562136E-1,-1.9220717E-1,-9.893661E-2,-7.486079E-2,-1.841108E-1,-2.2228509E-1,-1.0302753E-1,-1.8601996E-1,-1.3044266E-1,-1.6303484E-1,-1.17919855E-1,-1.4685078E-1,-6.212525E-2,-1.0046793E-1,-1.08727984E-1,-9.383115E-2,-6.714212E-2,-8.192913E-2,-5.299375E-2,-3.8861416E-2,-6.847206E-2,-6.543052E-2,-1.3045469E-1,-8.248937E-2,-2.4168024E-2,5.689429E-3,-5.457632E-2,-8.872661E-2,-7.450994E-2,-1.09133996E-1,-3.4283202E-2,-1.08557325E-2,-6.573423E-3,-5.8750555E-2,-1.3515775E-2,-6.028791E-2,-7.210533E-2,-1.1519599E-1,-2.5705187E-2,5.6543164E-2,-3.620858E-2,-6.408385E-2,-2.1624414E-2,-4.6405304E-4,1.802955E-2,-8.006927E-3,3.5749912E-2,7.0027046E-2],"split_indices":[1,5,1,2,1,1,5,0,0,1,1,1,0,5,1,4,4,0,2,0,4,3,2,5,0,5,4,5,4,1,1,0,5,3,5,0,0,0,2,3,2,3,0,0,4,5,0,1,0,0,5,3,1,0,2,3,1,0,4,0,1,0,0,0,0,0,0,0,0,0,0,0,0,0,0,0,0,0,0,0,0,0,0,0,0,0,0,0,0,0,0,0,0,0,0,0,0,0,0,0,0,0,0,0,0,0,0,0,0,0,0,0,0],"split_type":[0,0,0,0,0,0,0,0,0,0,0,0,0,0,0,0,0,0,0,0,0,0,0,0,0,0,0,0,0,0,0,0,0,0,0,0,0,0,0,0,0,0,0,0,0,0,0,0,0,0,0,0,0,0,0,0,0,0,0,0,0,0,0,0,0,0,0,0,0,0,0,0,0,0,0,0,0,0,0,0,0,0,0,0,0,0,0,0,0,0,0,0,0,0,0,0,0,0,0,0,0,0,0,0,0,0,0,0,0,0,0,0,0],"sum_hessian":[1.02631E5,1.1871E4,9.076E4,7.269E3,4.602E3,7.9971E4,1.0789E4,7.101E3,1.68E2,1.443E3,3.159E3,7.6259E4,3.712E3,6.735E3,4.054E3,1.71E3,5.391E3,2E0,1.66E2,3.05E2,1.138E3,1.006E3,2.153E3,3.325E3,7.2934E4,3.39E3,3.22E2,5.193E3,1.542E3,2.88E3,1.174E3,6.4E1,1.646E3,9.4E1,5.297E3,8.5E1,8.1E1,1.6E1,2.89E2,2.22E2,9.16E2,9.58E2,4.8E1,4.1E1,2.112E3,3.185E3,1.4E2,7.272E4,2.14E2,6.3E1,3.327E3,2.97E2,2.5E1,2.331E3,2.862E3,1.442E3,1E2,1.677E3,1.203E3,8.04E2,3.7E2,2.3E1,4.1E1,8.5E1,1.561E3,3E1,6.4E1,1.874E3,3.423E3,2.49E2,4E1,2E1,2.02E2,7.64E2,1.52E2,8.77E2,8.1E1,2.3E1,2.5E1,3.4E2,1.772E3,7.86E2,2.399E3,9.2E1,4.8E1,5.2931E4,1.9789E4,4.4E1,1.7E2,3.7E1,2.6E1,3.233E3,9.4E1,2.39E2,5.8E1,2.2E1,3E0,1.375E3,9.56E2,1.84E2,2.678E3,4.01E2,1.041E3,2.6E1,7.4E1,1.587E3,9E1,8.51E2,3.52E2,6.77E2,1.27E2,3.04E2,6.6E1],"tree_param":{"num_deleted":"0","num_feature":"6","num_nodes":"113","size_leaf_vector":"0"}},{"base_weights":[-2.3014313E-1,-1.3463111E-1,-2.4107656E-1,-1.8944854E-1,-4.0585414E-2,-2.3090284E-1,-3.1596848E-1,-1.122761E-1,-2.6773083E-1,9.0998046E-2,-9.1234095E-2,-1.9803657E-1,-2.3269397E-1,-2.6367432E-1,-4.2314994E-1,-6.325126E-2,-1.9034871E-1,-2.4281049E-1,-4.2255634E-1,1.7081693E-1,6.9675E-2,-4.60736E-2,-1.23617455E-1,-2.4665312E-1,-1.816546E-1,-2.3099418E-1,-2.657264E-1,-3.4946048E-1,-2.2017777E-1,-3.7426385E-1,-5.4051095E-1,-1.3386577E-2,-1.20307006E-1,-8.75105E-2,-2.3576595E-1,-3.491317E-1,-2.0453466E-1,-4.7947875E-1,-3.5567963E-1,2.0757751E-1,1.4469346E-1,5.7667606E-2,1.900916E-1,-2.3461978E-1,-4.3428686E-2,-6.1206687E-2,-1.2961204E-1,-1.0718984E-1,-2.5767764E-1,-1.7709894E-1,-3.2915643E-1,-2.3080425E-1,-3.5726884E-1,-2.2560848E-1,-2.846113E-1,-2.0922245E-1,-3.8848412E-1,-2.0959426E-1,-5.9622383E-1,-3.341596E-1,-4.052696E-1,-5.073113E-1,-6.1327815E-1,-1.7475525E-1,3.7833974E-3,-1.01700105E-1,-3.1109E-1,-3.37308E-1,-6.6964604E-2,-2.2579691E-1,-4.6792006E-1,-3.8536415E-1,-1.4476937E-1,-1.7947586E-1,-2.62773E-1,4.8863146E-2,-4.9073637E-1,-3.8516596E-1,-2.7357858E-1,2.4096224E-1,1.8666129E-1,1.5113917E-1,6.549296E-2,7.4519806E-2,-2.3150798E-2,2.0384672E-1,1.4370422E-1,5.5506475E-2,-4.9845017E-2,-1.0084556E-1,2.0997815E-2,-1.2349983E-1,-2.0437899E-1,-1.5950945E-1,-2.1033365E-2,-2.4437535E-1,-3.4804985E-1,-1.6687018E-1,-1.9463503E-1,-3.6404598E-1,-2.872635E-1,-2.2698033E-1,-2.3553993E-1,-2.4322794E-1,-1.3061054E-1,-2.8147462E-1,-3.5788152E-1,-1.8820818E-1,-4.4374365E-1,-2.8733578E-1,-4.0911233E-1,-2.418783E-1,-6.8726934E-2,-4.2165083E-1,-6.8268645E-1,-1.9559605E-1,-3.380624E-1,-4.3918687E-1,-3.7729967E-1,-4.7362652E-1,-5.693471E-1,-6.2793475E-1,-4.3434036E-1],"categories":[],"categories_nodes":[],"categories_segments":[],"categories_sizes":[],"default_left":[1,1,1,1,1,1,1,1,1,1,1,1,1,1,1,1,1,1,1,1,1,1,1,1,1,1,1,1,1,1,1,1,1,1,1,1,1,1,1,1,1,1,1,0,1,1,1,1,1,1,1,1,0,1,1,1,1,1,1,1,1,1,1,0,0,0,0,0,0,0,0,0,0,0,0,0,0,0,0,0,0,0,0,0,0,0,0,0,0,0,0,0,0,0,0,0,0,0,0,0,0,0,0,0,0,0,0,0,0,0,0,0,0,0,0,0,0,0,0,0,0,0,0],"id":7,"left_children":[1,3,5,7,9,11,13,15,17,19,21,23,25,27,29,31,33,35,37,39,41,43,45,47,49,51,53,55,57,59,61,63,65,67,69,71,73,75,77,79,81,83,85,-1,87,89,91,93,95,97,99,101,-1,103,105,107,109,111,113,115,117,119,121,-1,-1,-1,-1,-1,-1,-1,-1,-1,-1,-1,-1,-1,-1,-1,-1,-1,-1,-1,-1,-1,-1,-1,-1,-1,-1,-1,-1,-1,-1,-1,-1,-1,-1,-1,-1,-1,-1,-1,-1,-1,-1,-1,-1,-1,-1,-1,-1,-1,-1,-1,-1,-1,-1,-1,-1,-1,-1,-1,-1],"loss_changes":[1.07143555E2,5.4350235E1,7.0092285E1,4.0210617E1,2.589333E1,4.727051E0,6.1604736E1,1.2833042E1,1.2652969E1,1.8262386E0,4.096472E0,3.2978363E0,4.255371E0,2.754663E1,2.0503784E1,5.8677616E0,6.023163E0,1.1526749E1,1.5691528E0,1.8795586E-1,1.2238274E0,5.747726E-1,6.030159E-1,1.5944595E0,2.0536957E0,1.6713867E0,2.7814026E0,1.3540009E1,1.9436188E1,3.036621E0,2.2472534E0,3.053968E0,3.3833475E0,2.0200725E0,1.9703217E0,5.5198364E0,3.0146255E0,1.4752617E0,4.1269302E-1,1.9263268E-2,5.952978E-2,1.0613363E0,1.9837618E-2,0E0,7.3786616E-1,4.7459912E-1,6.5522194E-1,3.5275114E-1,1.089447E0,5.1478577E-1,3.135395E-2,1.2692871E0,0E0,1.9885216E0,4.853363E-1,2.5974731E0,3.94281E0,2.173079E1,1.734745E0,5.3847504E-1,1.1946869E0,1.2620544E0,5.848465E-1,0E0,0E0,0E0,0E0,0E0,0E0,0E0,0E0,0E0,0E0,0E0,0E0,0E0,0E0,0E0,0E0,0E0,0E0,0E0,0E0,0E0,0E0,0E0,0E0,0E0,0E0,0E0,0E0,0E0,0E0,0E0,0E0,0E0,0E0,0E0,0E0,0E0,0E0,0E0,0E0,0E0,0E0,0E0,0E0,0E0,0E0,0E0,0E0,0E0,0E0,0E0,0E0,0E0,0E0,0E0,0E0,0E0,0E0,0E0,0E0],"parents":[2147483647,0,0,1,1,2,2,3,3,4,4,5,5,6,6,7,7,8,8,9,9,10,10,11,11,12,12,13,13,14,14,15,15,16,16,17,17,18,18,19,19,20,20,21,21,22,22,23,23,24,24,25,25,26,26,27,27,28,28,29,29,30,30,31,31,32,32,33,33,34,34,35,35,36,36,37,37,38,38,39,39,40,40,41,41,42,42,44,44,45,45,46,46,47,47,48,48,49,49,50,50,51,51,53,53,54,54,55,55,56,56,57,57,58,58,59,59,60,60,61,61,62,62],"right_children":[2,4,6,8,10,12,14,16,18,20,22,24,26,28,30,32,34,36,38,40,42,44,46,48,50,52,54,56,58,60,62,64,66,68,70,72,74,76,78,80,82,84,86,-1,88,90,92,94,96,98,100,102,-1,104,106,108,110,112,114,116,118,120,122,-1,-1,-1,-1,-1,-1,-1,-1,-1,-1,-1,-1,-1,-1,-1,-1,-1,-1,-1,-1,-1,-1,-1,-1,-1,-1,-1,-1,-1,-1,-1,-1,-1,-1,-1,-1,-1,-1,-1,-1,-1,-1,-1,-1,-1,-1,-1,-1,-1,-1,-1,-1,-1,-1,-1,-1,-1,-1,-1,-1],"split_conditions":[-1.11594655E-1,4.813327E-1,1.1734946E-1,-9.994399E-3,-3.491326E-1,-4.233516E-2,4.5024315E-1,-4.3087375E-1,3.3288765E-1,-5.640899E-1,-2.1155429E-1,4.095557E-1,4.853808E-2,-4.7237404E-2,3.565238E-1,-4.7545843E-2,-1.5824792E-1,-7.5769067E-1,-4.4813105E-1,-6.5931773E-1,2.7004418E0,-6.51988E-1,-1.2735918E0,-2.1713412E-1,4.1333337E0,6.821579E-1,1.454899E0,-5.033409E-1,1.0880055E0,1.8167473E-1,5.3010345E-1,-2.3163004E-2,4.5554218E-1,-1.0189558E0,1.5051289E-2,-2.571912E-3,-2.6947576E-1,1.230191E-1,-1.7147368E-1,-7.0454806E-1,1.1894715E0,2.794966E-1,-4.6320996E-1,-7.038594E-2,-3.6961034E-2,1.9233349E-1,1.5739367E0,-2.8136984E-1,1.8440625E-1,-5.7057623E-2,-6.330264E-2,1.645139E-3,-1.07180655E-1,2.2240666E-1,1.3033417E0,9.7952867E-1,3.1042373E-1,6.599288E-1,3.969947E-1,-2.0467615E0,1.7547381E0,1.1629514E-2,8.320986E-2,-5.2426577E-2,1.1350192E-3,-3.0510033E-2,-9.3327E-2,-1.011924E-1,-2.0089382E-2,-6.773908E-2,-1.4037603E-1,-1.1560925E-1,-4.3430813E-2,-5.384276E-2,-7.88319E-2,1.4658945E-2,-1.4722091E-1,-1.15549795E-1,-8.207358E-2,7.228868E-2,5.599839E-2,4.5341752E-2,1.9647889E-2,2.2355942E-2,-6.94524E-3,6.115402E-2,4.311127E-2,1.6651943E-2,-1.4953506E-2,-3.025367E-2,6.299345E-3,-3.7049953E-2,-6.13137E-2,-4.7852837E-2,-6.31001E-3,-7.331261E-2,-1.0441496E-1,-5.0061055E-2,-5.8390513E-2,-1.092138E-1,-8.6179055E-2,-6.8094105E-2,-7.0661984E-2,-7.2968386E-2,-3.9183162E-2,-8.444239E-2,-1.0736446E-1,-5.6462456E-2,-1.331231E-1,-8.620074E-2,-1.22733705E-1,-7.256349E-2,-2.0618081E-2,-1.2649526E-1,-2.0480594E-1,-5.8678817E-2,-1.01418726E-1,-1.3175607E-1,-1.13189906E-1,-1.4208797E-1,-1.7080413E-1,-1.8838044E-1,-1.3030212E-1],"split_indices":[0,5,0,5,0,0,5,0,1,0,0,5,0,5,0,5,3,0,0,0,4,1,4,3,5,1,5,1,3,0,0,2,1,4,2,2,0,4,0,0,4,1,0,0,2,1,3,1,3,0,0,0,0,4,3,0,0,0,0,4,5,2,2,0,0,0,0,0,0,0,0,0,0,0,0,0,0,0,0,0,0,0,0,0,0,0,0,0,0,0,0,0,0,0,0,0,0,0,0,0,0,0,0,0,0,0,0,0,0,0,0,0,0,0,0,0,0,0,0,0,0,0,0],"split_type":[0,0,0,0,0,0,0,0,0,0,0,0,0,0,0,0,0,0,0,0,0,0,0,0,0,0,0,0,0,0,0,0,0,0,0,0,0,0,0,0,0,0,0,0,0,0,0,0,0,0,0,0,0,0,0,0,0,0,0,0,0,0,0,0,0,0,0,0,0,0,0,0,0,0,0,0,0,0,0,0,0,0,0,0,0,0,0,0,0,0,0,0,0,0,0,0,0,0,0,0,0,0,0,0,0,0,0,0,0,0,0,0,0,0,0,0,0,0,0,0,0,0,0],"sum_hessian":[1.02631E5,1.0543E4,9.2088E4,6.66E3,3.883E3,8.1078E4,1.101E4,3.355E3,3.305E3,1.079E3,2.804E3,4.196E3,7.6882E4,7.402E3,3.608E3,2.062E3,1.293E3,2.849E3,4.56E2,2.26E2,8.53E2,1.172E3,1.632E3,1.054E3,3.142E3,7.3127E4,3.755E3,2.488E3,4.914E3,2.55E3,1.058E3,1.101E3,9.61E2,3.97E2,8.96E2,7.52E2,2.097E3,2.43E2,2.13E2,9.1E1,1.35E2,7.77E2,7.6E1,1.5E1,1.157E3,1.44E2,1.488E3,7.8E1,9.76E2,3.05E3,9.2E1,7.302E4,1.07E2,1.206E3,2.549E3,5.43E2,1.945E3,4.781E3,1.33E2,1.117E3,1.433E3,7.32E2,3.26E2,1.05E2,9.96E2,8.77E2,8.4E1,2.9E1,3.68E2,8.61E2,3.5E1,6.38E2,1.14E2,1.469E3,6.28E2,5E0,2.38E2,1.54E2,5.9E1,3.1E1,6E1,1.24E2,1.1E1,6.43E2,1.34E2,5.6E1,2E1,7E1,1.087E3,9.7E1,4.7E1,1.378E3,1.1E2,4.8E1,3E1,8.54E2,1.22E2,1.933E3,1.117E3,4.6E1,4.6E1,4.0426E4,3.2594E4,1.016E3,1.9E2,2.449E3,1E2,5E2,4.3E1,3.32E2,1.613E3,3.889E3,8.92E2,4.6E1,8.7E1,3.2E1,1.085E3,6.41E2,7.92E2,4.8E2,2.52E2,2.99E2,2.7E1],"tree_param":{"num_deleted":"0","num_feature":"6","num_nodes":"123","size_leaf_vector":"0"}},{"base_weights":[-4.4917628E-1,-3.72823E-1,-4.787553E-1,-3.996037E-1,-2.6807645E-1,-4.8268235E-1,-2.4915747E-1,-2.9636845E-1,-4.3130228E-1,-2.976378E-1,-2.831351E-2,-2.956486E-1,-4.8765224E-1,-5.892694E-2,-3.2668775E-1,-1.0228844E-1,-3.236186E-1,-4.3934175E-1,-2.834078E-1,-1.8543437E-1,-3.2188368E-1,-6.965311E-2,1.10142E-1,-1.6191788E-1,-3.6297175E-1,-3.2645035E-1,-4.8927256E-1,-1.3246432E-1,4.588898E-2,-3.4987915E-1,-2.1344599E-1,5.1405407E-2,-1.4435753E-1,-3.4222785E-1,-1.9910048E-1,-3.849555E-1,-4.6189076E-1,-3.5329717E-1,-2.2812283E-1,-3.4946576E-1,-1.5428303E-1,-3.4535652E-1,-1.6627333E-1,7.896758E-2,-1.2503853E-1,1.4269924E-1,-2.83756E-2,-2.4496144E-2,-2.143727E-1,-1.19773105E-1,-3.7340185E-1,-9.5290005E-2,-3.532809E-1,-4.9130762E-1,-3.965231E-1,-4.8274864E-2,-1.6516426E-1,1.24375574E-1,2.6856191E-2,-2.1876511E-1,-3.620952E-1,-2.8691804E-1,-1.8017597E-1,6.981696E-2,-1.5540552E-1,-1.6742676E-1,4.2287495E-2,-3.9062923E-1,-2.8413397E-1,-2.4182647E-1,4.9114004E-2,-3.147095E-1,-4.0528336E-1,-4.950865E-1,-4.0828174E-1,-3.6391902E-1,1.4505698E-1,-3.2727826E-1,-1.4848292E-1,-1.4658087E-1,-3.6479774E-1,-7.049913E-2,-1.8624547E-1,-3.6638185E-1,-2.6361325E-1,-2.087127E-2,-2.523021E-1,1.0873062E-1,1.901886E-2,-1.53607E-1,-1.4049392E-2,1.552656E-1,6.7727245E-2,1.2160726E-3,-6.0167827E-2,-1.1560337E-1,5.8057655E-2,-2.3982115E-1,-1.9169024E-3,-6.930588E-2,-1.9957872E-1,-2.939901E-1,-3.8506243E-1,-5.054745E-2,-1.8826179E-1,-3.1434628E-1,-3.843756E-1,-4.9713695E-1,-4.5570806E-1,-4.1401845E-1,-2.6317853E-1,-3.368666E-2,-9.484336E-2,-9.000108E-2,-2.1677849E-1,9.762326E-2,2.1065557E-1,-6.6397406E-2,3.9559413E-2,-2.2822143E-1,-1.0780967E-1,-2.8704357E-1,-3.718016E-1,-2.4455602E-1,-3.4479704E-1,5.7231584E-3,-1.837375E-1],"categories":[],"categories_nodes":[],"categories_segments":[],"categories_sizes":[],"default_left":[1,1,1,1,1,1,1,1,1,1,1,1,1,1,1,1,1,1,1,1,1,1,1,1,1,1,1,1,1,1,1,1,1,1,1,1,1,1,1,1,1,1,1,1,1,1,1,1,1,1,1,1,1,1,1,1,1,1,1,1,1,1,1,0,0,0,0,0,0,0,0,0,0,0,0,0,0,0,0,0,0,0,0,0,0,0,0,0,0,0,0,0,0,0,0,0,0,0,0,0,0,0,0,0,0,0,0,0,0,0,0,0,0,0,0,0,0,0,0,0,0,0,0,0,0,0,0],"id":8,"left_children":[1,3,5,7,9,11,13,15,17,19,21,23,25,27,29,31,33,35,37,39,41,43,45,47,49,51,53,55,57,59,61,63,65,67,69,71,73,75,77,79,81,83,85,87,89,91,93,95,97,99,101,103,105,107,109,111,113,115,117,119,121,123,125,-1,-1,-1,-1,-1,-1,-1,-1,-1,-1,-1,-1,-1,-1,-1,-1,-1,-1,-1,-1,-1,-1,-1,-1,-1,-1,-1,-1,-1,-1,-1,-1,-1,-1,-1,-1,-1,-1,-1,-1,-1,-1,-1,-1,-1,-1,-1,-1,-1,-1,-1,-1,-1,-1,-1,-1,-1,-1,-1,-1,-1,-1,-1,-1],"loss_changes":[2.3161133E2,8.029492E1,6.657617E1,7.456177E1,4.137671E1,6.745508E1,1.8357529E1,2.834079E1,2.0635254E1,1.4081329E1,3.6822844E0,1.69122E1,1.8345703E1,2.7963338E0,2.2495499E0,4.2877555E0,1.0831909E1,2.0128174E1,3.4084473E0,4.6777573E0,1.5550201E1,4.084428E0,6.714922E-1,4.557686E0,3.1336212E0,4.3574677E0,1.3044922E1,5.784137E-1,2.2073251E-1,1.0948257E0,3.2229996E-1,5.553527E-1,2.2460737E0,1.1392242E1,6.5234756E0,6.810852E0,2.061914E1,2.1542778E0,3.9550457E0,4.0379143E-1,2.0756626E0,6.2831726E0,7.0246572E0,2.3880666E-1,1.1424966E0,1.025393E-1,2.7355937E-2,1.3304514E0,2.4757957E0,1.9962907E-1,9.989166E-1,3.0246848E-1,6.467285E-1,1.4015625E1,3.4160614E0,3.824544E-2,5.7405186E-1,4.6372652E-2,1.471504E-1,4.3595552E-2,3.806305E-1,2.8464079E-2,7.2556496E-2,0E0,0E0,0E0,0E0,0E0,0E0,0E0,0E0,0E0,0E0,0E0,0E0,0E0,0E0,0E0,0E0,0E0,0E0,0E0,0E0,0E0,0E0,0E0,0E0,0E0,0E0,0E0,0E0,0E0,0E0,0E0,0E0,0E0,0E0,0E0,0E0,0E0,0E0,0E0,0E0,0E0,0E0,0E0,0E0,0E0,0E0,0E0,0E0,0E0,0E0,0E0,0E0,0E0,0E0,0E0,0E0,0E0,0E0,0E0,0E0,0E0,0E0,0E0,0E0],"parents":[2147483647,0,0,1,1,2,2,3,3,4,4,5,5,6,6,7,7,8,8,9,9,10,10,11,11,12,12,13,13,14,14,15,15,16,16,17,17,18,18,19,19,20,20,21,21,22,22,23,23,24,24,25,25,26,26,27,27,28,28,29,29,30,30,31,31,32,32,33,33,34,34,35,35,36,36,37,37,38,38,39,39,40,40,41,41,42,42,43,43,44,44,45,45,46,46,47,47,48,48,49,49,50,50,51,51,52,52,53,53,54,54,55,55,56,56,57,57,58,58,59,59,60,60,61,61,62,62],"right_children":[2,4,6,8,10,12,14,16,18,20,22,24,26,28,30,32,34,36,38,40,42,44,46,48,50,52,54,56,58,60,62,64,66,68,70,72,74,76,78,80,82,84,86,88,90,92,94,96,98,100,102,104,106,108,110,112,114,116,118,120,122,124,126,-1,-1,-1,-1,-1,-1,-1,-1,-1,-1,-1,-1,-1,-1,-1,-1,-1,-1,-1,-1,-1,-1,-1,-1,-1,-1,-1,-1,-1,-1,-1,-1,-1,-1,-1,-1,-1,-1,-1,-1,-1,-1,-1,-1,-1,-1,-1,-1,-1,-1,-1,-1,-1,-1,-1,-1,-1,-1,-1,-1,-1,-1,-1,-1],"split_conditions":[1.6186249E0,1.5469049E-1,1.1164961E0,-1.4250124E-1,1.9848347E0,-8.719406E-1,-1.960219E-2,-1.7785726E0,4.362324E-1,-6.1610985E-1,2.7525969E0,-1.6722021E0,-1.1603281E0,2.5709555E0,1.9529928E0,-2.7372632E0,5.447514E-1,-1.8606042E-2,-3.8614267E-1,-5.5963147E-1,2.749018E-2,1.1695365E0,7.419021E-1,-2.7014132E0,-2.259543E0,-2.6070776E0,7.475676E-1,-1.6693503E-1,-5.0349474E-1,-1.041608E0,-2.331741E-1,1.0966757E-1,1.6903815E0,5.3121954E-1,2.6333723E-2,-4.287417E-1,1.5585365E-2,1.3366331E0,7.132722E-1,-9.887425E-1,-4.3567143E-2,3.4655744E-1,5.0709292E-2,3.6031115E-1,1.5716174E0,3.4952207E0,2.8754034E0,9.681825E-2,3.540526E-1,-2.7456425E-2,1.7318842E0,-5.7952356E-1,-1.0290146E-1,3.3792324E0,1.9713454E0,-3.6003822E-1,-5.2683014E-2,1.3747187E-2,-1.869283E-1,4.078027E-1,-2.883258E-1,-3.0024546E-1,-4.4009435E-1,2.0945089E-2,-4.6621658E-2,-5.0228033E-2,1.2686249E-2,-1.17188774E-1,-8.524019E-2,-7.254794E-2,1.4734202E-2,-9.4412856E-2,-1.2158501E-1,-1.4852595E-1,-1.2248453E-1,-1.0917571E-1,4.3517094E-2,-9.818348E-2,-4.4544876E-2,-4.3974265E-2,-1.0943933E-1,-2.114974E-2,-5.5873644E-2,-1.0991456E-1,-7.908398E-2,-6.2613813E-3,-7.5690635E-2,3.261919E-2,5.7056583E-3,-4.60821E-2,-4.2148177E-3,4.657968E-2,2.0318175E-2,3.6482178E-4,-1.8050348E-2,-3.4681015E-2,1.7417297E-2,-7.1946345E-2,-5.7507074E-4,-2.0791765E-2,-5.987362E-2,-8.819704E-2,-1.15518734E-1,-1.5164236E-2,-5.647854E-2,-9.430389E-2,-1.1531269E-1,-1.4914109E-1,-1.3671242E-1,-1.2420554E-1,-7.8953564E-2,-1.0105998E-2,-2.845301E-2,-2.7000325E-2,-6.503355E-2,2.9286979E-2,6.3196674E-2,-1.9919222E-2,1.1867824E-2,-6.846643E-2,-3.2342903E-2,-8.611307E-2,-1.1154049E-1,-7.336681E-2,-1.03439115E-1,1.7169475E-3,-5.5121254E-2],"split_indices":[5,4,4,4,4,4,2,4,0,0,4,4,3,4,4,4,3,0,1,1,2,5,0,4,3,3,3,0,1,3,0,2,3,0,2,0,0,3,0,0,2,1,2,3,5,4,4,1,0,2,5,1,1,5,3,1,2,0,1,1,0,0,1,0,0,0,0,0,0,0,0,0,0,0,0,0,0,0,0,0,0,0,0,0,0,0,0,0,0,0,0,0,0,0,0,0,0,0,0,0,0,0,0,0,0,0,0,0,0,0,0,0,0,0,0,0,0,0,0,0,0,0,0,0,0,0,0],"split_type":[0,0,0,0,0,0,0,0,0,0,0,0,0,0,0,0,0,0,0,0,0,0,0,0,0,0,0,0,0,0,0,0,0,0,0,0,0,0,0,0,0,0,0,0,0,0,0,0,0,0,0,0,0,0,0,0,0,0,0,0,0,0,0,0,0,0,0,0,0,0,0,0,0,0,0,0,0,0,0,0,0,0,0,0,0,0,0,0,0,0,0,0,0,0,0,0,0,0,0,0,0,0,0,0,0,0,0,0,0,0,0,0,0,0,0,0,0,0,0,0,0,0,0,0,0,0,0],"sum_hessian":[1.02631E5,2.8661E4,7.397E4,2.2823E4,5.838E3,7.2725E4,1.245E3,5.364E3,1.7459E4,5.197E3,6.41E2,1.884E3,7.0841E4,3.61E2,8.84E2,6.61E2,4.703E3,1.6557E4,9.02E2,9.25E2,4.272E3,4.94E2,1.47E2,6.32E2,1.252E3,7.07E2,7.0134E4,2.12E2,1.49E2,7.32E2,1.52E2,1.42E2,5.19E2,4.09E3,6.13E2,4.858E3,1.1699E4,3.96E2,5.06E2,1.46E2,7.79E2,3.711E3,5.61E2,1.34E2,3.6E2,1.19E2,2.8E1,1.75E2,4.57E2,5.2E1,1.2E3,7.4E1,6.33E2,6.8624E4,1.51E3,6E1,1.52E2,2.8E1,1.21E2,6.4E1,6.68E2,4.5E1,1.07E2,1.31E2,1.1E1,4.62E2,5.7E1,2.228E3,1.862E3,5.23E2,9E1,1.094E3,3.764E3,7.22E3,4.479E3,3.88E2,8E0,2.24E2,2.82E2,1.1E1,1.35E2,2.16E2,5.63E2,2.949E3,7.62E2,2.09E2,3.52E2,8.9E1,4.5E1,2.86E2,7.4E1,1.01E2,1.8E1,1.5E1,1.3E1,8.3E1,9.2E1,4.08E2,4.9E1,3.3E1,1.9E1,1.57E2,1.043E3,5.1E1,2.3E1,2.86E2,3.47E2,5.8957E4,9.667E3,1.333E3,1.77E2,4.7E1,1.3E1,6.3E1,8.9E1,2.3E1,5E0,1.4E1,1.07E2,5.8E1,6E0,8E1,5.88E2,2.9E1,1.6E1,2E0,1.05E2],"tree_param":{"num_deleted":"0","num_feature":"6","num_nodes":"127","size_leaf_vector":"0"}},{"base_weights":[-1.5846819E-1,-2.244337E-1,-1.5024896E-1,-1.8873526E-1,-2.8488764E-1,-1.5879866E-1,-9.840714E-2,-3.3442345E-1,-1.8199538E-1,-3.6899605E-1,-2.4943282E-1,-1.584138E-1,-2.3551711E-1,-1.09217644E-1,3.0456029E-2,-2.1423301E-1,-4.2812937E-1,-1.9741325E-1,-1.2793341E-1,-4.2696136E-1,-3.3814964E-1,-2.836433E-1,-2.28846E-1,-1.1083909E-1,-1.5892497E-1,-3.3265048E-1,-2.0726386E-1,-1.3846105E-1,-6.607931E-2,-6.0563125E-2,8.0132455E-2,-2.90231E-1,-1.22077934E-1,-3.8889217E-1,-4.6379855E-1,-1.4344484E-1,-2.19014E-1,-7.2861254E-2,-1.6548231E-1,-4.1118202E-1,-5.2300555E-1,-4.347477E-1,-3.1569663E-1,-3.29816E-1,-2.6916593E-1,-1.0212397E-1,-2.312911E-1,5.815953E-3,-1.3147232E-1,-1.73777E-1,-1.5694445E-1,-2.0359655E-1,-3.432766E-1,-3.3468872E-1,-1.8997818E-1,-1.1582893E-1,-2.7168286E-1,-9.2149176E-2,4.260199E-2,-1.9793361E-2,-1.3793027E-1,6.595344E-2,2.0629264E-1,-3.3787748E-1,-2.4580747E-1,-1.5642992E-1,-2.3690537E-2,-1.1315923E-1,-1.6011007E-1,-2.3522083E-1,-1.6787475E-1,-6.3030034E-2,-3.4934717E-1,-6.196149E-2,-2.037177E-1,-3.685327E-1,-4.5808622E-1,-4.4250292E-1,-2.1088915E-1,-3.262791E-1,-1.5796192E-1,-3.0015662E-1,-4.1121545E-1,-2.7624416E-1,-1.8864854E-1,-2.3397219E-1,-1.225746E-1,2.2324089E-2,-6.9082394E-2,-2.8815198E-1,-1.20891936E-1,-1.7588784E-1,-1.1399473E-1,-1.5683797E-1,-3.0768996E-1,-1.1411896E-1,-2.1204141E-1,7.443162E-2,-1.21717595E-1,-1.8640149E-1,-2.812541E-1,-1.1103566E-1,-6.429517E-2,2.051622E-3,9.6394375E-2,-6.356911E-2,-5.5842586E-3,-1.652714E-1,-1.9401018E-2,2.9348131E-2,8.078946E-2,2.4616253E-1,1.7859812E-1],"categories":[],"categories_nodes":[],"categories_segments":[],"categories_sizes":[],"default_left":[1,1,1,1,1,1,1,1,1,1,1,1,1,1,1,1,1,1,1,1,1,1,1,1,1,1,1,1,1,1,1,1,1,0,0,1,1,1,1,1,0,1,1,1,1,0,1,1,1,1,1,0,0,0,1,1,1,1,1,1,1,1,1,0,0,0,0,0,0,0,0,0,0,0,0,0,0,0,0,0,0,0,0,0,0,0,0,0,0,0,0,0,0,0,0,0,0,0,0,0,0,0,0,0,0,0,0,0,0,0,0,0,0],"id":9,"left_children":[1,3,5,7,9,11,13,15,17,19,21,23,25,27,29,31,33,35,37,39,41,43,45,47,49,51,53,55,57,59,61,63,65,-1,-1,67,69,71,73,75,-1,77,79,81,83,-1,85,87,89,91,93,-1,-1,-1,95,97,99,101,103,105,107,109,111,-1,-1,-1,-1,-1,-1,-1,-1,-1,-1,-1,-1,-1,-1,-1,-1,-1,-1,-1,-1,-1,-1,-1,-1,-1,-1,-1,-1,-1,-1,-1,-1,-1,-1,-1,-1,-1,-1,-1,-1,-1,-1,-1,-1,-1,-1,-1,-1,-1,-1],"loss_changes":[5.561206E1,2.4481812E1,4.043579E1,6.960846E0,1.2489197E1,2.2757568E0,1.8006042E1,3.455986E0,5.673523E0,2.0888672E0,2.027542E0,1.8781738E0,9.985981E-1,1.5031845E1,4.530881E0,9.450736E-1,6.59523E-2,6.1680756E0,3.1311512E0,4.36615E-1,1.6412582E0,6.5454865E-1,5.527115E-1,2.0033636E0,2.241333E0,4.804516E-2,6.060133E-1,2.1390762E1,1.3657633E1,1.1138709E0,1.1455541E0,7.7810764E-2,2.1598119E-1,0E0,0E0,7.5056267E-1,3.1066742E0,1.6578238E0,3.561596E0,5.793457E-1,0E0,1.7056465E-1,1.0651703E0,5.066929E-1,4.3346024E-1,0E0,5.0297546E-1,1.5733264E-1,1.1371813E0,1.1238403E0,1.0440674E0,0E0,0E0,0E0,4.27701E-1,6.815361E0,7.8912354E-1,2.0376701E0,2.034956E0,1.4457428E-1,3.9216208E-1,3.1478572E-1,2.7807236E-2,0E0,0E0,0E0,0E0,0E0,0E0,0E0,0E0,0E0,0E0,0E0,0E0,0E0,0E0,0E0,0E0,0E0,0E0,0E0,0E0,0E0,0E0,0E0,0E0,0E0,0E0,0E0,0E0,0E0,0E0,0E0,0E0,0E0,0E0,0E0,0E0,0E0,0E0,0E0,0E0,0E0,0E0,0E0,0E0,0E0,0E0,0E0,0E0,0E0,0E0],"parents":[2147483647,0,0,1,1,2,2,3,3,4,4,5,5,6,6,7,7,8,8,9,9,10,10,11,11,12,12,13,13,14,14,15,15,16,16,17,17,18,18,19,19,20,20,21,21,22,22,23,23,24,24,25,25,26,26,27,27,28,28,29,29,30,30,31,31,32,32,35,35,36,36,37,37,38,38,39,39,41,41,42,42,43,43,44,44,46,46,47,47,48,48,49,49,50,50,54,54,55,55,56,56,57,57,58,58,59,59,60,60,61,61,62,62],"right_children":[2,4,6,8,10,12,14,16,18,20,22,24,26,28,30,32,34,36,38,40,42,44,46,48,50,52,54,56,58,60,62,64,66,-1,-1,68,70,72,74,76,-1,78,80,82,84,-1,86,88,90,92,94,-1,-1,-1,96,98,100,102,104,106,108,110,112,-1,-1,-1,-1,-1,-1,-1,-1,-1,-1,-1,-1,-1,-1,-1,-1,-1,-1,-1,-1,-1,-1,-1,-1,-1,-1,-1,-1,-1,-1,-1,-1,-1,-1,-1,-1,-1,-1,-1,-1,-1,-1,-1,-1,-1,-1,-1,-1,-1,-1],"split_conditions":[-9.2585504E-2,3.1982484E-1,5.9796967E-2,-7.414367E-1,-3.236342E-1,4.555855E-1,1.3416208E0,-1.0066752E0,1.2233445E-2,-5.055013E-1,-1.9095981E-1,-3.2058853E-1,5.7935804E-1,8.926953E-1,2.5195265E-1,-2.3473768E-1,-2.7110988E-1,-3.0244237E-1,-3.0077666E-2,2.9840719E-2,-2.135522E0,-1.2607133E0,-5.0087996E-2,-4.692059E-2,-2.5824506E-2,-2.3429785E0,-4.1721053E-2,4.9615964E-2,3.0713138E-1,9.9551845E-1,1.868728E-1,-3.50047E-1,-1.3058524E0,-1.1666766E-1,-1.3913958E-1,-9.1742647E-1,6.271956E-1,7.819196E-1,-2.784788E-1,1.57919E0,-1.5690167E-1,3.1378126E-1,2.6855965E0,7.9088175E-1,1.9620081E0,-3.0637192E-2,2.422566E0,1.4731842E-1,-1.931067E0,3.044218E0,8.6364836E-2,-6.1078966E-2,-1.0298298E-1,-1.00406624E-1,-2.1412933E-1,-1.9400746E-1,-4.0134132E-1,1.3428956E-1,4.4360423E-1,1.2468138E-1,2.7032769E0,3.3342344E-1,9.9997325E-3,-1.0136325E-1,-7.374224E-2,-4.6928976E-2,-7.1071615E-3,-3.394777E-2,-4.8033025E-2,-7.056625E-2,-5.0362427E-2,-1.8909011E-2,-1.0480416E-1,-1.8588448E-2,-6.111531E-2,-1.1055981E-1,-1.3742587E-1,-1.3275088E-1,-6.326675E-2,-9.788374E-2,-4.738858E-2,-9.004699E-2,-1.2336464E-1,-8.2873255E-2,-5.659456E-2,-7.019166E-2,-3.677238E-2,6.697227E-3,-2.072472E-2,-8.64456E-2,-3.6267582E-2,-5.2766353E-2,-3.4198422E-2,-4.7051392E-2,-9.2306994E-2,-3.423569E-2,-6.3612424E-2,2.2329487E-2,-3.651528E-2,-5.592045E-2,-8.437624E-2,-3.33107E-2,-1.9288553E-2,6.154866E-4,2.8918313E-2,-1.9070735E-2,-1.6752776E-3,-4.9581423E-2,-5.8203056E-3,8.80444E-3,2.423684E-2,7.384876E-2,5.357944E-2],"split_indices":[1,5,1,4,1,0,4,3,5,1,1,0,0,5,1,1,0,0,2,2,4,4,2,5,1,3,2,5,1,3,2,1,4,0,0,0,0,0,3,5,0,0,3,3,3,0,4,3,4,5,2,0,0,0,3,3,0,1,1,1,4,1,5,0,0,0,0,0,0,0,0,0,0,0,0,0,0,0,0,0,0,0,0,0,0,0,0,0,0,0,0,0,0,0,0,0,0,0,0,0,0,0,0,0,0,0,0,0,0,0,0,0,0],"split_type":[0,0,0,0,0,0,0,0,0,0,0,0,0,0,0,0,0,0,0,0,0,0,0,0,0,0,0,0,0,0,0,0,0,0,0,0,0,0,0,0,0,0,0,0,0,0,0,0,0,0,0,0,0,0,0,0,0,0,0,0,0,0,0,0,0,0,0,0,0,0,0,0,0,0,0,0,0,0,0,0,0,0,0,0,0,0,0,0,0,0,0,0,0,0,0,0,0,0,0,0,0,0,0,0,0,0,0,0,0,0,0,0,0],"sum_hessian":[1.02631E5,1.1368E4,9.1263E4,7.15E3,4.218E3,7.8341E4,1.2922E4,3.14E2,6.836E3,1.248E3,2.97E3,7.7953E4,3.88E2,1.1922E4,1E3,1.39E2,1.75E2,5.317E3,1.519E3,4.29E2,8.19E2,1.111E3,1.859E3,8.31E2,7.7122E4,8.5E1,3.03E2,7.104E3,4.818E3,3.53E2,6.47E2,7.5E1,6.4E1,8.9E1,8.6E1,1.522E3,3.795E3,6.17E2,9.02E2,3.73E2,5.6E1,1.51E2,6.68E2,2.6E2,8.51E2,3.6E1,1.823E3,1.25E2,7.06E2,9.064E3,6.8058E4,8E0,7.7E1,3.4E1,2.69E2,6.074E3,1.03E3,3.886E3,9.32E2,2.32E2,1.21E2,5.83E2,6.4E1,3.3E1,4.2E1,4.7E1,1.7E1,5.43E2,9.79E2,2.879E3,9.16E2,5.97E2,2E1,2.44E2,6.58E2,2E2,1.73E2,1.45E2,6E0,6.25E2,4.3E1,1.94E2,6.6E1,7.8E2,7.1E1,1.778E3,4.5E1,1.03E2,2.2E1,4.3E1,6.63E2,8.753E3,3.11E2,6.8012E4,4.6E1,6.2E1,2.07E2,1.82E2,5.892E3,1.06E2,9.24E2,2.314E3,1.572E3,5.32E2,4E2,5.6E1,1.76E2,9.8E1,2.3E1,1.69E2,4.14E2,2.3E1,4.1E1],"tree_param":{"num_deleted":"0","num_feature":"6","num_nodes":"113","size_leaf_vector":"0"}},{"base_weights":[-1.6113867E-1,-9.109919E-2,-1.6847071E-1,-1.3043228E-1,-1.4898688E-2,-1.6067553E-1,-2.1734384E-1,-7.9259306E-2,-1.9049162E-1,6.6246785E-2,-5.2316353E-2,-1.4100388E-1,-1.6250338E-1,-1.828823E-1,-2.7224928E-1,-4.405836E-2,-1.2970613E-1,-1.7080376E-1,-2.998196E-1,1.3299328E-1,5.3864516E-2,-1.932237E-2,-7.171105E-2,-1.7529187E-1,-1.3097002E-1,-1.6225079E-1,-2.522231E-1,-1.7239188E-1,-3.8703632E-1,-2.3136751E-1,-3.593009E-1,-1.5962313E-1,-2.1298511E-2,-6.9545396E-2,-1.6540132E-1,-2.9326156E-1,-1.4989467E-1,-3.7384787E-1,-2.6611534E-1,1.4208432E-1,7.1478985E-2,4.6121325E-2,1.3441822E-1,-9.513848E-3,-9.624493E-2,-6.77133E-2,-1.41938E-1,-8.790048E-2,-1.8382509E-1,-1.214921E-1,-1.5625666E-1,-1.6203669E-1,-2.4356811E-1,-2.7532476E-1,-4.859468E-2,-2.2875322E-1,-1.4324391E-1,-3.1201148E-1,-4.3667158E-1,-2.0857401E-1,-2.5428194E-1,-3.370571E-1,-4.2795005E-1,-1.25302E-1,-2.859583E-1,4.3901257E-2,-6.6400826E-2,-9.8612614E-2,1.1758815E-2,-2.3822273E-1,-1.5188974E-1,-3.214633E-1,1.8267463E-1,-1.5664752E-1,4.9095362E-2,-4.435222E-1,-3.4490865E-1,-1.2649119E-1,-2.827367E-1,1.5099202E-1,8.399305E-2,7.436178E-2,2.7473113E-2,5.7129513E-2,-1.3356678E-2,1.3799407E-1,5.5327106E-2,-3.4209143E-3,-1.5013061E-1,3.4779556E-2,-1.23221785E-1,2.8235631E-2,-6.991035E-2,-1.775078E-1,1.4546354E-2,6.181164E-2,-1.0787776E-1,-2.8890494E-1,-1.7623068E-1,-8.52812E-2,-1.2774248E-1,-1.5068875E-1,-2.2400497E-1,-4.8039976E-1,-1.6198206E-1,-2.4800281E-1,-6.623694E-2,-2.8713125E-1,-6.4611405E-2,-5.9425067E-2,1.13642214E-4,-1.4709412E-1,-2.5996116E-1,-1.7218132E-1,-5.0694685E-2,-3.474052E-1,-2.3667261E-1,-1.7974739E-1,-4.5651975E-1,-1.6375728E-1,-2.1575044E-1,-2.6005977E-1,-1.4223276E-1,-3.0067694E-1,-3.724511E-1,-4.7335497E-1,-3.9069158E-1],"categories":[],"categories_nodes":[],"categories_segments":[],"categories_sizes":[],"default_left":[1,1,1,1,1,1,1,1,1,1,1,1,1,1,1,1,1,1,1,1,1,1,1,1,1,1,1,1,1,1,1,1,1,1,1,1,1,1,1,1,1,1,1,1,1,1,1,1,1,1,1,1,1,1,1,1,1,1,1,1,1,1,1,0,0,0,0,0,0,0,0,0,0,0,0,0,0,0,0,0,0,0,0,0,0,0,0,0,0,0,0,0,0,0,0,0,0,0,0,0,0,0,0,0,0,0,0,0,0,0,0,0,0,0,0,0,0,0,0,0,0,0,0,0,0,0,0],"id":10,"left_children":[1,3,5,7,9,11,13,15,17,19,21,23,25,27,29,31,33,35,37,39,41,43,45,47,49,51,53,55,57,59,61,63,65,67,69,71,73,75,77,79,81,83,85,87,89,91,93,95,97,99,101,103,105,107,109,111,113,115,117,119,121,123,125,-1,-1,-1,-1,-1,-1,-1,-1,-1,-1,-1,-1,-1,-1,-1,-1,-1,-1,-1,-1,-1,-1,-1,-1,-1,-1,-1,-1,-1,-1,-1,-1,-1,-1,-1,-1,-1,-1,-1,-1,-1,-1,-1,-1,-1,-1,-1,-1,-1,-1,-1,-1,-1,-1,-1,-1,-1,-1,-1,-1,-1,-1,-1,-1],"loss_changes":[5.2689697E1,2.915483E1,3.535962E1,1.9703941E1,1.0062641E1,2.8581543E0,2.4125977E1,6.149124E0,6.3006287E0,8.57327E-1,1.4499264E0,2.3233948E0,1.6204834E0,1.6751709E1,1.7444092E1,5.3701744E0,3.046463E0,6.364929E0,1.0207977E0,8.099818E-2,5.4518914E-1,6.33616E-1,3.913002E-1,1.1330147E0,1.2464523E0,1.2333984E0,9.462671E-1,1.2240723E1,1.2899971E0,1.698761E0,2.2562408E0,1.4210539E0,5.0255632E0,1.2584283E0,8.4247017E-1,4.944416E0,2.8833122E0,1.2527847E-1,6.883087E-1,6.0279608E-2,8.748248E-4,5.297971E-1,1.4142156E-2,6.394927E-1,3.400752E-1,2.8719282E-1,4.2560697E-1,4.22395E-1,1.0687027E0,8.593483E-1,5.0792694E-1,1.1901855E0,1.3299084E-1,4.3671322E-1,1.1612415E-2,6.447464E0,1.31864395E1,3.3375645E-1,1.0806236E0,5.072479E-1,1.0428696E0,1.4228821E0,4.5960236E-1,0E0,0E0,0E0,0E0,0E0,0E0,0E0,0E0,0E0,0E0,0E0,0E0,0E0,0E0,0E0,0E0,0E0,0E0,0E0,0E0,0E0,0E0,0E0,0E0,0E0,0E0,0E0,0E0,0E0,0E0,0E0,0E0,0E0,0E0,0E0,0E0,0E0,0E0,0E0,0E0,0E0,0E0,0E0,0E0,0E0,0E0,0E0,0E0,0E0,0E0,0E0,0E0,0E0,0E0,0E0,0E0,0E0,0E0,0E0,0E0,0E0,0E0,0E0,0E0],"parents":[2147483647,0,0,1,1,2,2,3,3,4,4,5,5,6,6,7,7,8,8,9,9,10,10,11,11,12,12,13,13,14,14,15,15,16,16,17,17,18,18,19,19,20,20,21,21,22,22,23,23,24,24,25,25,26,26,27,27,28,28,29,29,30,30,31,31,32,32,33,33,34,34,35,35,36,36,37,37,38,38,39,39,40,40,41,41,42,42,43,43,44,44,45,45,46,46,47,47,48,48,49,49,50,50,51,51,52,52,53,53,54,54,55,55,56,56,57,57,58,58,59,59,60,60,61,61,62,62],"right_children":[2,4,6,8,10,12,14,16,18,20,22,24,26,28,30,32,34,36,38,40,42,44,46,48,50,52,54,56,58,60,62,64,66,68,70,72,74,76,78,80,82,84,86,88,90,92,94,96,98,100,102,104,106,108,110,112,114,116,118,120,122,124,126,-1,-1,-1,-1,-1,-1,-1,-1,-1,-1,-1,-1,-1,-1,-1,-1,-1,-1,-1,-1,-1,-1,-1,-1,-1,-1,-1,-1,-1,-1,-1,-1,-1,-1,-1,-1,-1,-1,-1,-1,-1,-1,-1,-1,-1,-1,-1,-1,-1,-1,-1,-1,-1,-1,-1,-1,-1,-1,-1,-1,-1,-1,-1,-1],"split_conditions":[-1.3697904E-1,3.9888805E-1,7.8363895E-2,-7.578252E-3,-3.541749E-1,-3.421481E-2,4.5024315E-1,-4.568028E-1,3.107658E-1,-5.995071E-1,-2.3813856E-1,1.1574348E0,1.2170373E0,1.0199068E0,2.701422E-1,-9.149312E-1,-9.355132E-2,-9.2032576E-1,-6.401565E-1,6.580627E-1,2.7004418E0,3.8205755E-1,4.364569E-1,-2.374382E-1,2.0265088E0,5.397904E-1,4.8746985E-1,-4.2208392E-2,1.4321811E0,1.3509928E-1,2.0015996E0,2.5692862E-2,-7.207604E-1,-1.5871756E-1,-1.2572244E-1,4.6287984E-1,1.991339E-2,1.627479E-2,5.656513E-1,3.3323923E-1,1.398479E0,2.954482E-1,-3.7560153E-1,2.5066466E0,-3.9212003E-2,-2.5464265E0,1.5057791E0,-1.4662611E-1,-5.6344174E-2,-6.0844415E-1,5.303252E0,-2.782985E-1,2.0657256E-1,3.224997E-2,5.8330018E-2,-4.5072255E-1,5.0630796E-1,1.9888265E-1,-5.957621E-1,1.481302E0,4.6611542E-1,3.968888E-1,-4.1748142E-1,-3.75906E-2,-8.578749E-2,1.3170377E-2,-1.9920249E-2,-2.9583786E-2,3.5276446E-3,-7.1466826E-2,-4.5566924E-2,-9.643899E-2,5.480239E-2,-4.6994258E-2,1.47286095E-2,-1.3305667E-1,-1.034726E-1,-3.7947357E-2,-8.482101E-2,4.5297608E-2,2.5197916E-2,2.2308534E-2,8.241934E-3,1.7138856E-2,-4.0070037E-3,4.139822E-2,1.6598133E-2,-1.0262743E-3,-4.5039184E-2,1.0433868E-2,-3.6966536E-2,8.47069E-3,-2.0973105E-2,-5.3252343E-2,4.3639066E-3,1.8543493E-2,-3.236333E-2,-8.667149E-2,-5.286921E-2,-2.558436E-2,-3.8322747E-2,-4.520663E-2,-6.7201495E-2,-1.4411993E-1,-4.859462E-2,-7.440085E-2,-1.9871084E-2,-8.613938E-2,-1.9383423E-2,-1.782752E-2,3.4092667E-5,-4.4128235E-2,-7.798835E-2,-5.16544E-2,-1.5208406E-2,-1.0422156E-1,-7.100178E-2,-5.3924218E-2,-1.3695593E-1,-4.9127188E-2,-6.472514E-2,-7.8017935E-2,-4.266983E-2,-9.0203084E-2,-1.1173534E-1,-1.420065E-1,-1.17207475E-1],"split_indices":[0,5,0,5,0,0,5,0,1,0,0,5,3,3,0,1,3,0,0,4,4,1,1,3,5,1,1,5,3,0,4,2,0,1,5,4,2,5,1,1,4,1,0,4,2,3,4,5,5,4,5,5,2,2,0,1,0,1,1,5,1,0,3,0,0,0,0,0,0,0,0,0,0,0,0,0,0,0,0,0,0,0,0,0,0,0,0,0,0,0,0,0,0,0,0,0,0,0,0,0,0,0,0,0,0,0,0,0,0,0,0,0,0,0,0,0,0,0,0,0,0,0,0,0,0,0,0],"split_type":[0,0,0,0,0,0,0,0,0,0,0,0,0,0,0,0,0,0,0,0,0,0,0,0,0,0,0,0,0,0,0,0,0,0,0,0,0,0,0,0,0,0,0,0,0,0,0,0,0,0,0,0,0,0,0,0,0,0,0,0,0,0,0,0,0,0,0,0,0,0,0,0,0,0,0,0,0,0,0,0,0,0,0,0,0,0,0,0,0,0,0,0,0,0,0,0,0,0,0,0,0,0,0,0,0,0,0,0,0,0,0,0,0,0,0,0,0,0,0,0,0,0,0,0,0,0,0],"sum_hessian":[1.02631E5,9.727E3,9.2904E4,6.415E3,3.312E3,8.0128E4,1.2776E4,3.465E3,2.95E3,1.045E3,2.267E3,6.819E3,7.3309E4,7.852E3,4.924E3,2.042E3,1.423E3,2.502E3,4.48E2,1.62E2,8.83E2,8.4E2,1.427E3,1.54E3,5.279E3,7.3106E4,2.03E2,7.47E3,3.82E2,3.353E3,1.571E3,3.35E2,1.707E3,5.31E2,8.92E2,3.63E2,2.139E3,1.37E2,3.11E2,1.4E2,2.2E1,8.07E2,7.6E1,7.46E2,9.4E1,1.352E3,7.5E1,1.38E2,1.402E3,3.844E3,1.435E3,7.2917E4,1.89E2,1.82E2,2.1E1,2.544E3,4.926E3,1.55E2,2.27E2,1.686E3,1.667E3,1.191E3,3.8E2,2.65E2,7E1,6.98E2,1.009E3,3.91E2,1.4E2,1.37E2,7.55E2,3.43E2,2E1,2.069E3,7E1,3.6E1,1.01E2,3.4E1,2.77E2,1.2E2,2E1,2E1,2E0,6.81E2,1.26E2,7.2E1,4E0,7.16E2,3E1,1.6E1,7.8E1,3E1,1.322E3,6.1E1,1.4E1,1.6E1,1.22E2,9.2E1,1.31E3,5.68E2,3.276E3,1.329E3,1.06E2,1.1E1,7.2906E4,1.84E2,5E0,1.72E2,1E1,1.7E1,4E0,7.05E2,1.839E3,3.752E3,1.174E3,1.03E2,5.2E1,1.7E1,2.1E2,2.36E2,1.45E3,1.584E3,8.3E1,5.92E2,5.99E2,1.66E2,2.14E2],"tree_param":{"num_deleted":"0","num_feature":"6","num_nodes":"127","size_leaf_vector":"0"}},{"base_weights":[-3.144546E-1,-2.6102784E-1,-3.3515194E-1,-2.692453E-1,-8.588763E-2,-3.3815145E-1,-1.8468814E-1,-1.22021474E-1,-2.768294E-1,-1.4176722E-1,-1.1365304E-3,-2.0060524E-1,-3.4102193E-1,1.1877792E-3,-2.0240489E-1,-2.2613072E-1,-8.82913E-2,-2.8910404E-1,-1.9382274E-1,-4.0652317E-1,-1.2831967E-1,-2.6391197E-2,1.0448537E-1,-2.212299E-1,2.1674309E-2,-2.2240598E-1,-3.4235948E-1,8.366825E-3,-1.7565429E-1,-6.3616015E-2,-2.1998028E-1,-3.0547148E-1,7.971888E-3,2.5098894E-2,-1.3019697E-1,-2.0119286E-1,-3.0397367E-1,-1.4828214E-1,-2.3044004E-1,-6.937152E-2,-4.4528788E-1,-1.5156819E-1,-1.7209832E-2,5.5566266E-2,-7.415112E-2,1.0979446E-1,-4.9053982E-2,-1.04311496E-1,-2.3910588E-1,-8.153021E-2,3.4158424E-2,-1.15842685E-1,-2.5544992E-1,-3.4299394E-1,-1.1029878E-1,1.6731774E-2,-7.8324646E-2,-1.7561066E-1,-5.260481E-2,-2.2501293E-1,2.0119496E-2,-2.0561294E-1,-3.6734447E-1,-7.438831E-2,1.3127771E-1,5.824717E-2,-1.5510222E-1,-7.321854E-2,-1.5900062E-1,-3.0524185E-1,-1.7375313E-1,-3.1334236E-1,-2.1153668E-1,-1.02496594E-1,-2.0053671E-1,-2.4258962E-1,-7.242576E-3,-7.014004E-2,-2.0700634E-1,2.1429757E-2,-1.1386583E-1,7.881981E-2,-2.2197189E-2,9.820768E-2,-9.274681E-2,1.4639711E-1,8.1035465E-2,-5.9004653E-2,-9.600982E-3,-1.241978E-1,-7.213263E-3,-9.506034E-2,-2.5007915E-1,-9.719236E-2,-3.389988E-2,1.2496762E-2,6.1635412E-2,1.1171863E-1,-1.3457893E-1,-2.700755E-1,-1.9982032E-1,-3.4711972E-1,-3.1943357E-1,-1.8589945E-1,3.465022E-2,9.196461E-3,7.938763E-2,-1.2762453E-1,-3.1921204E-2,-2.7889105E-2,-1.9993375E-1,-1.9202547E-2,-9.2064604E-2,-2.3844731E-1,-1.2648629E-1,1.0141199E-1,-2.4101207E-2],"categories":[],"categories_nodes":[],"categories_segments":[],"categories_sizes":[],"default_left":[1,1,1,1,1,1,1,1,1,1,1,1,1,1,1,1,1,1,1,1,1,1,1,1,1,1,1,1,0,1,1,1,1,1,1,1,1,1,1,0,0,1,1,1,1,1,1,1,1,1,1,1,1,1,1,1,1,1,1,1,1,0,0,0,0,0,0,0,0,0,0,0,0,0,0,0,0,0,0,0,0,0,0,0,0,0,0,0,0,0,0,0,0,0,0,0,0,0,0,0,0,0,0,0,0,0,0,0,0,0,0,0,0,0,0,0,0],"id":11,"left_children":[1,3,5,7,9,11,13,15,17,19,21,23,25,27,29,31,33,35,37,39,41,43,45,47,49,51,53,55,-1,57,59,61,63,65,67,69,71,73,75,-1,-1,77,79,81,83,85,87,89,91,93,95,97,99,101,103,105,107,109,111,113,115,-1,-1,-1,-1,-1,-1,-1,-1,-1,-1,-1,-1,-1,-1,-1,-1,-1,-1,-1,-1,-1,-1,-1,-1,-1,-1,-1,-1,-1,-1,-1,-1,-1,-1,-1,-1,-1,-1,-1,-1,-1,-1,-1,-1,-1,-1,-1,-1,-1,-1,-1,-1,-1,-1,-1,-1],"loss_changes":[1.1340234E2,4.1227417E1,3.332129E1,3.053418E1,6.090151E0,2.856543E1,4.768673E0,4.696144E0,2.6470459E1,2.7070818E0,1.3684899E0,6.812687E0,1.1194336E1,1.6270344E-1,3.2107162E0,6.0946674E0,4.8309884E0,2.958496E1,5.5638657E0,4.526844E-1,1.9063311E0,1.6246333E0,8.6086035E-2,2.8154144E0,1.6641393E-1,2.7698212E0,1.03046875E1,9.050639E-2,0E0,1.7574143E-1,1.4219131E0,1.4382133E0,8.628268E-1,1.6517073E0,1.2061186E0,9.323044E0,1.6730957E1,3.5658073E0,5.039398E0,0E0,0E0,2.7436724E0,4.842226E-1,2.7841583E-1,8.4885263E-1,8.919144E-2,1.0038335E-3,3.5053277E-1,1.8382263E0,7.1490854E-3,6.708224E-2,8.2512665E-1,4.390831E-1,6.6992188E0,2.1213822E0,5.2620776E-2,2.1090597E-2,4.1133642E-2,1.8012258E-1,1.4907074E0,9.231444E-2,0E0,0E0,0E0,0E0,0E0,0E0,0E0,0E0,0E0,0E0,0E0,0E0,0E0,0E0,0E0,0E0,0E0,0E0,0E0,0E0,0E0,0E0,0E0,0E0,0E0,0E0,0E0,0E0,0E0,0E0,0E0,0E0,0E0,0E0,0E0,0E0,0E0,0E0,0E0,0E0,0E0,0E0,0E0,0E0,0E0,0E0,0E0,0E0,0E0,0E0,0E0,0E0,0E0,0E0,0E0,0E0],"parents":[2147483647,0,0,1,1,2,2,3,3,4,4,5,5,6,6,7,7,8,8,9,9,10,10,11,11,12,12,13,13,14,14,15,15,16,16,17,17,18,18,19,19,20,20,21,21,22,22,23,23,24,24,25,25,26,26,27,27,29,29,30,30,31,31,32,32,33,33,34,34,35,35,36,36,37,37,38,38,41,41,42,42,43,43,44,44,45,45,46,46,47,47,48,48,49,49,50,50,51,51,52,52,53,53,54,54,55,55,56,56,57,57,58,58,59,59,60,60],"right_children":[2,4,6,8,10,12,14,16,18,20,22,24,26,28,30,32,34,36,38,40,42,44,46,48,50,52,54,56,-1,58,60,62,64,66,68,70,72,74,76,-1,-1,78,80,82,84,86,88,90,92,94,96,98,100,102,104,106,108,110,112,114,116,-1,-1,-1,-1,-1,-1,-1,-1,-1,-1,-1,-1,-1,-1,-1,-1,-1,-1,-1,-1,-1,-1,-1,-1,-1,-1,-1,-1,-1,-1,-1,-1,-1,-1,-1,-1,-1,-1,-1,-1,-1,-1,-1,-1,-1,-1,-1,-1,-1,-1,-1,-1,-1,-1,-1,-1],"split_conditions":[1.6186249E0,1.2127967E0,1.7419969E-1,-9.264415E-1,2.2756038E0,-1.7981085E-1,-2.1059198E0,1.1174468E-1,4.3583536E-1,-1.9946933E-1,2.9200263E0,2.365087E0,-1.8576619E-1,1.9486308E0,-4.270809E-2,1.373108E-1,1.141468E0,-4.2587036E-1,-6.5940837E-3,3.43355E-1,1.6249535E0,1.2608562E0,7.101201E-1,-1.7510355E0,-1.9205952E0,-3.668331E-1,3.065043E-1,6.351584E-1,-5.269629E-2,1.6410758E0,1.9928677E0,-5.3595805E-1,-1.7840292E-1,1.1086521E-1,-2.1227279E0,-7.3185205E-1,3.4313485E-1,1.52607495E-2,2.5188642E0,-2.0811457E-2,-1.3358638E-1,-1.0624758E0,1.4838856E-1,7.619789E-1,-4.2258888E-1,3.1807013E0,8.0793023E-1,1.5070314E0,-2.5542629E0,-4.510671E-1,2.6679924E-1,-6.79103E-1,1.2847948E0,3.1706104E0,4.3622258E-1,1.5268009E0,6.386845E-1,5.890852E-1,5.440008E-1,1.8850546E0,3.9046073E-1,-6.1683886E-2,-1.1020335E-1,-2.2316493E-2,3.9383315E-2,1.7474152E-2,-4.6530668E-2,-2.1965563E-2,-4.770019E-2,-9.157256E-2,-5.2125942E-2,-9.4002716E-2,-6.3461006E-2,-3.074898E-2,-6.0161017E-2,-7.277689E-2,-2.172773E-3,-2.1042014E-2,-6.2101904E-2,6.428927E-3,-3.415975E-2,2.3645945E-2,-6.659157E-3,2.9462306E-2,-2.7824044E-2,4.3919135E-2,2.4310641E-2,-1.7701397E-2,-2.8802948E-3,-3.7259344E-2,-2.163979E-3,-2.8518103E-2,-7.502375E-2,-2.915771E-2,-1.0169964E-2,3.7490288E-3,1.8490624E-2,3.351559E-2,-4.037368E-2,-8.102265E-2,-5.99461E-2,-1.0413592E-1,-9.5830075E-2,-5.576984E-2,1.0395067E-2,2.7589384E-3,2.381629E-2,-3.828736E-2,-9.576362E-3,-8.366732E-3,-5.9980128E-2,-5.7607642E-3,-2.7619382E-2,-7.1534194E-2,-3.794589E-2,3.0423598E-2,-7.2303624E-3],"split_indices":[5,4,0,4,4,0,4,5,0,5,4,4,1,5,2,2,5,0,2,0,3,5,0,3,3,1,1,0,0,5,3,0,0,0,4,1,1,5,3,0,0,3,1,0,1,4,0,4,4,0,3,1,4,5,1,3,0,0,4,4,0,0,0,0,0,0,0,0,0,0,0,0,0,0,0,0,0,0,0,0,0,0,0,0,0,0,0,0,0,0,0,0,0,0,0,0,0,0,0,0,0,0,0,0,0,0,0,0,0,0,0,0,0,0,0,0,0],"split_type":[0,0,0,0,0,0,0,0,0,0,0,0,0,0,0,0,0,0,0,0,0,0,0,0,0,0,0,0,0,0,0,0,0,0,0,0,0,0,0,0,0,0,0,0,0,0,0,0,0,0,0,0,0,0,0,0,0,0,0,0,0,0,0,0,0,0,0,0,0,0,0,0,0,0,0,0,0,0,0,0,0,0,0,0,0,0,0,0,0,0,0,0,0,0,0,0,0,0,0,0,0,0,0,0,0,0,0,0,0,0,0,0,0,0,0,0,0],"sum_hessian":[1.02631E5,2.8661E4,7.397E4,2.7376E4,1.285E3,7.2523E4,1.447E3,1.342E3,2.6034E4,7.74E2,5.11E2,1.484E3,7.1039E4,1.26E2,1.321E3,3.27E2,1.015E3,2.2678E4,3.356E3,3.6E1,7.38E2,4.13E2,9.8E1,1.358E3,1.26E2,7.94E2,7.0245E4,1.22E2,4E0,1.49E2,1.172E3,2.44E2,8.3E1,2.74E2,7.41E2,3.283E3,1.9395E4,1.498E3,1.858E3,4E0,3.2E1,6.1E2,1.28E2,1.52E2,2.61E2,9.5E1,3E0,1.81E2,1.177E3,1.3E1,1.13E2,1.89E2,6.05E2,7.0053E4,1.92E2,1.12E2,1E1,1.2E1,1.37E2,1.148E3,2.4E1,9.5E1,1.49E2,5E1,3.3E1,2.32E2,4.2E1,2.5E2,4.91E2,6.83E2,2.6E3,1.7608E4,1.787E3,8E2,6.98E2,1.762E3,9.6E1,2.48E2,3.62E2,9.2E1,3.6E1,1.17E2,3.5E1,2.5E1,2.36E2,4E1,5.5E1,2E0,1E0,1.5E2,3.1E1,8.4E1,1.093E3,9E0,4E0,6.4E1,4.9E1,1.4E1,1.75E2,4.76E2,1.29E2,5.9602E4,1.0451E4,1.26E2,6.6E1,1.01E2,1.1E1,4E0,6E0,2E0,1E1,7.5E1,6.2E1,1.009E3,1.39E2,8E0,1.6E1],"tree_param":{"num_deleted":"0","num_feature":"6","num_nodes":"117","size_leaf_vector":"0"}},{"base_weights":[-1.1095644E-1,-1.6160259E-1,-1.0554049E-1,-1.3486412E-1,-2.1466036E-1,-1.1078223E-1,-6.226679E-2,-2.4409267E-1,-1.292907E-1,-2.7807382E-1,-1.9418573E-1,-1.10310644E-1,-1.7233649E-1,-8.8707566E-2,-1.42831635E-2,-1.904161E-1,-3.216751E-1,-1.456967E-1,-9.295516E-2,-2.1876758E-1,-2.9329988E-1,-2.3763523E-1,-1.8294947E-1,-1.1226138E-1,-9.5085315E-2,-1.8342066E-1,-3.165071E-2,-3.751255E-2,-1.2210766E-1,-3.47531E-2,5.343093E-2,-1.2213615E-1,-2.3958464E-1,-3.2374766E-1,-2.8192041E-2,-2.1185872E-1,-1.3304734E-1,-4.026105E-2,-1.1324242E-1,-9.305911E-2,-2.3221485E-1,-3.5412928E-1,-2.758724E-1,-2.11249E-1,-2.9401225E-1,-1.4580774E-1,-1.96439E-1,-7.501725E-2,-1.1271375E-1,-9.332152E-2,-1.5324607E-1,-1.4569318E-1,-2.3209782E-1,-5.039421E-2,-2.0351024E-2,7.393461E-3,-1.01136394E-1,-9.399835E-2,-2.138513E-1,2.4364553E-2,-4.4215236E-2,-9.240472E-2,5.999236E-2,-1.524607E-1,-7.248879E-2,-2.5470924E-1,-1.6750854E-1,-3.0016488E-1,-3.6194745E-1,-2.2443156E-1,-3.8497426E-2,-1.2695126E-1,-2.9624277E-1,-7.213407E-2,1.1324927E-2,-9.812352E-2,-2.3691204E-1,-3.2512557E-2,-9.8595396E-2,-2.550828E-1,-1.6624925E-1,-3.724481E-1,-2.6315627E-1,-2.6219493E-1,-1.522786E-1,-2.3549637E-1,-3.0508396E-1,-1.1021811E-1,-2.2823931E-1,-2.6767644E-1,-1.8483357E-1,-2.1227847E-1,-6.556336E-2,-1.3413222E-1,-1.1153706E-1,-3.822812E-2,-9.4523266E-2,-2.5410447E-1,-1.4639732E-1,-1.3048841E-1,-2.5266558E-1,-7.863322E-2,-2.5092983E-1,-3.0250616E-2,-6.9274426E-2,-3.4896765E-2,2.4736016E-3,-3.820008E-3,1.0244824E-1,-1.5139249E-1,-5.769209E-2,-1.0239112E-1,3.6237057E-2,-3.1956396E-1,-1.9947453E-1,-2.033024E-1,5.266618E-2,-6.2083606E-2,-1.2147865E-2,-1.3393928E-1,-3.8104974E-2,7.4908845E-2,-1.12416E-2],"categories":[],"categories_nodes":[],"categories_segments":[],"categories_sizes":[],"default_left":[1,1,1,1,1,1,1,1,1,1,1,1,1,1,1,1,1,1,1,1,1,1,1,1,1,1,1,1,1,1,1,1,1,1,0,1,1,1,1,1,1,0,1,1,1,1,1,1,1,1,1,1,1,1,1,1,1,1,1,1,1,1,1,0,0,0,0,0,0,0,0,0,0,0,0,0,0,0,0,0,0,0,0,0,0,0,0,0,0,0,0,0,0,0,0,0,0,0,0,0,0,0,0,0,0,0,0,0,0,0,0,0,0,0,0,0,0,0,0,0,0,0,0],"id":12,"left_children":[1,3,5,7,9,11,13,15,17,19,21,23,25,27,29,31,33,35,37,39,41,43,45,47,49,51,53,55,57,59,61,63,65,67,-1,69,71,73,75,77,79,-1,81,83,85,87,89,91,93,95,97,99,101,103,105,107,109,111,113,115,117,119,121,-1,-1,-1,-1,-1,-1,-1,-1,-1,-1,-1,-1,-1,-1,-1,-1,-1,-1,-1,-1,-1,-1,-1,-1,-1,-1,-1,-1,-1,-1,-1,-1,-1,-1,-1,-1,-1,-1,-1,-1,-1,-1,-1,-1,-1,-1,-1,-1,-1,-1,-1,-1,-1,-1,-1,-1,-1,-1,-1,-1],"loss_changes":[2.8134644E1,1.4034454E1,2.1024658E1,3.9827042E0,4.2565765E0,2.3816528E0,1.27113495E1,1.2671776E0,3.727707E0,6.654625E-1,1.1833954E0,2.427002E0,9.7192764E-1,1.1041492E1,4.9377704E0,6.1196756E-1,6.933975E-2,3.5889206E0,2.0853748E0,2.6407433E-1,5.807724E-1,7.010193E-1,9.739075E-1,1.2171631E0,9.4260406E-1,1.0331726E0,8.928824E-3,7.29205E0,1.0060619E1,1.5309799E0,7.9689217E-1,1.1240196E-1,7.724762E-2,6.667137E-3,0E0,1.4996796E0,3.5746994E0,8.969064E-1,2.6149693E0,2.8280616E-3,1.8688393E-1,0E0,5.184784E-1,1.0205917E0,3.2461166E-2,1.5502462E0,1.1617012E0,1.1228261E0,1.7965088E0,5.9597015E-1,1.5137625E-1,5.0377274E-1,7.085619E-1,4.3697692E-3,1.0378356E-2,1.5960345E0,2.296874E0,3.2762566E0,1.3284035E0,2.4462917E0,1.3503604E0,7.6087624E-2,8.423896E-1,0E0,0E0,0E0,0E0,0E0,0E0,0E0,0E0,0E0,0E0,0E0,0E0,0E0,0E0,0E0,0E0,0E0,0E0,0E0,0E0,0E0,0E0,0E0,0E0,0E0,0E0,0E0,0E0,0E0,0E0,0E0,0E0,0E0,0E0,0E0,0E0,0E0,0E0,0E0,0E0,0E0,0E0,0E0,0E0,0E0,0E0,0E0,0E0,0E0,0E0,0E0,0E0,0E0,0E0,0E0,0E0,0E0,0E0,0E0,0E0],"parents":[2147483647,0,0,1,1,2,2,3,3,4,4,5,5,6,6,7,7,8,8,9,9,10,10,11,11,12,12,13,13,14,14,15,15,16,16,17,17,18,18,19,19,20,20,21,21,22,22,23,23,24,24,25,25,26,26,27,27,28,28,29,29,30,30,31,31,32,32,33,33,35,35,36,36,37,37,38,38,39,39,40,40,42,42,43,43,44,44,45,45,46,46,47,47,48,48,49,49,50,50,51,51,52,52,53,53,54,54,55,55,56,56,57,57,58,58,59,59,60,60,61,61,62,62],"right_children":[2,4,6,8,10,12,14,16,18,20,22,24,26,28,30,32,34,36,38,40,42,44,46,48,50,52,54,56,58,60,62,64,66,68,-1,70,72,74,76,78,80,-1,82,84,86,88,90,92,94,96,98,100,102,104,106,108,110,112,114,116,118,120,122,-1,-1,-1,-1,-1,-1,-1,-1,-1,-1,-1,-1,-1,-1,-1,-1,-1,-1,-1,-1,-1,-1,-1,-1,-1,-1,-1,-1,-1,-1,-1,-1,-1,-1,-1,-1,-1,-1,-1,-1,-1,-1,-1,-1,-1,-1,-1,-1,-1,-1,-1,-1,-1,-1,-1,-1,-1,-1,-1,-1],"split_conditions":[-1.3346048E-1,2.4640274E-1,1.15926E-1,-6.5404034E-1,-3.9072978E-1,4.555855E-1,4.5172492E-1,-6.7435044E-1,6.6978065E-4,-2.4116087E-1,-1.3616607E0,2.6748283E-2,2.0223374E0,-2.2677988E-2,3.8198876E-1,-1.310839E-2,5.643368E-1,-2.6346542E-2,-3.1371564E-2,-5.8685625E-1,-5.985031E-1,3.3590415E-1,-1.409128E-1,-3.2334578E-1,4.034027E0,-4.1318744E-2,6.138848E-1,3.0171084E-1,5.511853E-1,-1.5424042E0,-4.570733E-1,-1.3967372E0,-2.8255582E-1,-2.902196E-1,-8.457613E-3,-2.5492066E-1,2.2898902E-1,2.3273796E-1,8.581853E-2,-6.4491343E-1,-4.4528633E-1,-1.0623879E-1,-2.0612605E0,5.109293E-2,-9.109494E-2,1.4859653E0,-1.3379083E0,-1.8513668E0,-4.7500525E-2,-1.0208107E0,-4.2270154E-1,6.202228E-2,-1.9386666E0,6.0891944E-1,4.6637666E-1,4.5696682E-1,3.30792E-1,4.2408574E-1,2.9938933E-2,-5.664754E-1,8.3518827E-1,5.5057096E-1,3.127404E-1,-4.573821E-2,-2.174664E-2,-7.6412775E-2,-5.0252564E-2,-9.004947E-2,-1.0858424E-1,-6.7329474E-2,-1.1549228E-2,-3.808538E-2,-8.8872835E-2,-2.1640223E-2,3.3974783E-3,-2.9437058E-2,-7.1073614E-2,-9.753767E-3,-2.957862E-2,-7.652484E-2,-4.9874775E-2,-1.1173443E-1,-7.894688E-2,-7.8658484E-2,-4.568358E-2,-7.0648916E-2,-9.152519E-2,-3.3065435E-2,-6.84718E-2,-8.030294E-2,-5.5450074E-2,-6.368355E-2,-1.9669008E-2,-4.023967E-2,-3.346112E-2,-1.1468437E-2,-2.835698E-2,-7.6231346E-2,-4.39192E-2,-3.9146524E-2,-7.5799674E-2,-2.3589967E-2,-7.527895E-2,-9.075185E-3,-2.078233E-2,-1.046903E-2,7.420805E-4,-1.1460024E-3,3.0734474E-2,-4.541775E-2,-1.7307628E-2,-3.0717336E-2,1.0871118E-2,-9.586919E-2,-5.984236E-2,-6.099072E-2,1.5799854E-2,-1.8625082E-2,-3.6443598E-3,-4.0181786E-2,-1.1431493E-2,2.2472654E-2,-3.3724802E-3],"split_indices":[1,5,1,4,1,0,5,3,5,0,4,1,4,5,1,5,0,2,2,0,1,3,0,0,5,5,0,0,1,4,0,4,1,1,0,1,3,0,3,0,1,0,4,0,0,4,3,4,1,3,3,2,4,0,5,4,1,4,5,0,4,1,0,0,0,0,0,0,0,0,0,0,0,0,0,0,0,0,0,0,0,0,0,0,0,0,0,0,0,0,0,0,0,0,0,0,0,0,0,0,0,0,0,0,0,0,0,0,0,0,0,0,0,0,0,0,0,0,0,0,0,0,0],"split_type":[0,0,0,0,0,0,0,0,0,0,0,0,0,0,0,0,0,0,0,0,0,0,0,0,0,0,0,0,0,0,0,0,0,0,0,0,0,0,0,0,0,0,0,0,0,0,0,0,0,0,0,0,0,0,0,0,0,0,0,0,0,0,0,0,0,0,0,0,0,0,0,0,0,0,0,0,0,0,0,0,0,0,0,0,0,0,0,0,0,0,0,0,0,0,0,0,0,0,0,0,0,0,0,0,0,0,0,0,0,0,0,0,0,0,0,0,0,0,0,0,0,0,0],"sum_hessian":[1.02631E5,9.912E3,9.2719E4,6.593E3,3.319E3,8.27E4,1.0019E4,3.18E2,6.275E3,8.07E2,2.512E3,8.2074E4,6.26E2,6.459E3,3.56E3,1.9E2,1.28E2,4.321E3,1.954E3,1.68E2,6.39E2,5.12E2,2E3,7.2747E4,9.327E3,5.8E2,4.6E1,2.551E3,3.908E3,2.734E3,8.26E2,8.1E1,1.09E2,1.27E2,1E0,6.91E2,3.63E3,5.44E2,1.41E3,1.7E1,1.51E2,1.38E2,5.01E2,3.52E2,1.6E2,5.36E2,1.464E3,8.75E2,7.1872E4,9.055E3,2.72E2,3.29E2,2.51E2,1.6E1,3E1,1.496E3,1.055E3,2.993E3,9.15E2,3.77E2,2.357E3,3.5E1,7.91E2,4.9E1,3.2E1,8.8E1,2.1E1,8.4E1,4.3E1,6.44E2,4.7E1,3.501E3,1.29E2,3.36E2,2.08E2,1.258E3,1.52E2,2E0,1.5E1,1.1E2,4.1E1,5.5E1,4.46E2,1.87E2,1.65E2,2.9E1,1.31E2,3.76E2,1.6E2,2.02E2,1.262E3,5.5E1,8.2E2,3.737E3,6.8135E4,1.94E2,8.861E3,1.5E1,2.57E2,2.9E2,3.9E1,2.8E1,2.23E2,9E0,7E0,1.8E1,1.2E1,1.339E3,1.57E2,4.88E2,5.67E2,2.812E3,1.81E2,1.07E2,8.08E2,4.1E1,3.36E2,1.513E3,8.44E2,1.9E1,1.6E1,6.54E2,1.37E2],"tree_param":{"num_deleted":"0","num_feature":"6","num_nodes":"123","size_leaf_vector":"0"}},{"base_weights":[-1.1282297E-1,-6.1643563E-2,-1.1782934E-1,-8.982561E-2,-2.5891375E-3,-1.1317446E-1,-1.605658E-1,-5.1262658E-2,-1.3076E-1,5.49185E-2,-2.7032102E-2,-1.11149296E-1,-1.2646022E-1,-1.3471417E-1,-2.2718324E-1,-3.4672026E-2,-1.2570378E-1,-2.1084872E-1,-1.1295638E-1,4.5814484E-2,1.0868008E-1,-3.224099E-2,3.680799E-2,-8.989678E-2,-1.1228904E-1,-9.356628E-2,-1.3455917E-1,-7.963583E-2,-1.723142E-1,-2.0144714E-1,-2.77618E-1,1.17615946E-1,-4.167461E-2,-9.349184E-2,-2.8746733E-1,-1.0896174E-1,-2.5674692E-1,-7.8980654E-2,-1.523908E-1,6.991501E-2,2.0880384E-2,1.5991926E-2,1.1821282E-1,-2.4170311E-2,-6.6652365E-2,-6.0120676E-2,1.1154136E-1,1.2578371E-1,-9.15625E-2,-1.1212778E-1,-2.63977E-1,-1.10078044E-1,2.2716546E-2,-1.296322E-1,-1.6025807E-1,-2.7815625E-1,-5.55847E-2,-1.5638578E-1,-2.5568345E-1,-1.7439306E-1,-2.2267903E-1,-2.3386735E-1,-3.033067E-1,1.3391927E-1,4.6580054E-2,-7.553688E-2,-8.715583E-3,-4.0916824E-3,-1.322462E-1,-4.5739803E-1,-1.2198313E-1,-1.5245956E-1,-7.655369E-2,-2.73005E-1,-1.7026642E-1,-9.016918E-2,1.0076137E-1,-3.037829E-1,-1.373383E-1,-9.3165934E-2,7.818994E-2,5.2892413E-2,-1.4109705E-2,2.1846853E-2,-1.0806779E-2,1.2167958E-1,6.386215E-2,6.344161E-2,-3.1075085E-2,3.504329E-2,-8.184081E-2,1.5831808E-2,-9.6009746E-2,1.4710507E-1,3.2888707E-2,3.5798118E-2,1.9665961E-1,-1.033339E-1,-6.4238764E-2,-7.6332584E-2,-1.1289198E-1,-1.98967E-1,-2.957066E-1,-1.0485702E-1,