{"learner":{"attributes":{"best_iteration":"99","best_ntree_limit":"100","scikit_learn":"{\"n_estimators\": 100, \"objective\": \"reg:squarederror\", \"max_depth\": null, \"max_leaves\": null, \"max_bin\": null, \"grow_policy\": null, \"learning_rate\": 0.0001, \"verbosity\": null, \"booster\": null, \"tree_method\": null, \"gamma\": null, \"min_child_weight\": null, \"max_delta_step\": null, \"subsample\": null, \"sampling_method\": null, \"colsample_bytree\": null, \"colsample_bylevel\": null, \"colsample_bynode\": null, \"reg_alpha\": null, \"reg_lambda\": null, \"scale_pos_weight\": null, \"base_score\": null, \"missing\": NaN, \"num_parallel_tree\": null, \"random_state\": null, \"n_jobs\": null, \"monotone_constraints\": null, \"interaction_constraints\": null, \"importance_type\": null, \"gpu_id\": null, \"validate_parameters\": null, \"predictor\": null, \"enable_categorical\": false, \"feature_types\": null, \"max_cat_to_onehot\": null, \"max_cat_threshold\": null, \"eval_metric\": null, \"early_stopping_rounds\": null, \"callbacks\": null, \"evals_result_\": {\"validation_0\": {\"rmse\": [0.5134078818628849, 0.5133565558916613, 0.5133052452944141, 0.5132539403318307, 0.5132026351263574, 0.5131513355606572, 0.5131000350901456, 0.5130487409047823, 0.5129974616697726, 0.5129461858598008, 0.5128949139847477, 0.512843643462844, 0.5127923734069494, 0.5127411090278009, 0.512689859858333, 0.5126386149848201, 0.5125873696945691, 0.5125361287030613, 0.5124848932453557, 0.5124336585043957, 0.5123824394519202, 0.5123312236628775, 0.5122800095811512, 0.5122288029847052, 0.5121775979809546, 0.5121263978188317, 0.5120752083435723, 0.5120240224858983, 0.5119728455469167, 0.5119216692842942, 0.5118704939249481, 0.5118193231411264, 0.5117681635321186, 0.5117170110585669, 0.5116658649345862, 0.5116147190132534, 0.5115635732082379, 0.5115124326649633, 0.5114613060443461, 0.511410181602228, 0.5113590653496879, 0.5113079495736791, 0.5112568334309534, 0.511205731564967, 0.5111546348548238, 0.5111035430796586, 0.5110524564288789, 0.5110013703447651, 0.510950284562918, 0.510899212453348, 0.5108481473164282, 0.5107970857523197, 0.5107460288856096, 0.5106949725200297, 0.5106439199868252, 0.5105928788274935, 0.5105418433828272, 0.510490812056465, 0.5104397816303843, 0.5103887585977335, 0.5103377364747075, 0.510286724922657, 0.5102357197161603, 0.5101847182250021, 0.5101337208326232, 0.5100827284325627, 0.5100317367804286, 0.5099807557652734, 0.5099297793437811, 0.5098788112857779, 0.5098278438019286, 0.5097768820546582, 0.5097259210112736, 0.5096749692349063, 0.5096240267362924, 0.5095730855509291, 0.5095221483241965, 0.5094712156318526, 0.5094202833703557, 0.5093693653065755, 0.5093184529968433, 0.5092675449007592, 0.5092166382360769, 0.5091657350175224, 0.5091148330218425, 0.5090639455427641, 0.5090130630029146, 0.50896218576246, 0.5089113118552295, 0.508860439117462, 0.5088095707075216, 0.5087587080820011, 0.508707855284708, 0.508657007536298, 0.5086061610042568, 0.5085553215326756, 0.5085044832948185, 0.5084536501309661, 0.5084028314693645, 0.5083520134352966]}, \"validation_1\": {\"rmse\": [0.5133212432221677, 0.5132699219885412, 0.5132186162084231, 0.5131673161238008, 0.5131160156522725, 0.513064720977951, 0.5130134252814483, 0.5129621359747838, 0.5129108613673267, 0.512859590391773, 0.5128083232487872, 0.5127570576284899, 0.5127057923404303, 0.5126545324771435, 0.5126032879427708, 0.5125520476248165, 0.5125008069399407, 0.5124495708417803, 0.5123983399751619, 0.5123471097689468, 0.5122958954658275, 0.5122446842347878, 0.5121934746340475, 0.5121422724533077, 0.5120910722795222, 0.5120398768731793, 0.5119886916185202, 0.5119375102753577, 0.511886337869872, 0.5118351664139629, 0.5117839955368916, 0.5117328293749001, 0.5116816743617613, 0.511630526514178, 0.5115793850572083, 0.5115282439341717, 0.5114771025903881, 0.5114259664819141, 0.5113748447057295, 0.5113237248388063, 0.511272613056351, 0.5112215017475413, 0.5111703904808116, 0.511119292812416, 0.5110682004973712, 0.5110171132667147, 0.5109660314394849, 0.5109149498279043, 0.5108638688894838, 0.5108128014484237, 0.5107617410618618, 0.5107106838296547, 0.5106596318055551, 0.5106085796047226, 0.5105575318272181, 0.510506495273621, 0.5104554644377193, 0.510404437893072, 0.5103534117783051, 0.510302393415486, 0.5102513757521221, 0.510200368700792, 0.5101493679989755, 0.510098371197116, 0.5100473784716331, 0.5099963904663452, 0.5099454033545567, 0.5098944266320462, 0.5098434550307508, 0.5097924918331609, 0.5097415289486027, 0.5096905715541444, 0.5096396152357303, 0.5095886682305542, 0.5095377302836289, 0.5094867936931458, 0.5094358607585693, 0.509384933089433, 0.5093340057253148, 0.5092830927189607, 0.5092321846870301, 0.5091812813387918, 0.5091303792163901, 0.5090794809529068, 0.5090285838371374, 0.5089777010597131, 0.5089268229760839, 0.5088759509072139, 0.5088250819457066, 0.5087742137208355, 0.5087233502060426, 0.5086724926125248, 0.5086216442969502, 0.5085708013495351, 0.5085199595210567, 0.5084691245781974, 0.5084182911109697, 0.5083674629223974, 0.508316648643114, 0.5082658355260984]}}, \"_estimator_type\": \"regressor\"}"},"feature_names":["Vel X","Vel Y","Vel Z","Gyr X","Gyr Y","Gyr Z","rot 00","rot 01","rot 02","rot10","rot11","rot12"],"feature_types":["float","float","float","float","float","float","float","float","float","float","float","float"],"gradient_booster":{"model":{"gbtree_model_param":{"num_parallel_tree":"1","num_trees":"600","size_leaf_vector":"0"},"tree_info":[0,1,2,3,4,5,0,1,2,3,4,5,0,1,2,3,4,5,0,1,2,3,4,5,0,1,2,3,4,5,0,1,2,3,4,5,0,1,2,3,4,5,0,1,2,3,4,5,0,1,2,3,4,5,0,1,2,3,4,5,0,1,2,3,4,5,0,1,2,3,4,5,0,1,2,3,4,5,0,1,2,3,4,5,0,1,2,3,4,5,0,1,2,3,4,5,0,1,2,3,4,5,0,1,2,3,4,5,0,1,2,3,4,5,0,1,2,3,4,5,0,1,2,3,4,5,0,1,2,3,4,5,0,1,2,3,4,5,0,1,2,3,4,5,0,1,2,3,4,5,0,1,2,3,4,5,0,1,2,3,4,5,0,1,2,3,4,5,0,1,2,3,4,5,0,1,2,3,4,5,0,1,2,3,4,5,0,1,2,3,4,5,0,1,2,3,4,5,0,1,2,3,4,5,0,1,2,3,4,5,0,1,2,3,4,5,0,1,2,3,4,5,0,1,2,3,4,5,0,1,2,3,4,5,0,1,2,3,4,5,0,1,2,3,4,5,0,1,2,3,4,5,0,1,2,3,4,5,0,1,2,3,4,5,0,1,2,3,4,5,0,1,2,3,4,5,0,1,2,3,4,5,0,1,2,3,4,5,0,1,2,3,4,5,0,1,2,3,4,5,0,1,2,3,4,5,0,1,2,3,4,5,0,1,2,3,4,5,0,1,2,3,4,5,0,1,2,3,4,5,0,1,2,3,4,5,0,1,2,3,4,5,0,1,2,3,4,5,0,1,2,3,4,5,0,1,2,3,4,5,0,1,2,3,4,5,0,1,2,3,4,5,0,1,2,3,4,5,0,1,2,3,4,5,0,1,2,3,4,5,0,1,2,3,4,5,0,1,2,3,4,5,0,1,2,3,4,5,0,1,2,3,4,5,0,1,2,3,4,5,0,1,2,3,4,5,0,1,2,3,4,5,0,1,2,3,4,5,0,1,2,3,4,5,0,1,2,3,4,5,0,1,2,3,4,5,0,1,2,3,4,5,0,1,2,3,4,5,0,1,2,3,4,5,0,1,2,3,4,5,0,1,2,3,4,5,0,1,2,3,4,5,0,1,2,3,4,5,0,1,2,3,4,5,0,1,2,3,4,5,0,1,2,3,4,5,0,1,2,3,4,5,0,1,2,3,4,5,0,1,2,3,4,5,0,1,2,3,4,5,0,1,2,3,4,5,0,1,2,3,4,5,0,1,2,3,4,5,0,1,2,3,4,5,0,1,2,3,4,5,0,1,2,3,4,5,0,1,2,3,4,5,0,1,2,3,4,5,0,1,2,3,4,5,0,1,2,3,4,5],"trees":[{"base_weights":[-4.9858615E-1,-5.3355825E-1,-4.9300173E-1,-5.657281E-1,-5.0721186E-1,-4.980163E-1,-4.62177E-1,-6.0688514E-1,-5.3730583E-1,-5.28872E-1,-4.7812212E-1,-4.9864563E-1,-4.8399675E-1,-4.191258E-1,-4.8981726E-1,-6.564163E-1,-5.9733397E-1,-5.563144E-1,-5.254057E-1,-5.4816705E-1,-5.194371E-1,-4.9220696E-1,-4.7016007E-1,-4.48136E-1,-3.7248656E-1,-5.678966E-1,-4.6808827E-1,-4.6152678E-1,-4.3227303E-1,-3.944421E-1,-3.5065922E-1,-4.8247376E-1,-4.3363598E-1,-3.4297344E-1,-3.9167836E-1,-4.9722192E-1,-4.7556257E-1,-4.449177E-1,-4.1750714E-1],"categories":[],"categories_nodes":[],"categories_segments":[],"categories_sizes":[],"default_left":[1,1,1,1,1,1,1,1,1,1,1,0,0,1,1,0,0,0,0,0,0,0,0,1,1,0,1,0,0,0,1,1,1,0,0,0,0,0,0],"id":0,"left_children":[1,3,5,7,9,11,13,15,17,19,21,-1,-1,23,25,-1,-1,-1,-1,-1,-1,-1,-1,27,29,-1,31,-1,-1,-1,33,35,37,-1,-1,-1,-1,-1,-1],"loss_changes":[1.4300781E1,8.405518E0,9.711914E0,5.0654297E0,3.3059082E0,2.4609375E-1,1.0519775E1,4.9493408E-1,3.2641602E-1,3.0291748E-1,4.0100098E-2,0E0,0E0,4.6105347E0,9.036499E0,0E0,0E0,0E0,0E0,0E0,0E0,0E0,0E0,2.6190186E-1,5.13443E-1,0E0,1.9194336E0,0E0,0E0,0E0,8.351135E-2,7.147217E-2,4.624939E-2,0E0,0E0,0E0,0E0,0E0,0E0],"parents":[2147483647,0,0,1,1,2,2,3,3,4,4,5,5,6,6,7,7,8,8,9,9,10,10,13,13,14,14,23,23,24,24,26,26,30,30,31,31,32,32],"right_children":[2,4,6,8,10,12,14,16,18,20,22,-1,-1,24,26,-1,-1,-1,-1,-1,-1,-1,-1,28,30,-1,32,-1,-1,-1,34,36,38,-1,-1,-1,-1,-1,-1],"split_conditions":[-6.108398E-2,9.8900867E-1,8.001092E-2,-2.248434E-1,-1.6553223E-2,3.706035E-2,9.708564E-1,-2.6929012E-1,-1.3244775E-1,9.971608E-1,2.244192E-2,-4.986456E-5,-4.8399674E-5,2.6073438E-1,-7.735881E-2,-6.564163E-5,-5.9733396E-5,-5.563144E-5,-5.254057E-5,-5.4816705E-5,-5.1943705E-5,-4.9220696E-5,-4.7016005E-5,1.5174821E-1,4.0233487E-1,-5.678966E-5,1.0128322E-1,-4.6152676E-5,-4.32273E-5,-3.944421E-5,8.992597E-1,3.3837035E-2,1.6020864E-1,-3.4297344E-5,-3.9167837E-5,-4.972219E-5,-4.7556256E-5,-4.449177E-5,-4.1750714E-5],"split_indices":[1,6,1,1,10,1,6,11,1,6,10,0,0,1,10,0,0,0,0,0,0,0,0,1,1,0,10,0,0,0,6,10,10,0,0,0,0,0,0],"split_type":[0,0,0,0,0,0,0,0,0,0,0,0,0,0,0,0,0,0,0,0,0,0,0,0,0,0,0,0,0,0,0,0,0,0,0,0,0,0,0],"sum_hessian":[7.4571E4,1.0255E4,6.4316E4,4.608E3,5.647E3,5.5304E4,9.012E3,1.874E3,2.734E3,3.227E3,2.42E3,5.2895E4,2.409E3,3.53E3,5.482E3,2.92E2,1.582E3,1.035E3,1.699E3,1.041E3,2.186E3,8.52E2,1.568E3,2.171E3,1.359E3,1.188E3,4.294E3,1.162E3,1.009E3,6.69E2,6.9E2,3.02E3,1.274E3,5.89E2,1.01E2,9.41E2,2.079E3,7.34E2,5.4E2],"tree_param":{"num_deleted":"0","num_feature":"12","num_nodes":"39","size_leaf_vector":"0"}},{"base_weights":[-5.008067E-1,-4.6576762E-1,-5.0564045E-1,-4.2423186E-1,-4.912672E-1,-5.6253767E-1,-5.02776E-1,-3.7886775E-1,-4.5305905E-1,-5.762334E-1,-4.6815136E-1,-5.114726E-1,-5.777062E-1,-5.012361E-1,-5.6911576E-1,-4.580656E-1,-3.7166432E-1,-4.3595365E-1,-4.6840885E-1,-5.9786624E-1,-5.5794555E-1,-4.8662627E-1,-4.309084E-1,-4.739988E-1,-5.221645E-1,-5.936235E-1,-5.477972E-1,-5.02631E-1,-4.2376718E-1,-5.2550757E-1,-6.0635066E-1,-3.5903606E-1,-3.9326426E-1,-5.0039476E-1,-4.731113E-1,-4.4321275E-1,-4.0450108E-1,-5.6729525E-1,-6.081002E-1,-5.022063E-1,-5.728515E-1,-4.1738576E-1,-4.9871635E-1,-5.514059E-1,-5.0185585E-1,-6.3622606E-1,-5.667594E-1,-5.006763E-1,-5.14421E-1,-5.426456E-1,-6.217084E-1,-4.2715794E-1,-3.9716387E-1],"categories":[],"categories_nodes":[],"categories_segments":[],"categories_sizes":[],"default_left":[1,1,1,1,1,1,1,1,1,1,1,1,1,1,1,0,1,0,0,0,0,1,1,0,0,1,0,1,1,1,1,0,0,0,0,0,0,0,0,1,1,1,0,0,0,0,0,0,0,0,0,0,0],"id":1,"left_children":[1,3,5,7,9,11,13,15,17,19,21,23,25,27,29,-1,31,-1,-1,-1,-1,33,35,-1,-1,37,-1,39,41,43,45,-1,-1,-1,-1,-1,-1,-1,-1,47,49,51,-1,-1,-1,-1,-1,-1,-1,-1,-1,-1,-1],"loss_changes":[1.2394531E1,9.380005E0,1.0394531E1,4.3412476E0,1.0734985E1,2.1304321E0,6.088867E0,5.9820557E-1,3.4848022E-1,1.3876343E-1,2.824585E0,4.3395996E-2,8.2073975E-1,6.3759766E0,1.9675903E0,0E0,1.9702148E-1,0E0,0E0,0E0,0E0,3.1030273E-1,2.9870605E-1,0E0,0E0,2.4920654E-1,0E0,1.5E0,3.1077576E-1,1.2510681E-1,5.300598E-1,0E0,0E0,0E0,0E0,0E0,0E0,0E0,0E0,8.5546875E-1,1.8357849E-1,2.9144287E-2,0E0,0E0,0E0,0E0,0E0,0E0,0E0,0E0,0E0,0E0,0E0],"parents":[2147483647,0,0,1,1,2,2,3,3,4,4,5,5,6,6,7,7,8,8,9,9,10,10,11,11,12,12,13,13,14,14,16,16,21,21,22,22,25,25,27,27,28,28,29,29,30,30,39,39,40,40,41,41],"right_children":[2,4,6,8,10,12,14,16,18,20,22,24,26,28,30,-1,32,-1,-1,-1,-1,34,36,-1,-1,38,-1,40,42,44,46,-1,-1,-1,-1,-1,-1,-1,-1,48,50,52,-1,-1,-1,-1,-1,-1,-1,-1,-1,-1,-1],"split_conditions":[-8.252096E-2,9.602344E-1,-8.7352425E-2,-2.9210365E-1,-7.329355E-2,1.3430564E-1,9.8144794E-1,-9.451685E-1,-1.604077E-1,9.8232436E-1,1.0142423E-1,-2.4245799E-1,9.8648536E-1,1.4132604E-1,2.1260393E-1,-4.580656E-5,-4.0499732E-1,-4.3595363E-5,-4.6840883E-5,-5.9786624E-5,-5.5794553E-5,4.078313E-2,1.8580668E-1,-4.739988E-5,-5.2216452E-5,3.383131E-1,-5.4779717E-5,1.2067509E0,6.787739E-1,-5.3255296E-1,-5.4805535E-1,-3.5903606E-5,-3.9326424E-5,-5.0039474E-5,-4.731113E-5,-4.4321274E-5,-4.0450108E-5,-5.6729525E-5,-6.0810016E-5,4.433202E-2,3.6045557E-1,2.1741825E-1,-4.9871633E-5,-5.514059E-5,-5.0185583E-5,-6.36226E-5,-5.667594E-5,-5.0067625E-5,-5.1442097E-5,-5.4264558E-5,-6.217084E-5,-4.2715794E-5,-3.9716386E-5],"split_indices":[0,9,11,0,11,0,4,8,0,9,11,6,9,11,0,0,0,0,0,0,0,11,11,0,0,0,0,3,4,9,6,0,0,0,0,0,0,0,0,0,0,11,0,0,0,0,0,0,0,0,0,0,0],"split_type":[0,0,0,0,0,0,0,0,0,0,0,0,0,0,0,0,0,0,0,0,0,0,0,0,0,0,0,0,0,0,0,0,0,0,0,0,0,0,0,0,0,0,0,0,0,0,0,0,0,0,0,0,0],"sum_hessian":[7.4571E4,9.052E3,6.5519E4,3.45E3,5.602E3,3.131E3,6.2388E4,1.346E3,2.104E3,1.193E3,4.409E3,7.25E2,2.406E3,6.0981E4,1.407E3,1.07E2,1.239E3,1.009E3,1.095E3,5.32E2,6.61E2,2.939E3,1.47E3,1.71E2,5.54E2,1.558E3,8.48E2,5.9897E4,1.084E3,6.55E2,7.52E2,7.93E2,4.46E2,1.438E3,1.501E3,9.92E2,4.78E2,5.67E2,9.91E2,5.9545E4,3.52E2,1.005E3,7.9E1,3.02E2,3.53E2,4.2E2,3.32E2,5.2954E4,6.591E3,2.25E2,1.27E2,6.64E2,3.41E2],"tree_param":{"num_deleted":"0","num_feature":"12","num_nodes":"53","size_leaf_vector":"0"}},{"base_weights":[-5.7421166E-1,-5.603858E-1,-5.802827E-1,-5.6292325E-1,-5.276311E-1,-5.807262E-1,-5.198714E-1,-5.3226477E-1,-5.6576794E-1,-5.33086E-1,-4.8115364E-1,-5.255631E-1,-5.8119E-1,-5.0795025E-1,-5.387105E-1,-5.6869304E-1,-5.538125E-1,-5.338886E-1,-5.813995E-1,-5.7777727E-1,-5.647182E-1,-5.555341E-1,-5.0475687E-1,-5.297485E-1,-5.811768E-1],"categories":[],"categories_nodes":[],"categories_segments":[],"categories_sizes":[],"default_left":[1,1,1,1,1,1,0,1,1,0,0,0,1,0,0,1,1,0,0,1,0,0,0,0,0],"id":2,"left_children":[1,3,5,7,9,11,-1,13,15,-1,-1,-1,17,-1,-1,19,21,-1,-1,23,-1,-1,-1,-1,-1],"loss_changes":[5.935547E0,1.5961914E0,1.0859375E0,1.5415039E0,1.628418E-1,1.0097656E0,0E0,1.0192871E-2,3.6132812E-1,0E0,0E0,0E0,1.953125E-1,0E0,0E0,2.3242188E-1,4.35791E-2,0E0,0E0,4.547119E-1,0E0,0E0,0E0,0E0,0E0],"parents":[2147483647,0,0,1,1,2,2,3,3,4,4,5,5,7,7,8,8,12,12,15,15,16,16,19,19],"right_children":[2,4,6,8,10,12,-1,14,16,-1,-1,-1,18,-1,-1,20,22,-1,-1,24,-1,-1,-1,-1,-1],"split_conditions":[1.6240144E0,2.0646694E-1,1.6378306E0,-1.9346109E-1,3.646562E-1,-1.6496922E0,-5.198714E-5,-3.1571677E-1,1.5937409E-1,-5.33086E-5,-4.8115362E-5,-5.2556312E-5,-1.7644827E0,-5.0795024E-5,-5.3871045E-5,8.2887626E-1,3.395126E-1,-5.3388856E-5,-5.8139947E-5,-2.6934093E-1,-5.6471818E-5,-5.555341E-5,-5.0475686E-5,-5.297485E-5,-5.811768E-5],"split_indices":[5,11,4,11,11,4,0,11,3,0,0,0,3,0,0,6,10,0,0,10,0,0,0,0,0],"split_type":[0,0,0,0,0,0,0,0,0,0,0,0,0,0,0,0,0,0,0,0,0,0,0,0,0],"sum_hessian":[7.4571E4,2.2782E4,5.1789E4,2.1129E4,1.653E3,5.1403E4,3.86E2,1.81E3,1.9319E4,1.47E3,1.83E2,4.38E2,5.0965E4,3.96E2,1.414E3,1.5484E4,3.835E3,2.36E2,5.0729E4,4.669E3,1.0815E4,3.695E3,1.4E2,3.19E2,4.35E3],"tree_param":{"num_deleted":"0","num_feature":"12","num_nodes":"25","size_leaf_vector":"0"}},{"base_weights":[-5.000016E-1],"categories":[],"categories_nodes":[],"categories_segments":[],"categories_sizes":[],"default_left":[0],"id":3,"left_children":[-1],"loss_changes":[0E0],"parents":[2147483647],"right_children":[-1],"split_conditions":[-5.000016E-5],"split_indices":[0],"split_type":[0],"sum_hessian":[7.4571E4],"tree_param":{"num_deleted":"0","num_feature":"12","num_nodes":"1","size_leaf_vector":"0"}},{"base_weights":[-4.999895E-1],"categories":[],"categories_nodes":[],"categories_segments":[],"categories_sizes":[],"default_left":[0],"id":4,"left_children":[-1],"loss_changes":[0E0],"parents":[2147483647],"right_children":[-1],"split_conditions":[-4.999895E-5],"split_indices":[0],"split_type":[0],"sum_hessian":[7.4571E4],"tree_param":{"num_deleted":"0","num_feature":"12","num_nodes":"1","size_leaf_vector":"0"}},{"base_weights":[-4.9999318E-1],"categories":[],"categories_nodes":[],"categories_segments":[],"categories_sizes":[],"default_left":[0],"id":5,"left_children":[-1],"loss_changes":[0E0],"parents":[2147483647],"right_children":[-1],"split_conditions":[-4.9999315E-5],"split_indices":[0],"split_type":[0],"sum_hessian":[7.4571E4],"tree_param":{"num_deleted":"0","num_feature":"12","num_nodes":"1","size_leaf_vector":"0"}},{"base_weights":[-4.9853632E-1,-5.3350496E-1,-4.9295247E-1,-5.656716E-1,-5.0716114E-1,-4.9796486E-1,-4.6212116E-1,-6.068245E-1,-5.372521E-1,-5.288192E-1,-4.7807434E-1,-4.9859577E-1,-4.839393E-1,-4.1905606E-1,-4.897698E-1,-6.563509E-1,-5.972743E-1,-5.5625886E-1,-5.253532E-1,-5.481123E-1,-5.1938516E-1,-4.921578E-1,-4.7011307E-1,-4.4807264E-1,-3.724494E-1,-5.658387E-1,-4.6745938E-1,-4.61469E-1,-4.3222988E-1,-3.944027E-1,-3.5062426E-1,-5.3173375E-1,-5.7371783E-1,-4.8184556E-1,-4.3359268E-1,-3.429392E-1,-3.916396E-1,-4.9232966E-1,-4.7313133E-1,-4.4487327E-1,-4.1746545E-1],"categories":[],"categories_nodes":[],"categories_segments":[],"categories_sizes":[],"default_left":[1,1,1,1,1,1,1,1,1,1,1,0,0,1,1,0,0,0,0,0,0,0,0,1,1,1,1,0,0,0,1,0,0,1,1,0,0,0,0,0,0],"id":6,"left_children":[1,3,5,7,9,11,13,15,17,19,21,-1,-1,23,25,-1,-1,-1,-1,-1,-1,-1,-1,27,29,31,33,-1,-1,-1,35,-1,-1,37,39,-1,-1,-1,-1,-1,-1],"loss_changes":[1.4298828E1,8.403809E0,9.708984E0,5.064453E0,3.3051758E0,2.4804688E-1,1.0520508E1,4.9493408E-1,3.262329E-1,3.0291748E-1,4.0100098E-2,0E0,0E0,4.605591E0,9.035767E0,0E0,0E0,0E0,0E0,0E0,0E0,0E0,0E0,2.611084E-1,5.133362E-1,2.758789E-2,1.8582764E0,0E0,0E0,0E0,8.3496094E-2,0E0,0E0,3.8269043E-2,4.623413E-2,0E0,0E0,0E0,0E0,0E0,0E0],"parents":[2147483647,0,0,1,1,2,2,3,3,4,4,5,5,6,6,7,7,8,8,9,9,10,10,13,13,14,14,23,23,24,24,25,25,26,26,30,30,33,33,34,34],"right_children":[2,4,6,8,10,12,14,16,18,20,22,-1,-1,24,26,-1,-1,-1,-1,-1,-1,-1,-1,28,30,32,34,-1,-1,-1,36,-1,-1,38,40,-1,-1,-1,-1,-1,-1],"split_conditions":[-6.108398E-2,9.8900867E-1,8.016862E-2,-2.248434E-1,-1.6553223E-2,3.706035E-2,9.708564E-1,-2.6929012E-1,-1.3244775E-1,9.971608E-1,2.244192E-2,-4.9859576E-5,-4.839393E-5,2.6073438E-1,-6.4279005E-2,-6.563509E-5,-5.972743E-5,-5.5625886E-5,-5.2535317E-5,-5.4811226E-5,-5.1938514E-5,-4.9215778E-5,-4.7011305E-5,1.5174821E-1,4.0233487E-1,-4.9242973E-1,1.0128322E-1,-4.61469E-5,-4.3222986E-5,-3.944027E-5,8.992597E-1,-5.3173375E-5,-5.737178E-5,4.1547153E-2,1.6020864E-1,-3.429392E-5,-3.916396E-5,-4.9232964E-5,-4.7313133E-5,-4.4487326E-5,-4.1746545E-5],"split_indices":[1,6,1,1,10,1,6,11,1,6,10,0,0,1,10,0,0,0,0,0,0,0,0,1,1,0,10,0,0,0,6,0,0,10,10,0,0,0,0,0,0],"split_type":[0,0,0,0,0,0,0,0,0,0,0,0,0,0,0,0,0,0,0,0,0,0,0,0,0,0,0,0,0,0,0,0,0,0,0,0,0,0,0,0,0],"sum_hessian":[7.4571E4,1.0255E4,6.4316E4,4.608E3,5.647E3,5.5309E4,9.007E3,1.874E3,2.734E3,3.227E3,2.42E3,5.2895E4,2.414E3,3.528E3,5.479E3,2.92E2,1.582E3,1.035E3,1.699E3,1.041E3,2.186E3,8.52E2,1.568E3,2.169E3,1.359E3,1.237E3,4.242E3,1.16E3,1.009E3,6.69E2,6.9E2,2.45E2,9.92E2,2.968E3,1.274E3,5.89E2,1.01E2,1.322E3,1.646E3,7.34E2,5.4E2],"tree_param":{"num_deleted":"0","num_feature":"12","num_nodes":"41","size_leaf_vector":"0"}},{"base_weights":[-5.007566E-1,-4.657211E-1,-5.055899E-1,-4.2418948E-1,-4.9121815E-1,-5.624815E-1,-5.027258E-1,-3.7882993E-1,-4.5301378E-1,-5.7617587E-1,-4.681046E-1,-5.114216E-1,-5.776485E-1,-5.01186E-1,-5.69059E-1,-4.580202E-1,-3.716272E-1,-4.359101E-1,-4.6836203E-1,-5.978066E-1,-5.578899E-1,-4.8657763E-1,-4.308654E-1,-4.7395173E-1,-5.2211237E-1,-5.935642E-1,-5.477425E-1,-5.0258076E-1,-4.2372492E-1,-5.254552E-1,-6.062902E-1,-3.590002E-1,-3.93225E-1,-5.0034475E-1,-4.7306404E-1,-4.431685E-1,-4.0446073E-1,-5.672386E-1,-6.0803944E-1,-5.0215477E-1,-5.7261676E-1,-4.173441E-1,-4.9866712E-1,-5.51351E-1,-5.018058E-1,-6.3616264E-1,-5.667029E-1,-5.0062615E-1,-5.143623E-1,-5.4257965E-1,-6.216467E-1,-4.271153E-1,-3.9712426E-1],"categories":[],"categories_nodes":[],"categories_segments":[],"categories_sizes":[],"default_left":[1,1,1,1,1,1,1,1,1,1,1,1,1,1,1,0,1,0,0,0,0,1,1,0,0,1,0,1,1,1,1,0,0,0,0,0,0,0,0,1,1,1,0,0,0,0,0,0,0,0,0,0,0],"id":7,"left_children":[1,3,5,7,9,11,13,15,17,19,21,23,25,27,29,-1,31,-1,-1,-1,-1,33,35,-1,-1,37,-1,39,41,43,45,-1,-1,-1,-1,-1,-1,-1,-1,47,49,51,-1,-1,-1,-1,-1,-1,-1,-1,-1,-1,-1],"loss_changes":[1.2392578E1,9.378174E0,1.0392578E1,4.340393E0,1.0732788E1,2.130005E0,6.0878906E0,5.9809875E-1,3.484192E-1,1.3876343E-1,2.8240967E0,4.335022E-2,8.2055664E-1,6.375E0,1.9671936E0,0E0,1.9699097E-1,0E0,0E0,0E0,0E0,3.102417E-1,2.986145E-1,0E0,0E0,2.4920654E-1,0E0,1.5E0,3.1072998E-1,1.250763E-1,5.2996826E-1,0E0,0E0,0E0,0E0,0E0,0E0,0E0,0E0,8.544922E-1,1.8551636E-1,2.9144287E-2,0E0,0E0,0E0,0E0,0E0,0E0,0E0,0E0,0E0,0E0,0E0],"parents":[2147483647,0,0,1,1,2,2,3,3,4,4,5,5,6,6,7,7,8,8,9,9,10,10,11,11,12,12,13,13,14,14,16,16,21,21,22,22,25,25,27,27,28,28,29,29,30,30,39,39,40,40,41,41],"right_children":[2,4,6,8,10,12,14,16,18,20,22,24,26,28,30,-1,32,-1,-1,-1,-1,34,36,-1,-1,38,-1,40,42,44,46,-1,-1,-1,-1,-1,-1,-1,-1,48,50,52,-1,-1,-1,-1,-1,-1,-1,-1,-1,-1,-1],"split_conditions":[-8.252096E-2,9.602344E-1,-8.7352425E-2,-2.9210365E-1,-7.329355E-2,1.3430564E-1,9.8144794E-1,-9.451685E-1,-1.604077E-1,9.8232436E-1,1.0142423E-1,-2.4245799E-1,9.8648536E-1,1.4132604E-1,2.1260393E-1,-4.580202E-5,-4.0499732E-1,-4.3591008E-5,-4.68362E-5,-5.9780657E-5,-5.5788987E-5,4.078313E-2,1.8580668E-1,-4.7395173E-5,-5.2211235E-5,3.383131E-1,-5.4774246E-5,1.2042918E0,6.787739E-1,-5.3255296E-1,-5.4805535E-1,-3.590002E-5,-3.9322502E-5,-5.0034476E-5,-4.7306403E-5,-4.4316846E-5,-4.0446073E-5,-5.672386E-5,-6.080394E-5,4.434057E-2,3.6045557E-1,2.1741825E-1,-4.986671E-5,-5.51351E-5,-5.0180577E-5,-6.3616266E-5,-5.6670287E-5,-5.0062612E-5,-5.1436225E-5,-5.4257966E-5,-6.216467E-5,-4.2711526E-5,-3.9712424E-5],"split_indices":[0,9,11,0,11,0,4,8,0,9,11,6,9,11,0,0,0,0,0,0,0,11,11,0,0,0,0,3,4,9,6,0,0,0,0,0,0,0,0,0,0,11,0,0,0,0,0,0,0,0,0,0,0],"split_type":[0,0,0,0,0,0,0,0,0,0,0,0,0,0,0,0,0,0,0,0,0,0,0,0,0,0,0,0,0,0,0,0,0,0,0,0,0,0,0,0,0,0,0,0,0,0,0,0,0,0,0,0,0],"sum_hessian":[7.4571E4,9.052E3,6.5519E4,3.45E3,5.602E3,3.131E3,6.2388E4,1.346E3,2.104E3,1.193E3,4.409E3,7.25E2,2.406E3,6.0981E4,1.407E3,1.07E2,1.239E3,1.009E3,1.095E3,5.32E2,6.61E2,2.939E3,1.47E3,1.71E2,5.54E2,1.558E3,8.48E2,5.9897E4,1.084E3,6.55E2,7.52E2,7.93E2,4.46E2,1.438E3,1.501E3,9.92E2,4.78E2,5.67E2,9.91E2,5.9543E4,3.54E2,1.005E3,7.9E1,3.02E2,3.53E2,4.2E2,3.32E2,5.2954E4,6.589E3,2.27E2,1.27E2,6.64E2,3.41E2],"tree_param":{"num_deleted":"0","num_feature":"12","num_nodes":"53","size_leaf_vector":"0"}},{"base_weights":[-5.7415426E-1,-5.6032735E-1,-5.80225E-1,-5.628646E-1,-5.2757835E-1,-5.806678E-1,-5.197464E-1,-5.322116E-1,-5.6570905E-1,-5.330327E-1,-4.811058E-1,-5.2536696E-1,-5.811305E-1,-5.078996E-1,-5.386566E-1,-5.6863415E-1,-5.5376285E-1,-5.338354E-1,-5.8134E-1,-5.777182E-1,-5.646592E-1,-5.554836E-1,-5.0470674E-1,-5.2969563E-1,-5.8111805E-1],"categories":[],"categories_nodes":[],"categories_segments":[],"categories_sizes":[],"default_left":[1,1,1,1,1,1,0,1,1,0,0,0,1,0,0,1,1,0,0,1,0,0,0,0,0],"id":8,"left_children":[1,3,5,7,9,11,-1,13,15,-1,-1,-1,17,-1,-1,19,21,-1,-1,23,-1,-1,-1,-1,-1],"loss_changes":[5.9335938E0,1.5957031E0,1.0859375E0,1.5415039E0,1.6278076E-1,1.0117188E0,0E0,1.0192871E-2,3.6083984E-1,0E0,0E0,0E0,1.953125E-1,0E0,0E0,2.3242188E-1,4.35791E-2,0E0,0E0,4.5446777E-1,0E0,0E0,0E0,0E0,0E0],"parents":[2147483647,0,0,1,1,2,2,3,3,4,4,5,5,7,7,8,8,12,12,15,15,16,16,19,19],"right_children":[2,4,6,8,10,12,-1,14,16,-1,-1,-1,18,-1,-1,20,22,-1,-1,24,-1,-1,-1,-1,-1],"split_conditions":[1.6238472E0,2.0646694E-1,1.6388016E0,-1.9346109E-1,3.646562E-1,-1.6517496E0,-5.1974643E-5,-3.1571677E-1,1.5902446E-1,-5.330327E-5,-4.8110578E-5,-5.2536696E-5,-1.7644827E0,-5.0789957E-5,-5.3865657E-5,8.2887626E-1,3.395126E-1,-5.338354E-5,-5.8134E-5,-2.6934093E-1,-5.6465917E-5,-5.5548357E-5,-5.0470673E-5,-5.296956E-5,-5.8111804E-5],"split_indices":[5,11,4,11,11,4,0,11,3,0,0,0,3,0,0,6,10,0,0,10,0,0,0,0,0],"split_type":[0,0,0,0,0,0,0,0,0,0,0,0,0,0,0,0,0,0,0,0,0,0,0,0,0],"sum_hessian":[7.4571E4,2.278E4,5.1791E4,2.1127E4,1.653E3,5.1406E4,3.85E2,1.81E3,1.9317E4,1.47E3,1.83E2,4.36E2,5.097E4,3.96E2,1.414E3,1.548E4,3.837E3,2.36E2,5.0734E4,4.668E3,1.0812E4,3.697E3,1.4E2,3.19E2,4.349E3],"tree_param":{"num_deleted":"0","num_feature":"12","num_nodes":"25","size_leaf_vector":"0"}},{"base_weights":[-4.9995157E-1],"categories":[],"categories_nodes":[],"categories_segments":[],"categories_sizes":[],"default_left":[0],"id":9,"left_children":[-1],"loss_changes":[0E0],"parents":[2147483647],"right_children":[-1],"split_conditions":[-4.9995157E-5],"split_indices":[0],"split_type":[0],"sum_hessian":[7.4571E4],"tree_param":{"num_deleted":"0","num_feature":"12","num_nodes":"1","size_leaf_vector":"0"}},{"base_weights":[-4.999395E-1],"categories":[],"categories_nodes":[],"categories_segments":[],"categories_sizes":[],"default_left":[0],"id":10,"left_children":[-1],"loss_changes":[0E0],"parents":[2147483647],"right_children":[-1],"split_conditions":[-4.999395E-5],"split_indices":[0],"split_type":[0],"sum_hessian":[7.4571E4],"tree_param":{"num_deleted":"0","num_feature":"12","num_nodes":"1","size_leaf_vector":"0"}},{"base_weights":[-4.9994317E-1],"categories":[],"categories_nodes":[],"categories_segments":[],"categories_sizes":[],"default_left":[0],"id":11,"left_children":[-1],"loss_changes":[0E0],"parents":[2147483647],"right_children":[-1],"split_conditions":[-4.9994316E-5],"split_indices":[0],"split_type":[0],"sum_hessian":[7.4571E4],"tree_param":{"num_deleted":"0","num_feature":"12","num_nodes":"1","size_leaf_vector":"0"}},{"base_weights":[-4.9848646E-1,-5.334517E-1,-4.9290317E-1,-5.656151E-1,-5.071105E-1,-4.9791506E-1,-4.62075E-1,-6.0676396E-1,-5.371984E-1,-5.2876633E-1,-4.7802657E-1,-4.985459E-1,-4.8389092E-1,-4.1901422E-1,-4.8972085E-1,-6.5628546E-1,-5.9721464E-1,-5.5620325E-1,-5.253007E-1,-5.4805756E-1,-5.1933324E-1,-4.9210864E-1,-4.700661E-1,-4.480279E-1,-3.7241223E-1,-5.677832E-1,-4.6798137E-1,-4.614229E-1,-4.321867E-1,-3.9436334E-1,-3.505893E-1,-4.8237264E-1,-4.3354937E-1,-3.4290496E-1,-3.9160082E-1,-4.9714458E-1,-4.7546163E-1,-4.4482884E-1,-4.1742378E-1],"categories":[],"categories_nodes":[],"categories_segments":[],"categories_sizes":[],"default_left":[1,1,1,1,1,1,1,1,1,1,1,0,0,1,1,0,0,0,0,0,0,0,0,1,1,0,1,0,0,0,1,1,1,0,0,0,0,0,0],"id":12,"left_children":[1,3,5,7,9,11,13,15,17,19,21,-1,-1,23,25,-1,-1,-1,-1,-1,-1,-1,-1,27,29,-1,31,-1,-1,-1,33,35,37,-1,-1,-1,-1,-1,-1],"loss_changes":[1.4294922E1,8.402344E0,9.708008E0,5.0634766E0,3.3045654E0,2.4804688E-1,1.0518433E1,4.9468994E-1,3.262329E-1,3.027954E-1,4.0039062E-2,0E0,0E0,4.6046753E0,9.034058E0,0E0,0E0,0E0,0E0,0E0,0E0,0E0,0E0,2.6101685E-1,5.1322937E-1,0E0,1.9176025E0,0E0,0E0,0E0,8.3488464E-2,7.1777344E-2,4.6218872E-2,0E0,0E0,0E0,0E0,0E0,0E0],"parents":[2147483647,0,0,1,1,2,2,3,3,4,4,5,5,6,6,7,7,8,8,9,9,10,10,13,13,14,14,23,23,24,24,26,26,30,30,31,31,32,32],"right_children":[2,4,6,8,10,12,14,16,18,20,22,-1,-1,24,26,-1,-1,-1,-1,-1,-1,-1,-1,28,30,-1,32,-1,-1,-1,34,36,38,-1,-1,-1,-1,-1,-1],"split_conditions":[-6.108398E-2,9.8900867E-1,8.016862E-2,-2.248434E-1,-1.6553223E-2,3.706035E-2,9.708564E-1,-2.6929012E-1,-1.3244775E-1,9.971608E-1,2.244192E-2,-4.985459E-5,-4.838909E-5,2.6073438E-1,-7.735881E-2,-6.562855E-5,-5.9721464E-5,-5.5620323E-5,-5.2530067E-5,-5.4805754E-5,-5.1933323E-5,-4.9210863E-5,-4.7006608E-5,1.5174821E-1,4.0233487E-1,-5.6778317E-5,1.0128322E-1,-4.614229E-5,-4.3218668E-5,-3.9436334E-5,8.992597E-1,3.3837035E-2,1.6020864E-1,-3.4290493E-5,-3.916008E-5,-4.9714457E-5,-4.754616E-5,-4.4482884E-5,-4.1742376E-5],"split_indices":[1,6,1,1,10,1,6,11,1,6,10,0,0,1,10,0,0,0,0,0,0,0,0,1,1,0,10,0,0,0,6,10,10,0,0,0,0,0,0],"split_type":[0,0,0,0,0,0,0,0,0,0,0,0,0,0,0,0,0,0,0,0,0,0,0,0,0,0,0,0,0,0,0,0,0,0,0,0,0,0,0],"sum_hessian":[7.4571E4,1.0255E4,6.4316E4,4.608E3,5.647E3,5.5309E4,9.007E3,1.874E3,2.734E3,3.227E3,2.42E3,5.2895E4,2.414E3,3.528E3,5.479E3,2.92E2,1.582E3,1.035E3,1.699E3,1.041E3,2.186E3,8.52E2,1.568E3,2.169E3,1.359E3,1.188E3,4.291E3,1.16E3,1.009E3,6.69E2,6.9E2,3.017E3,1.274E3,5.89E2,1.01E2,9.39E2,2.078E3,7.34E2,5.4E2],"tree_param":{"num_deleted":"0","num_feature":"12","num_nodes":"39","size_leaf_vector":"0"}},{"base_weights":[-5.0070655E-1,-4.6567458E-1,-5.0553936E-1,-4.2414713E-1,-4.9116907E-1,-5.624254E-1,-5.0267553E-1,-3.7879214E-1,-4.529685E-1,-5.7611835E-1,-4.680578E-1,-5.113706E-1,-5.775908E-1,-5.011359E-1,-5.690023E-1,-4.5797482E-1,-3.715901E-1,-4.3586653E-1,-4.683152E-1,-5.977469E-1,-5.5783415E-1,-4.8652902E-1,-4.3082237E-1,-4.739046E-1,-5.220603E-1,-5.9350497E-1,-5.4768777E-1,-5.025305E-1,-4.2368266E-1,-5.254028E-1,-6.062297E-1,-3.5896432E-1,-3.931858E-1,-5.0029474E-1,-4.7301677E-1,-4.431242E-1,-4.0442038E-1,-5.67182E-1,-6.079787E-1,-5.021045E-1,-5.725598E-1,-4.1730243E-1,-4.986179E-1,-5.5129606E-1,-5.017557E-1,-6.3609916E-1,-5.6664634E-1,-5.0057894E-1,-5.143358E-1,-5.4252565E-1,-6.215851E-1,-4.2707264E-1,-3.9708465E-1],"categories":[],"categories_nodes":[],"categories_segments":[],"categories_sizes":[],"default_left":[1,1,1,1,1,1,1,1,1,1,1,1,1,1,1,0,1,0,0,0,0,1,1,0,0,1,0,1,1,1,1,0,0,0,0,0,0,0,0,1,1,1,0,0,0,0,0,0,0,0,0,0,0],"id":13,"left_children":[1,3,5,7,9,11,13,15,17,19,21,23,25,27,29,-1,31,-1,-1,-1,-1,33,35,-1,-1,37,-1,39,41,43,45,-1,-1,-1,-1,-1,-1,-1,-1,47,49,51,-1,-1,-1,-1,-1,-1,-1,-1,-1,-1,-1],"loss_changes":[1.2390625E1,9.376221E0,1.0390625E1,4.3395386E0,1.0730713E1,2.1296997E0,6.086914E0,5.979767E-1,3.4835815E-1,1.3873291E-1,2.8234863E0,4.335022E-2,8.2037354E-1,6.373047E0,1.9668274E0,0E0,1.9697571E-1,0E0,0E0,0E0,0E0,3.1018066E-1,2.9855347E-1,0E0,0E0,2.4914551E-1,0E0,1.5E0,3.1066895E-1,1.2506104E-1,5.298462E-1,0E0,0E0,0E0,0E0,0E0,0E0,0E0,0E0,8.544922E-1,1.8549347E-1,2.9144287E-2,0E0,0E0,0E0,0E0,0E0,0E0,0E0,0E0,0E0,0E0,0E0],"parents":[2147483647,0,0,1,1,2,2,3,3,4,4,5,5,6,6,7,7,8,8,9,9,10,10,11,11,12,12,13,13,14,14,16,16,21,21,22,22,25,25,27,27,28,28,29,29,30,30,39,39,40,40,41,41],"right_children":[2,4,6,8,10,12,14,16,18,20,22,24,26,28,30,-1,32,-1,-1,-1,-1,34,36,-1,-1,38,-1,40,42,44,46,-1,-1,-1,-1,-1,-1,-1,-1,48,50,52,-1,-1,-1,-1,-1,-1,-1,-1,-1,-1,-1],"split_conditions":[-8.252096E-2,9.602344E-1,-8.7352425E-2,-2.9210365E-1,-7.329355E-2,1.3430564E-1,9.8144794E-1,-9.451685E-1,-1.604077E-1,9.8232436E-1,1.0142423E-1,-2.4245799E-1,9.8648536E-1,1.4132604E-1,2.1260393E-1,-4.5797482E-5,-4.0499732E-1,-4.3586653E-5,-4.683152E-5,-5.9774688E-5,-5.5783414E-5,4.078313E-2,1.8580668E-1,-4.739046E-5,-5.2206025E-5,3.383131E-1,-5.4768774E-5,1.2042918E0,6.787739E-1,-5.3255296E-1,-5.4805535E-1,-3.589643E-5,-3.931858E-5,-5.0029474E-5,-4.7301677E-5,-4.431242E-5,-4.0442035E-5,-5.67182E-5,-6.079787E-5,4.461679E-2,3.6045557E-1,2.1741825E-1,-4.986179E-5,-5.5129603E-5,-5.017557E-5,-6.3609914E-5,-5.6664634E-5,-5.0057894E-5,-5.143358E-5,-5.4252563E-5,-6.2158506E-5,-4.2707263E-5,-3.9708466E-5],"split_indices":[0,9,11,0,11,0,4,8,0,9,11,6,9,11,0,0,0,0,0,0,0,11,11,0,0,0,0,3,4,9,6,0,0,0,0,0,0,0,0,0,0,11,0,0,0,0,0,0,0,0,0,0,0],"split_type":[0,0,0,0,0,0,0,0,0,0,0,0,0,0,0,0,0,0,0,0,0,0,0,0,0,0,0,0,0,0,0,0,0,0,0,0,0,0,0,0,0,0,0,0,0,0,0,0,0,0,0,0,0],"sum_hessian":[7.4571E4,9.052E3,6.5519E4,3.45E3,5.602E3,3.131E3,6.2388E4,1.346E3,2.104E3,1.193E3,4.409E3,7.25E2,2.406E3,6.0981E4,1.407E3,1.07E2,1.239E3,1.009E3,1.095E3,5.32E2,6.61E2,2.939E3,1.47E3,1.71E2,5.54E2,1.558E3,8.48E2,5.9897E4,1.084E3,6.55E2,7.52E2,7.93E2,4.46E2,1.438E3,1.501E3,9.92E2,4.78E2,5.67E2,9.91E2,5.9543E4,3.54E2,1.005E3,7.9E1,3.02E2,3.53E2,4.2E2,3.32E2,5.2977E4,6.566E3,2.27E2,1.27E2,6.64E2,3.41E2],"tree_param":{"num_deleted":"0","num_feature":"12","num_nodes":"53","size_leaf_vector":"0"}},{"base_weights":[-5.740968E-1,-5.6026965E-1,-5.8016694E-1,-5.628067E-1,-5.2752566E-1,-5.806097E-1,-5.196946E-1,-5.321585E-1,-5.6565106E-1,-5.329795E-1,-4.8105797E-1,-5.256145E-1,-5.810741E-1,-5.078489E-1,-5.386028E-1,-5.6856596E-1,-5.5365825E-1,-5.3337705E-1,-5.812817E-1,-5.776596E-1,-5.645969E-1,-5.553876E-1,-5.046566E-1,-5.296429E-1,-5.8106065E-1],"categories":[],"categories_nodes":[],"categories_segments":[],"categories_sizes":[],"default_left":[1,1,1,1,1,1,0,1,1,0,0,0,1,0,0,1,1,0,0,1,0,0,0,0,0],"id":14,"left_children":[1,3,5,7,9,11,-1,13,15,-1,-1,-1,17,-1,-1,19,21,-1,-1,23,-1,-1,-1,-1,-1],"loss_changes":[5.9335938E0,1.5952148E0,1.0839844E0,1.5405273E0,1.6281128E-1,1.0097656E0,0E0,1.0192871E-2,3.6083984E-1,0E0,0E0,0E0,1.953125E-1,0E0,0E0,2.3339844E-1,4.309082E-2,0E0,0E0,4.5422363E-1,0E0,0E0,0E0,0E0,0E0],"parents":[2147483647,0,0,1,1,2,2,3,3,4,4,5,5,7,7,8,8,12,12,15,15,16,16,19,19],"right_children":[2,4,6,8,10,12,-1,14,16,-1,-1,-1,18,-1,-1,20,22,-1,-1,24,-1,-1,-1,-1,-1],"split_conditions":[1.6236827E0,2.0646694E-1,1.6388016E0,-1.9346109E-1,3.646562E-1,-1.6481652E0,-5.1969462E-5,-3.1571677E-1,1.6209802E-1,-5.3297947E-5,-4.8105798E-5,-5.256145E-5,-2.1979356E-1,-5.078489E-5,-5.386028E-5,8.2887626E-1,3.395126E-1,-5.3337702E-5,-5.812817E-5,-2.6934093E-1,-5.645969E-5,-5.553876E-5,-5.046566E-5,-5.2964286E-5,-5.8106063E-5],"split_indices":[5,11,4,11,11,4,0,11,3,0,0,0,10,0,0,6,10,0,0,10,0,0,0,0,0],"split_type":[0,0,0,0,0,0,0,0,0,0,0,0,0,0,0,0,0,0,0,0,0,0,0,0,0],"sum_hessian":[7.4571E4,2.2778E4,5.1793E4,2.1125E4,1.653E3,5.1408E4,3.85E2,1.81E3,1.9315E4,1.47E3,1.83E2,4.4E2,5.0968E4,3.96E2,1.414E3,1.5501E4,3.814E3,2.32E2,5.0736E4,4.666E3,1.0835E4,3.674E3,1.4E2,3.19E2,4.347E3],"tree_param":{"num_deleted":"0","num_feature":"12","num_nodes":"25","size_leaf_vector":"0"}},{"base_weights":[-4.9990156E-1],"categories":[],"categories_nodes":[],"categories_segments":[],"categories_sizes":[],"default_left":[0],"id":15,"left_children":[-1],"loss_changes":[0E0],"parents":[2147483647],"right_children":[-1],"split_conditions":[-4.9990154E-5],"split_indices":[0],"split_type":[0],"sum_hessian":[7.4571E4],"tree_param":{"num_deleted":"0","num_feature":"12","num_nodes":"1","size_leaf_vector":"0"}},{"base_weights":[-4.998895E-1],"categories":[],"categories_nodes":[],"categories_segments":[],"categories_sizes":[],"default_left":[0],"id":16,"left_children":[-1],"loss_changes":[0E0],"parents":[2147483647],"right_children":[-1],"split_conditions":[-4.9988947E-5],"split_indices":[0],"split_type":[0],"sum_hessian":[7.4571E4],"tree_param":{"num_deleted":"0","num_feature":"12","num_nodes":"1","size_leaf_vector":"0"}},{"base_weights":[-4.9989316E-1],"categories":[],"categories_nodes":[],"categories_segments":[],"categories_sizes":[],"default_left":[0],"id":17,"left_children":[-1],"loss_changes":[0E0],"parents":[2147483647],"right_children":[-1],"split_conditions":[-4.9989314E-5],"split_indices":[0],"split_type":[0],"sum_hessian":[7.4571E4],"tree_param":{"num_deleted":"0","num_feature":"12","num_nodes":"1","size_leaf_vector":"0"}},{"base_weights":[-4.9843663E-1,-5.3339833E-1,-4.9285388E-1,-5.655586E-1,-5.070598E-1,-4.9786526E-1,-4.6202883E-1,-6.0670334E-1,-5.371447E-1,-5.2871346E-1,-4.7797883E-1,-4.9849606E-1,-4.8384252E-1,-4.1897237E-1,-4.8967195E-1,-6.562201E-1,-5.971549E-1,-5.561477E-1,-5.2524817E-1,-5.480028E-1,-5.1928127E-1,-4.920595E-1,-4.7001913E-1,-4.4798315E-1,-3.7237507E-1,-5.677265E-1,-4.6793464E-1,-4.613768E-1,-4.3214354E-1,-3.9432397E-1,-3.5055432E-1,-4.8232445E-1,-4.3350607E-1,-3.428707E-1,-3.9156204E-1,-4.9709493E-1,-4.7541413E-1,-4.447844E-1,-4.1738212E-1],"categories":[],"categories_nodes":[],"categories_segments":[],"categories_sizes":[],"default_left":[1,1,1,1,1,1,1,1,1,1,1,0,0,1,1,0,0,0,0,0,0,0,0,1,1,0,1,0,0,0,1,1,1,0,0,0,0,0,0],"id":18,"left_children":[1,3,5,7,9,11,13,15,17,19,21,-1,-1,23,25,-1,-1,-1,-1,-1,-1,-1,-1,27,29,-1,31,-1,-1,-1,33,35,37,-1,-1,-1,-1,-1,-1],"loss_changes":[1.4291016E1,8.400635E0,9.705078E0,5.0625E0,3.303833E0,2.4804688E-1,1.0516357E1,4.946289E-1,3.262329E-1,3.027954E-1,4.0039062E-2,0E0,0E0,4.60376E0,9.032227E0,0E0,0E0,0E0,0E0,0E0,0E0,0E0,0E0,2.6101685E-1,5.131073E-1,0E0,1.9172974E0,0E0,0E0,0E0,8.3473206E-2,7.171631E-2,4.6203613E-2,0E0,0E0,0E0,0E0,0E0,0E0],"parents":[2147483647,0,0,1,1,2,2,3,3,4,4,5,5,6,6,7,7,8,8,9,9,10,10,13,13,14,14,23,23,24,24,26,26,30,30,31,31,32,32],"right_children":[2,4,6,8,10,12,14,16,18,20,22,-1,-1,24,26,-1,-1,-1,-1,-1,-1,-1,-1,28,30,-1,32,-1,-1,-1,34,36,38,-1,-1,-1,-1,-1,-1],"split_conditions":[-6.108398E-2,9.8900867E-1,8.016862E-2,-2.248434E-1,-1.6553223E-2,3.706035E-2,9.708564E-1,-2.6929012E-1,-1.3244775E-1,9.971608E-1,2.244192E-2,-4.9849605E-5,-4.8384252E-5,2.6073438E-1,-7.735881E-2,-6.562201E-5,-5.971549E-5,-5.5614768E-5,-5.2524814E-5,-5.4800275E-5,-5.1928124E-5,-4.9205948E-5,-4.700191E-5,1.5174821E-1,4.0233487E-1,-5.677265E-5,1.0128322E-1,-4.6137677E-5,-4.3214353E-5,-3.9432398E-5,8.992597E-1,3.3837035E-2,1.6020864E-1,-3.428707E-5,-3.9156203E-5,-4.970949E-5,-4.7541413E-5,-4.447844E-5,-4.173821E-5],"split_indices":[1,6,1,1,10,1,6,11,1,6,10,0,0,1,10,0,0,0,0,0,0,0,0,1,1,0,10,0,0,0,6,10,10,0,0,0,0,0,0],"split_type":[0,0,0,0,0,0,0,0,0,0,0,0,0,0,0,0,0,0,0,0,0,0,0,0,0,0,0,0,0,0,0,0,0,0,0,0,0,0,0],"sum_hessian":[7.4571E4,1.0255E4,6.4316E4,4.608E3,5.647E3,5.5309E4,9.007E3,1.874E3,2.734E3,3.227E3,2.42E3,5.2895E4,2.414E3,3.528E3,5.479E3,2.92E2,1.582E3,1.035E3,1.699E3,1.041E3,2.186E3,8.52E2,1.568E3,2.169E3,1.359E3,1.188E3,4.291E3,1.16E3,1.009E3,6.69E2,6.9E2,3.017E3,1.274E3,5.89E2,1.01E2,9.39E2,2.078E3,7.34E2,5.4E2],"tree_param":{"num_deleted":"0","num_feature":"12","num_nodes":"39","size_leaf_vector":"0"}},{"base_weights":[-5.0065655E-1,-4.656281E-1,-5.054888E-1,-4.2410478E-1,-4.9112E-1,-5.6236917E-1,-5.026252E-1,-3.7875435E-1,-4.5292324E-1,-5.7606083E-1,-4.6801105E-1,-5.113196E-1,-5.775331E-1,-5.0108576E-1,-5.689455E-1,-4.5792943E-1,-3.71553E-1,-4.35823E-1,-4.6826845E-1,-5.9768724E-1,-5.577784E-1,-4.8648039E-1,-4.3077934E-1,-4.738575E-1,-5.220082E-1,-5.934457E-1,-5.4763305E-1,-5.0248027E-1,-4.2364043E-1,-5.253504E-1,-6.061693E-1,-3.589285E-1,-3.9314657E-1,-5.0024474E-1,-4.729695E-1,-4.4307995E-1,-4.0438002E-1,-5.671254E-1,-6.0791796E-1,-5.0205433E-1,-5.7250285E-1,-4.172608E-1,-4.9856865E-1,-5.512411E-1,-5.017057E-1,-6.360357E-1,-5.665899E-1,-5.0049514E-1,-5.14025E-1,-5.4247165E-1,-6.215234E-1,-4.2703E-1,-3.9704508E-1],"categories":[],"categories_nodes":[],"categories_segments":[],"categories_sizes":[],"default_left":[1,1,1,1,1,1,1,1,1,1,1,1,1,1,1,0,1,0,0,0,0,1,1,0,0,1,0,1,1,1,1,0,0,0,0,0,0,0,0,1,1,1,0,0,0,0,0,0,0,0,0,0,0],"id":19,"left_children":[1,3,5,7,9,11,13,15,17,19,21,23,25,27,29,-1,31,-1,-1,-1,-1,33,35,-1,-1,37,-1,39,41,43,45,-1,-1,-1,-1,-1,-1,-1,-1,47,49,51,-1,-1,-1,-1,-1,-1,-1,-1,-1,-1,-1],"loss_changes":[1.2388672E1,9.37439E0,1.0388672E1,4.338623E0,1.0728516E1,2.1292114E0,6.084961E0,5.978699E-1,3.4829712E-1,1.3873291E-1,2.822937E0,4.336548E-2,8.201904E-1,6.3740234E0,1.9664307E0,0E0,1.9692993E-1,0E0,0E0,0E0,0E0,3.1011963E-1,2.9852295E-1,0E0,0E0,2.4908447E-1,0E0,1.4980469E0,3.106079E-1,1.2503052E-1,5.2975464E-1,0E0,0E0,0E0,0E0,0E0,0E0,0E0,0E0,8.5546875E-1,1.8545532E-1,2.911377E-2,0E0,0E0,0E0,0E0,0E0,0E0,0E0,0E0,0E0,0E0,0E0],"parents":[2147483647,0,0,1,1,2,2,3,3,4,4,5,5,6,6,7,7,8,8,9,9,10,10,11,11,12,12,13,13,14,14,16,16,21,21,22,22,25,25,27,27,28,28,29,29,30,30,39,39,40,40,41,41],"right_children":[2,4,6,8,10,12,14,16,18,20,22,24,26,28,30,-1,32,-1,-1,-1,-1,34,36,-1,-1,38,-1,40,42,44,46,-1,-1,-1,-1,-1,-1,-1,-1,48,50,52,-1,-1,-1,-1,-1,-1,-1,-1,-1,-1,-1],"split_conditions":[-8.252096E-2,9.602344E-1,-8.7352425E-2,-2.9210365E-1,-7.329355E-2,1.3430564E-1,9.8144794E-1,-9.451685E-1,-1.604077E-1,9.8232436E-1,1.0142423E-1,-2.4245799E-1,9.8648536E-1,1.4132604E-1,2.1260393E-1,-4.579294E-5,-4.0499732E-1,-4.35823E-5,-4.6826844E-5,-5.976872E-5,-5.577784E-5,4.078313E-2,1.8580668E-1,-4.7385747E-5,-5.2200816E-5,3.383131E-1,-5.4763303E-5,1.2042918E0,6.787739E-1,-5.3255296E-1,-5.4805535E-1,-3.589285E-5,-3.9314655E-5,-5.002447E-5,-4.7296948E-5,-4.4307995E-5,-4.0438E-5,-5.6712535E-5,-6.0791794E-5,4.0735222E-2,3.6045557E-1,2.1741825E-1,-4.9856862E-5,-5.512411E-5,-5.017057E-5,-6.360357E-5,-5.6658988E-5,-5.004951E-5,-5.1402498E-5,-5.4247164E-5,-6.2152336E-5,-4.2703E-5,-3.9704508E-5],"split_indices":[0,9,11,0,11,0,4,8,0,9,11,6,9,11,0,0,0,0,0,0,0,11,11,0,0,0,0,3,4,9,6,0,0,0,0,0,0,0,0,0,0,11,0,0,0,0,0,0,0,0,0,0,0],"split_type":[0,0,0,0,0,0,0,0,0,0,0,0,0,0,0,0,0,0,0,0,0,0,0,0,0,0,0,0,0,0,0,0,0,0,0,0,0,0,0,0,0,0,0,0,0,0,0,0,0,0,0,0,0],"sum_hessian":[7.4571E4,9.052E3,6.5519E4,3.45E3,5.602E3,3.131E3,6.2388E4,1.346E3,2.104E3,1.193E3,4.409E3,7.25E2,2.406E3,6.0981E4,1.407E3,1.07E2,1.239E3,1.009E3,1.095E3,5.32E2,6.61E2,2.939E3,1.47E3,1.71E2,5.54E2,1.558E3,8.48E2,5.9897E4,1.084E3,6.55E2,7.52E2,7.93E2,4.46E2,1.438E3,1.501E3,9.92E2,4.78E2,5.67E2,9.91E2,5.9543E4,3.54E2,1.005E3,7.9E1,3.02E2,3.53E2,4.2E2,3.32E2,5.2719E4,6.824E3,2.27E2,1.27E2,6.64E2,3.41E2],"tree_param":{"num_deleted":"0","num_feature":"12","num_nodes":"53","size_leaf_vector":"0"}},{"base_weights":[-5.740394E-1,-5.6021535E-1,-5.8010894E-1,-5.6275207E-1,-5.27473E-1,-5.8055234E-1,-5.1971585E-1,-5.3216493E-1,-5.6560075E-1,-5.329262E-1,-4.8101014E-1,-5.2533585E-1,-5.810154E-1,-5.0779825E-1,-5.3859806E-1,-5.685091E-1,-5.536064E-1,-5.33729E-1,-5.8122486E-1,-5.776027E-1,-5.6453913E-1,-5.553395E-1,-5.0460654E-1,-5.295901E-1,-5.810019E-1],"categories":[],"categories_nodes":[],"categories_segments":[],"categories_sizes":[],"default_left":[1,1,1,1,1,1,0,1,1,0,0,0,1,0,0,1,1,0,0,1,0,0,0,0,0],"id":20,"left_children":[1,3,5,7,9,11,-1,13,15,-1,-1,-1,17,-1,-1,19,21,-1,-1,23,-1,-1,-1,-1,-1],"loss_changes":[5.9316406E0,1.5947266E0,1.0859375E0,1.5410156E0,1.6271973E-1,1.0097656E0,0E0,1.1352539E-2,3.5888672E-1,0E0,0E0,0E0,1.953125E-1,0E0,0E0,2.3339844E-1,4.296875E-2,0E0,0E0,4.543457E-1,0E0,0E0,0E0,0E0,0E0],"parents":[2147483647,0,0,1,1,2,2,3,3,4,4,5,5,7,7,8,8,12,12,15,15,16,16,19,19],"right_children":[2,4,6,8,10,12,-1,14,16,-1,-1,-1,18,-1,-1,20,22,-1,-1,24,-1,-1,-1,-1,-1],"split_conditions":[1.6238472E0,2.0646694E-1,1.6378306E0,-1.9272855E-1,3.646562E-1,-1.6509811E0,-5.1971583E-5,-3.1571677E-1,1.6224828E-1,-5.329262E-5,-4.8101014E-5,-5.253358E-5,-1.7644827E0,-5.0779825E-5,-5.3859803E-5,8.2887626E-1,3.395126E-1,-5.33729E-5,-5.8122485E-5,-2.6934093E-1,-5.645391E-5,-5.553395E-5,-5.0460654E-5,-5.2959007E-5,-5.8100188E-5],"split_indices":[5,11,4,11,11,4,0,11,3,0,0,0,3,0,0,6,10,0,0,10,0,0,0,0,0],"split_type":[0,0,0,0,0,0,0,0,0,0,0,0,0,0,0,0,0,0,0,0,0,0,0,0,0],"sum_hessian":[7.4571E4,2.278E4,5.1791E4,2.1127E4,1.653E3,5.1405E4,3.86E2,1.816E3,1.9311E4,1.47E3,1.83E2,4.37E2,5.0968E4,3.96E2,1.42E3,1.5505E4,3.806E3,2.36E2,5.0732E4,4.668E3,1.0837E4,3.666E3,1.4E2,3.19E2,4.349E3],"tree_param":{"num_deleted":"0","num_feature":"12","num_nodes":"25","size_leaf_vector":"0"}},{"base_weights":[-4.9985158E-1],"categories":[],"categories_nodes":[],"categories_segments":[],"categories_sizes":[],"default_left":[0],"id":21,"left_children":[-1],"loss_changes":[0E0],"parents":[2147483647],"right_children":[-1],"split_conditions":[-4.9985156E-5],"split_indices":[0],"split_type":[0],"sum_hessian":[7.4571E4],"tree_param":{"num_deleted":"0","num_feature":"12","num_nodes":"1","size_leaf_vector":"0"}},{"base_weights":[-4.998395E-1],"categories":[],"categories_nodes":[],"categories_segments":[],"categories_sizes":[],"default_left":[0],"id":22,"left_children":[-1],"loss_changes":[0E0],"parents":[2147483647],"right_children":[-1],"split_conditions":[-4.998395E-5],"split_indices":[0],"split_type":[0],"sum_hessian":[7.4571E4],"tree_param":{"num_deleted":"0","num_feature":"12","num_nodes":"1","size_leaf_vector":"0"}},{"base_weights":[-4.9984318E-1],"categories":[],"categories_nodes":[],"categories_segments":[],"categories_sizes":[],"default_left":[0],"id":23,"left_children":[-1],"loss_changes":[0E0],"parents":[2147483647],"right_children":[-1],"split_conditions":[-4.9984315E-5],"split_indices":[0],"split_type":[0],"sum_hessian":[7.4571E4],"tree_param":{"num_deleted":"0","num_feature":"12","num_nodes":"1","size_leaf_vector":"0"}},{"base_weights":[-4.983868E-1,-5.3334504E-1,-4.928046E-1,-5.655021E-1,-5.0700915E-1,-4.9781546E-1,-4.619827E-1,-6.066427E-1,-5.370911E-1,-5.2866066E-1,-4.7793108E-1,-4.984462E-1,-4.8379415E-1,-4.1893053E-1,-4.89623E-1,-6.561547E-1,-5.9709525E-1,-5.5609214E-1,-5.2519566E-1,-5.47948E-1,-5.192294E-1,-4.9201035E-1,-4.6997216E-1,-4.4793838E-1,-3.7233794E-1,-5.6566936E-1,-4.6731922E-1,-4.613307E-1,-4.3210036E-1,-3.942846E-1,-3.505194E-1,-5.3157055E-1,-5.735471E-1,-4.8170105E-1,-4.334628E-1,-3.428365E-1,-3.9152327E-1,-4.9218252E-1,-4.7298902E-1,-4.4474E-1,-4.1734043E-1],"categories":[],"categories_nodes":[],"categories_segments":[],"categories_sizes":[],"default_left":[1,1,1,1,1,1,1,1,1,1,1,0,0,1,1,0,0,0,0,0,0,0,0,1,1,1,1,0,0,0,1,0,0,1,1,0,0,0,0,0,0],"id":24,"left_children":[1,3,5,7,9,11,13,15,17,19,21,-1,-1,23,25,-1,-1,-1,-1,-1,-1,-1,-1,27,29,31,33,-1,-1,-1,35,-1,-1,37,39,-1,-1,-1,-1,-1,-1],"loss_changes":[1.4291016E1,8.39917E0,9.704102E0,5.0612793E0,3.3032227E0,2.4804688E-1,1.0514038E1,4.9456787E-1,3.2617188E-1,3.0267334E-1,4.0039062E-2,0E0,0E0,4.602844E0,9.030518E0,0E0,0E0,0E0,0E0,0E0,0E0,0E0,0E0,2.609253E-1,5.1301575E-1,2.7648926E-2,1.8571777E0,0E0,0E0,0E0,8.345795E-2,0E0,0E0,3.8330078E-2,4.6203613E-2,0E0,0E0,0E0,0E0,0E0,0E0],"parents":[2147483647,0,0,1,1,2,2,3,3,4,4,5,5,6,6,7,7,8,8,9,9,10,10,13,13,14,14,23,23,24,24,25,25,26,26,30,30,33,33,34,34],"right_children":[2,4,6,8,10,12,14,16,18,20,22,-1,-1,24,26,-1,-1,-1,-1,-1,-1,-1,-1,28,30,32,34,-1,-1,-1,36,-1,-1,38,40,-1,-1,-1,-1,-1,-1],"split_conditions":[-6.108398E-2,9.8900867E-1,8.016862E-2,-2.248434E-1,-1.6553223E-2,3.706035E-2,9.708564E-1,-2.6929012E-1,-1.3244775E-1,9.971608E-1,2.244192E-2,-4.9844617E-5,-4.8379414E-5,2.6073438E-1,-6.4279005E-2,-6.5615466E-5,-5.9709524E-5,-5.5609213E-5,-5.2519565E-5,-5.47948E-5,-5.192294E-5,-4.9201033E-5,-4.6997215E-5,1.5174821E-1,4.0233487E-1,-4.9242973E-1,1.0128322E-1,-4.613307E-5,-4.3210035E-5,-3.9428458E-5,8.992597E-1,-5.3157055E-5,-5.735471E-5,4.1547153E-2,1.6020864E-1,-3.428365E-5,-3.9152324E-5,-4.921825E-5,-4.72989E-5,-4.4474E-5,-4.173404E-5],"split_indices":[1,6,1,1,10,1,6,11,1,6,10,0,0,1,10,0,0,0,0,0,0,0,0,1,1,0,10,0,0,0,6,0,0,10,10,0,0,0,0,0,0],"split_type":[0,0,0,0,0,0,0,0,0,0,0,0,0,0,0,0,0,0,0,0,0,0,0,0,0,0,0,0,0,0,0,0,0,0,0,0,0,0,0,0,0],"sum_hessian":[7.4571E4,1.0255E4,6.4316E4,4.608E3,5.647E3,5.5309E4,9.007E3,1.874E3,2.734E3,3.227E3,2.42E3,5.2895E4,2.414E3,3.528E3,5.479E3,2.92E2,1.582E3,1.035E3,1.699E3,1.041E3,2.186E3,8.52E2,1.568E3,2.169E3,1.359E3,1.237E3,4.242E3,1.16E3,1.009E3,6.69E2,6.9E2,2.45E2,9.92E2,2.968E3,1.274E3,5.89E2,1.01E2,1.322E3,1.646E3,7.34E2,5.4E2],"tree_param":{"num_deleted":"0","num_feature":"12","num_nodes":"41","size_leaf_vector":"0"}},{"base_weights":[-5.006065E-1,-4.6558157E-1,-5.0543827E-1,-4.2406243E-1,-4.9107093E-1,-5.62313E-1,-5.02575E-1,-3.787166E-1,-4.52878E-1,-5.760033E-1,-4.679643E-1,-5.1126856E-1,-5.774755E-1,-5.010357E-1,-5.688888E-1,-4.5788407E-1,-3.7151593E-1,-4.3577945E-1,-4.6822166E-1,-5.976276E-1,-5.5772275E-1,-4.8643178E-1,-4.307363E-1,-4.7381037E-1,-5.21956E-1,-5.933864E-1,-5.4757833E-1,-5.0243E-1,-4.2359817E-1,-5.25298E-1,-6.061088E-1,-3.5889265E-1,-3.9310735E-1,-5.001947E-1,-4.7292224E-1,-4.4303566E-1,-4.0433964E-1,-5.6706876E-1,-6.078572E-1,-5.0200415E-1,-5.72446E-1,-4.1721916E-1,-4.985194E-1,-5.5118614E-1,-5.016557E-1,-6.3597226E-1,-5.665334E-1,-5.004788E-1,-5.14233E-1,-5.4241765E-1,-6.214617E-1,-4.2698735E-1,-3.970055E-1],"categories":[],"categories_nodes":[],"categories_segments":[],"categories_sizes":[],"default_left":[1,1,1,1,1,1,1,1,1,1,1,1,1,1,1,0,1,0,0,0,0,1,1,0,0,1,0,1,1,1,1,0,0,0,0,0,0,0,0,1,1,1,0,0,0,0,0,0,0,0,0,0,0],"id":25,"left_children":[1,3,5,7,9,11,13,15,17,19,21,23,25,27,29,-1,31,-1,-1,-1,-1,33,35,-1,-1,37,-1,39,41,43,45,-1,-1,-1,-1,-1,-1,-1,-1,47,49,51,-1,-1,-1,-1,-1,-1,-1,-1,-1,-1,-1],"loss_changes":[1.2384766E1,9.372437E0,1.0386719E1,4.3378296E0,1.072644E1,2.1287842E0,6.0839844E0,5.977478E-1,3.4823608E-1,1.3867188E-1,2.8225098E0,4.333496E-2,8.200073E-1,6.3720703E0,1.9660339E0,0E0,1.9688416E-1,0E0,0E0,0E0,0E0,3.100586E-1,2.984314E-1,0E0,0E0,2.4902344E-1,0E0,1.4980469E0,3.1056213E-1,1.2501526E-1,5.2963257E-1,0E0,0E0,0E0,0E0,0E0,0E0,0E0,0E0,8.544922E-1,1.8541718E-1,2.9129028E-2,0E0,0E0,0E0,0E0,0E0,0E0,0E0,0E0,0E0,0E0,0E0],"parents":[2147483647,0,0,1,1,2,2,3,3,4,4,5,5,6,6,7,7,8,8,9,9,10,10,11,11,12,12,13,13,14,14,16,16,21,21,22,22,25,25,27,27,28,28,29,29,30,30,39,39,40,40,41,41],"right_children":[2,4,6,8,10,12,14,16,18,20,22,24,26,28,30,-1,32,-1,-1,-1,-1,34,36,-1,-1,38,-1,40,42,44,46,-1,-1,-1,-1,-1,-1,-1,-1,48,50,52,-1,-1,-1,-1,-1,-1,-1,-1,-1,-1,-1],"split_conditions":[-8.252096E-2,9.602344E-1,-8.7352425E-2,-2.9210365E-1,-7.329355E-2,1.3430564E-1,9.8144794E-1,-9.451685E-1,-1.604077E-1,9.8232436E-1,1.0142423E-1,-2.4245799E-1,9.8648536E-1,1.4132604E-1,2.1260393E-1,-4.5788405E-5,-4.0499732E-1,-4.3577944E-5,-4.6822166E-5,-5.9762755E-5,-5.5772274E-5,4.078313E-2,1.8580668E-1,-4.7381036E-5,-5.2195603E-5,3.383131E-1,-5.475783E-5,1.2042918E0,6.787739E-1,-5.3255296E-1,-5.4805535E-1,-3.5889265E-5,-3.9310733E-5,-5.0019473E-5,-4.7292222E-5,-4.4303564E-5,-4.0433963E-5,-5.6706875E-5,-6.0785722E-5,4.461679E-2,3.6045557E-1,2.1741825E-1,-4.9851937E-5,-5.5118613E-5,-5.0165567E-5,-6.3597225E-5,-5.6653338E-5,-5.0047878E-5,-5.14233E-5,-5.4241762E-5,-6.2146166E-5,-4.2698735E-5,-3.970055E-5],"split_indices":[0,9,11,0,11,0,4,8,0,9,11,6,9,11,0,0,0,0,0,0,0,11,11,0,0,0,0,3,4,9,6,0,0,0,0,0,0,0,0,0,0,11,0,0,0,0,0,0,0,0,0,0,0],"split_type":[0,0,0,0,0,0,0,0,0,0,0,0,0,0,0,0,0,0,0,0,0,0,0,0,0,0,0,0,0,0,0,0,0,0,0,0,0,0,0,0,0,0,0,0,0,0,0,0,0,0,0,0,0],"sum_hessian":[7.4571E4,9.052E3,6.5519E4,3.45E3,5.602E3,3.131E3,6.2388E4,1.346E3,2.104E3,1.193E3,4.409E3,7.25E2,2.406E3,6.0981E4,1.407E3,1.07E2,1.239E3,1.009E3,1.095E3,5.32E2,6.61E2,2.939E3,1.47E3,1.71E2,5.54E2,1.558E3,8.48E2,5.9897E4,1.084E3,6.55E2,7.52E2,7.93E2,4.46E2,1.438E3,1.501E3,9.92E2,4.78E2,5.67E2,9.91E2,5.9543E4,3.54E2,1.005E3,7.9E1,3.02E2,3.53E2,4.2E2,3.32E2,5.2977E4,6.566E3,2.27E2,1.27E2,6.64E2,3.41E2],"tree_param":{"num_deleted":"0","num_feature":"12","num_nodes":"53","size_leaf_vector":"0"}},{"base_weights":[-5.7398206E-1,-5.601584E-1,-5.80051E-1,-5.626949E-1,-5.274203E-1,-5.804929E-1,-5.195343E-1,-5.321118E-1,-5.6554335E-1,-5.32873E-1,-4.809623E-1,-5.2520967E-1,-5.8095545E-1,-5.077476E-1,-5.3854424E-1,-5.6846315E-1,-5.5360085E-1,-5.3367585E-1,-5.811649E-1,-5.7754403E-1,-5.644903E-1,-5.5532396E-1,-5.045564E-1,-5.2953726E-1,-5.809436E-1],"categories":[],"categories_nodes":[],"categories_segments":[],"categories_sizes":[],"default_left":[1,1,1,1,1,1,0,1,1,0,0,0,1,0,0,1,1,0,0,1,0,0,0,0,0],"id":26,"left_children":[1,3,5,7,9,11,-1,13,15,-1,-1,-1,17,-1,-1,19,21,-1,-1,23,-1,-1,-1,-1,-1],"loss_changes":[5.9316406E0,1.5952148E0,1.0839844E0,1.5395508E0,1.6271973E-1,1.0097656E0,0E0,1.1291504E-2,3.5888672E-1,0E0,0E0,0E0,1.953125E-1,0E0,0E0,2.319336E-1,4.3701172E-2,0E0,0E0,4.5410156E-1,0E0,0E0,0E0,0E0,0E0],"parents":[2147483647,0,0,1,1,2,2,3,3,4,4,5,5,7,7,8,8,12,12,15,15,16,16,19,19],"right_children":[2,4,6,8,10,12,-1,14,16,-1,-1,-1,18,-1,-1,20,22,-1,-1,24,-1,-1,-1,-1,-1],"split_conditions":[1.6237462E0,2.0646694E-1,1.638989E0,-1.9272855E-1,3.646562E-1,-1.6517496E0,-5.1953426E-5,-3.1571677E-1,1.5925016E-1,-5.3287295E-5,-4.809623E-5,-5.2520965E-5,-1.7644827E0,-5.0774757E-5,-5.3854423E-5,8.2887626E-1,3.395126E-1,-5.3367585E-5,-5.811649E-5,-2.6934093E-1,-5.644903E-5,-5.5532393E-5,-5.045564E-5,-5.2953725E-5,-5.8094356E-5],"split_indices":[5,11,4,11,11,4,0,11,3,0,0,0,3,0,0,6,10,0,0,10,0,0,0,0,0],"split_type":[0,0,0,0,0,0,0,0,0,0,0,0,0,0,0,0,0,0,0,0,0,0,0,0,0],"sum_hessian":[7.4571E4,2.2779E4,5.1792E4,2.1126E4,1.653E3,5.1408E4,3.84E2,1.816E3,1.931E4,1.47E3,1.83E2,4.36E2,5.0972E4,3.96E2,1.42E3,1.5479E4,3.831E3,2.36E2,5.0736E4,4.667E3,1.0812E4,3.691E3,1.4E2,3.19E2,4.348E3],"tree_param":{"num_deleted":"0","num_feature":"12","num_nodes":"25","size_leaf_vector":"0"}},{"base_weights":[-4.998016E-1],"categories":[],"categories_nodes":[],"categories_segments":[],"categories_sizes":[],"default_left":[0],"id":27,"left_children":[-1],"loss_changes":[0E0],"parents":[2147483647],"right_children":[-1],"split_conditions":[-4.998016E-5],"split_indices":[0],"split_type":[0],"sum_hessian":[7.4571E4],"tree_param":{"num_deleted":"0","num_feature":"12","num_nodes":"1","size_leaf_vector":"0"}},{"base_weights":[-4.9978954E-1],"categories":[],"categories_nodes":[],"categories_segments":[],"categories_sizes":[],"default_left":[0],"id":28,"left_children":[-1],"loss_changes":[0E0],"parents":[2147483647],"right_children":[-1],"split_conditions":[-4.9978953E-5],"split_indices":[0],"split_type":[0],"sum_hessian":[7.4571E4],"tree_param":{"num_deleted":"0","num_feature":"12","num_nodes":"1","size_leaf_vector":"0"}},{"base_weights":[-4.997932E-1],"categories":[],"categories_nodes":[],"categories_segments":[],"categories_sizes":[],"default_left":[0],"id":29,"left_children":[-1],"loss_changes":[0E0],"parents":[2147483647],"right_children":[-1],"split_conditions":[-4.997932E-5],"split_indices":[0],"split_type":[0],"sum_hessian":[7.4571E4],"tree_param":{"num_deleted":"0","num_feature":"12","num_nodes":"1","size_leaf_vector":"0"}},{"base_weights":[-4.9833697E-1,-5.3329176E-1,-4.9275532E-1,-5.654456E-1,-5.069585E-1,-4.9776566E-1,-4.6193653E-1,-6.065821E-1,-5.3703743E-1,-5.286078E-1,-4.778833E-1,-4.983965E-1,-4.8375505E-1,-4.1888872E-1,-4.895741E-1,-6.560893E-1,-5.970355E-1,-5.560366E-1,-5.251432E-1,-5.478933E-1,-5.191775E-1,-4.9196118E-1,-4.699252E-1,-4.4789365E-1,-3.7230077E-1,-5.6561285E-1,-4.6727255E-1,-4.612846E-1,-4.320572E-1,-3.9424524E-1,-3.5048446E-1,-5.3151757E-1,-5.734898E-1,-4.8165292E-1,-4.3341953E-1,-3.428023E-1,-3.914845E-1,-4.9213338E-1,-4.7294176E-1,-4.446956E-1,-4.172988E-1],"categories":[],"categories_nodes":[],"categories_segments":[],"categories_sizes":[],"default_left":[1,1,1,1,1,1,1,1,1,1,1,0,0,1,1,0,0,0,0,0,0,0,0,1,1,1,1,0,0,0,1,0,0,1,1,0,0,0,0,0,0],"id":30,"left_children":[1,3,5,7,9,11,13,15,17,19,21,-1,-1,23,25,-1,-1,-1,-1,-1,-1,-1,-1,27,29,31,33,-1,-1,-1,35,-1,-1,37,39,-1,-1,-1,-1,-1,-1],"loss_changes":[1.4287109E1,8.396973E0,9.702148E0,5.060425E0,3.3027344E0,2.4804688E-1,1.0512085E1,4.944458E-1,3.2598877E-1,3.0255127E-1,3.9978027E-2,0E0,0E0,4.6019287E0,9.028564E0,0E0,0E0,0E0,0E0,0E0,0E0,0E0,0E0,2.6086426E-1,5.1290894E-1,2.7648926E-2,1.8568115E0,0E0,0E0,0E0,8.344269E-2,0E0,0E0,3.8269043E-2,4.6203613E-2,0E0,0E0,0E0,0E0,0E0,0E0],"parents":[2147483647,0,0,1,1,2,2,3,3,4,4,5,5,6,6,7,7,8,8,9,9,10,10,13,13,14,14,23,23,24,24,25,25,26,26,30,30,33,33,34,34],"right_children":[2,4,6,8,10,12,14,16,18,20,22,-1,-1,24,26,-1,-1,-1,-1,-1,-1,-1,-1,28,30,32,34,-1,-1,-1,36,-1,-1,38,40,-1,-1,-1,-1,-1,-1],"split_conditions":[-6.108398E-2,9.8900867E-1,8.016862E-2,-2.248434E-1,-1.6553223E-2,3.705802E-2,9.708564E-1,-2.6929012E-1,-1.3244775E-1,9.971608E-1,2.244192E-2,-4.9839648E-5,-4.8375503E-5,2.6073438E-1,-6.4279005E-2,-6.560893E-5,-5.970355E-5,-5.5603658E-5,-5.251432E-5,-5.478933E-5,-5.191775E-5,-4.919612E-5,-4.6992518E-5,1.5174821E-1,4.0233487E-1,-4.9242973E-1,1.0128322E-1,-4.6128458E-5,-4.320572E-5,-3.942452E-5,8.992597E-1,-5.3151754E-5,-5.7348978E-5,4.1547153E-2,1.6020864E-1,-3.4280227E-5,-3.914845E-5,-4.9213337E-5,-4.7294176E-5,-4.4469558E-5,-4.172988E-5],"split_indices":[1,6,1,1,10,1,6,11,1,6,10,0,0,1,10,0,0,0,0,0,0,0,0,1,1,0,10,0,0,0,6,0,0,10,10,0,0,0,0,0,0],"split_type":[0,0,0,0,0,0,0,0,0,0,0,0,0,0,0,0,0,0,0,0,0,0,0,0,0,0,0,0,0,0,0,0,0,0,0,0,0,0,0,0,0],"sum_hessian":[7.4571E4,1.0255E4,6.4316E4,4.608E3,5.647E3,5.5309E4,9.007E3,1.874E3,2.734E3,3.227E3,2.42E3,5.2893E4,2.416E3,3.528E3,5.479E3,2.92E2,1.582E3,1.035E3,1.699E3,1.041E3,2.186E3,8.52E2,1.568E3,2.169E3,1.359E3,1.237E3,4.242E3,1.16E3,1.009E3,6.69E2,6.9E2,2.45E2,9.92E2,2.968E3,1.274E3,5.89E2,1.01E2,1.322E3,1.646E3,7.34E2,5.4E2],"tree_param":{"num_deleted":"0","num_feature":"12","num_nodes":"41","size_leaf_vector":"0"}},{"base_weights":[-5.0055647E-1,-4.6553507E-1,-5.053878E-1,-4.2402008E-1,-4.9102187E-1,-5.622569E-1,-5.025248E-1,-3.786788E-1,-4.5283276E-1,-5.759458E-1,-4.6791753E-1,-5.112176E-1,-5.774178E-1,-5.0098556E-1,-5.688321E-1,-4.578387E-1,-3.7147886E-1,-4.3573594E-1,-4.681749E-1,-5.975679E-1,-5.576671E-1,-4.8638317E-1,-4.306933E-1,-4.737633E-1,-5.2190393E-1,-5.9332716E-1,-5.475237E-1,-5.023798E-1,-4.2355594E-1,-5.2524567E-1,-6.0604835E-1,-3.5885683E-1,-3.9306813E-1,-5.001448E-1,-4.7287497E-1,-4.429914E-1,-4.042993E-1,-5.6701213E-1,-6.077965E-1,-5.0195396E-1,-5.7238907E-1,-4.171775E-1,-4.984702E-1,-5.511312E-1,-5.0160563E-1,-6.359088E-1,-5.664769E-1,-5.0039506E-1,-5.139222E-1,-5.4236364E-1,-6.2140006E-1,-4.2694473E-1,-3.969659E-1],"categories":[],"categories_nodes":[],"categories_segments":[],"categories_sizes":[],"default_left":[1,1,1,1,1,1,1,1,1,1,1,1,1,1,1,0,1,0,0,0,0,1,1,0,0,1,0,1,1,1,1,0,0,0,0,0,0,0,0,1,1,1,0,0,0,0,0,0,0,0,0,0,0],"id":31,"left_children":[1,3,5,7,9,11,13,15,17,19,21,23,25,27,29,-1,31,-1,-1,-1,-1,33,35,-1,-1,37,-1,39,41,43,45,-1,-1,-1,-1,-1,-1,-1,-1,47,49,51,-1,-1,-1,-1,-1,-1,-1,-1,-1,-1,-1],"loss_changes":[1.2380859E1,9.370605E0,1.0384766E1,4.336975E0,1.0724121E1,2.128418E0,6.083008E0,5.9765625E-1,3.48114E-1,1.3864136E-1,2.8218994E0,4.333496E-2,8.199463E-1,6.370117E0,1.9656372E0,0E0,1.9682312E-1,0E0,0E0,0E0,0E0,3.0999756E-1,2.9837036E-1,0E0,0E0,2.489624E-1,0E0,1.4990234E0,3.105011E-1,1.2498474E-1,5.295105E-1,0E0,0E0,0E0,0E0,0E0,0E0,0E0,0E0,8.544922E-1,1.8538666E-1,2.909851E-2,0E0,0E0,0E0,0E0,0E0,0E0,0E0,0E0,0E0,0E0,0E0],"parents":[2147483647,0,0,1,1,2,2,3,3,4,4,5,5,6,6,7,7,8,8,9,9,10,10,11,11,12,12,13,13,14,14,16,16,21,21,22,22,25,25,27,27,28,28,29,29,30,30,39,39,40,40,41,41],"right_children":[2,4,6,8,10,12,14,16,18,20,22,24,26,28,30,-1,32,-1,-1,-1,-1,34,36,-1,-1,38,-1,40,42,44,46,-1,-1,-1,-1,-1,-1,-1,-1,48,50,52,-1,-1,-1,-1,-1,-1,-1,-1,-1,-1,-1],"split_conditions":[-8.252096E-2,9.602344E-1,-8.7352425E-2,-2.9210365E-1,-7.329355E-2,1.3430564E-1,9.8144794E-1,-9.451685E-1,-1.604077E-1,9.8232436E-1,1.0142423E-1,-2.4245799E-1,9.8648536E-1,1.4132604E-1,2.1260393E-1,-4.578387E-5,-4.0499732E-1,-4.3573593E-5,-4.6817488E-5,-5.975679E-5,-5.5766704E-5,4.078313E-2,1.8580668E-1,-4.737633E-5,-5.2190393E-5,3.383131E-1,-5.4752367E-5,1.2042918E0,6.787739E-1,-5.3255296E-1,-5.4805535E-1,-3.588568E-5,-3.930681E-5,-5.0014478E-5,-4.7287496E-5,-4.429914E-5,-4.0429928E-5,-5.670121E-5,-6.0779646E-5,4.0735222E-2,3.6045557E-1,2.1741825E-1,-4.9847018E-5,-5.5113116E-5,-5.016056E-5,-6.359088E-5,-5.664769E-5,-5.0039504E-5,-5.139222E-5,-5.4236363E-5,-6.214E-5,-4.269447E-5,-3.9696588E-5],"split_indices":[0,9,11,0,11,0,4,8,0,9,11,6,9,11,0,0,0,0,0,0,0,11,11,0,0,0,0,3,4,9,6,0,0,0,0,0,0,0,0,0,0,11,0,0,0,0,0,0,0,0,0,0,0],"split_type":[0,0,0,0,0,0,0,0,0,0,0,0,0,0,0,0,0,0,0,0,0,0,0,0,0,0,0,0,0,0,0,0,0,0,0,0,0,0,0,0,0,0,0,0,0,0,0,0,0,0,0,0,0],"sum_hessian":[7.4571E4,9.052E3,6.5519E4,3.45E3,5.602E3,3.131E3,6.2388E4,1.346E3,2.104E3,1.193E3,4.409E3,7.25E2,2.406E3,6.0981E4,1.407E3,1.07E2,1.239E3,1.009E3,1.095E3,5.32E2,6.61E2,2.939E3,1.47E3,1.71E2,5.54E2,1.558E3,8.48E2,5.9897E4,1.084E3,6.55E2,7.52E2,7.93E2,4.46E2,1.438E3,1.501E3,9.92E2,4.78E2,5.67E2,9.91E2,5.9543E4,3.54E2,1.005E3,7.9E1,3.02E2,3.53E2,4.2E2,3.32E2,5.2719E4,6.824E3,2.27E2,1.27E2,6.64E2,3.41E2],"tree_param":{"num_deleted":"0","num_feature":"12","num_nodes":"53","size_leaf_vector":"0"}},{"base_weights":[-5.7392466E-1,-5.601058E-1,-5.7999265E-1,-5.626419E-1,-5.2736765E-1,-5.8043534E-1,-5.195391E-1,-5.31999E-1,-5.654852E-1,-5.328197E-1,-4.8091444E-1,-5.2523106E-1,-5.8089834E-1,-5.07697E-1,-5.3844136E-1,-5.6839937E-1,-5.5349225E-1,-5.335249E-1,-5.8110726E-1,-5.7748854E-1,-5.644301E-1,-5.552211E-1,-5.0450635E-1,-5.2948445E-1,-5.8088636E-1],"categories":[],"categories_nodes":[],"categories_segments":[],"categories_sizes":[],"default_left":[1,1,1,1,1,1,0,1,1,0,0,0,1,0,0,1,1,0,0,1,0,0,0,0,0],"id":32,"left_children":[1,3,5,7,9,11,-1,13,15,-1,-1,-1,17,-1,-1,19,21,-1,-1,23,-1,-1,-1,-1,-1],"loss_changes":[5.9296875E0,1.5942383E0,1.0839844E0,1.5405273E0,1.6265869E-1,1.0097656E0,0E0,1.0131836E-2,3.6083984E-1,0E0,0E0,0E0,1.953125E-1,0E0,0E0,2.3339844E-1,4.309082E-2,0E0,0E0,4.5422363E-1,0E0,0E0,0E0,0E0,0E0],"parents":[2147483647,0,0,1,1,2,2,3,3,4,4,5,5,7,7,8,8,12,12,15,15,16,16,19,19],"right_children":[2,4,6,8,10,12,-1,14,16,-1,-1,-1,18,-1,-1,20,22,-1,-1,24,-1,-1,-1,-1,-1],"split_conditions":[1.6240144E0,2.0646694E-1,1.6388016E0,-1.9346109E-1,3.646562E-1,-1.6509811E0,-5.195391E-5,-3.1571677E-1,1.6209802E-1,-5.328197E-5,-4.8091442E-5,-5.2523104E-5,-1.7667767E0,-5.0769697E-5,-5.3844135E-5,8.2887626E-1,3.395126E-1,-5.3352487E-5,-5.8110723E-5,-2.6934093E-1,-5.6443012E-5,-5.5522105E-5,-5.0450635E-5,-5.2948442E-5,-5.8088634E-5],"split_indices":[5,11,4,11,11,4,0,11,3,0,0,0,3,0,0,6,10,0,0,10,0,0,0,0,0],"split_type":[0,0,0,0,0,0,0,0,0,0,0,0,0,0,0,0,0,0,0,0,0,0,0,0,0],"sum_hessian":[7.4571E4,2.2782E4,5.1789E4,2.1129E4,1.653E3,5.1404E4,3.85E2,1.81E3,1.9319E4,1.47E3,1.83E2,4.37E2,5.0967E4,3.96E2,1.414E3,1.5505E4,3.814E3,2.35E2,5.0732E4,4.669E3,1.0836E4,3.674E3,1.4E2,3.19E2,4.35E3],"tree_param":{"num_deleted":"0","num_feature":"12","num_nodes":"25","size_leaf_vector":"0"}},{"base_weights":[-4.9975163E-1],"categories":[],"categories_nodes":[],"categories_segments":[],"categories_sizes":[],"default_left":[0],"id":33,"left_children":[-1],"loss_changes":[0E0],"parents":[2147483647],"right_children":[-1],"split_conditions":[-4.9975162E-5],"split_indices":[0],"split_type":[0],"sum_hessian":[7.4571E4],"tree_param":{"num_deleted":"0","num_feature":"12","num_nodes":"1","size_leaf_vector":"0"}},{"base_weights":[-4.9973956E-1],"categories":[],"categories_nodes":[],"categories_segments":[],"categories_sizes":[],"default_left":[0],"id":34,"left_children":[-1],"loss_changes":[0E0],"parents":[2147483647],"right_children":[-1],"split_conditions":[-4.9973954E-5],"split_indices":[0],"split_type":[0],"sum_hessian":[7.4571E4],"tree_param":{"num_deleted":"0","num_feature":"12","num_nodes":"1","size_leaf_vector":"0"}},{"base_weights":[-4.9974322E-1],"categories":[],"categories_nodes":[],"categories_segments":[],"categories_sizes":[],"default_left":[0],"id":35,"left_children":[-1],"loss_changes":[0E0],"parents":[2147483647],"right_children":[-1],"split_conditions":[-4.9974322E-5],"split_indices":[0],"split_type":[0],"sum_hessian":[7.4571E4],"tree_param":{"num_deleted":"0","num_feature":"12","num_nodes":"1","size_leaf_vector":"0"}},{"base_weights":[-4.9828714E-1,-5.332385E-1,-4.9270606E-1,-5.653891E-1,-5.069078E-1,-4.977159E-1,-4.618904E-1,-6.0652155E-1,-5.369837E-1,-5.28555E-1,-4.7783557E-1,-4.983465E-1,-4.8369744E-1,-4.1884688E-1,-4.895252E-1,-6.560239E-1,-5.969759E-1,-5.5598104E-1,-5.250907E-1,-5.4783857E-1,-5.1912564E-1,-4.9191204E-1,-4.6987823E-1,-4.478489E-1,-3.7226364E-1,-5.675565E-1,-4.6779436E-1,-4.612385E-1,-4.3201402E-1,-3.9420587E-1,-3.5044953E-1,-4.8217982E-1,-4.3337625E-1,-3.4276807E-1,-3.914457E-1,-4.9694654E-1,-4.7527125E-1,-4.446512E-1,-4.1725713E-1],"categories":[],"categories_nodes":[],"categories_segments":[],"categories_sizes":[],"default_left":[1,1,1,1,1,1,1,1,1,1,1,0,0,1,1,0,0,0,0,0,0,0,0,1,1,0,1,0,0,0,1,1,1,0,0,0,0,0,0],"id":36,"left_children":[1,3,5,7,9,11,13,15,17,19,21,-1,-1,23,25,-1,-1,-1,-1,-1,-1,-1,-1,27,29,-1,31,-1,-1,-1,33,35,37,-1,-1,-1,-1,-1,-1],"loss_changes":[1.4283203E1,8.395508E0,9.701172E0,5.059204E0,3.30188E0,2.4804688E-1,1.051001E1,4.944458E-1,3.260498E-1,3.0255127E-1,4.0100098E-2,0E0,0E0,4.601013E0,9.026855E0,0E0,0E0,0E0,0E0,0E0,0E0,0E0,0E0,2.6086426E-1,5.128021E-1,0E0,1.9161377E0,0E0,0E0,0E0,8.342743E-2,7.165527E-2,4.6188354E-2,0E0,0E0,0E0,0E0,0E0,0E0],"parents":[2147483647,0,0,1,1,2,2,3,3,4,4,5,5,6,6,7,7,8,8,9,9,10,10,13,13,14,14,23,23,24,24,26,26,30,30,31,31,32,32],"right_children":[2,4,6,8,10,12,14,16,18,20,22,-1,-1,24,26,-1,-1,-1,-1,-1,-1,-1,-1,28,30,-1,32,-1,-1,-1,34,36,38,-1,-1,-1,-1,-1,-1],"split_conditions":[-6.108398E-2,9.8900867E-1,8.016862E-2,-2.248434E-1,-1.6553223E-2,3.706035E-2,9.708564E-1,-2.6929012E-1,-1.3244775E-1,9.971608E-1,2.244192E-2,-4.983465E-5,-4.8369744E-5,2.6073438E-1,-7.735881E-2,-6.560239E-5,-5.969759E-5,-5.5598102E-5,-5.250907E-5,-5.4783857E-5,-5.1912564E-5,-4.9191203E-5,-4.698782E-5,1.5174821E-1,4.0233487E-1,-5.675565E-5,1.0128322E-1,-4.612385E-5,-4.3201402E-5,-3.9420585E-5,8.992597E-1,3.3837035E-2,1.6020864E-1,-3.4276807E-5,-3.914457E-5,-4.9694652E-5,-4.7527123E-5,-4.4465116E-5,-4.172571E-5],"split_indices":[1,6,1,1,10,1,6,11,1,6,10,0,0,1,10,0,0,0,0,0,0,0,0,1,1,0,10,0,0,0,6,10,10,0,0,0,0,0,0],"split_type":[0,0,0,0,0,0,0,0,0,0,0,0,0,0,0,0,0,0,0,0,0,0,0,0,0,0,0,0,0,0,0,0,0,0,0,0,0,0,0],"sum_hessian":[7.4571E4,1.0255E4,6.4316E4,4.608E3,5.647E3,5.5309E4,9.007E3,1.874E3,2.734E3,3.227E3,2.42E3,5.2895E4,2.414E3,3.528E3,5.479E3,2.92E2,1.582E3,1.035E3,1.699E3,1.041E3,2.186E3,8.52E2,1.568E3,2.169E3,1.359E3,1.188E3,4.291E3,1.16E3,1.009E3,6.69E2,6.9E2,3.017E3,1.274E3,5.89E2,1.01E2,9.39E2,2.078E3,7.34E2,5.4E2],"tree_param":{"num_deleted":"0","num_feature":"12","num_nodes":"39","size_leaf_vector":"0"}},{"base_weights":[-5.005064E-1,-4.6548858E-1,-5.0533724E-1,-4.2397773E-1,-4.9097285E-1,-5.6222045E-1,-5.0247544E-1,-3.7864104E-1,-4.5278752E-1,-5.7588834E-1,-4.678708E-1,-5.1116663E-1,-5.7739836E-1,-5.009365E-1,-5.6877536E-1,-4.5779335E-1,-3.7144175E-1,-4.356924E-1,-4.6812811E-1,-5.9750825E-1,-5.576114E-1,-4.8633456E-1,-4.3065026E-1,-4.7371617E-1,-5.2185184E-1,-5.932679E-1,-5.47507E-1,-5.0233054E-1,-4.2351368E-1,-5.2519333E-1,-6.059879E-1,-3.5882097E-1,-3.9302891E-1,-5.000948E-1,-4.728277E-1,-4.4294715E-1,-4.0425894E-1,-5.6695557E-1,-6.077358E-1,-5.0190604E-1,-5.725098E-1,-4.1713586E-1,-4.9842092E-1,-5.510763E-1,-5.015556E-1,-6.3584536E-1,-5.6642044E-1,-5.0034523E-1,-5.1388437E-1,-5.423215E-1,-6.213384E-1,-4.269021E-1,-3.969263E-1],"categories":[],"categories_nodes":[],"categories_segments":[],"categories_sizes":[],"default_left":[1,1,1,1,1,1,1,1,1,1,1,1,1,1,1,0,1,0,0,0,0,1,1,0,0,1,0,1,1,1,1,0,0,0,0,0,0,0,0,1,1,1,0,0,0,0,0,0,0,0,0,0,0],"id":37,"left_children":[1,3,5,7,9,11,13,15,17,19,21,23,25,27,29,-1,31,-1,-1,-1,-1,33,35,-1,-1,37,-1,39,41,43,45,-1,-1,-1,-1,-1,-1,-1,-1,47,49,51,-1,-1,-1,-1,-1,-1,-1,-1,-1,-1,-1],"loss_changes":[1.2380859E1,9.368652E0,1.0384766E1,4.3359985E0,1.0722168E1,2.130188E0,6.0810547E0,5.9754944E-1,3.480835E-1,1.3864136E-1,2.821167E0,4.3319702E-2,8.1604004E-1,6.3691406E0,1.9652405E0,0E0,1.9680786E-1,0E0,0E0,0E0,0E0,3.0999756E-1,2.9830933E-1,0E0,0E0,2.4890137E-1,0E0,1.4970703E0,3.1044006E-1,1.24938965E-1,5.2941895E-1,0E0,0E0,0E0,0E0,0E0,0E0,0E0,0E0,8.564453E-1,1.833725E-1,2.911377E-2,0E0,0E0,0E0,0E0,0E0,0E0,0E0,0E0,0E0,0E0,0E0],"parents":[2147483647,0,0,1,1,2,2,3,3,4,4,5,5,6,6,7,7,8,8,9,9,10,10,11,11,12,12,13,13,14,14,16,16,21,21,22,22,25,25,27,27,28,28,29,29,30,30,39,39,40,40,41,41],"right_children":[2,4,6,8,10,12,14,16,18,20,22,24,26,28,30,-1,32,-1,-1,-1,-1,34,36,-1,-1,38,-1,40,42,44,46,-1,-1,-1,-1,-1,-1,-1,-1,48,50,52,-1,-1,-1,-1,-1,-1,-1,-1,-1,-1,-1],"split_conditions":[-8.252096E-2,9.602344E-1,-8.73606E-2,-2.9210365E-1,-7.329355E-2,1.3430564E-1,9.8144794E-1,-9.451685E-1,-1.604077E-1,9.8232436E-1,1.0142423E-1,-2.4245799E-1,9.8648536E-1,1.4132604E-1,2.1260393E-1,-4.5779336E-5,-4.0499732E-1,-4.356924E-5,-4.681281E-5,-5.9750822E-5,-5.576114E-5,4.078313E-2,1.8580668E-1,-4.7371617E-5,-5.2185183E-5,3.383131E-1,-5.4750697E-5,1.2067509E0,6.787739E-1,-5.3255296E-1,-5.4805535E-1,-3.5882098E-5,-3.930289E-5,-5.0009476E-5,-4.728277E-5,-4.4294713E-5,-4.0425894E-5,-5.6695557E-5,-6.077358E-5,4.0735222E-2,3.6045557E-1,2.1741825E-1,-4.9842092E-5,-5.5107626E-5,-5.0155562E-5,-6.3584535E-5,-5.6642042E-5,-5.0034523E-5,-5.1388437E-5,-5.423215E-5,-6.213384E-5,-4.2690208E-5,-3.969263E-5],"split_indices":[0,9,11,0,11,0,4,8,0,9,11,6,9,11,0,0,0,0,0,0,0,11,11,0,0,0,0,3,4,9,6,0,0,0,0,0,0,0,0,0,0,11,0,0,0,0,0,0,0,0,0,0,0],"split_type":[0,0,0,0,0,0,0,0,0,0,0,0,0,0,0,0,0,0,0,0,0,0,0,0,0,0,0,0,0,0,0,0,0,0,0,0,0,0,0,0,0,0,0,0,0,0,0,0,0,0,0,0,0],"sum_hessian":[7.4571E4,9.052E3,6.5519E4,3.45E3,5.602E3,3.129E3,6.239E4,1.346E3,2.104E3,1.193E3,4.409E3,7.25E2,2.404E3,6.0983E4,1.407E3,1.07E2,1.239E3,1.009E3,1.095E3,5.32E2,6.61E2,2.939E3,1.47E3,1.71E2,5.54E2,1.558E3,8.46E2,5.9899E4,1.084E3,6.55E2,7.52E2,7.93E2,4.46E2,1.438E3,1.501E3,9.92E2,4.78E2,5.67E2,9.91E2,5.9547E4,3.52E2,1.005E3,7.9E1,3.02E2,3.53E2,4.2E2,3.32E2,5.272E4,6.827E3,2.25E2,1.27E2,6.64E2,3.41E2],"tree_param":{"num_deleted":"0","num_feature":"12","num_nodes":"53","size_leaf_vector":"0"}},{"base_weights":[-5.7386726E-1,-5.6004566E-1,-5.7993495E-1,-5.625817E-1,-5.2731496E-1,-5.803782E-1,-5.1956034E-1,-5.319459E-1,-5.6542486E-1,-5.3276646E-1,-4.808666E-1,-5.251787E-1,-5.808411E-1,-5.076463E-1,-5.3838754E-1,-5.683512E-1,-5.5349106E-1,-5.331797E-1,-5.8104855E-1,-5.7742864E-1,-5.643792E-1,-5.5520916E-1,-5.044562E-1,-5.294317E-1,-5.8082825E-1],"categories":[],"categories_nodes":[],"categories_segments":[],"categories_sizes":[],"default_left":[1,1,1,1,1,1,0,1,1,0,0,0,1,0,0,1,1,0,0,1,0,0,0,0,0],"id":38,"left_children":[1,3,5,7,9,11,-1,13,15,-1,-1,-1,17,-1,-1,19,21,-1,-1,23,-1,-1,-1,-1,-1],"loss_changes":[5.9316406E0,1.5947266E0,1.0839844E0,1.5390625E0,1.6262817E-1,1.0097656E0,0E0,1.0192871E-2,3.6035156E-1,0E0,0E0,0E0,1.953125E-1,0E0,0E0,2.319336E-1,4.345703E-2,0E0,0E0,4.5410156E-1,0E0,0E0,0E0,0E0,0E0],"parents":[2147483647,0,0,1,1,2,2,3,3,4,4,5,5,7,7,8,8,12,12,15,15,16,16,19,19],"right_children":[2,4,6,8,10,12,-1,14,16,-1,-1,-1,18,-1,-1,20,22,-1,-1,24,-1,-1,-1,-1,-1],"split_conditions":[1.6236827E0,2.0646694E-1,1.6378306E0,-1.9346109E-1,3.646562E-1,-1.6509811E0,-5.195603E-5,-3.1571677E-1,1.5837705E-1,-5.3276646E-5,-4.808666E-5,-5.2517866E-5,-1.7816741E0,-5.0764633E-5,-5.3838754E-5,8.2887626E-1,3.395126E-1,-5.331797E-5,-5.810485E-5,-2.6934093E-1,-5.643792E-5,-5.5520915E-5,-5.0445622E-5,-5.2943167E-5,-5.8082824E-5],"split_indices":[5,11,4,11,11,4,0,11,3,0,0,0,3,0,0,6,10,0,0,10,0,0,0,0,0],"split_type":[0,0,0,0,0,0,0,0,0,0,0,0,0,0,0,0,0,0,0,0,0,0,0,0,0],"sum_hessian":[7.4571E4,2.2778E4,5.1793E4,2.1125E4,1.653E3,5.1407E4,3.86E2,1.81E3,1.9315E4,1.47E3,1.83E2,4.37E2,5.097E4,3.96E2,1.414E3,1.5474E4,3.841E3,2.32E2,5.0738E4,4.666E3,1.0808E4,3.701E3,1.4E2,3.19E2,4.347E3],"tree_param":{"num_deleted":"0","num_feature":"12","num_nodes":"25","size_leaf_vector":"0"}},{"base_weights":[-4.9970165E-1],"categories":[],"categories_nodes":[],"categories_segments":[],"categories_sizes":[],"default_left":[0],"id":39,"left_children":[-1],"loss_changes":[0E0],"parents":[2147483647],"right_children":[-1],"split_conditions":[-4.9970164E-5],"split_indices":[0],"split_type":[0],"sum_hessian":[7.4571E4],"tree_param":{"num_deleted":"0","num_feature":"12","num_nodes":"1","size_leaf_vector":"0"}},{"base_weights":[-4.9968958E-1],"categories":[],"categories_nodes":[],"categories_segments":[],"categories_sizes":[],"default_left":[0],"id":40,"left_children":[-1],"loss_changes":[0E0],"parents":[2147483647],"right_children":[-1],"split_conditions":[-4.9968956E-5],"split_indices":[0],"split_type":[0],"sum_hessian":[7.4571E4],"tree_param":{"num_deleted":"0","num_feature":"12","num_nodes":"1","size_leaf_vector":"0"}},{"base_weights":[-4.9969324E-1],"categories":[],"categories_nodes":[],"categories_segments":[],"categories_sizes":[],"default_left":[0],"id":41,"left_children":[-1],"loss_changes":[0E0],"parents":[2147483647],"right_children":[-1],"split_conditions":[-4.9969323E-5],"split_indices":[0],"split_type":[0],"sum_hessian":[7.4571E4],"tree_param":{"num_deleted":"0","num_feature":"12","num_nodes":"1","size_leaf_vector":"0"}},{"base_weights":[-4.9823734E-1,-5.331852E-1,-4.926568E-1,-5.6533265E-1,-5.0685716E-1,-4.9766564E-1,-4.6184343E-1,-6.064609E-1,-5.369301E-1,-5.2850217E-1,-4.7778782E-1,-4.9829668E-1,-4.8364323E-1,-4.1879067E-1,-4.894763E-1,-6.5595853E-1,-5.9691626E-1,-5.559255E-1,-5.2503824E-1,-5.4778385E-1,-5.190737E-1,-4.918629E-1,-4.6983126E-1,-4.4779414E-1,-3.7222648E-1,-5.6549996E-1,-4.6717915E-1,-4.611853E-1,-4.3197083E-1,-3.941665E-1,-3.5041457E-1,-5.3140956E-1,-5.733758E-1,-4.8155662E-1,-4.33333E-1,-3.4273383E-1,-3.9140695E-1,-4.9203527E-1,-4.7284698E-1,-4.4460678E-1,-4.172155E-1],"categories":[],"categories_nodes":[],"categories_segments":[],"categories_sizes":[],"default_left":[1,1,1,1,1,1,1,1,1,1,1,0,0,1,1,0,0,0,0,0,0,0,0,1,1,1,1,0,0,0,1,0,0,1,1,0,0,0,0,0,0],"id":42,"left_children":[1,3,5,7,9,11,13,15,17,19,21,-1,-1,23,25,-1,-1,-1,-1,-1,-1,-1,-1,27,29,31,33,-1,-1,-1,35,-1,-1,37,39,-1,-1,-1,-1,-1,-1],"loss_changes":[1.428125E1,8.393799E0,9.697266E0,5.0584717E0,3.3012695E0,2.4804688E-1,1.0510376E1,4.942627E-1,3.2592773E-1,3.0249023E-1,4.0039062E-2,0E0,0E0,4.5979614E0,9.0251465E0,0E0,0E0,0E0,0E0,0E0,0E0,0E0,0E0,2.6037598E-1,5.127106E-1,2.7709961E-2,1.8560791E0,0E0,0E0,0E0,8.341217E-2,0E0,0E0,3.8269043E-2,4.6157837E-2,0E0,0E0,0E0,0E0,0E0,0E0],"parents":[2147483647,0,0,1,1,2,2,3,3,4,4,5,5,6,6,7,7,8,8,9,9,10,10,13,13,14,14,23,23,24,24,25,25,26,26,30,30,33,33,34,34],"right_children":[2,4,6,8,10,12,14,16,18,20,22,-1,-1,24,26,-1,-1,-1,-1,-1,-1,-1,-1,28,30,32,34,-1,-1,-1,36,-1,-1,38,40,-1,-1,-1,-1,-1,-1],"split_conditions":[-6.108398E-2,9.8900867E-1,8.0224514E-2,-2.248434E-1,-1.6553223E-2,3.706035E-2,9.708564E-1,-2.6929012E-1,-1.3244775E-1,9.971608E-1,2.244192E-2,-4.9829665E-5,-4.8364323E-5,2.6073438E-1,-6.4279005E-2,-6.559585E-5,-5.9691625E-5,-5.5592547E-5,-5.2503823E-5,-5.4778382E-5,-5.1907373E-5,-4.918629E-5,-4.6983125E-5,1.5174821E-1,4.0233487E-1,-4.9242973E-1,1.0128322E-1,-4.611853E-5,-4.3197084E-5,-3.941665E-5,8.992597E-1,-5.3140953E-5,-5.733758E-5,4.1547153E-2,1.6020864E-1,-3.4273384E-5,-3.9140694E-5,-4.9203525E-5,-4.72847E-5,-4.4460678E-5,-4.172155E-5],"split_indices":[1,6,1,1,10,1,6,11,1,6,10,0,0,1,10,0,0,0,0,0,0,0,0,1,1,0,10,0,0,0,6,0,0,10,10,0,0,0,0,0,0],"split_type":[0,0,0,0,0,0,0,0,0,0,0,0,0,0,0,0,0,0,0,0,0,0,0,0,0,0,0,0,0,0,0,0,0,0,0,0,0,0,0,0,0],"sum_hessian":[7.4571E4,1.0255E4,6.4316E4,4.608E3,5.647E3,5.531E4,9.006E3,1.874E3,2.734E3,3.227E3,2.42E3,5.2895E4,2.415E3,3.527E3,5.479E3,2.92E2,1.582E3,1.035E3,1.699E3,1.041E3,2.186E3,8.52E2,1.568E3,2.168E3,1.359E3,1.237E3,4.242E3,1.159E3,1.009E3,6.69E2,6.9E2,2.45E2,9.92E2,2.968E3,1.274E3,5.89E2,1.01E2,1.322E3,1.646E3,7.34E2,5.4E2],"tree_param":{"num_deleted":"0","num_feature":"12","num_nodes":"41","size_leaf_vector":"0"}},{"base_weights":[-5.004564E-1,-4.6544206E-1,-5.052867E-1,-4.239354E-1,-4.909238E-1,-5.621643E-1,-5.024252E-1,-3.7860325E-1,-4.5274228E-1,-5.758308E-1,-4.6782404E-1,-5.111156E-1,-5.773407E-1,-5.008864E-1,-5.687186E-1,-4.57748E-1,-3.7140468E-1,-4.3564886E-1,-4.6808136E-1,-5.9744865E-1,-5.5755574E-1,-4.8628595E-1,-4.306073E-1,-4.7366905E-1,-5.2179974E-1,-5.932087E-1,-5.4745233E-1,-5.022803E-1,-4.2347148E-1,-5.2514094E-1,-6.0592747E-1,-3.5878515E-1,-3.929897E-1,-5.000448E-1,-4.7278044E-1,-4.4290292E-1,-4.042186E-1,-5.6689894E-1,-6.076751E-1,-5.0185585E-1,-5.724529E-1,-4.1709423E-1,-4.9837172E-1,-5.5102134E-1,-5.015056E-1,-6.357819E-1,-5.6636393E-1,-5.0032985E-1,-5.1409525E-1,-5.422675E-1,-6.2127674E-1,-4.2685947E-1,-3.9688674E-1],"categories":[],"categories_nodes":[],"categories_segments":[],"categories_sizes":[],"default_left":[1,1,1,1,1,1,1,1,1,1,1,1,1,1,1,0,1,0,0,0,0,1,1,0,0,1,0,1,1,1,1,0,0,0,0,0,0,0,0,1,1,1,0,0,0,0,0,0,0,0,0,0,0],"id":43,"left_children":[1,3,5,7,9,11,13,15,17,19,21,23,25,27,29,-1,31,-1,-1,-1,-1,33,35,-1,-1,37,-1,39,41,43,45,-1,-1,-1,-1,-1,-1,-1,-1,47,49,51,-1,-1,-1,-1,-1,-1,-1,-1,-1,-1,-1],"loss_changes":[1.2376953E1,9.366821E0,1.03828125E1,4.335205E0,1.0719971E1,2.1298218E0,6.0791016E0,5.974121E-1,3.4799194E-1,1.3864136E-1,2.8207397E0,4.3304443E-2,8.157959E-1,6.368164E0,1.9648132E0,0E0,1.9676208E-1,0E0,0E0,0E0,0E0,3.0993652E-1,2.982788E-1,0E0,0E0,2.4890137E-1,0E0,1.4970703E0,3.1037903E-1,1.24938965E-1,5.293274E-1,0E0,0E0,0E0,0E0,0E0,0E0,0E0,0E0,8.5546875E-1,1.8334961E-1,2.909851E-2,0E0,0E0,0E0,0E0,0E0,0E0,0E0,0E0,0E0,0E0,0E0],"parents":[2147483647,0,0,1,1,2,2,3,3,4,4,5,5,6,6,7,7,8,8,9,9,10,10,11,11,12,12,13,13,14,14,16,16,21,21,22,22,25,25,27,27,28,28,29,29,30,30,39,39,40,40,41,41],"right_children":[2,4,6,8,10,12,14,16,18,20,22,24,26,28,30,-1,32,-1,-1,-1,-1,34,36,-1,-1,38,-1,40,42,44,46,-1,-1,-1,-1,-1,-1,-1,-1,48,50,52,-1,-1,-1,-1,-1,-1,-1,-1,-1,-1,-1],"split_conditions":[-8.252096E-2,9.602344E-1,-8.73606E-2,-2.9210365E-1,-7.329355E-2,1.3430564E-1,9.8144794E-1,-9.451685E-1,-1.604077E-1,9.8232436E-1,1.0142423E-1,-2.4245799E-1,9.8648536E-1,1.4132604E-1,2.1260393E-1,-4.57748E-5,-4.0499732E-1,-4.3564884E-5,-4.6808134E-5,-5.9744863E-5,-5.5755572E-5,4.078313E-2,1.8580668E-1,-4.7366902E-5,-5.2179974E-5,3.383131E-1,-5.4745233E-5,1.2067509E0,6.787739E-1,-5.3255296E-1,-5.4805535E-1,-3.5878515E-5,-3.9298968E-5,-5.000448E-5,-4.727804E-5,-4.4290293E-5,-4.042186E-5,-5.6689893E-5,-6.0767507E-5,4.46506E-2,3.6045557E-1,2.1741825E-1,-4.983717E-5,-5.5102133E-5,-5.015056E-5,-6.357818E-5,-5.6636392E-5,-5.0032984E-5,-5.1409523E-5,-5.4226748E-5,-6.212767E-5,-4.2685944E-5,-3.968867E-5],"split_indices":[0,9,11,0,11,0,4,8,0,9,11,6,9,11,0,0,0,0,0,0,0,11,11,0,0,0,0,3,4,9,6,0,0,0,0,0,0,0,0,0,0,11,0,0,0,0,0,0,0,0,0,0,0],"split_type":[0,0,0,0,0,0,0,0,0,0,0,0,0,0,0,0,0,0,0,0,0,0,0,0,0,0,0,0,0,0,0,0,0,0,0,0,0,0,0,0,0,0,0,0,0,0,0,0,0,0,0,0,0],"sum_hessian":[7.4571E4,9.052E3,6.5519E4,3.45E3,5.602E3,3.129E3,6.239E4,1.346E3,2.104E3,1.193E3,4.409E3,7.25E2,2.404E3,6.0983E4,1.407E3,1.07E2,1.239E3,1.009E3,1.095E3,5.32E2,6.61E2,2.939E3,1.47E3,1.71E2,5.54E2,1.558E3,8.46E2,5.9899E4,1.084E3,6.55E2,7.52E2,7.93E2,4.46E2,1.438E3,1.501E3,9.92E2,4.78E2,5.67E2,9.91E2,5.9547E4,3.52E2,1.005E3,7.9E1,3.02E2,3.53E2,4.2E2,3.32E2,5.2983E4,6.564E3,2.25E2,1.27E2,6.64E2,3.41E2],"tree_param":{"num_deleted":"0","num_feature":"12","num_nodes":"53","size_leaf_vector":"0"}},{"base_weights":[-5.7380986E-1,-5.5999243E-1,-5.798769E-1,-5.625281E-1,-5.272623E-1,-5.8031946E-1,-5.1943547E-1,-5.318927E-1,-5.6537074E-1,-5.3271323E-1,-4.8081878E-1,-5.250525E-1,-5.807819E-1,-5.0759566E-1,-5.383337E-1,-5.682842E-1,-5.5338156E-1,-5.334186E-1,-5.809908E-1,-5.7737315E-1,-5.643147E-1,-5.5511004E-1,-5.0440615E-1,-5.2937895E-1,-5.807702E-1],"categories":[],"categories_nodes":[],"categories_segments":[],"categories_sizes":[],"default_left":[1,1,1,1,1,1,0,1,1,0,0,0,1,0,0,1,1,0,0,1,0,0,0,0,0],"id":44,"left_children":[1,3,5,7,9,11,-1,13,15,-1,-1,-1,17,-1,-1,19,21,-1,-1,23,-1,-1,-1,-1,-1],"loss_changes":[5.9277344E0,1.5942383E0,1.0839844E0,1.5390625E0,1.6259766E-1,1.0097656E0,0E0,1.0192871E-2,3.6035156E-1,0E0,0E0,0E0,1.9335938E-1,0E0,0E0,2.3339844E-1,4.296875E-2,0E0,0E0,4.5410156E-1,0E0,0E0,0E0,0E0,0E0],"parents":[2147483647,0,0,1,1,2,2,3,3,4,4,5,5,7,7,8,8,12,12,15,15,16,16,19,19],"right_children":[2,4,6,8,10,12,-1,14,16,-1,-1,-1,18,-1,-1,20,22,-1,-1,24,-1,-1,-1,-1,-1],"split_conditions":[1.6239581E0,2.0646694E-1,1.6388016E0,-1.9346109E-1,3.646562E-1,-1.6517496E0,-5.1943545E-5,-3.1571677E-1,1.6209802E-1,-5.3271324E-5,-4.8081878E-5,-5.250525E-5,-1.7667767E0,-5.0759565E-5,-5.383337E-5,8.2887626E-1,3.395126E-1,-5.3341857E-5,-5.8099078E-5,-2.6934093E-1,-5.6431472E-5,-5.5511002E-5,-5.0440613E-5,-5.2937892E-5,-5.8077017E-5],"split_indices":[5,11,4,11,11,4,0,11,3,0,0,0,3,0,0,6,10,0,0,10,0,0,0,0,0],"split_type":[0,0,0,0,0,0,0,0,0,0,0,0,0,0,0,0,0,0,0,0,0,0,0,0,0],"sum_hessian":[7.4571E4,2.2781E4,5.179E4,2.1128E4,1.653E3,5.1405E4,3.85E2,1.81E3,1.9318E4,1.47E3,1.83E2,4.36E2,5.0969E4,3.96E2,1.414E3,1.5504E4,3.814E3,2.35E2,5.0734E4,4.669E3,1.0835E4,3.674E3,1.4E2,3.19E2,4.35E3],"tree_param":{"num_deleted":"0","num_feature":"12","num_nodes":"25","size_leaf_vector":"0"}},{"base_weights":[-4.9965167E-1],"categories":[],"categories_nodes":[],"categories_segments":[],"categories_sizes":[],"default_left":[0],"id":45,"left_children":[-1],"loss_changes":[0E0],"parents":[2147483647],"right_children":[-1],"split_conditions":[-4.9965165E-5],"split_indices":[0],"split_type":[0],"sum_hessian":[7.4571E4],"tree_param":{"num_deleted":"0","num_feature":"12","num_nodes":"1","size_leaf_vector":"0"}},{"base_weights":[-4.996396E-1],"categories":[],"categories_nodes":[],"categories_segments":[],"categories_sizes":[],"default_left":[0],"id":46,"left_children":[-1],"loss_changes":[0E0],"parents":[2147483647],"right_children":[-1],"split_conditions":[-4.9963957E-5],"split_indices":[0],"split_type":[0],"sum_hessian":[7.4571E4],"tree_param":{"num_deleted":"0","num_feature":"12","num_nodes":"1","size_leaf_vector":"0"}},{"base_weights":[-4.9964327E-1],"categories":[],"categories_nodes":[],"categories_segments":[],"categories_sizes":[],"default_left":[0],"id":47,"left_children":[-1],"loss_changes":[0E0],"parents":[2147483647],"right_children":[-1],"split_conditions":[-4.9964325E-5],"split_indices":[0],"split_type":[0],"sum_hessian":[7.4571E4],"tree_param":{"num_deleted":"0","num_feature":"12","num_nodes":"1","size_leaf_vector":"0"}},{"base_weights":[-4.981875E-1,-5.331319E-1,-4.9260753E-1,-5.6527615E-1,-5.068065E-1,-4.9761805E-1,-4.6180782E-1,-6.064004E-1,-5.3687644E-1,-5.2844936E-1,-4.7774008E-1,-4.9824685E-1,-4.8360983E-1,-4.1879106E-1,-4.8942596E-1,-6.5589315E-1,-5.968566E-1,-5.5586994E-1,-5.2498573E-1,-5.477291E-1,-5.190218E-1,-4.9181378E-1,-4.6978432E-1,-4.4777796E-1,-3.7218934E-1,-5.654435E-1,-4.6714637E-1,-4.6115798E-1,-4.319277E-1,-3.9412713E-1,-3.5037965E-1,-5.3135663E-1,-5.7331854E-1,-4.815138E-1,-4.3328974E-1,-3.4269962E-1,-3.913682E-1,-4.919743E-1,-4.7279972E-1,-4.4456238E-1,-4.1717386E-1],"categories":[],"categories_nodes":[],"categories_segments":[],"categories_sizes":[],"default_left":[1,1,1,1,1,1,1,1,1,1,1,0,0,1,1,0,0,0,0,0,0,0,0,1,1,1,1,0,0,0,1,0,0,1,1,0,0,0,0,0,0],"id":48,"left_children":[1,3,5,7,9,11,13,15,17,19,21,-1,-1,23,25,-1,-1,-1,-1,-1,-1,-1,-1,27,29,31,33,-1,-1,-1,35,-1,-1,37,39,-1,-1,-1,-1,-1,-1],"loss_changes":[1.4277344E1,8.39209E0,9.696289E0,5.057373E0,3.300537E0,2.4707031E-1,1.050293E1,4.9414062E-1,3.2580566E-1,3.024292E-1,4.0039062E-2,0E0,0E0,4.6031494E0,9.022217E0,0E0,0E0,0E0,0E0,0E0,0E0,0E0,0E0,2.614746E-1,5.1260376E-1,2.7709961E-2,1.8567505E0,0E0,0E0,0E0,8.339691E-2,0E0,0E0,3.8330078E-2,4.6157837E-2,0E0,0E0,0E0,0E0,0E0,0E0],"parents":[2147483647,0,0,1,1,2,2,3,3,4,4,5,5,6,6,7,7,8,8,9,9,10,10,13,13,14,14,23,23,24,24,25,25,26,26,30,30,33,33,34,34],"right_children":[2,4,6,8,10,12,14,16,18,20,22,-1,-1,24,26,-1,-1,-1,-1,-1,-1,-1,-1,28,30,32,34,-1,-1,-1,36,-1,-1,38,40,-1,-1,-1,-1,-1,-1],"split_conditions":[-6.108398E-2,9.8900867E-1,8.001092E-2,-2.248434E-1,-1.6553223E-2,3.706035E-2,9.708564E-1,-2.6929012E-1,-1.3244775E-1,9.971608E-1,2.244192E-2,-4.9824685E-5,-4.836098E-5,2.6073438E-1,-6.4279005E-2,-6.558932E-5,-5.968566E-5,-5.5586992E-5,-5.2498573E-5,-5.4772907E-5,-5.1902178E-5,-4.9181377E-5,-4.697843E-5,1.5174821E-1,4.0233487E-1,-4.9242973E-1,1.0128322E-1,-4.6115798E-5,-4.319277E-5,-3.9412713E-5,8.992597E-1,-5.3135664E-5,-5.7331854E-5,4.1547153E-2,1.6020864E-1,-3.426996E-5,-3.913682E-5,-4.9197428E-5,-4.727997E-5,-4.4456236E-5,-4.1717387E-5],"split_indices":[1,6,1,1,10,1,6,11,1,6,10,0,0,1,10,0,0,0,0,0,0,0,0,1,1,0,10,0,0,0,6,0,0,10,10,0,0,0,0,0,0],"split_type":[0,0,0,0,0,0,0,0,0,0,0,0,0,0,0,0,0,0,0,0,0,0,0,0,0,0,0,0,0,0,0,0,0,0,0,0,0,0,0,0,0],"sum_hessian":[7.4571E4,1.0255E4,6.4316E4,4.608E3,5.647E3,5.5304E4,9.012E3,1.874E3,2.734E3,3.227E3,2.42E3,5.2895E4,2.409E3,3.53E3,5.482E3,2.92E2,1.582E3,1.035E3,1.699E3,1.041E3,2.186E3,8.52E2,1.568E3,2.171E3,1.359E3,1.237E3,4.245E3,1.162E3,1.009E3,6.69E2,6.9E2,2.45E2,9.92E2,2.971E3,1.274E3,5.89E2,1.01E2,1.325E3,1.646E3,7.34E2,5.4E2],"tree_param":{"num_deleted":"0","num_feature":"12","num_nodes":"41","size_leaf_vector":"0"}},{"base_weights":[-5.004063E-1,-4.653956E-1,-5.052362E-1,-4.2389306E-1,-4.9087477E-1,-5.621082E-1,-5.0237495E-1,-3.7856546E-1,-4.5269704E-1,-5.757733E-1,-4.677773E-1,-5.1106465E-1,-5.77283E-1,-5.008363E-1,-5.686619E-1,-4.5770267E-1,-3.7136757E-1,-4.3560535E-1,-4.6803457E-1,-5.97389E-1,-5.575E-1,-4.8623738E-1,-4.3056428E-1,-4.7362196E-1,-5.217477E-1,-5.931494E-1,-5.473976E-1,-5.0223005E-1,-4.2342925E-1,-5.250886E-1,-6.05867E-1,-3.587493E-1,-3.9295048E-1,-4.9999484E-1,-4.727332E-1,-4.4285867E-1,-4.041783E-1,-5.668424E-1,-6.076144E-1,-5.0180435E-1,-5.7221836E-1,-4.1705263E-1,-4.9832252E-1,-5.5096644E-1,-5.014556E-1,-6.3571846E-1,-5.663075E-1,-5.002745E-1,-5.1399326E-1,-5.422017E-1,-6.212151E-1,-4.2681685E-1,-3.9684716E-1],"categories":[],"categories_nodes":[],"categories_segments":[],"categories_sizes":[],"default_left":[1,1,1,1,1,1,1,1,1,1,1,1,1,1,1,0,1,0,0,0,0,1,1,0,0,1,0,1,1,1,1,0,0,0,0,0,0,0,0,1,1,1,0,0,0,0,0,0,0,0,0,0,0],"id":49,"left_children":[1,3,5,7,9,11,13,15,17,19,21,23,25,27,29,-1,31,-1,-1,-1,-1,33,35,-1,-1,37,-1,39,41,43,45,-1,-1,-1,-1,-1,-1,-1,-1,47,49,51,-1,-1,-1,-1,-1,-1,-1,-1,-1,-1,-1],"loss_changes":[1.2375E1,9.364868E0,1.0378906E1,4.3342285E0,1.07178955E1,2.1293335E0,6.078125E0,5.973053E-1,3.479309E-1,1.3861084E-1,2.8200684E0,4.3304443E-2,8.156738E-1,6.3671875E0,1.9644165E0,0E0,1.9673157E-1,0E0,0E0,0E0,0E0,3.0981445E-1,2.9821777E-1,0E0,0E0,2.487793E-1,0E0,1.4980469E0,3.103485E-1,1.24923706E-1,5.292053E-1,0E0,0E0,0E0,0E0,0E0,0E0,0E0,0E0,8.535156E-1,1.8527985E-1,2.909851E-2,0E0,0E0,0E0,0E0,0E0,0E0,0E0,0E0,0E0,0E0,0E0],"parents":[2147483647,0,0,1,1,2,2,3,3,4,4,5,5,6,6,7,7,8,8,9,9,10,10,11,11,12,12,13,13,14,14,16,16,21,21,22,22,25,25,27,27,28,28,29,29,30,30,39,39,40,40,41,41],"right_children":[2,4,6,8,10,12,14,16,18,20,22,24,26,28,30,-1,32,-1,-1,-1,-1,34,36,-1,-1,38,-1,40,42,44,46,-1,-1,-1,-1,-1,-1,-1,-1,48,50,52,-1,-1,-1,-1,-1,-1,-1,-1,-1,-1,-1],"split_conditions":[-8.252096E-2,9.602344E-1,-8.73606E-2,-2.9210365E-1,-7.329355E-2,1.3430564E-1,9.8144794E-1,-9.451685E-1,-1.604077E-1,9.8232436E-1,1.0142423E-1,-2.4245799E-1,9.8648536E-1,1.4132604E-1,2.1260393E-1,-4.5770266E-5,-4.0499732E-1,-4.3560533E-5,-4.6803456E-5,-5.9738897E-5,-5.575E-5,4.078313E-2,1.8580668E-1,-4.7362195E-5,-5.2174768E-5,3.383131E-1,-5.473976E-5,1.2042918E0,6.787739E-1,-5.3255296E-1,-5.4805535E-1,-3.5874928E-5,-3.9295046E-5,-4.9999482E-5,-4.727332E-5,-4.4285865E-5,-4.0417828E-5,-5.6684235E-5,-6.076144E-5,4.4187665E-2,3.6045557E-1,2.1741825E-1,-4.983225E-5,-5.5096643E-5,-5.0145558E-5,-6.3571846E-5,-5.6630746E-5,-5.0027447E-5,-5.1399325E-5,-5.4220167E-5,-6.212151E-5,-4.2681684E-5,-3.9684714E-5],"split_indices":[0,9,11,0,11,0,4,8,0,9,11,6,9,11,0,0,0,0,0,0,0,11,11,0,0,0,0,3,4,9,6,0,0,0,0,0,0,0,0,0,0,11,0,0,0,0,0,0,0,0,0,0,0],"split_type":[0,0,0,0,0,0,0,0,0,0,0,0,0,0,0,0,0,0,0,0,0,0,0,0,0,0,0,0,0,0,0,0,0,0,0,0,0,0,0,0,0,0,0,0,0,0,0,0,0,0,0,0,0],"sum_hessian":[7.4571E4,9.052E3,6.5519E4,3.45E3,5.602E3,3.129E3,6.239E4,1.346E3,2.104E3,1.193E3,4.409E3,7.25E2,2.404E3,6.0983E4,1.407E3,1.07E2,1.239E3,1.009E3,1.095E3,5.32E2,6.61E2,2.939E3,1.47E3,1.71E2,5.54E2,1.558E3,8.46E2,5.9899E4,1.084E3,6.55E2,7.52E2,7.93E2,4.46E2,1.438E3,1.501E3,9.92E2,4.78E2,5.67E2,9.91E2,5.9545E4,3.54E2,1.005E3,7.9E1,3.02E2,3.53E2,4.2E2,3.32E2,5.2942E4,6.603E3,2.27E2,1.27E2,6.64E2,3.41E2],"tree_param":{"num_deleted":"0","num_feature":"12","num_nodes":"53","size_leaf_vector":"0"}},{"base_weights":[-5.737525E-1,-5.5993366E-1,-5.7981896E-1,-5.6246924E-1,-5.2720964E-1,-5.8026147E-1,-5.1938367E-1,-5.318396E-1,-5.6531185E-1,-5.3266E-1,-4.8077098E-1,-5.251437E-1,-5.807248E-1,-5.0754505E-1,-5.3827995E-1,-5.6822324E-1,-5.533215E-1,-5.332801E-1,-5.809331E-1,-5.773132E-1,-5.642569E-1,-5.55051E-1,-5.04356E-1,-5.2932614E-1,-5.8071214E-1],"categories":[],"categories_nodes":[],"categories_segments":[],"categories_sizes":[],"default_left":[1,1,1,1,1,1,0,1,1,0,0,0,1,0,0,1,1,0,0,1,0,0,0,0,0],"id":50,"left_children":[1,3,5,7,9,11,-1,13,15,-1,-1,-1,17,-1,-1,19,21,-1,-1,23,-1,-1,-1,-1,-1],"loss_changes":[5.9277344E0,1.59375E0,1.0820312E0,1.5385742E0,1.6253662E-1,1.0097656E0,0E0,1.0131836E-2,3.6035156E-1,0E0,0E0,0E0,1.953125E-1,0E0,0E0,2.3291016E-1,4.272461E-2,0E0,0E0,4.5373535E-1,0E0,0E0,0E0,0E0,0E0],"parents":[2147483647,0,0,1,1,2,2,3,3,4,4,5,5,7,7,8,8,12,12,15,15,16,16,19,19],"right_children":[2,4,6,8,10,12,-1,14,16,-1,-1,-1,18,-1,-1,20,22,-1,-1,24,-1,-1,-1,-1,-1],"split_conditions":[1.6236827E0,2.0646694E-1,1.6388016E0,-1.9346109E-1,3.646562E-1,-1.6496922E0,-5.1938365E-5,-3.1571677E-1,1.6224828E-1,-5.3265998E-5,-4.8077098E-5,-5.2514366E-5,-1.7717364E0,-5.0754505E-5,-5.3827993E-5,8.2887626E-1,3.395126E-1,-5.3328007E-5,-5.809331E-5,-2.6934093E-1,-5.6425688E-5,-5.55051E-5,-5.0435603E-5,-5.2932613E-5,-5.807121E-5],"split_indices":[5,11,4,11,11,4,0,11,3,0,0,0,3,0,0,6,10,0,0,10,0,0,0,0,0],"split_type":[0,0,0,0,0,0,0,0,0,0,0,0,0,0,0,0,0,0,0,0,0,0,0,0,0],"sum_hessian":[7.4571E4,2.2778E4,5.1793E4,2.1125E4,1.653E3,5.1408E4,3.85E2,1.81E3,1.9315E4,1.47E3,1.83E2,4.38E2,5.097E4,3.96E2,1.414E3,1.5504E4,3.811E3,2.34E2,5.0736E4,4.666E3,1.0838E4,3.671E3,1.4E2,3.19E2,4.347E3],"tree_param":{"num_deleted":"0","num_feature":"12","num_nodes":"25","size_leaf_vector":"0"}},{"base_weights":[-4.996017E-1],"categories":[],"categories_nodes":[],"categories_segments":[],"categories_sizes":[],"default_left":[0],"id":51,"left_children":[-1],"loss_changes":[0E0],"parents":[2147483647],"right_children":[-1],"split_conditions":[-4.9960167E-5],"split_indices":[0],"split_type":[0],"sum_hessian":[7.4571E4],"tree_param":{"num_deleted":"0","num_feature":"12","num_nodes":"1","size_leaf_vector":"0"}},{"base_weights":[-4.9958962E-1],"categories":[],"categories_nodes":[],"categories_segments":[],"categories_sizes":[],"default_left":[0],"id":52,"left_children":[-1],"loss_changes":[0E0],"parents":[2147483647],"right_children":[-1],"split_conditions":[-4.9958962E-5],"split_indices":[0],"split_type":[0],"sum_hessian":[7.4571E4],"tree_param":{"num_deleted":"0","num_feature":"12","num_nodes":"1","size_leaf_vector":"0"}},{"base_weights":[-4.995933E-1],"categories":[],"categories_nodes":[],"categories_segments":[],"categories_sizes":[],"default_left":[0],"id":53,"left_children":[-1],"loss_changes":[0E0],"parents":[2147483647],"right_children":[-1],"split_conditions":[-4.9959326E-5],"split_indices":[0],"split_type":[0],"sum_hessian":[7.4571E4],"tree_param":{"num_deleted":"0","num_feature":"12","num_nodes":"1","size_leaf_vector":"0"}},{"base_weights":[-4.981377E-1,-5.330787E-1,-4.925583E-1,-5.6521964E-1,-5.067559E-1,-4.975661E-1,-4.6175116E-1,-6.0633975E-1,-5.368228E-1,-5.2839655E-1,-4.7769237E-1,-4.981953E-1,-4.8355433E-1,-4.1870704E-1,-4.893785E-1,-6.558278E-1,-5.9679693E-1,-5.5581445E-1,-5.249333E-1,-5.4767436E-1,-5.1896995E-1,-4.9176466E-1,-4.6973738E-1,-4.477047E-1,-3.721522E-1,-5.673866E-1,-4.6765414E-1,-4.6109316E-1,-4.3188456E-1,-3.940878E-1,-3.5034472E-1,-4.8203522E-1,-4.3324646E-1,-3.426654E-1,-3.9132947E-1,-4.9679822E-1,-4.7512844E-1,-4.4451797E-1,-4.171322E-1],"categories":[],"categories_nodes":[],"categories_segments":[],"categories_sizes":[],"default_left":[1,1,1,1,1,1,1,1,1,1,1,0,0,1,1,0,0,0,0,0,0,0,0,1,1,0,1,0,0,0,1,1,1,0,0,0,0,0,0],"id":54,"left_children":[1,3,5,7,9,11,13,15,17,19,21,-1,-1,23,25,-1,-1,-1,-1,-1,-1,-1,-1,27,29,-1,31,-1,-1,-1,33,35,37,-1,-1,-1,-1,-1,-1],"loss_changes":[1.4275391E1,8.390625E0,9.693359E0,5.0562744E0,3.2999268E0,2.4707031E-1,1.0506348E1,4.940796E-1,3.2574463E-1,3.024292E-1,4.0039062E-2,0E0,0E0,4.5960693E0,9.021484E0,0E0,0E0,0E0,0E0,0E0,0E0,0E0,0E0,2.6028442E-1,5.125122E-1,0E0,1.914856E0,0E0,0E0,0E0,8.338928E-2,7.171631E-2,4.6157837E-2,0E0,0E0,0E0,0E0,0E0,0E0],"parents":[2147483647,0,0,1,1,2,2,3,3,4,4,5,5,6,6,7,7,8,8,9,9,10,10,13,13,14,14,23,23,24,24,26,26,30,30,31,31,32,32],"right_children":[2,4,6,8,10,12,14,16,18,20,22,-1,-1,24,26,-1,-1,-1,-1,-1,-1,-1,-1,28,30,-1,32,-1,-1,-1,34,36,38,-1,-1,-1,-1,-1,-1],"split_conditions":[-6.108398E-2,9.8900867E-1,8.0224514E-2,-2.248434E-1,-1.6553223E-2,3.7077818E-2,9.708564E-1,-2.6929012E-1,-1.3244775E-1,9.971608E-1,2.244192E-2,-4.981953E-5,-4.8355432E-5,2.6073438E-1,-7.735881E-2,-6.558278E-5,-5.9679693E-5,-5.5581444E-5,-5.2493328E-5,-5.4767435E-5,-5.1896994E-5,-4.9176466E-5,-4.6973735E-5,1.5174821E-1,4.0233487E-1,-5.673866E-5,1.0128322E-1,-4.6109315E-5,-4.3188455E-5,-3.9408777E-5,8.992597E-1,3.3837035E-2,1.6020864E-1,-3.426654E-5,-3.9132945E-5,-4.967982E-5,-4.7512844E-5,-4.4451797E-5,-4.1713218E-5],"split_indices":[1,6,1,1,10,1,6,11,1,6,10,0,0,1,10,0,0,0,0,0,0,0,0,1,1,0,10,0,0,0,6,10,10,0,0,0,0,0,0],"split_type":[0,0,0,0,0,0,0,0,0,0,0,0,0,0,0,0,0,0,0,0,0,0,0,0,0,0,0,0,0,0,0,0,0,0,0,0,0,0,0],"sum_hessian":[7.4571E4,1.0255E4,6.4316E4,4.608E3,5.647E3,5.531E4,9.006E3,1.874E3,2.734E3,3.227E3,2.42E3,5.29E4,2.41E3,3.527E3,5.479E3,2.92E2,1.582E3,1.035E3,1.699E3,1.041E3,2.186E3,8.52E2,1.568E3,2.168E3,1.359E3,1.188E3,4.291E3,1.159E3,1.009E3,6.69E2,6.9E2,3.017E3,1.274E3,5.89E2,1.01E2,9.39E2,2.078E3,7.34E2,5.4E2],"tree_param":{"num_deleted":"0","num_feature":"12","num_nodes":"39","size_leaf_vector":"0"}},{"base_weights":[-5.003563E-1,-4.653491E-1,-5.0518566E-1,-4.2385074E-1,-4.908257E-1,-5.620324E-1,-5.023238E-1,-3.785277E-1,-4.5265183E-1,-5.7571584E-1,-4.6773058E-1,-5.110137E-1,-5.771871E-1,-5.0078523E-1,-5.6860524E-1,-4.576573E-1,-3.713305E-1,-4.355618E-1,-4.679878E-1,-5.973293E-1,-5.5744433E-1,-4.8618877E-1,-4.3052128E-1,-4.7357488E-1,-5.216956E-1,-5.930902E-1,-5.473049E-1,-5.0217885E-1,-4.2338702E-1,-5.250362E-1,-6.058066E-1,-3.5871348E-1,-3.9291126E-1,-4.9994487E-1,-4.7268596E-1,-4.4281444E-1,-4.0413797E-1,-5.667858E-1,-6.0755366E-1,-5.017532E-1,-5.721615E-1,-4.17011E-1,-4.982733E-1,-5.509115E-1,-5.014056E-1,-6.3565505E-1,-5.6625104E-1,-5.001949E-1,-5.137168E-1,-5.421477E-1,-6.211535E-1,-4.2677423E-1,-3.9680758E-1],"categories":[],"categories_nodes":[],"categories_segments":[],"categories_sizes":[],"default_left":[1,1,1,1,1,1,1,1,1,1,1,1,1,1,1,0,1,0,0,0,0,1,1,0,0,1,0,1,1,1,1,0,0,0,0,0,0,0,0,1,1,1,0,0,0,0,0,0,0,0,0,0,0],"id":55,"left_children":[1,3,5,7,9,11,13,15,17,19,21,23,25,27,29,-1,31,-1,-1,-1,-1,33,35,-1,-1,37,-1,39,41,43,45,-1,-1,-1,-1,-1,-1,-1,-1,47,49,51,-1,-1,-1,-1,-1,-1,-1,-1,-1,-1,-1],"loss_changes":[1.2373047E1,9.363037E0,1.0376953E1,4.333435E0,1.0715576E1,2.126648E0,6.0771484E0,5.971985E-1,3.4786987E-1,1.385498E-1,2.81958E0,4.3273926E-2,8.1921387E-1,6.3652344E0,1.9640503E0,0E0,1.9668579E-1,0E0,0E0,0E0,0E0,3.0981445E-1,2.9815674E-1,0E0,0E0,2.487793E-1,0E0,1.4970703E0,3.1027222E-1,1.2487793E-1,5.2911377E-1,0E0,0E0,0E0,0E0,0E0,0E0,0E0,0E0,8.535156E-1,1.8525696E-1,2.9083252E-2,0E0,0E0,0E0,0E0,0E0,0E0,0E0,0E0,0E0,0E0,0E0],"parents":[2147483647,0,0,1,1,2,2,3,3,4,4,5,5,6,6,7,7,8,8,9,9,10,10,11,11,12,12,13,13,14,14,16,16,21,21,22,22,25,25,27,27,28,28,29,29,30,30,39,39,40,40,41,41],"right_children":[2,4,6,8,10,12,14,16,18,20,22,24,26,28,30,-1,32,-1,-1,-1,-1,34,36,-1,-1,38,-1,40,42,44,46,-1,-1,-1,-1,-1,-1,-1,-1,48,50,52,-1,-1,-1,-1,-1,-1,-1,-1,-1,-1,-1],"split_conditions":[-8.252096E-2,9.602344E-1,-8.7352425E-2,-2.9210365E-1,-7.329355E-2,1.3430564E-1,9.8144794E-1,-9.451685E-1,-1.604077E-1,9.8232436E-1,1.0142423E-1,-2.4245799E-1,9.8648536E-1,1.4132604E-1,2.1260393E-1,-4.576573E-5,-4.0499732E-1,-4.3556178E-5,-4.679878E-5,-5.973293E-5,-5.5744433E-5,4.078313E-2,1.8580668E-1,-4.7357487E-5,-5.216956E-5,3.383131E-1,-5.473049E-5,1.2042918E0,6.787739E-1,-5.3255296E-1,-5.4805535E-1,-3.5871348E-5,-3.9291124E-5,-4.9994484E-5,-4.7268593E-5,-4.428144E-5,-4.0413797E-5,-5.667858E-5,-6.0755363E-5,4.0735222E-2,3.6045557E-1,2.1741825E-1,-4.982733E-5,-5.5091146E-5,-5.014056E-5,-6.35655E-5,-5.6625104E-5,-5.001949E-5,-5.137168E-5,-5.4214768E-5,-6.2115345E-5,-4.2677424E-5,-3.9680755E-5],"split_indices":[0,9,11,0,11,0,4,8,0,9,11,6,9,11,0,0,0,0,0,0,0,11,11,0,0,0,0,3,4,9,6,0,0,0,0,0,0,0,0,0,0,11,0,0,0,0,0,0,0,0,0,0,0],"split_type":[0,0,0,0,0,0,0,0,0,0,0,0,0,0,0,0,0,0,0,0,0,0,0,0,0,0,0,0,0,0,0,0,0,0,0,0,0,0,0,0,0,0,0,0,0,0,0,0,0,0,0,0,0],"sum_hessian":[7.4571E4,9.052E3,6.5519E4,3.45E3,5.602E3,3.131E3,6.2388E4,1.346E3,2.104E3,1.193E3,4.409E3,7.25E2,2.406E3,6.0981E4,1.407E3,1.07E2,1.239E3,1.009E3,1.095E3,5.32E2,6.61E2,2.939E3,1.47E3,1.71E2,5.54E2,1.558E3,8.48E2,5.9897E4,1.084E3,6.55E2,7.52E2,7.93E2,4.46E2,1.438E3,1.501E3,9.92E2,4.78E2,5.67E2,9.91E2,5.9543E4,3.54E2,1.005E3,7.9E1,3.02E2,3.53E2,4.2E2,3.32E2,5.2719E4,6.824E3,2.27E2,1.27E2,6.64E2,3.41E2],"tree_param":{"num_deleted":"0","num_feature":"12","num_nodes":"53","size_leaf_vector":"0"}},{"base_weights":[-5.736952E-1,-5.5987847E-1,-5.79761E-1,-5.624137E-1,-5.2715695E-1,-5.802041E-1,-5.194049E-1,-5.3180873E-1,-5.652573E-1,-5.326068E-1,-4.8072314E-1,-5.2502143E-1,-5.8066696E-1,-5.0749445E-1,-5.3824556E-1,-5.681521E-1,-5.532139E-1,-5.334101E-1,-5.808763E-1,-5.772554E-1,-5.641898E-1,-5.549559E-1,-5.0430596E-1,-5.292734E-1,-5.8065325E-1],"categories":[],"categories_nodes":[],"categories_segments":[],"categories_sizes":[],"default_left":[1,1,1,1,1,1,0,1,1,0,0,0,1,0,0,1,1,0,0,1,0,0,0,0,0],"id":56,"left_children":[1,3,5,7,9,11,-1,13,15,-1,-1,-1,17,-1,-1,19,21,-1,-1,23,-1,-1,-1,-1,-1],"loss_changes":[5.923828E0,1.5932617E0,1.0839844E0,1.5380859E0,1.625061E-1,1.0078125E0,0E0,1.0559082E-2,3.59375E-1,0E0,0E0,0E0,1.9726562E-1,0E0,0E0,2.34375E-1,4.2236328E-2,0E0,0E0,4.5373535E-1,0E0,0E0,0E0,0E0,0E0],"parents":[2147483647,0,0,1,1,2,2,3,3,4,4,5,5,7,7,8,8,12,12,15,15,16,16,19,19],"right_children":[2,4,6,8,10,12,-1,14,16,-1,-1,-1,18,-1,-1,20,22,-1,-1,24,-1,-1,-1,-1,-1],"split_conditions":[1.6237462E0,2.0646694E-1,1.6378306E0,-1.9306582E-1,3.646562E-1,-1.6509811E0,-5.1940486E-5,-3.1571677E-1,1.6529378E-1,-5.3260675E-5,-4.8072314E-5,-5.2502142E-5,-1.7644827E0,-5.0749444E-5,-5.3824555E-5,8.2887626E-1,3.395126E-1,-5.3341006E-5,-5.8087626E-5,-2.6934093E-1,-5.641898E-5,-5.5495588E-5,-5.0430594E-5,-5.292734E-5,-5.8065325E-5],"split_indices":[5,11,4,11,11,4,0,11,3,0,0,0,3,0,0,6,10,0,0,10,0,0,0,0,0],"split_type":[0,0,0,0,0,0,0,0,0,0,0,0,0,0,0,0,0,0,0,0,0,0,0,0,0],"sum_hessian":[7.4571E4,2.2779E4,5.1792E4,2.1126E4,1.653E3,5.1406E4,3.86E2,1.812E3,1.9314E4,1.47E3,1.83E2,4.37E2,5.0969E4,3.96E2,1.416E3,1.5534E4,3.78E3,2.36E2,5.0733E4,4.667E3,1.0867E4,3.64E3,1.4E2,3.19E2,4.348E3],"tree_param":{"num_deleted":"0","num_feature":"12","num_nodes":"25","size_leaf_vector":"0"}},{"base_weights":[-4.9955174E-1],"categories":[],"categories_nodes":[],"categories_segments":[],"categories_sizes":[],"default_left":[0],"id":57,"left_children":[-1],"loss_changes":[0E0],"parents":[2147483647],"right_children":[-1],"split_conditions":[-4.995517E-5],"split_indices":[0],"split_type":[0],"sum_hessian":[7.4571E4],"tree_param":{"num_deleted":"0","num_feature":"12","num_nodes":"1","size_leaf_vector":"0"}},{"base_weights":[-4.9953967E-1],"categories":[],"categories_nodes":[],"categories_segments":[],"categories_sizes":[],"default_left":[0],"id":58,"left_children":[-1],"loss_changes":[0E0],"parents":[2147483647],"right_children":[-1],"split_conditions":[-4.9953967E-5],"split_indices":[0],"split_type":[0],"sum_hessian":[7.4571E4],"tree_param":{"num_deleted":"0","num_feature":"12","num_nodes":"1","size_leaf_vector":"0"}},{"base_weights":[-4.9954334E-1],"categories":[],"categories_nodes":[],"categories_segments":[],"categories_sizes":[],"default_left":[0],"id":59,"left_children":[-1],"loss_changes":[0E0],"parents":[2147483647],"right_children":[-1],"split_conditions":[-4.995433E-5],"split_indices":[0],"split_type":[0],"sum_hessian":[7.4571E4],"tree_param":{"num_deleted":"0","num_feature":"12","num_nodes":"1","size_leaf_vector":"0"}},{"base_weights":[-4.980879E-1,-5.330254E-1,-4.9250904E-1,-5.651632E-1,-5.067052E-1,-4.9751684E-1,-4.617059E-1,-6.062792E-1,-5.3676915E-1,-5.2834374E-1,-4.7764462E-1,-4.9814558E-1,-4.8351538E-1,-4.186796E-1,-4.893296E-1,-6.5576243E-1,-5.9673727E-1,-5.557589E-1,-5.248808E-1,-5.4761964E-1,-5.189181E-1,-4.9171555E-1,-4.6969044E-1,-4.4766995E-1,-3.7211508E-1,-5.653306E-1,-4.6703914E-1,-4.6105424E-1,-4.3184143E-1,-3.9404845E-1,-3.503098E-1,-5.312486E-1,-5.732046E-1,-4.8141223E-1,-4.332032E-1,-3.426312E-1,-3.9129072E-1,-4.91888E-1,-4.72705E-1,-4.4447356E-1,-4.1709056E-1],"categories":[],"categories_nodes":[],"categories_segments":[],"categories_sizes":[],"default_left":[1,1,1,1,1,1,1,1,1,1,1,0,0,1,1,0,0,0,0,0,0,0,0,1,1,1,1,0,0,0,1,0,0,1,1,0,0,0,0,0,0],"id":60,"left_children":[1,3,5,7,9,11,13,15,17,19,21,-1,-1,23,25,-1,-1,-1,-1,-1,-1,-1,-1,27,29,31,33,-1,-1,-1,35,-1,-1,37,39,-1,-1,-1,-1,-1,-1],"loss_changes":[1.4271484E1,8.388916E0,9.692383E0,5.055298E0,3.2991943E0,2.4707031E-1,1.0501587E1,4.9395752E-1,3.2580566E-1,3.0230713E-1,3.9978027E-2,0E0,0E0,4.59729E0,9.019653E0,0E0,0E0,0E0,0E0,0E0,0E0,0E0,0E0,2.605896E-1,5.124054E-1,2.7709961E-2,1.8549805E0,0E0,0E0,0E0,8.337402E-2,0E0,0E0,3.8330078E-2,4.6142578E-2,0E0,0E0,0E0,0E0,0E0,0E0],"parents":[2147483647,0,0,1,1,2,2,3,3,4,4,5,5,6,6,7,7,8,8,9,9,10,10,13,13,14,14,23,23,24,24,25,25,26,26,30,30,33,33,34,34],"right_children":[2,4,6,8,10,12,14,16,18,20,22,-1,-1,24,26,-1,-1,-1,-1,-1,-1,-1,-1,28,30,32,34,-1,-1,-1,36,-1,-1,38,40,-1,-1,-1,-1,-1,-1],"split_conditions":[-6.108398E-2,9.8900867E-1,8.016862E-2,-2.248434E-1,-1.6553223E-2,3.7076704E-2,9.708564E-1,-2.6929012E-1,-1.3244775E-1,9.971608E-1,2.244192E-2,-4.9814556E-5,-4.8351536E-5,2.6073438E-1,-6.4279005E-2,-6.557624E-5,-5.9673726E-5,-5.557589E-5,-5.248808E-5,-5.4761964E-5,-5.189181E-5,-4.9171555E-5,-4.6969042E-5,1.5174821E-1,4.0233487E-1,-4.9242973E-1,1.0128322E-1,-4.6105422E-5,-4.3184144E-5,-3.9404844E-5,8.992597E-1,-5.3124862E-5,-5.7320456E-5,4.1547153E-2,1.6020864E-1,-3.4263117E-5,-3.912907E-5,-4.91888E-5,-4.72705E-5,-4.4447355E-5,-4.1709056E-5],"split_indices":[1,6,1,1,10,1,6,11,1,6,10,0,0,1,10,0,0,0,0,0,0,0,0,1,1,0,10,0,0,0,6,0,0,10,10,0,0,0,0,0,0],"split_type":[0,0,0,0,0,0,0,0,0,0,0,0,0,0,0,0,0,0,0,0,0,0,0,0,0,0,0,0,0,0,0,0,0,0,0,0,0,0,0,0,0],"sum_hessian":[7.4571E4,1.0255E4,6.4316E4,4.608E3,5.647E3,5.5309E4,9.007E3,1.874E3,2.734E3,3.227E3,2.42E3,5.2899E4,2.41E3,3.528E3,5.479E3,2.92E2,1.582E3,1.035E3,1.699E3,1.041E3,2.186E3,8.52E2,1.568E3,2.169E3,1.359E3,1.237E3,4.242E3,1.16E3,1.009E3,6.69E2,6.9E2,2.45E2,