{"learner":{"attributes":{"best_iteration":"99","best_ntree_limit":"100","scikit_learn":"{\"n_estimators\": 100, \"objective\": \"reg:squarederror\", \"max_depth\": null, \"max_leaves\": null, \"max_bin\": null, \"grow_policy\": null, \"learning_rate\": null, \"verbosity\": null, \"booster\": null, \"tree_method\": null, \"gamma\": null, \"min_child_weight\": null, \"max_delta_step\": null, \"subsample\": null, \"sampling_method\": null, \"colsample_bytree\": null, \"colsample_bylevel\": null, \"colsample_bynode\": null, \"reg_alpha\": null, \"reg_lambda\": null, \"scale_pos_weight\": null, \"base_score\": null, \"missing\": NaN, \"num_parallel_tree\": null, \"random_state\": null, \"n_jobs\": null, \"monotone_constraints\": null, \"interaction_constraints\": null, \"importance_type\": null, \"gpu_id\": null, \"validate_parameters\": null, \"predictor\": null, \"enable_categorical\": false, \"feature_types\": null, \"max_cat_to_onehot\": null, \"max_cat_threshold\": null, \"eval_metric\": null, \"early_stopping_rounds\": null, \"callbacks\": null, \"evals_result_\": {\"validation_0\": {\"rmse\": [0.37750740222217427, 0.2691580199723791, 0.1951157115517599, 0.14559758410537327, 0.11358309841575781, 0.0939694802320762, 0.08260224408890793, 0.07629258110509075, 0.07290679228635372, 0.07108846446421159, 0.0700977700957999, 0.06958277998084005, 0.06927902079325408, 0.0691020392681689, 0.06896924768368348, 0.06887721474784644, 0.06875357376266411, 0.06870005721051753, 0.06860430222991729, 0.0685254374997487, 0.06846662395616289, 0.06841341642354155, 0.06835264930763654, 0.06830781424861064, 0.06827400159319587, 0.06816170104672216, 0.06809062158247861, 0.06791008178601236, 0.06786032153039911, 0.06782549843346942, 0.06764748041346637, 0.06757800150365745, 0.06745751381238262, 0.06737350467455075, 0.0673511950744641, 0.06719887794684296, 0.06708855145788743, 0.06700520936574882, 0.06690399391948584, 0.06684328863016863, 0.06680163874985072, 0.0667037938531342, 0.06660411313536853, 0.06654895001154815, 0.06646498021421444, 0.06640087937436243, 0.0663089829220327, 0.06625982962888263, 0.06620155474325276, 0.0661610288277386, 0.06613128806418919, 0.06604471345532843, 0.06596206723129294, 0.065900694163682, 0.06581438341267946, 0.06578651660263984, 0.06567306955451278, 0.06558375229244158, 0.06549368099057234, 0.06545047786264571, 0.06533062164404192, 0.06531720048768565, 0.06526651096563246, 0.06513764312060429, 0.06504998129512664, 0.06487297366256804, 0.06481682102396684, 0.06468992042598797, 0.06456010475192053, 0.06441400568716096, 0.06440591570366272, 0.06435128312255825, 0.06424648567660786, 0.06414783410505939, 0.06407268023751098, 0.06396755098935954, 0.06388918106637542, 0.06378872254992761, 0.06370807886325927, 0.06360005600016776, 0.06354323060145145, 0.06349805509929851, 0.06342786546583451, 0.06338080294092358, 0.06336704440284617, 0.06334844480756957, 0.06327141233965608, 0.06321355723062377, 0.06319235304067805, 0.06314644151086636, 0.06311960909667814, 0.0631005691630268, 0.06307055602783918, 0.06296220895303958, 0.06288327623304922, 0.06282226369000729, 0.06279925057927356, 0.06273571230769592, 0.06269459337824708, 0.06266879666751989]}, \"validation_1\": {\"rmse\": [0.3712367159944167, 0.26378033553058433, 0.18943530215144716, 0.1395712864563219, 0.10659618937852584, 0.08679054705233395, 0.074541501950457, 0.06753821834621547, 0.06393040799865737, 0.06193090888743621, 0.06087731253728111, 0.06055732809751233, 0.0601058227955096, 0.05971173005212283, 0.05964868846187339, 0.05951450103178225, 0.05948581272388423, 0.05937388985507762, 0.05929104675319914, 0.05915745602777208, 0.05927395509121325, 0.05935088534753639, 0.05925681966241484, 0.05926770384408454, 0.05932681319292565, 0.05957133382733537, 0.05979576722846734, 0.05992157379587697, 0.05982472166716967, 0.05983695447751198, 0.05991462462453106, 0.06011798096137881, 0.06007153186873084, 0.05996076841756668, 0.0599433098587426, 0.05998938641962311, 0.06017378639453637, 0.05997871611033066, 0.05993309342059865, 0.05996448463317552, 0.0599177665418742, 0.05992739416753787, 0.05998458902116167, 0.05995824180357574, 0.06007928402688776, 0.06014706324701312, 0.06012101106220831, 0.06012019853057896, 0.06001202293810172, 0.06002557881050966, 0.05995266110518778, 0.0602489399901099, 0.06022128264968667, 0.06019876881809678, 0.06019794188857222, 0.06026493509100334, 0.06027483244085797, 0.06020982839689568, 0.06043354680442491, 0.06047616678704588, 0.06042042515680895, 0.06047751900994096, 0.06052966814547987, 0.06052375385617088, 0.06048928439586119, 0.06042563673366634, 0.06046096841873103, 0.06042375602180262, 0.06038859180305187, 0.06039343110188613, 0.06030184260730755, 0.06048824250128311, 0.06047935701774363, 0.06047694914116863, 0.06047925269051357, 0.06046324562269741, 0.06054214436615174, 0.06054654404958863, 0.06053854412653915, 0.06051972747775048, 0.06056536410200846, 0.0605688474731224, 0.06056370270737267, 0.06056557689263534, 0.06057041982794947, 0.06061623726716832, 0.06063083749304094, 0.06062661814482943, 0.06088291783294155, 0.06088862335616653, 0.06095188451158961, 0.06097735208487733, 0.06099086166082295, 0.06096841789258674, 0.06110052882511082, 0.06111211569821571, 0.06114703048989215, 0.06118043354754507, 0.06119648374654937, 0.06121953445437169]}}, \"_estimator_type\": \"regressor\"}"},"feature_names":["Vel X","Vel Y","Vel Z","Gyr X","Gyr Y","Gyr Z"],"feature_types":["float","float","float","float","float","float"],"gradient_booster":{"model":{"gbtree_model_param":{"num_parallel_tree":"1","num_trees":"600","size_leaf_vector":"0"},"tree_info":[0,1,2,3,4,5,0,1,2,3,4,5,0,1,2,3,4,5,0,1,2,3,4,5,0,1,2,3,4,5,0,1,2,3,4,5,0,1,2,3,4,5,0,1,2,3,4,5,0,1,2,3,4,5,0,1,2,3,4,5,0,1,2,3,4,5,0,1,2,3,4,5,0,1,2,3,4,5,0,1,2,3,4,5,0,1,2,3,4,5,0,1,2,3,4,5,0,1,2,3,4,5,0,1,2,3,4,5,0,1,2,3,4,5,0,1,2,3,4,5,0,1,2,3,4,5,0,1,2,3,4,5,0,1,2,3,4,5,0,1,2,3,4,5,0,1,2,3,4,5,0,1,2,3,4,5,0,1,2,3,4,5,0,1,2,3,4,5,0,1,2,3,4,5,0,1,2,3,4,5,0,1,2,3,4,5,0,1,2,3,4,5,0,1,2,3,4,5,0,1,2,3,4,5,0,1,2,3,4,5,0,1,2,3,4,5,0,1,2,3,4,5,0,1,2,3,4,5,0,1,2,3,4,5,0,1,2,3,4,5,0,1,2,3,4,5,0,1,2,3,4,5,0,1,2,3,4,5,0,1,2,3,4,5,0,1,2,3,4,5,0,1,2,3,4,5,0,1,2,3,4,5,0,1,2,3,4,5,0,1,2,3,4,5,0,1,2,3,4,5,0,1,2,3,4,5,0,1,2,3,4,5,0,1,2,3,4,5,0,1,2,3,4,5,0,1,2,3,4,5,0,1,2,3,4,5,0,1,2,3,4,5,0,1,2,3,4,5,0,1,2,3,4,5,0,1,2,3,4,5,0,1,2,3,4,5,0,1,2,3,4,5,0,1,2,3,4,5,0,1,2,3,4,5,0,1,2,3,4,5,0,1,2,3,4,5,0,1,2,3,4,5,0,1,2,3,4,5,0,1,2,3,4,5,0,1,2,3,4,5,0,1,2,3,4,5,0,1,2,3,4,5,0,1,2,3,4,5,0,1,2,3,4,5,0,1,2,3,4,5,0,1,2,3,4,5,0,1,2,3,4,5,0,1,2,3,4,5,0,1,2,3,4,5,0,1,2,3,4,5,0,1,2,3,4,5,0,1,2,3,4,5,0,1,2,3,4,5,0,1,2,3,4,5,0,1,2,3,4,5,0,1,2,3,4,5,0,1,2,3,4,5,0,1,2,3,4,5,0,1,2,3,4,5,0,1,2,3,4,5,0,1,2,3,4,5,0,1,2,3,4,5,0,1,2,3,4,5,0,1,2,3,4,5,0,1,2,3,4,5,0,1,2,3,4,5,0,1,2,3,4,5,0,1,2,3,4,5,0,1,2,3,4,5,0,1,2,3,4,5],"trees":[{"base_weights":[-4.990781E-1,-5.1161855E-1,-4.9482518E-1,-5.0351715E-1,-5.5093634E-1,-4.1864118E-1,-4.9599853E-1,-5.845326E-1,-5.0292987E-1,-6.144622E-1,-5.286268E-1,-4.4724834E-1,-3.530587E-1,-4.9681067E-1,-4.291466E-1,-5.49608E-1,-6.427127E-1,-4.9945998E-1,-5.135513E-1,-6.392606E-1,-5.948523E-1,-5.5332106E-1,-5.169112E-1,-4.7156197E-1,-4.2880622E-1,-3.125034E-1,-3.6620903E-1,-4.0643337E-1,-4.972218E-1,-4.6149203E-1,-3.735429E-1,-4.850421E-1,-5.0135154E-1,-5.128372E-1,-6.0867196E-1,-4.7227988E-1,-5.1869714E-1,-4.21328E-1,-4.786122E-1,-4.3333837E-1,-3.7221602E-1,-4.7471195E-1,-3.7768364E-1,-4.9758157E-1,-4.5429683E-1,-4.8364085E-1,-4.3431762E-1,-3.9259744E-1,-3.4723806E-1,-4.8718947E-1,-4.3595636E-1,-6.1848235E-1,-5.0107926E-1,-5.442772E-1,-5.1123863E-1,-3.9625916E-1,-3.4298453E-1,-4.8737708E-1,-4.9843815E-1,-4.806528E-1,-4.1514945E-1],"categories":[],"categories_nodes":[],"categories_segments":[],"categories_sizes":[],"default_left":[1,1,1,1,1,1,1,1,1,1,1,1,1,1,1,0,0,1,1,0,0,0,1,1,1,0,0,1,1,1,1,1,1,1,0,0,0,0,0,0,0,0,1,1,1,0,0,0,0,0,0,0,0,0,0,0,0,0,0,0,0],"id":0,"left_children":[1,3,5,7,9,11,13,15,17,19,21,23,25,27,29,-1,-1,31,33,-1,-1,-1,35,37,39,-1,-1,41,43,45,47,49,51,53,-1,-1,-1,-1,-1,-1,-1,-1,55,57,59,-1,-1,-1,-1,-1,-1,-1,-1,-1,-1,-1,-1,-1,-1,-1,-1],"loss_changes":[8.8984375E0,1.3551758E1,1.1244141E1,1.4189453E0,1.0172607E1,3.5005798E0,6.640625E0,1.608429E-1,1.0615234E0,5.529785E-1,1.3018799E0,4.0490723E-1,2.0394135E-1,4.4296875E0,2.564972E0,0E0,0E0,4.9267578E-1,2.836914E-1,0E0,0E0,0E0,5.303955E-2,1.6403198E-3,3.9001465E-2,0E0,0E0,9.396057E-1,1.6894531E0,3.6654663E-1,1.4687347E-1,1.2084961E-1,4.4921875E-1,1.5942383E-1,0E0,0E0,0E0,0E0,0E0,0E0,0E0,0E0,1.257782E-1,8.339844E-1,8.7657166E-1,0E0,0E0,0E0,0E0,0E0,0E0,0E0,0E0,0E0,0E0,0E0,0E0,0E0,0E0,0E0,0E0],"parents":[2147483647,0,0,1,1,2,2,3,3,4,4,5,5,6,6,7,7,8,8,9,9,10,10,11,11,12,12,13,13,14,14,17,17,18,18,22,22,23,23,24,24,27,27,28,28,29,29,30,30,31,31,32,32,33,33,42,42,43,43,44,44],"right_children":[2,4,6,8,10,12,14,16,18,20,22,24,26,28,30,-1,-1,32,34,-1,-1,-1,36,38,40,-1,-1,42,44,46,48,50,52,54,-1,-1,-1,-1,-1,-1,-1,-1,56,58,60,-1,-1,-1,-1,-1,-1,-1,-1,-1,-1,-1,-1,-1,-1,-1,-1],"split_conditions":[-3.642203E-2,3.2248068E-1,-8.1976604E-1,-1.3428092E0,-2.2774935E-1,3.24066E-1,8.883758E-1,1.2220055E-1,1.8496138E-1,-3.8469714E-1,-1.15657434E-1,1.2513418E-1,1.0206928E0,-1.3473458E0,2.5079596E-1,-1.648824E-1,-1.9281383E-1,-4.1971245E-1,6.6942954E-1,-1.9177818E-1,-1.7845571E-1,-1.6599633E-1,-3.8752817E-2,1.583952E-2,7.756636E-2,-9.375102E-2,-1.09862715E-1,1.5616685E-1,8.06584E-1,1.5860134E-1,4.1141242E-1,1.253555E-1,-5.589832E-1,-6.338279E-1,-1.826016E-1,-1.4168397E-1,-1.5560915E-1,-1.2639841E-1,-1.4358367E-1,-1.3000152E-1,-1.1166481E-1,-1.4241359E-1,3.7666777E-1,-1.8069667E-1,2.2402936E-1,-1.4509226E-1,-1.3029529E-1,-1.1777923E-1,-1.04171425E-1,-1.4615685E-1,-1.3078691E-1,-1.8554471E-1,-1.5032378E-1,-1.6328317E-1,-1.533716E-1,-1.1887775E-1,-1.02895364E-1,-1.4621313E-1,-1.4953145E-1,-1.4419585E-1,-1.2454484E-1],"split_indices":[1,5,3,4,1,1,4,2,0,1,1,1,5,4,1,0,0,0,3,0,0,0,2,5,2,0,0,1,3,1,1,5,4,1,0,0,0,0,0,0,0,0,1,0,1,0,0,0,0,0,0,0,0,0,0,0,0,0,0,0,0],"split_type":[0,0,0,0,0,0,0,0,0,0,0,0,0,0,0,0,0,0,0,0,0,0,0,0,0,0,0,0,0,0,0,0,0,0,0,0,0,0,0,0,0,0,0,0,0,0,0,0,0,0,0,0,0,0,0,0,0,0,0,0,0],"sum_hessian":[1.71555E5,4.3416E4,1.28139E5,3.601E4,7.406E3,1.949E3,1.2619E5,2.52E2,3.5758E4,1.918E3,5.488E3,1.353E3,5.96E2,1.24669E5,1.521E3,1.64E2,8.8E1,2.6989E4,8.769E3,8.33E2,1.085E3,1.751E3,3.737E3,5.73E2,7.8E2,1.52E2,4.44E2,5.69E2,1.241E5,9.57E2,5.64E2,3.16E3,2.3829E4,8.71E3,5.9E1,1.54E2,3.583E3,7.8E1,4.95E2,7.16E2,6.4E1,1.64E2,4.05E2,1.23058E5,1.042E3,5.18E2,4.39E2,3.19E2,2.45E2,3.019E3,1.41E2,5E1,2.3779E4,4.05E2,8.305E3,2.57E2,1.48E2,9.574E3,1.13484E5,6.16E2,4.26E2],"tree_param":{"num_deleted":"0","num_feature":"6","num_nodes":"61","size_leaf_vector":"0"}},{"base_weights":[-5.0058055E-1,-4.8247907E-1,-5.027288E-1,-4.9506927E-1,-3.9295948E-1,-5.019636E-1,-5.621228E-1,-4.5947012E-1,-5.019207E-1,-3.6065376E-1,-4.1743165E-1,-5.016483E-1,-6.133111E-1,-5.0468814E-1,-5.987046E-1,-4.233088E-1,-4.7695354E-1,-4.9471244E-1,-5.1935637E-1,-3.1856102E-1,-3.6730582E-1,-3.9930156E-1,-4.261216E-1,-5.51876E-1,-5.01184E-1,-4.507929E-1,-6.384149E-1,-4.7023037E-1,-5.2753395E-1,-5.7655674E-1,-6.329005E-1,-3.3691978E-1,-4.2861092E-1,-3.970367E-1,-4.8447257E-1,-5.073672E-1,-4.8607618E-1,-5.1337546E-1,-5.520551E-1,-3.7120357E-1,-3.227035E-1,-4.8703256E-1,-5.8519554E-1,-5.00456E-1,-5.185865E-1,-6.5009856E-1,-5.457805E-1,-4.030916E-1,-4.4995895E-1,-4.7489044E-1,-5.05395E-1,-5.747399E-1,-5.026791E-1,-3.8571697E-1,-4.8735365E-1,-5.722886E-1,-5.102181E-1,-5.2071375E-1,-5.7914805E-1,-4.565967E-1,-5.0574553E-1,-5.613686E-1,-6.180909E-1,-4.9060825E-1,-5.0142366E-1,-5.2355903E-1,-4.843697E-1],"categories":[],"categories_nodes":[],"categories_segments":[],"categories_sizes":[],"default_left":[1,1,1,1,1,1,1,1,1,1,1,1,1,1,1,1,1,1,1,0,1,0,0,1,1,0,1,0,0,0,0,0,1,0,1,1,1,1,1,0,0,1,1,1,1,0,0,0,0,0,0,0,0,0,0,0,0,0,0,0,0,0,0,0,0,0,0],"id":1,"left_children":[1,3,5,7,9,11,13,15,17,19,21,23,25,27,29,31,33,35,37,-1,39,-1,-1,41,43,-1,45,-1,-1,-1,-1,-1,47,-1,49,51,53,55,57,-1,-1,59,61,63,65,-1,-1,-1,-1,-1,-1,-1,-1,-1,-1,-1,-1,-1,-1,-1,-1,-1,-1,-1,-1,-1,-1],"loss_changes":[6.4335938E0,2.0346191E1,6.6875E0,3.6655273E0,1.6299133E0,5.0078125E0,3.7781372E0,1.4355469E0,1.4255371E0,1.5682983E-1,3.0715942E-2,3.2460938E0,1.4379883E0,3.5180664E-1,5.29541E-1,2.4630737E-1,8.5202026E-1,7.907715E-1,4.7827148E-1,0E0,2.5894165E-2,0E0,0E0,2.681427E0,1.6367188E0,0E0,3.9138794E-2,0E0,0E0,0E0,0E0,0E0,2.544403E-1,0E0,7.7545166E-2,9.1973877E-1,5.38208E-1,3.232422E-1,1.9856262E-1,0E0,0E0,3.7895203E-2,3.6001587E-1,1.125E0,7.635498E-1,0E0,0E0,0E0,0E0,0E0,0E0,0E0,0E0,0E0,0E0,0E0,0E0,0E0,0E0,0E0,0E0,0E0,0E0,0E0,0E0,0E0,0E0],"parents":[2147483647,0,0,1,1,2,2,3,3,4,4,5,5,6,6,7,7,8,8,9,9,10,10,11,11,12,12,13,13,14,14,15,15,16,16,17,17,18,18,20,20,23,23,24,24,26,26,32,32,34,34,35,35,36,36,37,37,38,38,41,41,42,42,43,43,44,44],"right_children":[2,4,6,8,10,12,14,16,18,20,22,24,26,28,30,32,34,36,38,-1,40,-1,-1,42,44,-1,46,-1,-1,-1,-1,-1,48,-1,50,52,54,56,58,-1,-1,60,62,64,66,-1,-1,-1,-1,-1,-1,-1,-1,-1,-1,-1,-1,-1,-1,-1,-1,-1,-1,-1,-1,-1,-1],"split_conditions":[-2.1161264E-1,5.547267E-1,1.1265242E0,-4.689847E-2,-3.655047E-1,2.1969113E0,1.410378E-1,-6.2012863E-1,1.7812064E-1,-6.134135E-1,-2.9316336E-1,-1.2237706E0,1.20827444E-1,-5.50419E-2,4.0086067E-1,-1.2366139E0,-9.7368664E-1,-1.6310636E-2,2.966308E-1,-9.556831E-2,2.7004418E0,-1.1979047E-1,-1.2783648E-1,1.0667128E-1,3.6307865E-1,-1.3523787E-1,4.2049897E-1,-1.4106911E-1,-1.582602E-1,-1.7296703E-1,-1.8987015E-1,-1.0107594E-1,-8.28398E-1,-1.1911102E-1,1.4477187E-1,-9.229759E-1,-1.1238796E0,-6.4625907E-1,1.4395529E-2,-1.1136108E-1,-9.6811056E-2,-9.0278596E-2,3.52272E-1,-2.2820154E-1,1.113202E-1,-1.9502957E-1,-1.6373415E-1,-1.2092749E-1,-1.349877E-1,-1.4246714E-1,-1.5161851E-1,-1.7242196E-1,-1.5080374E-1,-1.15715094E-1,-1.462061E-1,-1.7168657E-1,-1.5306543E-1,-1.5621413E-1,-1.7374443E-1,-1.3697901E-1,-1.5172367E-1,-1.6841058E-1,-1.8542728E-1,-1.4718248E-1,-1.504271E-1,-1.5706772E-1,-1.4531091E-1],"split_indices":[0,5,3,5,0,4,0,0,1,0,0,3,0,0,0,3,3,2,4,0,4,0,0,0,1,0,1,0,0,0,0,0,0,0,2,0,3,0,5,0,0,0,0,1,5,0,0,0,0,0,0,0,0,0,0,0,0,0,0,0,0,0,0,0,0,0,0],"split_type":[0,0,0,0,0,0,0,0,0,0,0,0,0,0,0,0,0,0,0,0,0,0,0,0,0,0,0,0,0,0,0,0,0,0,0,0,0,0,0,0,0,0,0,0,0,0,0,0,0,0,0,0,0,0,0,0,0,0,0,0,0,0,0,0,0,0,0],"sum_hessian":[1.71555E5,1.8224E4,1.53331E5,1.5973E4,2.251E3,1.5139E5,1.941E3,2.589E3,1.3384E4,9.77E2,1.274E3,1.50968E5,4.22E2,7.61E2,1.18E3,8.52E2,1.737E3,9.49E3,3.894E3,1.4E2,8.37E2,4.28E2,8.46E2,1.372E3,1.49596E5,5.9E1,3.63E2,3.12E2,4.49E2,7.27E2,4.53E2,5.3E1,7.99E2,1.54E2,1.583E3,3.826E3,5.664E3,3.306E3,5.88E2,7.63E2,7.4E1,4.71E2,9.01E2,1.43618E5,5.978E3,3.17E2,4.6E1,3.73E2,4.26E2,1.102E3,4.81E2,2.41E2,3.585E3,7.5E1,5.589E3,1.59E2,3.147E3,2.82E2,3.06E2,1.89E2,2.82E2,5.33E2,3.68E2,1.2895E4,1.30723E5,5.207E3,7.71E2],"tree_param":{"num_deleted":"0","num_feature":"6","num_nodes":"67","size_leaf_vector":"0"}},{"base_weights":[-5.735197E-1,-5.6882286E-1,-5.812484E-1,-5.6952065E-1,-5.2093595E-1,-5.814689E-1,-5.176577E-1,-5.185245E-1,-5.7003766E-1,-5.323924E-1,-4.959272E-1,-5.258263E-1,-5.816362E-1,-5.310817E-1,-5.7034737E-1,-5.717174E-1,-5.6086373E-1,-5.706558E-1,-5.809858E-1,-5.626122E-1,-5.2891326E-1],"categories":[],"categories_nodes":[],"categories_segments":[],"categories_sizes":[],"default_left":[1,1,1,1,1,1,0,0,1,0,0,0,0,0,1,1,1,0,0,0,0],"id":2,"left_children":[1,3,5,7,9,11,-1,-1,13,-1,-1,-1,-1,-1,15,17,19,-1,-1,-1,-1],"loss_changes":[5.9023438E0,3.2695312E0,6.074219E-1,2.4804688E0,1.7861938E-1,2.9492188E-1,0E0,0E0,9.53125E-1,0E0,0E0,0E0,0E0,0E0,1.0234375E0,5.566406E-1,4.3408203E-1,0E0,0E0,0E0,0E0],"parents":[2147483647,0,0,1,1,2,2,3,3,4,4,5,5,8,8,14,14,15,15,16,16],"right_children":[2,4,6,8,10,12,-1,-1,14,-1,-1,-1,-1,-1,16,18,20,-1,-1,-1,-1],"split_conditions":[1.8545253E0,1.36926E0,1.7228239E0,-1.7589501E0,2.4335794E0,-1.6415374E0,-1.5529731E-1,-1.5555736E-1,-1.7820823E0,-1.5971772E-1,-1.4877817E-1,-1.577479E-1,-1.7449087E-1,-1.5932451E-1,1.8149182E-1,4.872187E-1,2.0395195E0,-1.7119676E-1,-1.7429574E-1,-1.6878366E-1,-1.5867399E-1],"split_indices":[5,4,4,4,4,4,0,0,3,0,0,0,0,0,3,5,3,0,0,0,0],"split_type":[0,0,0,0,0,0,0,0,0,0,0,0,0,0,0,0,0,0,0,0,0],"sum_hessian":[1.71555E5,1.06754E5,6.4801E4,1.0521E5,1.544E3,6.4569E4,2.32E2,1.066E3,1.04144E5,1.045E3,4.99E2,2.03E2,6.4366E4,8.35E2,1.03309E5,9.0217E4,1.3092E4,8.1002E4,9.215E3,1.2397E4,6.95E2],"tree_param":{"num_deleted":"0","num_feature":"6","num_nodes":"21","size_leaf_vector":"0"}},{"base_weights":[-4.621367E-1,-4.444714E-1,-7.571797E-1,-4.500236E-1,-1.6982053E-1,-7.2854424E-1,-9.0392375E-1,-4.2195752E-1,-4.8971242E-1,-2.4322563E-1,-5.043623E-3,-6.8958443E-1,-7.551816E-1,-8.595234E-1,-1.0279033E0,-5.652162E-1,-4.1871065E-1,-6.457778E-1,-4.7964057E-1,-3.859587E-1,-2.1419185E-1,5.170986E-2,-1.7234455E-1,-7.2367233E-1,-6.659825E-1,-7.574789E-1,-5.063558E-1,-9.157359E-1,-8.0422515E-1,-1.0887733E0,-9.499099E-1,-6.2407035E-1,-5.330553E-1,-4.2807567E-1,-3.7690985E-1,-7.0543855E-1,-6.0700274E-1,-4.8686555E-1,-3.8307184E-1,-4.0488434E-1,-3.0894753E-1,-2.5231928E-1,-1.6029626E-1,-3.76739E-3,1.62455E-1,-3.06491E-1,-1.2952617E-1,-8.0012417E-1,-7.1233994E-1,-5.919584E-1,-6.7969406E-1,-7.910013E-1,-7.4374807E-1,-1.0240916E0,-8.9364946E-1,-6.073826E-1,-8.2032907E-1,-6.624603E-1,-5.956168E-1,-5.678638E-1,-4.9012974E-1,-4.5504352E-1,-4.2059776E-1,-3.879107E-1,-2.9448614E-1,-6.310613E-1,-7.5490505E-1,-6.332755E-1,-5.8403206E-1,-4.7722945E-1,-5.0792056E-1,-4.0740055E-1,-3.3528692E-1,-4.6150127E-1,-3.870326E-1,-2.7371535E-1,-2.3143423E-1,-1.7201182E-1,-1.1434166E-1,-5.0542776E-2,1.4874126E-2,1.1996114E-1,2.3922578E-1,-3.6122546E-1,-2.4363531E-1,-1.8117699E-1,-7.813479E-2,-6.831168E-1,-7.298748E-1,-6.1363846E-1,-5.130593E-1,-6.918439E-1,-6.492959E-1,-7.3288417E-1,-7.7057993E-1],"categories":[],"categories_nodes":[],"categories_segments":[],"categories_sizes":[],"default_left":[1,1,1,1,1,1,1,1,1,1,1,1,1,1,1,1,1,1,1,1,1,1,1,1,1,1,0,1,1,0,0,1,1,1,1,1,1,1,1,1,0,1,1,1,1,1,1,0,1,1,1,0,1,0,0,0,0,0,0,0,0,0,0,0,0,0,0,0,0,0,0,0,0,0,0,0,0,0,0,0,0,0,0,0,0,0,0,0,0,0,0,0,0,0,0],"id":3,"left_children":[1,3,5,7,9,11,13,15,17,19,21,23,25,27,29,31,33,35,37,39,41,43,45,47,49,51,-1,53,55,-1,-1,57,59,61,63,65,67,69,71,73,-1,75,77,79,81,83,85,-1,87,89,91,-1,93,-1,-1,-1,-1,-1,-1,-1,-1,-1,-1,-1,-1,-1,-1,-1,-1,-1,-1,-1,-1,-1,-1,-1,-1,-1,-1,-1,-1,-1,-1,-1,-1,-1,-1,-1,-1,-1,-1,-1,-1,-1,-1],"loss_changes":[8.938164E2,2.4675781E2,4.005957E1,1.7652734E2,3.8813118E1,7.898926E0,7.8028564E0,4.2996094E1,1.02984375E2,9.1171875E0,9.408874E0,2.1778564E0,2.364746E0,2.894287E0,9.169922E-1,3.560852E0,3.5418945E1,8.78125E0,4.2887695E1,4.2001343E-1,3.7549515E0,4.547051E0,1.4020281E0,5.9191895E-1,1.5930786E0,1.6035156E0,0E0,4.5373535E-1,1.3942261E0,0E0,0E0,3.9300537E-1,1.7193909E0,1.478125E1,1.4977539E1,5.270508E0,1.0906372E0,1.1411133E1,4.864685E0,1.2156677E-1,0E0,4.1925812E-1,3.9381027E-1,4.31502E-1,7.770872E-1,1.1841583E-1,4.9548984E-1,0E0,1.0455322E-1,2.2398376E-1,1.609497E-1,0E0,4.2492676E-1,0E0,0E0,0E0,0E0,0E0,0E0,0E0,0E0,0E0,0E0,0E0,0E0,0E0,0E0,0E0,0E0,0E0,0E0,0E0,0E0,0E0,0E0,0E0,0E0,0E0,0E0,0E0,0E0,0E0,0E0,0E0,0E0,0E0,0E0,0E0,0E0,0E0,0E0,0E0,0E0,0E0,0E0],"parents":[2147483647,0,0,1,1,2,2,3,3,4,4,5,5,6,6,7,7,8,8,9,9,10,10,11,11,12,12,13,13,14,14,15,15,16,16,17,17,18,18,19,19,20,20,21,21,22,22,23,23,24,24,25,25,27,27,28,28,31,31,32,32,33,33,34,34,35,35,36,36,37,37,38,38,39,39,41,41,42,42,43,43,44,44,45,45,46,46,48,48,49,49,50,50,52,52],"right_children":[2,4,6,8,10,12,14,16,18,20,22,24,26,28,30,32,34,36,38,40,42,44,46,48,50,52,-1,54,56,-1,-1,58,60,62,64,66,68,70,72,74,-1,76,78,80,82,84,86,-1,88,90,92,-1,94,-1,-1,-1,-1,-1,-1,-1,-1,-1,-1,-1,-1,-1,-1,-1,-1,-1,-1,-1,-1,-1,-1,-1,-1,-1,-1,-1,-1,-1,-1,-1,-1,-1,-1,-1,-1,-1,-1,-1,-1,-1,-1],"split_conditions":[3.6465316E0,9.3841076E-1,5.4236555E0,9.599347E-1,2.0830803E0,4.8405113E0,6.2974963E0,-7.163236E-1,-5.809256E-1,1.1248455E0,4.6571895E-2,1.3797003E-2,2.6647665E-2,1.7985325E-2,-2.3303181E-2,-9.48524E-1,2.0291032E-1,-1.4164495E0,2.1452856E-1,2.0318443E-1,1.3888785E0,2.7377667E0,4.1281816E-1,-1.8084961E-1,4.216621E0,-2.0189758E-2,-1.5190676E-1,-2.4610905E-1,-4.8972555E-2,-3.26632E-1,-2.84973E-1,-4.7928792E-1,-3.4559974E-1,-1.5644595E-1,4.6717945E-1,1.5661805E0,-9.305965E-1,2.3473415E0,5.440824E-1,1.6632867E-1,-9.268426E-2,1.1352739E0,1.8323032E0,2.2945058E0,1.7956147E0,2.3018365E-1,1.1296234E0,-2.4003726E-1,4.5601683E0,1.5769593E-2,6.276946E-2,-2.3730041E-1,5.185678E0,-3.072275E-1,-2.6809484E-1,-1.8221478E-1,-2.4609873E-1,-1.9873811E-1,-1.7868505E-1,-1.7035915E-1,-1.4703892E-1,-1.3651307E-1,-1.2617934E-1,-1.1637321E-1,-8.834584E-2,-1.893184E-1,-2.2647153E-1,-1.8998267E-1,-1.7520963E-1,-1.4316884E-1,-1.5237617E-1,-1.22220166E-1,-1.0058608E-1,-1.3845038E-1,-1.1610978E-1,-8.211461E-2,-6.943027E-2,-5.160355E-2,-3.43025E-2,-1.5162833E-2,4.462238E-3,3.5988346E-2,7.176773E-2,-1.08367644E-1,-7.30906E-2,-5.43531E-2,-2.3440437E-2,-2.0493504E-1,-2.1896245E-1,-1.8409154E-1,-1.539178E-1,-2.075532E-1,-1.9478878E-1,-2.1986526E-1,-2.3117399E-1],"split_indices":[5,4,5,5,4,5,5,0,4,5,2,4,0,4,4,0,0,4,4,5,4,4,5,4,5,4,0,4,1,0,0,3,1,1,1,5,4,5,4,0,0,4,4,4,5,0,5,0,5,1,3,0,5,0,0,0,0,0,0,0,0,0,0,0,0,0,0,0,0,0,0,0,0,0,0,0,0,0,0,0,0,0,0,0,0,0,0,0,0,0,0,0,0,0,0],"split_type":[0,0,0,0,0,0,0,0,0,0,0,0,0,0,0,0,0,0,0,0,0,0,0,0,0,0,0,0,0,0,0,0,0,0,0,0,0,0,0,0,0,0,0,0,0,0,0,0,0,0,0,0,0,0,0,0,0,0,0,0,0,0,0,0,0,0,0,0,0,0,0,0,0,0,0,0,0,0,0,0,0,0,0,0,0,0,0,0,0,0,0,0,0,0,0],"sum_hessian":[1.71555E5,1.61866E5,9.689E3,1.58658E5,3.208E3,8.112E3,1.577E3,9.2944E4,6.5714E4,2.219E3,9.89E2,3.305E3,4.807E3,1.167E3,4.1E2,2.056E3,9.0888E4,3.98E3,6.1734E4,3.73E2,1.846E3,7.39E2,2.5E2,1.34E3,1.965E3,4.761E3,4.6E1,5.71E2,5.96E2,2.23E2,1.87E2,7.2E2,1.336E3,7.4245E4,1.6643E4,1.561E3,2.419E3,5.7433E4,4.301E3,2.96E2,7.7E1,1.079E3,7.67E2,4.93E2,2.46E2,5.9E1,1.91E2,1.64E2,1.176E3,3.14E2,1.651E3,1.367E3,3.394E3,8.9E1,4.82E2,4.8E1,5.48E2,2.97E2,4.23E2,7.31E2,6.05E2,1.6105E4,5.814E4,1.468E4,1.963E3,6.29E2,9.32E2,1.116E3,1.303E3,3.9417E4,1.8016E4,2.845E3,1.456E3,6.5E1,2.31E2,5.27E2,5.52E2,6.09E2,1.58E2,1.4E2,3.53E2,1.6E2,8.6E1,2.9E1,3E1,9.4E1,9.7E1,4.56E2,7.2E2,2.41E2,7.3E1,1.164E3,4.87E2,2.436E3,9.58E2],"tree_param":{"num_deleted":"0","num_feature":"6","num_nodes":"95","size_leaf_vector":"0"}},{"base_weights":[-6.4047176E-1,-6.3484234E-1,-8.7338084E-1,-6.422969E-1,-5.099348E-1,-8.2657045E-1,-1.0127187E0,-4.6528015E-1,-6.478458E-1,-4.056208E-1,-5.4752016E-1,-7.0807993E-1,-8.553069E-1,-1.139628E0,-9.2630774E-1,-6.0592556E-1,-4.3157494E-1,-6.3202804E-1,-6.7480487E-1,-7.744436E-2,-4.2370495E-1,-5.258012E-1,-6.330277E-1,-6.047318E-1,-7.2861326E-1,-8.237633E-1,-8.967461E-1,-1.2158382E0,-1.0735499E0,-9.7263044E-1,-8.0894023E-1,-6.7100966E-1,-5.2401215E-1,-3.7152937E-1,-4.8256248E-1,-6.617378E-1,-6.265099E-1,-7.0161533E-1,-6.636575E-1,-1.7711589E-1,-3.950211E-3,-4.3613872E-1,-3.076346E-1,-4.994624E-1,-5.479247E-1,-6.145305E-1,-8.3061206E-1,-7.1646196E-1,-8.313814E-1,-8.120938E-1,-1.0700691E0,-8.6420816E-1,-9.306877E-1,-3.7870067E-1,-5.31572E-1,-1.04488894E-1,-3.8203216E-1,-4.5060563E-1,-5.059558E-1,-6.653067E-1,-5.995123E-1,-5.906285E-1,-6.3075763E-1,-6.920023E-1,-7.3837245E-1,-6.5981144E-1,-6.947145E-1,4.5048386E-2,-1.8617842E-1,3.696545E-2,-5.962459E-2,-3.9117095E-1,-4.5922264E-1,-1.4401385E-1,-3.206632E-1,-5.0380325E-1,-4.0613165E-1,-5.5054367E-1,-4.5818308E-1,-5.943699E-1,-6.45568E-1],"categories":[],"categories_nodes":[],"categories_segments":[],"categories_sizes":[],"default_left":[1,1,1,1,1,1,1,1,1,1,1,1,1,1,1,1,1,1,1,1,1,1,1,0,1,1,1,0,0,0,0,0,1,1,1,1,1,1,1,1,1,1,1,1,1,1,0,0,0,0,0,0,0,0,0,0,0,0,0,0,0,0,0,0,0,0,0,0,0,0,0,0,0,0,0,0,0,0,0,0,0],"id":4,"left_children":[1,3,5,7,9,11,13,15,17,19,21,23,25,27,29,31,33,35,37,39,41,43,45,-1,47,49,51,-1,-1,-1,-1,-1,53,55,57,59,61,63,65,67,69,71,73,75,77,79,-1,-1,-1,-1,-1,-1,-1,-1,-1,-1,-1,-1,-1,-1,-1,-1,-1,-1,-1,-1,-1,-1,-1,-1,-1,-1,-1,-1,-1,-1,-1,-1,-1,-1,-1],"loss_changes":[2.24375E2,1.5564844E2,2.5552979E1,1.5496484E2,3.6785156E1,9.725098E0,1.0053345E1,2.2530762E1,6.492578E1,1.4827911E1,1.2548584E1,8.2839966E-1,2.4468994E0,7.392578E-1,2.5187378E0,4.5904846E0,1.1705688E1,1.5421875E1,1.6470703E1,9.6623635E-1,3.2905273E0,2.9526367E0,4.606201E0,0E0,2.1240234E-2,3.1434326E0,3.4643555E-1,0E0,0E0,0E0,0E0,0E0,2.5457764E-1,4.9720154E0,1.3389282E0,2.9575195E0,1.2050781E1,5.3623047E0,4.3242188E0,1.2113595E-1,1.7760651E-1,2.0428162E0,4.5051956E-1,8.2403564E-1,4.5257568E-1,4.1973877E-1,0E0,0E0,0E0,0E0,0E0,0E0,0E0,0E0,0E0,0E0,0E0,0E0,0E0,0E0,0E0,0E0,0E0,0E0,0E0,0E0,0E0,0E0,0E0,0E0,0E0,0E0,0E0,0E0,0E0,0E0,0E0,0E0,0E0,0E0,0E0],"parents":[2147483647,0,0,1,1,2,2,3,3,4,4,5,5,6,6,7,7,8,8,9,9,10,10,11,11,12,12,13,13,14,14,15,15,16,16,17,17,18,18,19,19,20,20,21,21,22,22,24,24,25,25,26,26,32,32,33,33,34,34,35,35,36,36,37,37,38,38,39,39,40,40,41,41,42,42,43,43,44,44,45,45],"right_children":[2,4,6,8,10,12,14,16,18,20,22,24,26,28,30,32,34,36,38,40,42,44,46,-1,48,50,52,-1,-1,-1,-1,-1,54,56,58,60,62,64,66,68,70,72,74,76,78,80,-1,-1,-1,-1,-1,-1,-1,-1,-1,-1,-1,-1,-1,-1,-1,-1,-1,-1,-1,-1,-1,-1,-1,-1,-1,-1,-1,-1,-1,-1,-1,-1,-1,-1,-1],"split_conditions":[7.4431074E-1,4.097149E0,1.9638498E0,-6.4794505E-1,-5.053857E-2,1.1847094E0,-3.0972399E-2,5.399343E-1,2.5683602E-2,-4.2260948E-1,1.063075E-1,-2.9085535E-1,1.2649572E0,-5.7097044E-2,1.502821E-2,4.4138175E-1,-1.4266386E0,-9.398741E-2,-5.3849995E-2,5.2739315E0,5.7375875E0,8.276789E-3,3.7984985E-1,-1.8141955E-1,2.6376402E0,3.4098701E0,2.3409553E-1,-3.6475146E-1,-3.2206497E-1,-2.9178914E-1,-2.4268208E-1,-2.013029E-1,-5.499266E-1,-5.673168E-1,-1.0231016E0,2.087847E-1,-1.9993556E-1,2.600307E-1,3.0216408E-1,-7.2994596E-1,-5.5746543E-1,-1.3103193E-1,-2.6008904E-1,5.864469E0,6.052099E0,1.6231345E-1,-2.4918362E-1,-2.149386E-1,-2.4941443E-1,-2.4362814E-1,-3.2102072E-1,-2.5926247E-1,-2.7920634E-1,-1.1361021E-1,-1.594716E-1,-3.134667E-2,-1.1460965E-1,-1.351817E-1,-1.5178674E-1,-1.9959201E-1,-1.798537E-1,-1.7718856E-1,-1.892273E-1,-2.076007E-1,-2.2151174E-1,-1.9794343E-1,-2.0841436E-1,1.3514516E-2,-5.5853527E-2,1.1089635E-2,-1.7887378E-2,-1.17351286E-1,-1.377668E-1,-4.320416E-2,-9.619897E-2,-1.5114099E-1,-1.218395E-1,-1.651631E-1,-1.3745493E-1,-1.7831098E-1,-1.936704E-1],"split_indices":[3,5,3,3,3,5,2,5,3,3,3,5,3,2,2,0,3,0,0,5,5,3,3,0,4,5,4,0,0,0,0,0,4,1,3,5,3,3,3,3,3,3,3,5,5,3,0,0,0,0,0,0,0,0,0,0,0,0,0,0,0,0,0,0,0,0,0,0,0,0,0,0,0,0,0,0,0,0,0,0,0],"split_type":[0,0,0,0,0,0,0,0,0,0,0,0,0,0,0,0,0,0,0,0,0,0,0,0,0,0,0,0,0,0,0,0,0,0,0,0,0,0,0,0,0,0,0,0,0,0,0,0,0,0,0,0,0,0,0,0,0,0,0,0,0,0,0,0,0,0,0,0,0,0,0,0,0,0,0,0,0,0,0,0,0],"sum_hessian":[1.71555E5,1.6751E5,4.045E3,1.58072E5,9.438E3,3.033E3,1.012E3,4.807E3,1.53265E5,2.503E3,6.935E3,5.97E2,2.436E3,4.05E2,6.07E2,9.26E2,3.881E3,9.6607E4,5.6658E4,1.31E2,2.372E3,5.536E3,1.399E3,1.04E2,4.93E2,1.395E3,1.041E3,1.8E2,2.25E2,4.3E2,1.77E2,5.12E2,4.14E2,1.786E3,2.095E3,1.5114E4,8.1493E4,1.6621E4,4.0037E4,5.5E1,7.6E1,2.14E3,2.32E2,2.538E3,2.998E3,1.283E3,1.16E2,4.48E2,4.5E1,1.336E3,5.9E1,5.45E2,4.96E2,2.3E1,3.91E2,6.8E1,1.718E3,8.94E2,1.201E3,1.4285E4,8.29E2,8.641E3,7.2852E4,1.3191E4,3.43E3,3.5645E4,4.392E3,2E0,5.3E1,4.4E1,3.2E1,7.32E2,1.408E3,1.8E1,2.14E2,2.421E3,1.17E2,2.908E3,9E1,7.9E2,4.93E2],"tree_param":{"num_deleted":"0","num_feature":"6","num_nodes":"81","size_leaf_vector":"0"}},{"base_weights":[-4.5922184E-1,-4.6192425E-1,-2.5979984E-1,-4.6096268E-1,-6.557964E-1,-3.2022876E-1,-1.2600389E-1,-4.6215722E-1,-3.7732092E-1,-6.234746E-1,-7.9765064E-1,-2.89262E-1,-4.462593E-1,-1.6693224E-1,-1.9574096E-2,-4.5363727E-1,-4.7288242E-1,-3.846478E-1,-1.972732E-1,-6.460285E-1,-5.624329E-1,-4.1117907E-1,-2.7296603E-1,-4.118092E-1,-4.9528655E-1,-1.4429852E-1,-2.5032908E-1,-1.16104074E-1,1.25191035E-2,-4.2010695E-1,-4.5439583E-1,-5.2487206E-1,-4.6928784E-1,-4.4209337E-1,-3.7221E-1,-1.3222636E-1,-2.9566482E-1,-5.359445E-1,-6.6610324E-1,-2.913921E-1,-2.2358333E-1,-4.399565E-1,-3.459951E-1,-1.128489E-1,-1.9253671E-1,-3.2690534E-1,-2.236468E-1,-7.491701E-2,-1.3004024E-1,-2.1078562E-2,3.0904356E-2,-4.1064128E-1,-4.5600486E-1,-4.5520735E-1,-4.21919E-1,-5.164184E-1,-5.6332344E-1,-4.7296405E-1,-4.3293288E-1,-4.515122E-1,-3.5958916E-1,-3.632344E-1,-4.32142E-1,-1.7395012E-1,1.5550636E-1,-3.138114E-1,1.788063E-1,-3.069561E-1,-2.7620623E-1,-2.0065592E-1,-2.550405E-1,-1.1912177E-1,-6.287717E-2,-1.7521374E-1,-2.4354166E-1,-1.8553536E-1,-2.8606293E-1,-7.7423565E-2,-1.9912645E-2,-1.5542972E-1,-1.0681831E-1,-5.0583854E-2,-7.324127E-3,4.2051516E-2,3.3991204E-5],"categories":[],"categories_nodes":[],"categories_segments":[],"categories_sizes":[],"default_left":[1,1,1,1,1,1,1,1,1,1,0,1,1,1,1,1,1,1,1,1,0,0,1,1,0,1,1,1,1,1,1,1,1,1,1,1,1,0,0,1,1,0,0,1,1,0,1,1,1,1,1,0,0,0,0,0,0,0,0,0,0,0,0,0,0,0,0,0,0,0,0,0,0,0,0,0,0,0,0,0,0,0,0,0,0],"id":5,"left_children":[1,3,5,7,9,11,13,15,17,19,-1,21,23,25,27,29,31,33,35,37,-1,-1,39,41,-1,43,45,47,49,51,53,55,57,59,61,63,65,-1,-1,67,69,-1,-1,71,73,-1,75,77,79,81,83,-1,-1,-1,-1,-1,-1,-1,-1,-1,-1,-1,-1,-1,-1,-1,-1,-1,-1,-1,-1,-1,-1,-1,-1,-1,-1,-1,-1,-1,-1,-1,-1,-1,-1],"loss_changes":[9.233594E1,3.125E1,1.8523148E1,1.665625E1,3.321991E0,6.041168E0,3.1156244E0,1.49609375E1,3.0598145E0,5.7696533E-1,0E0,2.4149094E0,3.1962585E-1,9.3975735E-1,6.2104464E-1,2.1640625E0,1.3486328E1,1.4666138E0,5.689111E-1,7.302704E-1,0E0,0E0,9.585266E-1,1.9604492E-1,0E0,5.987549E-1,1.496005E-1,1.8957317E-2,9.392436E-2,5.130615E-1,2.1933594E0,1.2510986E0,8.982422E0,1.4926147E-1,8.5595703E-1,7.353624E-1,3.746829E-1,0E0,0E0,1.08078E-1,1.7240715E-1,0E0,0E0,7.08766E-2,9.869766E-2,0E0,1.4674187E-1,5.2636117E-4,4.6225786E-3,2.1544263E-2,3.3722013E-2,0E0,0E0,0E0,0E0,0E0,0E0,0E0,0E0,0E0,0E0,0E0,0E0,0E0,0E0,0E0,0E0,0E0,0E0,0E0,0E0,0E0,0E0,0E0,0E0,0E0,0E0,0E0,0E0,0E0,0E0,0E0,0E0,0E0,0E0],"parents":[2147483647,0,0,1,1,2,2,3,3,4,4,5,5,6,6,7,7,8,8,9,9,11,11,12,12,13,13,14,14,15,15,16,16,17,17,18,18,19,19,22,22,23,23,25,25,26,26,27,27,28,28,29,29,30,30,31,31,32,32,33,33,34,34,35,35,36,36,39,39,40,40,43,43,44,44,46,46,47,47,48,48,49,49,50,50],"right_children":[2,4,6,8,10,12,14,16,18,20,-1,22,24,26,28,30,32,34,36,38,-1,-1,40,42,-1,44,46,48,50,52,54,56,58,60,62,64,66,-1,-1,68,70,-1,-1,72,74,-1,76,78,80,82,84,-1,-1,-1,-1,-1,-1,-1,-1,-1,-1,-1,-1,-1,-1,-1,-1,-1,-1,-1,-1,-1,-1,-1,-1,-1,-1,-1,-1,-1,-1,-1,-1,-1,-1],"split_conditions":[1.2782544E0,1.9548161E0,2.3251555E0,6.164286E-1,2.996872E0,1.5486313E0,3.0178967E0,1.0434344E0,2.0524251E0,4.8627907E-1,-2.392952E-1,8.666727E-1,2.3002687E0,8.847747E-1,-5.806713E-1,-7.1607745E-1,-4.128148E-1,1.5972942E-2,5.874732E-1,1.0852436E0,-1.6872987E-1,-1.2335373E-1,1.8675886E0,1.7127361E0,-1.4858598E-1,-5.3601066E-4,4.676071E-1,-4.5602757E-1,3.212336E0,1.2629902E-2,1.7575392E-1,7.024099E-1,1.05636194E-1,4.602709E-1,9.7941583E-1,4.898429E-1,6.1896133E0,-1.6078337E-1,-1.9983098E-1,1.524289E0,1.8830452E-4,-1.3198695E-1,-1.0379853E-1,2.777215E0,5.288205E-1,-9.8071605E-2,1.906479E0,1.6434414E0,9.7607E-2,3.0863535E0,9.8419225E-1,-1.2319239E-1,-1.3680147E-1,-1.3656221E-1,-1.2657571E-1,-1.5492553E-1,-1.6899703E-1,-1.4188921E-1,-1.2987988E-1,-1.3545366E-1,-1.07876755E-1,-1.0897032E-1,-1.296426E-1,-5.218504E-2,4.6651907E-2,-9.414342E-2,5.3641893E-2,-9.208684E-2,-8.286187E-2,-6.019678E-2,-7.651215E-2,-3.573653E-2,-1.8863153E-2,-5.2564126E-2,-7.30625E-2,-5.566061E-2,-8.581888E-2,-2.322707E-2,-5.973794E-3,-4.662892E-2,-3.2045495E-2,-1.5175157E-2,-2.1972382E-3,1.2615455E-2,1.0197362E-5],"split_indices":[3,4,3,3,4,4,3,5,5,3,0,5,4,4,1,0,3,5,4,5,0,0,3,3,0,2,5,0,3,1,5,4,3,2,4,4,5,0,0,3,2,0,0,3,0,0,4,5,0,3,4,0,0,0,0,0,0,0,0,0,0,0,0,0,0,0,0,0,0,0,0,0,0,0,0,0,0,0,0,0,0,0,0,0,0],"split_type":[0,0,0,0,0,0,0,0,0,0,0,0,0,0,0,0,0,0,0,0,0,0,0,0,0,0,0,0,0,0,0,0,0,0,0,0,0,0,0,0,0,0,0,0,0,0,0,0,0,0,0,0,0,0,0,0,0,0,0,0,0,0,0,0,0,0,0,0,0,0,0,0,0,0,0,0,0,0,0,0,0,0,0,0,0],"sum_hessian":[1.71555E5,1.6926E5,2.295E3,1.68428E5,8.32E2,1.58E3,7.15E2,1.66052E5,2.376E3,6.82E2,1.5E2,1.271E3,3.09E2,5.16E2,1.99E2,9.2564E4,7.3488E4,2.282E3,9.4E1,4.91E2,1.91E2,1.47E2,1.124E3,1.87E2,1.22E2,4.08E2,1.08E2,4.9E1,1.5E2,2.06E3,9.0504E4,4.743E3,6.8745E4,4E2,1.882E3,5.8E1,3.6E1,8E1,4.11E2,8.15E2,3.09E2,1.27E2,6E1,2.49E2,1.59E2,2.5E1,8.3E1,1.4E1,3.5E1,5.3E1,9.7E1,1.64E3,4.2E2,8.8285E4,2.219E3,3.9E3,8.43E2,6.2421E4,6.324E3,3.55E2,4.5E1,1.643E3,2.39E2,5.1E1,7E0,3.5E1,1E0,3.93E2,4.22E2,1.83E2,1.26E2,2.2E2,2.9E1,1.22E2,3.7E1,5.4E1,2.9E1,1.3E1,1E0,1.4E1,2.1E1,1.6E1,3.7E1,7.1E1,2.6E1],"tree_param":{"num_deleted":"0","num_feature":"6","num_nodes":"85","size_leaf_vector":"0"}},{"base_weights":[-3.4938055E-1,-3.5756856E-1,-3.4615082E-1,-4.1422158E-1,-3.556294E-1,-3.0004025E-1,-3.471788E-1,-4.4985577E-1,-3.8908446E-1,-3.5414833E-1,-4.045193E-1,-3.1985548E-1,-2.5280216E-1,-3.4786242E-1,-3.0915663E-1,-4.2275423E-1,-4.8313314E-1,-3.4001288E-1,-3.935392E-1,-3.5339215E-1,-3.9753044E-1,-4.3306762E-1,-3.803361E-1,-3.376945E-1,-3.0728495E-1,-2.7280068E-1,-2.3222311E-1,-3.481375E-1,-2.9057148E-1,-3.2715335E-1,-2.6622546E-1,-3.8499662E-1,-3.525104E-1,-4.50395E-1,-3.8531324E-1,-2.9051483E-1,-3.420586E-1,-3.0956247E-1,-2.6924318E-1,-2.5964013E-1,-2.2321986E-1,-3.0104592E-1,-3.4835687E-1,-3.269477E-1,-2.6751736E-1,-3.8244125E-1,-3.2072696E-1,-3.0977696E-1,-2.5632557E-1,-4.4751045E-1,-3.7917638E-1,-3.459549E-1,-3.5462373E-1,-3.148651E-1,-2.9131344E-1,-3.445413E-1,-2.778815E-1,-3.4783214E-1,-3.6568373E-1,-2.7727425E-1,-2.293131E-1,-3.411634E-1,-3.113233E-1,-2.7078122E-1,-2.4060605E-1],"categories":[],"categories_nodes":[],"categories_segments":[],"categories_sizes":[],"default_left":[1,1,1,1,1,1,1,1,1,1,1,1,1,1,1,0,0,0,0,1,1,0,0,1,1,0,1,1,1,1,1,1,1,0,0,0,0,1,0,0,0,1,1,0,1,0,1,0,1,0,0,0,0,0,0,0,0,0,0,0,0,0,0,0,0],"id":6,"left_children":[1,3,5,7,9,11,13,15,17,19,21,23,25,27,29,-1,-1,-1,-1,31,33,-1,-1,35,37,-1,39,41,43,45,47,49,51,-1,-1,-1,-1,53,-1,-1,-1,55,57,-1,59,-1,61,-1,63,-1,-1,-1,-1,-1,-1,-1,-1,-1,-1,-1,-1,-1,-1,-1,-1],"loss_changes":[4.4140625E0,5.1796875E0,5.729492E0,1.2572327E0,3.2529297E0,2.4380188E0,3.0205078E0,3.8648987E-1,7.2753906E-2,1.3530273E0,7.825165E-1,3.204956E-1,2.6589203E-1,1.7626953E0,1.562439E0,0E0,0E0,0E0,0E0,1.1118164E0,3.2505798E-1,0E0,0E0,5.9577942E-2,1.3786316E-2,0E0,4.102707E-2,1.1103516E0,3.9138794E-1,4.1029358E-1,1.9480896E-1,2.6838684E-1,4.8095703E-1,0E0,0E0,0E0,0E0,9.979248E-3,0E0,0E0,0E0,4.614296E-1,9.375E-1,0E0,6.874466E-2,0E0,1.5324402E-1,0E0,5.3920746E-2,0E0,0E0,0E0,0E0,0E0,0E0,0E0,0E0,0E0,0E0,0E0,0E0,0E0,0E0,0E0,0E0],"parents":[2147483647,0,0,1,1,2,2,3,3,4,4,5,5,6,6,7,7,8,8,9,9,10,10,11,11,12,12,13,13,14,14,19,19,20,20,23,23,24,24,26,26,27,27,28,28,29,29,30,30,31,31,32,32,37,37,41,41,42,42,44,44,46,46,48,48],"right_children":[2,4,6,8,10,12,14,16,18,20,22,24,26,28,30,-1,-1,-1,-1,32,34,-1,-1,36,38,-1,40,42,44,46,48,50,52,-1,-1,-1,-1,54,-1,-1,-1,56,58,-1,60,-1,62,-1,64,-1,-1,-1,-1,-1,-1,-1,-1,-1,-1,-1,-1,-1,-1,-1,-1],"split_conditions":[-2.7327769E-2,-8.6903626E-1,-5.452863E-1,-2.737763E-1,9.209202E-1,2.67322E-1,7.5498754E-1,-3.8494617E-1,-4.42347E-2,1.057256E0,-2.8563672E-1,8.488488E-2,4.1485226E-1,9.093988E-1,3.068168E-1,-1.2682627E-1,-1.4493994E-1,-1.02003865E-1,-1.1806176E-1,-7.2234285E-1,4.5097113E-1,-1.2992029E-1,-1.14100836E-1,-1.5488854E-2,7.5858586E-2,-8.184021E-2,-1.8343822E0,-8.426111E-1,1.8847659E-1,-2.3793563E-2,3.8824838E-1,-2.5231972E0,-1.2298861E-1,-1.351185E-1,-1.1559398E-1,-8.715445E-2,-1.02617584E-1,8.318043E-1,-8.077296E-2,-7.789204E-2,-6.696596E-2,9.779195E-2,4.386316E-1,-9.808431E-2,1.19555295E-1,-1.1473238E-1,8.372584E-2,-9.293309E-2,4.4931406E-1,-1.3425314E-1,-1.1375292E-1,-1.03786476E-1,-1.0638712E-1,-9.445954E-2,-8.739404E-2,-1.033624E-1,-8.336446E-2,-1.0434965E-1,-1.0970513E-1,-8.3182275E-2,-6.879394E-2,-1.0234902E-1,-9.339699E-2,-8.1234366E-2,-7.218182E-2],"split_indices":[1,4,3,1,4,1,3,3,5,3,1,1,1,4,1,0,0,0,0,3,5,0,0,5,2,0,4,4,1,5,5,3,0,0,0,0,0,4,0,0,0,1,0,0,2,0,1,0,1,0,0,0,0,0,0,0,0,0,0,0,0,0,0,0,0],"split_type":[0,0,0,0,0,0,0,0,0,0,0,0,0,0,0,0,0,0,0,0,0,0,0,0,0,0,0,0,0,0,0,0,0,0,0,0,0,0,0,0,0,0,0,0,0,0,0,0,0,0,0,0,0,0,0,0,0,0,0,0,0,0,0,0,0],"sum_hessian":[1.71555E5,4.8497E4,1.23058E5,1.598E3,4.6899E4,2.69E3,1.20368E5,6.54E2,9.44E2,4.5528E4,1.371E3,1.891E3,7.99E2,1.18234E5,2.134E3,3.68E2,2.86E2,8.5E1,8.59E2,4.4757E4,7.71E2,6.21E2,7.5E2,7.71E2,1.12E3,3.99E2,4E2,1.17664E5,5.7E2,1.499E3,6.35E2,1.203E3,4.3554E4,1.38E2,6.33E2,7.1E1,7E2,1.05E3,7E1,9.2E1,3.08E2,5.52E2,1.17112E5,2.16E2,3.54E2,1.5E2,1.349E3,1.12E2,5.23E2,9.6E1,1.107E3,1.0658E4,3.2896E4,8.01E2,2.49E2,1.87E2,3.65E2,1.1369E5,3.422E3,2.77E2,7.7E1,4.14E2,9.35E2,2.64E2,2.59E2],"tree_param":{"num_deleted":"0","num_feature":"6","num_nodes":"65","size_leaf_vector":"0"}},{"base_weights":[-3.5043532E-1,-3.476057E-1,-3.5992914E-1,-2.9566616E-1,-3.485162E-1,-3.526083E-1,-3.9299816E-1,-2.680232E-1,-3.2152832E-1,-3.490906E-1,-3.0711204E-1,-3.8694733E-1,-3.5067928E-1,-3.7408927E-1,-4.2732644E-1,-2.4310517E-1,-2.8000408E-1,-3.0498147E-1,-3.412956E-1,-3.4151533E-1,-3.507878E-1,-2.7003282E-1,-3.3059615E-1,-4.1098407E-1,-3.217737E-1,-3.518515E-1,-3.1234944E-1,-3.683712E-1,-3.9185715E-1,-4.1304606E-1,-4.5428523E-1,-2.8020203E-1,-2.3720251E-1,-2.8819728E-1,-2.3877293E-1,-2.8021622E-1,-3.4230164E-1,-3.02591E-1,-3.5100374E-1,-2.3039338E-1,-2.7574536E-1,-3.165821E-1,-3.496456E-1,-3.859435E-1,-4.2112613E-1,-2.9612243E-1,-3.3817342E-1,-3.5150802E-1,-4.2067564E-1,-2.8623608E-1,-3.6572257E-1,-2.3188035E-1,-3.4252545E-1,-2.8574973E-1,-3.2851088E-1,-3.5122168E-1,-3.0680296E-1,-2.5553545E-1,-2.876305E-1,-3.9557168E-1,-3.179639E-1,-3.710593E-1,-4.3075255E-1,-3.2993394E-1,-3.5220394E-1,-3.8060945E-1,-4.575484E-1,-3.3253655E-1,-2.7045405E-1,-4.1946012E-1,-3.418321E-1],"categories":[],"categories_nodes":[],"categories_segments":[],"categories_sizes":[],"default_left":[1,1,1,1,1,1,1,1,1,1,1,1,1,1,1,1,1,0,0,1,1,1,1,1,1,1,1,0,0,0,0,0,0,0,0,0,1,1,1,0,1,0,0,1,1,0,0,1,1,1,1,0,0,0,0,0,0,0,0,0,0,0,0,0,0,0,0,0,0,0,0],"id":7,"left_children":[1,3,5,7,9,11,13,15,17,19,21,23,25,27,29,31,33,-1,-1,35,37,39,41,43,45,47,49,-1,-1,-1,-1,-1,-1,-1,-1,-1,51,53,55,-1,57,-1,-1,59,61,-1,-1,63,65,67,69,-1,-1,-1,-1,-1,-1,-1,-1,-1,-1,-1,-1,-1,-1,-1,-1,-1,-1,-1,-1],"loss_changes":[4.484375E0,6.149414E0,9.391113E0,1.5466766E0,2.9814453E0,1.9997559E0,4.4658203E0,2.6330566E-1,2.8022766E-1,1.5273438E0,1.4659424E0,2.5387573E0,1.2619629E0,3.2330322E-1,7.840271E-1,1.4116287E-2,1.8218231E-1,0E0,0E0,1.036377E0,9.8339844E-1,9.453201E-2,1.800232E-1,1.5287781E-1,9.505463E-2,5.522461E-1,1.1705933E0,0E0,0E0,0E0,0E0,0E0,0E0,0E0,0E0,0E0,4.9365234E-1,1.1303711E-1,8.964844E-1,0E0,7.181549E-2,0E0,0E0,1.1639404E-1,2.609253E-1,0E0,0E0,3.2617188E-1,3.56369E-2,3.6237717E-1,2.3790741E-1,0E0,0E0,0E0,0E0,0E0,0E0,0E0,0E0,0E0,0E0,0E0,0E0,0E0,0E0,0E0,0E0,0E0,0E0,0E0,0E0],"parents":[2147483647,0,0,1,1,2,2,3,3,4,4,5,5,6,6,7,7,8,8,9,9,10,10,11,11,12,12,13,13,14,14,15,15,16,16,19,19,20,20,21,21,22,22,23,23,24,24,25,25,26,26,36,36,37,37,38,38,40,40,43,43,44,44,47,47,48,48,49,49,50,50],"right_children":[2,4,6,8,10,12,14,16,18,20,22,24,26,28,30,32,34,-1,-1,36,38,40,42,44,46,48,50,-1,-1,-1,-1,-1,-1,-1,-1,-1,52,54,56,-1,58,-1,-1,60,62,-1,-1,64,66,68,70,-1,-1,-1,-1,-1,-1,-1,-1,-1,-1,-1,-1,-1,-1,-1,-1,-1,-1,-1,-1],"split_conditions":[3.850868E-2,-7.3041177E-1,4.5024315E-1,-2.513695E-1,8.0936E-1,-8.834507E-2,1.7846853E-1,-5.0778574E-1,-1.1259592E-1,-3.670048E-2,-2.52868E-1,1.7697243E-1,8.435823E-1,1.1632848E-1,3.917327E-1,-3.50047E-1,1.1535702E0,-9.149444E-2,-1.0238869E-1,-1.0036256E0,-7.389157E-1,-5.6128746E-1,-9.909333E-2,3.6031672E-1,-3.490546E-1,1.2604878E0,2.6532384E-2,-1.1051136E-1,-1.17557146E-1,-1.23913825E-1,-1.3628557E-1,-8.406061E-2,-7.1160756E-2,-8.645919E-2,-7.163188E-2,-8.406487E-2,-3.106146E0,-8.7382436E-2,6.9103765E-1,-6.9118015E-2,-7.1024E-1,-9.497464E-2,-1.0489369E-1,1.0590429E0,-2.6996028E-1,-8.883673E-2,-1.0145203E-1,-5.6888795E-1,5.6651855E-1,-5.700238E-1,-5.294131E-1,-6.956411E-2,-1.0275764E-1,-8.572492E-2,-9.855327E-2,-1.05366506E-1,-9.204089E-2,-7.666064E-2,-8.628915E-2,-1.1867151E-1,-9.538917E-2,-1.1131779E-1,-1.2922578E-1,-9.898019E-2,-1.0566118E-1,-1.1418284E-1,-1.3726453E-1,-9.976097E-2,-8.113622E-2,-1.2583804E-1,-1.02549635E-1],"split_indices":[0,3,5,0,3,5,0,0,0,1,0,2,0,0,0,1,4,0,0,0,4,0,0,0,5,3,2,0,0,0,0,0,0,0,0,0,4,0,4,0,4,0,0,4,1,0,0,1,0,1,3,0,0,0,0,0,0,0,0,0,0,0,0,0,0,0,0,0,0,0,0],"split_type":[0,0,0,0,0,0,0,0,0,0,0,0,0,0,0,0,0,0,0,0,0,0,0,0,0,0,0,0,0,0,0,0,0,0,0,0,0,0,0,0,0,0,0,0,0,0,0,0,0,0,0,0,0,0,0,0,0,0,0,0,0,0,0,0,0,0,0,0,0,0,0],"sum_hessian":[1.71555E5,1.32193E5,3.9362E4,2.283E3,1.2991E5,3.2237E4,7.125E3,1.109E3,1.174E3,1.28125E5,1.785E3,1.704E3,3.0533E4,4.602E3,2.523E3,3.67E2,7.42E2,6.48E2,5.26E2,2.3488E4,1.04637E5,6.97E2,1.088E3,1.241E3,4.63E2,2.9619E4,9.14E2,3.498E3,1.104E3,1.66E3,8.63E2,4.4E1,3.23E2,6.14E2,1.28E2,3.02E2,2.3186E4,4.73E2,1.04164E5,9.3E1,6.04E2,6.37E2,4.51E2,3.69E2,8.72E2,1.88E2,2.75E2,2.9478E4,1.41E2,6.18E2,2.96E2,4.9E1,2.3137E4,2.94E2,1.79E2,1.03646E5,5.18E2,2.32E2,3.72E2,3.19E2,5E1,1.47E2,7.25E2,9.36E2,2.8542E4,7.3E1,6.8E1,1.52E2,4.66E2,8.6E1,2.1E2],"tree_param":{"num_deleted":"0","num_feature":"6","num_nodes":"71","size_leaf_vector":"0"}},{"base_weights":[-4.0147415E-1,-3.9816007E-1,-4.0684983E-1,-3.9855975E-1,-3.5493883E-1,-4.071401E-1,-3.786732E-1,-3.7047926E-1,-3.9905056E-1,-3.6077884E-1,-3.2967854E-1,-3.7243962E-1,-4.0728298E-1,-3.8493678E-1,-3.3209097E-1,-3.3715713E-1,-3.75863E-1,-3.8507187E-1,-3.996641E-1,-4.0797025E-1,-4.0336394E-1,-3.868535E-1,-3.565583E-1,-4.0045834E-1,-3.9130098E-1,-4.0099743E-1,-3.9263797E-1,-3.954029E-1,-3.780267E-1],"categories":[],"categories_nodes":[],"categories_segments":[],"categories_sizes":[],"default_left":[1,1,1,1,1,1,1,1,1,0,0,0,1,0,0,0,0,1,1,0,0,0,0,1,1,0,0,0,0],"id":8,"left_children":[1,3,5,7,9,11,13,15,17,-1,-1,-1,19,-1,-1,-1,-1,21,23,-1,-1,-1,-1,25,27,-1,-1,-1,-1],"loss_changes":[2.8984375E0,1.6914062E0,3.8085938E-1,1.3027344E0,2.5924683E-2,1.6894531E-1,7.0869446E-2,1.9996643E-1,7.34375E-1,0E0,0E0,0E0,8.7890625E-3,0E0,0E0,0E0,0E0,8.428955E-2,5.0097656E-1,0E0,0E0,0E0,0E0,2.2460938E-1,3.2055664E-1,0E0,0E0,0E0,0E0],"parents":[2147483647,0,0,1,1,2,2,3,3,4,4,5,5,6,6,7,7,8,8,12,12,17,17,18,18,23,23,24,24],"right_children":[2,4,6,8,10,12,14,16,18,-1,-1,-1,20,-1,-1,-1,-1,22,24,-1,-1,-1,-1,26,28,-1,-1,-1,-1],"split_conditions":[1.8432629E0,1.8347695E0,1.1424521E0,-1.2285991E0,2.7527597E0,-1.464102E0,2.587584E0,-2.6937103E0,-4.8390538E-1,-1.0823365E-1,-9.890357E-2,-1.11731894E-1,3.5466766E0,-1.1548104E-1,-9.962729E-2,-1.01147145E-1,-1.127589E-1,1.4417465E-1,3.411911E-1,-1.2239108E-1,-1.21009186E-1,-1.1605605E-1,-1.06967494E-1,4.4143027E-1,6.0419984E-2,-1.20299235E-1,-1.1779139E-1,-1.1862088E-1,-1.13408014E-1],"split_indices":[5,4,4,4,4,4,4,4,0,0,0,0,5,0,0,0,0,5,1,0,0,0,0,0,5,0,0,0,0],"split_type":[0,0,0,0,0,0,0,0,0,0,0,0,0,0,0,0,0,0,0,0,0,0,0,0,0,0,0,0,0],"sum_hessian":[1.71555E5,1.06174E5,6.5381E4,1.05193E5,9.81E2,6.4701E4,6.8E2,1.82E3,1.03373E5,7.86E2,1.95E2,2.76E2,6.4425E4,5.93E2,8.7E1,2.62E2,1.558E3,4.373E3,9.9E4,5.4725E4,9.7E3,4.104E3,2.69E2,9.0371E4,8.629E3,8.4496E4,5.875E3,6.57E3,2.059E3],"tree_param":{"num_deleted":"0","num_feature":"6","num_nodes":"29","size_leaf_vector":"0"}},{"base_weights":[-3.2353687E-1,-3.1112754E-1,-5.3014E-1,-3.1495982E-1,-1.16455585E-1,-5.1186854E-1,-6.480749E-1,-2.9527238E-1,-3.4251952E-1,-1.6637832E-1,3.0629418E-3,-4.8731884E-1,-5.368674E-1,-6.834053E-1,-5.685954E-1,-3.346717E-1,-2.8830346E-1,-4.336501E-1,-3.333219E-1,-2.661379E-1,-1.438525E-1,-1.5133333E-1,3.519114E-2,-4.9541664E-1,-4.3110794E-1,-5.517151E-1,-5.03233E-1,-6.3611346E-1,-7.419258E-1,-4.4494295E-1,-5.9000987E-1,-4.1726372E-1,-3.2559258E-1,-2.9162902E-1,-2.1357799E-1,-4.8168695E-1,-4.05904E-1,-3.388958E-1,-2.7015823E-1,-2.855169E-1,-2.1716389E-1,-1.7072555E-1,-1.0114232E-1,-1.2207355E-1,-2.2742777E-1,-2.255118E-3,1.2323259E-1,-5.458262E-1,-4.9029332E-1,-4.4381395E-1,-3.4021002E-1,-6.8735456E-1,-5.49073E-1,-5.0601304E-1,-3.3596724E-1,-7.460347E-1,-6.2754637E-1,-4.6092197E-1,-4.008948E-1,-2.1318421E-1,-3.2799336E-1,-2.7600625E-1,-3.013964E-1,-2.5034904E-1,-1.844705E-1,-4.133385E-1,-5.0113934E-1,-3.6733857E-1,-4.1145E-1,-3.2899287E-1,-3.5358936E-1,-2.9081646E-1,-2.3852856E-1,-3.2188398E-1,-2.7064952E-1,-2.3329906E-1,-1.7509949E-1,-1.8369998E-1,-1.5042597E-1,-1.1843283E-1,-7.312722E-2,-6.620205E-2,-1.315633E-1,-3.929311E-2,2.2984061E-2,9.7110786E-2,1.8080594E-1,-5.474986E-1,-2.7097955E-1,-4.5900202E-1,-5.012125E-1,-4.184765E-1,-4.6375573E-1,-5.6232715E-1,-5.319745E-1],"categories":[],"categories_nodes":[],"categories_segments":[],"categories_sizes":[],"default_left":[1,1,1,1,1,1,1,1,1,1,1,1,1,1,1,1,1,1,1,1,1,1,1,1,1,1,1,1,0,0,0,1,1,1,1,1,1,1,1,1,1,1,1,1,0,1,1,1,1,1,0,0,1,0,0,0,0,0,0,0,0,0,0,0,0,0,0,0,0,0,0,0,0,0,0,0,0,0,0,0,0,0,0,0,0,0,0,0,0,0,0,0,0,0,0],"id":9,"left_children":[1,3,5,7,9,11,13,15,17,19,21,23,25,27,29,31,33,35,37,39,41,43,45,47,49,51,53,55,-1,-1,-1,57,59,61,63,65,67,69,71,73,75,77,79,81,-1,83,85,87,89,91,-1,-1,93,-1,-1,-1,-1,-1,-1,-1,-1,-1,-1,-1,-1,-1,-1,-1,-1,-1,-1,-1,-1,-1,-1,-1,-1,-1,-1,-1,-1,-1,-1,-1,-1,-1,-1,-1,-1,-1,-1,-1,-1,-1,-1],"loss_changes":[4.3967188E2,1.2069922E2,2.061084E1,8.601367E1,1.8652393E1,4.906006E0,3.2619019E0,2.5325684E1,5.5282715E1,4.9167137E0,4.578883E0,1.7250977E0,1.8007812E0,2.0049744E0,8.1256104E-1,1.0294067E1,1.9489258E1,7.880127E0,2.1057129E1,3.2236862E-1,2.0498352E0,3.262515E-1,2.5190506E0,6.921387E-1,4.7730255E-1,6.5374756E-1,4.2800903E-1,4.562378E-3,0E0,0E0,0E0,7.9711914E-1,3.3132324E0,1.1411133E1,3.5457916E0,2.7351074E0,6.7163086E-1,7.915039E0,3.1166992E0,6.8058014E-2,3.9916515E-2,2.63134E-1,3.2944775E-1,5.332434E-2,0E0,5.028953E-1,3.2533526E-1,5.1574707E-3,9.258423E-1,4.5433044E-2,0E0,0E0,3.4143066E-1,0E0,0E0,0E0,0E0,0E0,0E0,0E0,0E0,0E0,0E0,0E0,0E0,0E0,0E0,0E0,0E0,0E0,0E0,0E0,0E0,0E0,0E0,0E0,0E0,0E0,0E0,0E0,0E0,0E0,0E0,0E0,0E0,0E0,0E0,0E0,0E0,0E0,0E0,0E0,0E0,0E0,0E0],"parents":[2147483647,0,0,1,1,2,2,3,3,4,4,5,5,6,6,7,7,8,8,9,9,10,10,11,11,12,12,13,13,14,14,15,15,16,16,17,17,18,18,19,19,20,20,21,21,22,22,23,23,24,24,25,25,26,26,27,27,31,31,32,32,33,33,34,34,35,35,36,36,37,37,38,38,39,39,40,40,41,41,42,42,43,43,45,45,46,46,47,47,48,48,49,49,52,52],"right_children":[2,4,6,8,10,12,14,16,18,20,22,24,26,28,30,32,34,36,38,40,42,44,46,48,50,52,54,56,-1,-1,-1,58,60,62,64,66,68,70,72,74,76,78,80,82,-1,84,86,88,90,92,-1,-1,94,-1,-1,-1,-1,-1,-1,-1,-1,-1,-1,-1,-1,-1,-1,-1,-1,-1,-1,-1,-1,-1,-1,-1,-1,-1,-1,-1,-1,-1,-1,-1,-1,-1,-1,-1,-1,-1,-1,-1,-1,-1,-1],"split_conditions":[3.4475074E0,9.586721E-1,5.550065E0,7.5458515E-1,2.153383E0,4.9327297E0,8.077486E-2,-2.468648E-1,-2.8825766E-1,1.169867E0,1.1908994E0,1.5429413E-1,8.680837E-2,6.120475E0,-3.960485E-2,-8.173913E-1,5.15872E-1,-1.1288975E0,1.7155217E-1,6.628531E-2,1.4537377E0,5.026742E-1,2.7519448E0,-1.2366763E-1,3.0959922E-1,-2.9365313E-1,7.7984166E-1,-6.273354E-1,-2.2257774E-1,-1.3348289E-1,-1.7700297E-1,-4.3416634E-1,-1.075949E0,-4.4159986E-2,2.583261E-1,1.3817558E0,1.6739422E0,2.1991658E0,4.625317E-1,2.3098835E-1,-1.7791389E0,1.2193208E0,1.695538E0,4.895205E-2,-6.8228334E-2,1.5487577E0,5.9802197E-2,4.091337E-1,4.512424E0,4.599053E0,-1.0206301E-1,-2.0620638E-1,-6.4416416E-3,-1.5180391E-1,-1.0079018E-1,-2.2381042E-1,-1.8826392E-1,-1.3827659E-1,-1.2026844E-1,-6.395526E-2,-9.8398015E-2,-8.280188E-2,-9.041892E-2,-7.510471E-2,-5.5341154E-2,-1.24001555E-1,-1.5034181E-1,-1.10201575E-1,-1.23435006E-1,-9.869786E-2,-1.06076814E-1,-8.724494E-2,-7.155857E-2,-9.6565194E-2,-8.119486E-2,-6.998972E-2,-5.252985E-2,-5.5109996E-2,-4.5127794E-2,-3.552985E-2,-2.1938166E-2,-1.9860616E-2,-3.9468993E-2,-1.1787933E-2,6.8952185E-3,2.9133236E-2,5.4241784E-2,-1.6424958E-1,-8.1293866E-2,-1.3770062E-1,-1.5036374E-1,-1.2554295E-1,-1.3912672E-1,-1.6869815E-1,-1.5959236E-1],"split_indices":[5,4,5,5,4,5,4,0,4,5,5,4,4,5,1,0,1,4,4,5,4,1,4,4,3,4,4,4,0,0,0,3,4,4,3,5,5,5,4,0,3,4,5,2,0,5,1,3,5,5,0,0,3,0,0,0,0,0,0,0,0,0,0,0,0,0,0,0,0,0,0,0,0,0,0,0,0,0,0,0,0,0,0,0,0,0,0,0,0,0,0,0,0,0,0],"split_type":[0,0,0,0,0,0,0,0,0,0,0,0,0,0,0,0,0,0,0,0,0,0,0,0,0,0,0,0,0,0,0,0,0,0,0,0,0,0,0,0,0,0,0,0,0,0,0,0,0,0,0,0,0,0,0,0,0,0,0,0,0,0,0,0,0,0,0,0,0,0,0,0,0,0,0,0,0,0,0,0,0,0,0,0,0,0,0,0,0,0,0,0,0,0,0],"sum_hessian":[1.71555E5,1.61837E5,9.718E3,1.58712E5,3.125E3,8.419E3,1.299E3,9.2585E4,6.6127E4,2.204E3,9.21E2,4.258E3,4.161E3,8.94E2,4.05E2,1.3908E4,7.8677E4,6.058E3,6.0069E4,4.04E2,1.8E3,1.58E2,7.63E2,3.715E3,5.43E2,2.876E3,1.285E3,5.01E2,3.93E2,6.3E1,3.42E2,1.373E3,1.2535E4,7.5322E4,3.355E3,2.212E3,3.846E3,5.5194E4,4.875E3,2.86E2,1.18E2,1.103E3,6.97E2,1.16E2,4.2E1,5.36E2,2.27E2,3.33E2,3.382E3,4.73E2,7E1,5E1,2.826E3,1.262E3,2.3E1,3E1,4.71E2,3.67E2,1.006E3,2.64E2,1.2271E4,2.8987E4,4.6335E4,1.479E3,1.876E3,4.95E2,1.717E3,4.92E2,3.354E3,3.2986E4,2.2208E4,2.944E3,1.931E3,7.7E1,2.09E2,8.2E1,3.6E1,6.68E2,4.35E2,4.29E2,2.68E2,1.8E1,9.8E1,2.17E2,3.19E2,1.58E2,6.9E1,3.3E2,3E0,8.86E2,2.496E3,2.18E2,2.55E2,1.574E3,1.252E3],"tree_param":{"num_deleted":"0","num_feature":"6","num_nodes":"95","size_leaf_vector":"0"}},{"base_weights":[-4.4837162E-1,-4.432692E-1,-5.786831E-1,-4.4866765E-1,-3.565865E-1,-5.5414414E-1,-7.101087E-1,-3.339755E-1,-4.5288435E-1,-2.7477366E-1,-3.7960497E-1,-5.002908E-1,-5.795512E-1,-7.971294E-1,-6.4738345E-1,-4.2244837E-1,-3.0650574E-1,-4.382085E-1,-4.6619213E-1,-6.7554526E-2,-2.9021305E-1,-3.574678E-1,-4.204685E-1,-5.3853434E-1,-4.796852E-1,-5.539511E-1,-6.190023E-1,-8.467929E-1,-7.419356E-1,-6.797797E-1,-5.672196E-1,-4.645538E-1,-3.64788E-1,-2.4352166E-1,-3.3339804E-1,-4.4842783E-1,-4.223473E-1,-4.592511E-1,-4.868018E-1,-1.39594E-1,-1.3158224E-2,-3.001205E-1,-2.1670333E-1,-3.7086484E-1,-3.3571857E-1,-4.1029227E-1,-4.9592623E-1,-5.489211E-1,-4.3673575E-1,-4.7412246E-1,-5.797912E-1,-5.455149E-1,-7.228649E-1,-5.695914E-1,-6.325945E-1,-2.644091E-1,-3.6942023E-1,-3.045991E-1,-2.0484816E-1,-3.0700317E-1,-3.5334596E-1,-4.556259E-1,-4.2080635E-1,-4.0874666E-1,-4.3194407E-1,-4.617574E-1,-4.3117502E-1,-4.7508702E-1,-5.061635E-1,-7.183496E-2,-1.7337649E-1,-1.1777999E-1,5.39909E-3,-2.5616214E-1,-3.1201538E-1,-1.7353441E-1,-2.4115998E-1,-3.9482716E-1,-3.64313E-1,-3.4104484E-1,-2.8150606E-1,-4.1976985E-1,-3.761457E-1,-4.554731E-1,-5.147133E-1,-5.612122E-1,-5.056997E-1,-4.307005E-1,-4.8353207E-1,-5.0579524E-1,-5.52601E-1,-6.1552304E-1,-6.6645426E-1],"categories":[],"categories_nodes":[],"categories_segments":[],"categories_sizes":[],"default_left":[1,1,1,1,1,1,1,1,1,1,1,1,1,1,1,1,1,1,1,1,1,1,1,1,1,1,1,0,0,0,0,0,1,1,1,1,1,1,1,1,1,1,1,1,1,1,1,1,0,1,0,1,0,0,1,0,0,0,0,0,0,0,0,0,0,0,0,0,0,0,0,0,0,0,0,0,0,0,0,0,0,0,0,0,0,0,0,0,0,0,0,0,0],"id":10,"left_children":[1,3,5,7,9,11,13,15,17,19,21,23,25,27,29,31,33,35,37,39,41,43,45,47,49,51,53,-1,-1,-1,-1,-1,55,57,59,61,63,65,67,69,71,73,75,77,79,81,83,85,-1,87,-1,89,-1,-1,91,-1,-1,-1,-1,-1,-1,-1,-1,-1,-1,-1,-1,-1,-1,-1,-1,-1,-1,-1,-1,-1,-1,-1,-1,-1,-1,-1,-1,-1,-1,-1,-1,-1,-1,-1,-1,-1,-1],"loss_changes":[1.138125E2,7.709961E1,2.0443604E1,7.5009766E1,1.8132568E1,7.1656494E0,5.0133057E0,1.3273804E1,2.9072266E1,6.794983E0,6.684082E0,1.1238708E0,3.3897705E0,5.2301025E-1,1.1570282E0,2.9964142E0,7.0530396E0,1.1366211E1,1.1021484E1,5.8204675E-1,1.3784332E0,1.3052979E0,1.8305969E0,4.010315E-1,3.6495972E-1,2.8132935E0,6.1083984E-1,0E0,0E0,0E0,0E0,0E0,1.6038513E-1,2.9232635E0,1.4442444E0,8.426758E0,3.4726562E0,3.9394531E0,4.246582E0,1.3404584E-1,1.6760482E-1,8.319702E-1,2.1047974E-1,3.3135986E-1,4.471283E-1,5.9939575E-1,1.1520386E-3,6.2561035E-3,0E0,2.3872375E-1,0E0,3.2513428E-1,0E0,0E0,2.4008179E-1,0E0,0E0,0E0,0E0,0E0,0E0,0E0,0E0,0E0,0E0,0E0,0E0,0E0,0E0,0E0,0E0,0E0,0E0,0E0,0E0,0E0,0E0,0E0,0E0,0E0,0E0,0E0,0E0,0E0,0E0,0E0,0E0,0E0,0E0,0E0,0E0,0E0,0E0],"parents":[2147483647,0,0,1,1,2,2,3,3,4,4,5,5,6,6,7,7,8,8,9,9,10,10,11,11,12,12,13,13,14,14,15,15,16,16,17,17,18,18,19,19,20,20,21,21,22,22,23,23,24,24,25,25,26,26,32,32,33,33,34,34,35,35,36,36,37,37,38,38,39,39,40,40,41,41,42,42,43,43,44,44,45,45,46,46,47,47,49,49,51,51,54,54],"right_children":[2,4,6,8,10,12,14,16,18,20,22,24,26,28,30,32,34,36,38,40,42,44,46,48,50,52,54,-1,-1,-1,-1,-1,56,58,60,62,64,66,68,70,72,74,76,78,80,82,84,86,-1,88,-1,90,-1,-1,92,-1,-1,-1,-1,-1,-1,-1,-1,-1,-1,-1,-1,-1,-1,-1,-1,-1,-1,-1,-1,-1,-1,-1,-1,-1,-1,-1,-1,-1,-1,-1,-1,-1,-1,-1,-1,-1,-1],"split_conditions":[4.8113897E-1,3.337949E0,1.9638498E0,-5.63761E-1,-6.723692E-2,9.416709E-1,-2.8851148E-2,5.6080645E-1,-8.690663E-3,-3.731638E-1,5.312942E-2,-3.6023654E-2,1.1089379E0,-4.8661605E-2,1.5773678E-2,5.3289497E-1,-1.7099376E0,1.7068951E0,8.211951E-2,5.2739315E0,5.6154776E0,5.0773625E0,2.1553403E-1,3.922991E-2,2.269993E0,4.67819E0,-9.3194664E-1,-2.540379E-1,-2.2258069E-1,-2.0393392E-1,-1.701659E-1,-1.3936615E-1,-5.499266E-1,1.4551723E0,-1.098975E0,1.5432498E-1,-5.9943046E-2,3.3817047E-1,8.064682E-2,-6.4262426E-1,-4.566033E-2,-1.711776E-1,-1.5832019E-1,4.636565E0,5.922062E0,5.3022156E0,2.7390394E-1,4.6346903E-1,-1.3102072E-1,-2.0559017E-1,-1.7393737E-1,-8.8174015E-1,-2.1685949E-1,-1.7087743E-1,1.582582E0,-7.932273E-2,-1.10826075E-1,-9.137973E-2,-6.145445E-2,-9.2100956E-2,-1.0600379E-1,-1.3668777E-1,-1.2624191E-1,-1.22624E-1,-1.2958322E-1,-1.3852723E-1,-1.2935251E-1,-1.425261E-1,-1.5184905E-1,-2.1550488E-2,-5.2012946E-2,-3.5334E-2,1.619727E-3,-7.684864E-2,-9.360462E-2,-5.2060325E-2,-7.2348E-2,-1.1844815E-1,-1.0929391E-1,-1.0231346E-1,-8.4451824E-2,-1.2593096E-1,-1.12843715E-1,-1.3664193E-1,-1.54414E-1,-1.6836366E-1,-1.5170991E-1,-1.2921016E-1,-1.4505963E-1,-1.5173858E-1,-1.657803E-1,-1.8465692E-1,-1.9993629E-1],"split_indices":[3,5,3,3,3,5,2,5,3,3,3,0,3,2,2,0,3,5,4,5,5,5,3,2,4,5,4,0,0,0,0,0,4,5,3,0,3,0,1,3,0,3,3,5,5,5,3,4,0,4,0,4,0,0,3,0,0,0,0,0,0,0,0,0,0,0,0,0,0,0,0,0,0,0,0,0,0,0,0,0,0,0,0,0,0,0,0,0,0,0,0,0,0],"split_type":[0,0,0,0,0,0,0,0,0,0,0,0,0,0,0,0,0,0,0,0,0,0,0,0,0,0,0,0,0,0,0,0,0,0,0,0,0,0,0,0,0,0,0,0,0,0,0,0,0,0,0,0,0,0,0,0,0,0,0,0,0,0,0,0,0,0,0,0,0,0,0,0,0,0,0,0,0,0,0,0,0,0,0,0,0,0,0,0,0,0,0,0,0],"sum_hessian":[1.71555E5,1.65095E5,6.46E3,1.55412E5,9.683E3,5.448E3,1.012E3,5.514E3,1.49898E5,2.129E3,7.554E3,1.753E3,3.695E3,4.19E2,5.93E2,1.303E3,4.211E3,7.1301E4,7.8597E4,1.48E2,1.981E3,4.906E3,2.648E3,6.05E2,1.148E3,2.25E3,1.445E3,2.13E2,2.06E2,4.17E2,1.76E2,7.49E2,5.54E2,1.263E3,2.948E3,4.3346E4,2.7955E4,5.8813E4,1.9784E4,6.3E1,8.5E1,1.743E3,2.38E2,3.026E3,1.88E3,2.339E3,3.09E2,5.45E2,6E1,1.093E3,5.5E1,2.147E3,1.03E2,3.21E2,1.124E3,2.7E1,5.27E2,4.87E2,7.76E2,1.276E3,1.672E3,3.4373E4,8.973E3,1.1583E4,1.6372E4,5.3979E4,4.834E3,1.2342E4,7.442E3,2.2E1,4.1E1,1.2E1,7.3E1,3.76E2,1.367E3,8.9E1,1.49E2,6.37E2,2.389E3,1.707E3,1.73E2,1.822E3,5.17E2,1.06E2,2.03E2,4.15E2,1.3E2,2.03E2,8.9E2,3.36E2,1.811E3,7.6E2,3.64E2],"tree_param":{"num_deleted":"0","num_feature":"6","num_nodes":"93","size_leaf_vector":"0"}},{"base_weights":[-3.2147723E-1,-3.2360026E-1,-1.961819E-1,-3.2276425E-1,-4.4608822E-1,-2.3406065E-1,-9.410555E-2,-3.2024857E-1,-3.4687603E-1,-4.2298147E-1,-5.501473E-1,-2.1385062E-1,-3.3003968E-1,-1.2181799E-1,-1.4755256E-2,-4.2108777E-1,-3.198495E-1,-3.518817E-1,-2.1332404E-1,-4.276796E-1,-2.8955036E-1,-5.785859E-1,-4.666548E-1,-2.9380846E-1,-2.0270106E-1,-3.1049109E-1,-3.8226297E-1,-1.0426429E-1,-1.8547657E-1,-8.3789416E-2,8.504596E-3,-4.759332E-1,-3.9802977E-1,-3.2034189E-1,-2.6803768E-1,-2.4059059E-1,-3.5388738E-1,-2.9626902E-2,-2.3631814E-1,-4.435314E-1,-3.9428625E-1,-2.9551113E-1,-1.3266817E-1,-2.1640542E-1,-1.7419732E-1,-3.323675E-1,-2.6353136E-1,-1.4386941E-1,-8.318153E-2,-2.024418E-1,-1.1439703E-1,-7.265836E-2,-1.221609E-1,-2.2442838E-2,2.0137817E-2,-4.1068596E-1,-3.409322E-1,-3.1993264E-1,-3.765257E-1,-2.705786E-1,-1.360426E-1,-7.049612E-2,-2.6368484E-1,-3.6739692E-1,-3.3815932E-1,-6.140536E-2,2.0447028E-1,-1.264302E-1,-2.8262132E-1,-4.077329E-1,-4.6380243E-1,-3.7155664E-1,-4.2040002E-1,-2.0992199E-1,-2.4675916E-1,-1.6163285E-1,-2.1000962E-1,-3.058736E-1,-3.5868952E-1,-1.2589145E-1,-1.6774571E-1,-7.666958E-2,-1.3148987E-1,-1.6618781E-1,-2.3530419E-1,-7.1239054E-2,-1.6677251E-1,-2.8892195E-2,-7.6505005E-2,-3.757578E-2,-1.0649405E-2,3.1630576E-2,-6.820214E-3],"categories":[],"categories_nodes":[],"categories_segments":[],"categories_sizes":[],"default_left":[1,1,1,1,1,1,1,1,1,1,1,1,1,1,1,1,1,1,1,1,0,0,0,1,1,1,0,1,1,1,1,0,1,1,1,1,1,1,1,1,1,0,0,1,1,1,0,1,1,1,1,1,0,1,1,0,0,0,0,0,0,0,0,0,0,0,0,0,0,0,0,0,0,0,0,0,0,0,0,0,0,0,0,0,0,0,0,0,0,0,0,0,0],"id":11,"left_children":[1,3,5,7,9,11,13,15,17,19,21,23,25,27,29,31,33,35,37,39,-1,-1,-1,41,43,45,-1,47,49,51,53,-1,55,57,59,61,63,65,67,69,71,-1,-1,73,75,77,-1,79,81,83,85,87,-1,89,91,-1,-1,-1,-1,-1,-1,-1,-1,-1,-1,-1,-1,-1,-1,-1,-1,-1,-1,-1,-1,-1,-1,-1,-1,-1,-1,-1,-1,-1,-1,-1,-1,-1,-1,-1,-1,-1,-1],"loss_changes":[4.5570312E1,1.713086E1,1.1040092E1,1.0052734E1,2.510788E0,3.9757156E0,1.7046185E0,5.9716797E0,1.0499634E1,4.6418762E-1,2.1438217E-1,1.4791718E0,2.4985504E-1,6.231909E-1,3.2506886E-1,5.630188E-1,3.7695312E0,3.317627E0,2.4175472E0,3.036499E-1,0E0,0E0,0E0,1.8138885E-2,5.5527496E-1,1.8772888E-1,0E0,3.662815E-1,1.2516451E-1,1.2906879E-2,5.5174746E-2,0E0,1.6710663E-1,3.3222656E0,4.4246674E-1,1.0538111E0,3.057373E0,4.9610665E-1,2.559227E0,2.4993134E-1,2.1865845E-2,0E0,0E0,1.4913177E-1,1.9013596E-1,1.5115738E-2,0E0,4.5844793E-2,8.366394E-2,7.765198E-2,4.68902E-2,4.860431E-3,0E0,7.095553E-3,3.4605987E-2,0E0,0E0,0E0,0E0,0E0,0E0,0E0,0E0,0E0,0E0,0E0,0E0,0E0,0E0,0E0,0E0,0E0,0E0,0E0,0E0,0E0,0E0,0E0,0E0,0E0,0E0,0E0,0E0,0E0,0E0,0E0,0E0,0E0,0E0,0E0,0E0,0E0,0E0],"parents":[2147483647,0,0,1,1,2,2,3,3,4,4,5,5,6,6,7,7,8,8,9,9,10,10,11,11,12,12,13,13,14,14,15,15,16,16,17,17,18,18,19,19,23,23,24,24,25,25,27,27,28,28,29,29,30,30,32,32,33,33,34,34,35,35,36,36,37,37,38,38,39,39,40,40,43,43,44,44,45,45,47,47,48,48,49,49,50,50,51,51,53,53,54,54],"right_children":[2,4,6,8,10,12,14,16,18,20,22,24,26,28,30,32,34,36,38,40,-1,-1,-1,42,44,46,-1,48,50,52,54,-1,56,58,60,62,64,66,68,70,72,-1,-1,74,76,78,-1,80,82,84,86,88,-1,90,92,-1,-1,-1,-1,-1,-1,-1,-1,-1,-1,-1,-1,-1,-1,-1,-1,-1,-1,-1,-1,-1,-1,-1,-1,-1,-1,-1,-1,-1,-1,-1,-1,-1,-1,-1,-1,-1,-1],"split_conditions":[1.0671841E0,1.5873291E0,2.2395086E0,2.5749092E0,2.7033625E0,1.6126165E0,3.0128694E0,-2.328978E0,1.8840262E-1,2.033169E-1,-1.8225925E-2,1.0303893E0,2.6216502E0,9.5217574E-1,-5.806713E-1,-3.1081114E0,6.5576303E-1,-2.8586475E-2,4.0660744E0,2.065785E-1,-8.686511E-2,-1.7357579E-1,-1.3999645E-1,2.0432343E0,1.6652558E0,1.6328053E0,-1.146789E-1,1.2712276E0,2.6585965E0,2.3207538E0,1.4576485E0,-1.4277996E-1,-1.2066908E-2,9.160216E-1,7.0431936E-1,-4.6309814E-2,2.1483868E-4,4.04652E0,-2.4661163E-2,1.4437046E0,2.4491658E0,-8.865334E-2,-3.980045E-2,7.448261E-1,8.09031E-1,2.8570342E-1,-7.905941E-2,2.895534E-2,3.258906E-1,1.4082258E0,2.5788908E0,-5.247834E-1,-3.664827E-2,1.4216924E0,9.8419225E-1,-1.2320579E-1,-1.0227966E-1,-9.5979795E-2,-1.12957716E-1,-8.1173584E-2,-4.081278E-2,-2.1148836E-2,-7.910545E-2,-1.10219084E-1,-1.014478E-1,-1.8421609E-2,6.1341085E-2,-3.792906E-2,-8.47864E-2,-1.2231988E-1,-1.3914074E-1,-1.11467E-1,-1.2612002E-1,-6.29766E-2,-7.4027754E-2,-4.8489857E-2,-6.300289E-2,-9.176208E-2,-1.0760686E-1,-3.7767436E-2,-5.0323714E-2,-2.3000875E-2,-3.9446965E-2,-4.9856346E-2,-7.059126E-2,-2.1371717E-2,-5.0031755E-2,-8.667659E-3,-2.2951502E-2,-1.1272735E-2,-3.1948218E-3,9.489173E-3,-2.0460642E-3],"split_indices":[3,4,3,5,4,4,3,4,3,2,3,5,4,4,1,4,3,0,5,3,0,0,0,3,3,3,0,5,3,4,5,0,3,4,0,1,3,5,1,5,4,0,0,4,4,0,0,2,1,4,4,0,0,5,4,0,0,0,0,0,0,0,0,0,0,0,0,0,0,0,0,0,0,0,0,0,0,0,0,0,0,0,0,0,0,0,0,0,0,0,0,0,0],"split_type":[0,0,0,0,0,0,0,0,0,0,0,0,0,0,0,0,0,0,0,0,0,0,0,0,0,0,0,0,0,0,0,0,0,0,0,0,0,0,0,0,0,0,0,0,0,0,0,0,0,0,0,0,0,0,0,0,0,0,0,0,0,0,0,0,0,0,0,0,0,0,0,0,0,0,0,0,0,0,0,0,0,0,0,0,0,0,0,0,0,0,0,0,0],"sum_hessian":[1.71555E5,1.68695E5,2.86E3,1.67555E5,1.14E3,2.085E3,7.75E2,1.51738E5,1.5817E4,9.37E2,2.03E2,1.725E3,3.6E2,5.74E2,2.01E2,5.94E2,1.51144E5,1.5244E4,5.73E2,9.03E2,3.4E1,1.47E2,5.6E1,2.08E2,1.517E3,2.67E2,9.3E1,4.52E2,1.22E2,5E1,1.51E2,1.7E2,4.24E2,1.49716E5,1.428E3,2.72E2,1.4972E4,6.4E1,5.09E2,6.04E2,2.99E2,2.05E2,3E0,1.02E3,4.97E2,1.78E2,8.9E1,1.55E2,2.97E2,9.7E1,2.5E1,4.1E1,9E0,4.1E1,1.1E2,3.42E2,8.2E1,1.4864E5,1.076E3,1.4E3,2.8E1,3.3E1,2.39E2,8.042E3,6.93E3,5.7E1,7E0,1.52E2,3.57E2,2.26E2,3.78E2,1.68E2,1.31E2,8.47E2,1.73E2,3.72E2,1.25E2,9.5E1,8.3E1,9.2E1,6.3E1,2.64E2,3.3E1,4.9E1,4.8E1,1.5E1,1E1,4E0,3.7E1,1.7E1,2.4E1,7.7E1,3.3E1],"tree_param":{"num_deleted":"0","num_feature":"6","num_nodes":"93","size_leaf_vector":"0"}},{"base_weights":[-2.4458581E-1,-2.4730775E-1,-2.3917271E-1,-2.853127E-1,-2.4663627E-1,-2.4068081E-1,-2.0632398E-1,-3.195791E-1,-2.714576E-1,-2.4617153E-1,-2.8105688E-1,-1.9765626E-1,-2.4158041E-1,-2.2073206E-1,-1.776717E-1,-2.954893E-1,-3.4139606E-1,-2.8463128E-1,-2.5675657E-1,-2.4575305E-1,-2.6562607E-1,-2.9835883E-1,-2.567832E-1,-2.238658E-1,-1.836493E-1,-2.4077174E-1,-3.000143E-1,-2.6087412E-1,-2.163585E-1,-1.8268116E-1,-1.4532211E-1,-2.878276E-1,-2.4230474E-1,-2.1110785E-1,-2.604477E-1,-2.4500714E-1,-2.5380144E-1,-2.8531927E-1,-2.5572252E-1,-3.37136E-1,-2.9235741E-1,-1.9763361E-1,-2.4021526E-1,-1.7656259E-1,-2.0511189E-1,-2.0884944E-1,-2.4193603E-1,-2.596781E-1,-3.2086414E-1,-1.5643324E-1,-2.6463005E-1,-2.056331E-1,-2.2473788E-1,-1.7765877E-1,-2.0233306E-1,-2.2991966E-1,-2.4524869E-1,-2.7519313E-1,-2.5264677E-1,-2.276891E-1,-2.9042038E-1,-3.1069568E-1,-2.5252378E-1,-2.8749615E-1,-3.1792763E-1,-2.2057907E-1,-1.771311E-1,-2.4148007E-1,-2.8042057E-1,-1.6465244E-1,-2.6797944E-1,-1.4636958E-1,-2.073046E-1,-2.2948049E-1,-2.1095966E-1,-1.817883E-1,-1.5894946E-1],"categories":[],"categories_nodes":[],"categories_segments":[],"categories_sizes":[],"default_left":[1,1,1,1,1,1,1,1,1,1,1,1,1,1,1,0,0,1,1,1,1,1,0,1,1,1,1,1,1,1,0,0,0,0,0,1,1,1,1,0,1,0,0,0,0,1,1,1,0,0,0,1,1,1,0,0,0,0,0,0,0,0,0,0,0,0,0,0,0,0,0,0,0,0,0,0,0],"id":12,"left_children":[1,3,5,7,9,11,13,15,17,19,21,23,25,27,29,-1,-1,31,33,35,37,39,-1,41,43,45,47,49,51,53,-1,-1,-1,-1,-1,55,57,59,61,-1,63,-1,-1,-1,-1,65,67,69,-1,-1,-1,71,73,75,-1,-1,-1,-1,-1,-1,-1,-1,-1,-1,-1,-1,-1,-1,-1,-1,-1,-1,-1,-1,-1,-1,-1],"loss_changes":[2.46875E0,2.8417969E0,2.7956543E0,8.509064E-1,1.7246094E0,2.0769043E0,1.0044022E0,1.9501495E-1,2.0056915E-1,8.364258E-1,5.4790497E-1,3.737297E-1,2.4689941E0,2.3815155E-1,1.1135864E-1,0E0,0E0,2.9830933E-2,5.9253693E-2,5.883789E-1,3.7911987E-1,1.0203552E-1,0E0,1.1935997E-1,7.66449E-2,1.9211426E0,5.3061676E-1,2.1367073E-2,9.030151E-2,3.640175E-2,0E0,0E0,0E0,0E0,0E0,3.046875E-1,1.5679932E-1,1.5935516E-1,1.9446564E-1,0E0,2.3269653E-3,0E0,0E0,0E0,0E0,6.581421E-1,8.300781E-1,1.5624046E-1,0E0,0E0,0E0,3.681755E-2,6.6070557E-3,1.6841888E-2,0E0,0E0,0E0,0E0,0E0,0E0,0E0,0E0,0E0,0E0,0E0,0E0,0E0,0E0,0E0,0E0,0E0,0E0,0E0,0E0,0E0,0E0,0E0],"parents":[2147483647,0,0,1,1,2,2,3,3,4,4,5,5,6,6,7,7,8,8,9,9,10,10,11,11,12,12,13,13,14,14,17,17,18,18,19,19,20,20,21,21,23,23,24,24,25,25,26,26,27,27,28,28,29,29,35,35,36,36,37,37,38,38,40,40,45,45,46,46,47,47,51,51,52,52,53,53],"right_children":[2,4,6,8,10,12,14,16,18,20,22,24,26,28,30,-1,-1,32,34,36,38,40,-1,42,44,46,48,50,52,54,-1,-1,-1,-1,-1,56,58,60,62,-1,64,-1,-1,-1,-1,66,68,70,-1,-1,-1,72,74,76,-1,-1,-1,-1,-1,-1,-1,-1,-1,-1,-1,-1,-1,-1,-1,-1,-1,-1,-1,-1,-1,-1,-1],"split_conditions":[1.9152567E-2,-7.9177785E-1,6.2448454E-1,-3.0472976E-1,9.2676604E-1,-1.0062918E-1,2.683944E-1,-5.547083E-1,-1.4662103E-1,4.1250813E-1,-2.025216E-1,5.005046E-1,8.637086E-1,-7.969278E-2,1.310474E-1,-8.86468E-2,-1.02418825E-1,9.130038E-2,4.9818525E-1,1.9510293E-1,-1.3990307E-1,-5.970268E-1,-7.703496E-2,-1.1279025E-1,3.7465972E-1,-6.757384E-1,5.0291646E-2,1.891118E-2,1.8337145E-1,4.129277E-1,-4.3596637E-2,-8.634829E-2,-7.2691426E-2,-6.333236E-2,-7.813431E-2,-7.105632E-1,-8.355306E-1,-4.0273893E-1,-4.3300174E-2,-1.01140805E-1,4.160288E-2,-5.9290085E-2,-7.206458E-2,-5.296878E-2,-6.153357E-2,2.8622583E-1,6.535782E-1,-5.659914E-2,-9.6259244E-2,-4.6929974E-2,-7.938902E-2,-1.7941706E-2,1.8919235E-1,5.1586425E-1,-6.069992E-2,-6.89759E-2,-7.357461E-2,-8.255794E-2,-7.579403E-2,-6.830674E-2,-8.712612E-2,-9.320871E-2,-7.575714E-2,-8.6248845E-2,-9.5378295E-2,-6.6173725E-2,-5.3139333E-2,-7.244402E-2,-8.4126174E-2,-4.9395733E-2,-8.0393836E-2,-4.3910876E-2,-6.2191382E-2,-6.884415E-2,-6.32879E-2,-5.453649E-2,-4.768484E-2],"split_indices":[1,4,4,1,4,5,1,3,1,3,1,1,1,5,2,0,0,2,5,0,1,1,0,0,0,4,5,0,3,0,0,0,0,0,0,0,3,0,5,0,2,0,0,0,0,1,0,5,0,0,0,5,1,1,0,0,0,0,0,0,0,0,0,0,0,0,0,0,0,0,0,0,0,0,0,0,0],"split_type":[0,0,0,0,0,0,0,0,0,0,0,0,0,0,0,0,0,0,0,0,0,0,0,0,0,0,0,0,0,0,0,0,0,0,0,0,0,0,0,0,0,0,0,0,0,0,0,0,0,0,0,0,0,0,0,0,0,0,0,0,0,0,0,0,0,0,0,0,0,0,0,0,0,0,0,0,0],"sum_hessian":[1.71555E5,1.14124E5,5.7431E4,1.974E3,1.1215E5,5.4904E4,2.527E3,5.62E2,1.412E3,1.10664E5,1.486E3,1.129E3,5.3775E4,1.677E3,8.5E2,2.74E2,2.88E2,7.35E2,6.77E2,1.08347E5,2.317E3,8.61E2,6.25E2,3.88E2,7.41E2,5.3046E4,7.29E2,1.59E2,1.518E3,7.32E2,1.18E2,6.78E2,5.7E1,5.5E1,6.22E2,9.9186E4,9.161E3,7.66E2,1.551E3,1.08E2,7.53E2,1.54E2,2.34E2,5.64E2,1.77E2,1.873E3,5.1173E4,2.53E2,4.76E2,7E0,1.52E2,6.77E2,8.41E2,5.91E2,1.41E2,1.578E3,9.7608E4,4.57E2,8.704E3,6.6E1,7E2,8E1,1.471E3,6.43E2,1.1E2,1.363E3,5.1E2,5.0581E4,5.92E2,2.2E1,2.31E2,2.1E1,6.56E2,6.14E2,2.27E2,4.77E2,1.14E2],"tree_param":{"num_deleted":"0","num_feature":"6","num_nodes":"77","size_leaf_vector":"0"}},{"base_weights":[-2.4532557E-1,-2.4232034E-1,-2.5009724E-1,-2.0501603E-1,-2.4310999E-1,-2.4895236E-1,-2.8927976E-1,-1.8426542E-1,-2.1997088E-1,-2.0499992E-1,-2.435265E-1,-2.8500947E-1,-2.4801251E-1,-2.7219608E-1,-3.072897E-1,-1.8856989E-1,-1.5655762E-1,-2.099377E-1,-2.3296183E-1,-2.755205E-1,-1.9744068E-1,-2.4402125E-1,-2.1398413E-1,-2.6293954E-1,-2.9489028E-1,-2.4746884E-1,-2.8084213E-1,-2.8247634E-1,-2.5465894E-1,-2.7018797E-1,-3.1924078E-1,-1.7023803E-1,-1.9806252E-1,-2.058119E-1,-2.2791816E-1,-1.6851877E-1,-2.0545448E-1,-2.4277584E-1,-2.5153148E-1,-1.993407E-1,-2.3025972E-1,-2.220351E-1,-2.9788294E-1,-2.641717E-1,-2.467684E-1,-2.6917002E-1,-3.0841753E-1,-2.545717E-1,-2.875835E-1,-2.8232032E-1,-2.4403796E-1,-3.080529E-1,-3.350474E-1,-1.3755627E-1,-1.740786E-1,-1.8818282E-1,-2.1912386E-1,-1.5990782E-1,-1.8471567E-1,-1.9682507E-1,-2.2110729E-1,-1.9654576E-1,-2.4295312E-1,-2.472607E-1,-2.6004612E-1,-1.7642759E-1,-2.0419528E-1,-2.3687863E-1,-2.1171494E-1,-2.933152E-1,-3.358538E-1,-2.8238976E-1,-2.3149173E-1,-2.474372E-1,-2.1957992E-1],"categories":[],"categories_nodes":[],"categories_segments":[],"categories_sizes":[],"default_left":[1,1,1,1,1,1,1,1,1,1,1,1,1,1,1,1,0,1,0,0,1,1,1,0,1,1,1,1,1,0,1,1,1,0,0,1,1,1,1,1,1,0,1,1,1,0,0,0,0,0,0,0,0,0,0,0,0,0,0,0,0,0,0,0,0,0,0,0,0,0,0,0,0,0,0],"id":13,"left_children":[1,3,5,7,9,11,13,15,17,19,21,23,25,27,29,31,-1,33,-1,-1,35,37,39,-1,41,43,45,47,49,-1,51,53,55,-1,-1,57,59,61,63,65,67,-1,69,71,73,-1,-1,-1,-1,-1,-1,-1,-1,-1,-1,-1,-1,-1,-1,-1,-1,-1,-1,-1,-1,-1,-1,-1,-1,-1,-1,-1,-1,-1,-1],"loss_changes":[2.4003906E0,3.052246E0,2.8999023E0,6.387558E-1,1.5859375E0,2.111084E0,4.9327087E-1,8.0560684E-2,1.16233826E-1,5.431862E-1,1.4384766E0,2.776947E-1,1.0510254E0,1.03126526E-1,3.1502533E-1,1.0445404E-1,0E0,6.875992E-3,0E0,0E0,2.0085907E-1,8.769531E-1,3.5639954E-1,0E0,1.7739868E-1,6.5722656E-1,2.436676E-1,1.2722015E-2,3.9512634E-2,0E0,1.6860962E-2,1.0948181E-2,6.63414E-2,0E0,0E0,1.9831657E-3,6.332779E-2,6.5771484E-1,4.534912E-1,6.3640594E-2,4.7187805E-2,0E0,8.707428E-2,1.405777E0,1.0234375E0,0E0,0E0,0E0,0E0,0E0,0E0,0E0,0E0,0E0,0E0,0E0,0E0,0E0,0E0,0E0,0E0,0E0,0E0,0E0,0E0,0E0,0E0,0E0,0E0,0E0,0E0,0E0,0E0,0E0,0E0],"parents":[2147483647,0,0,1,1,2,2,3,3,4,4,5,5,6,6,7,7,8,8,9,9,10,10,11,11,12,12,13,13,14,14,15,15,17,17,20,20,21,21,22,22,24,24,25,25,26,26,27,27,28,28,30,30,31,31,32,32,35,35,36,36,37,37,38,38,39,39,40,40,42,42,43,43,44,44],"right_children":[2,4,6,8,10,12,14,16,18,20,22,24,26,28,30,32,-1,34,-1,-1,36,38,40,-1,42,44,46,48,50,-1,52,54,56,-1,-1,58,60,62,64,66,68,-1,70,72,74,-1,-1,-1,-1,-1,-1,-1,-1,-1,-1,-1,-1,-1,-1,-1,-1,-1,-1,-1,-1,-1,-1,-1,-1,-1,-1,-1,-1,-1,-1],"split_conditions":[7.280678E-3,-7.306552E-1,9.211166E-1,-3.1314957E-1,-8.449067E-1,-7.632541E-1,2.6917386E-1,1.5111277E0,-1.3701257E-1,2.9527856E-2,6.2579256E-1,1.4551696E-1,7.5053656E-1,1.8452917E-1,2.8489727E-1,-5.373018E-1,-4.6967287E-2,2.6078793E-1,-6.9888555E-2,-8.265615E-2,-3.4003234E-1,1.446621E-1,-1.5669957E-1,-7.888187E-2,7.5171065E-1,-6.459845E-2,3.5190672E-1,-1.1499414E0,-1.2037954E0,-8.105639E-2,4.2863718E-1,-3.0684423E0,-1.3375967E0,-6.1743572E-2,-6.837545E-2,1.4878848E0,-1.1151388E-1,-9.948493E-1,1.3176199E-2,2.9543987E-2,7.355015E-3,-6.661053E-2,3.0107966E-2,5.0472267E-2,7.209835E-1,-8.075101E-2,-9.252526E-2,-7.637151E-2,-8.6275056E-2,-8.46961E-2,-7.321139E-2,-9.241587E-2,-1.00514226E-1,-4.126688E-2,-5.222358E-2,-5.645485E-2,-6.573716E-2,-4.7972348E-2,-5.5414703E-2,-5.9047524E-2,-6.633219E-2,-5.896373E-2,-7.288594E-2,-7.417821E-2,-7.801384E-2,-5.292828E-2,-6.1258584E-2,-7.106359E-2,-6.3514486E-2,-8.799456E-2,-1.0075614E-1,-8.471693E-2,-6.9447525E-2,-7.423116E-2,-6.587398E-2],"split_indices":[0,3,4,0,4,4,0,4,0,5,4,0,3,1,5,0,0,1,0,0,0,1,0,0,5,5,0,3,3,0,0,4,3,0,0,5,0,0,5,3,2,0,2,2,0,0,0,0,0,0,0,0,0,0,0,0,0,0,0,0,0,0,0,0,0,0,0,0,0,0,0,0,0,0,0],"split_type":[0,0,0,0,0,0,0,0,0,0,0,0,0,0,0,0,0,0,0,0,0,0,0,0,0,0,0,0,0,0,0,0,0,0,0,0,0,0,0,0,0,0,0,0,0,0,0,0,0,0,0,0,0,0,0,0,0,0,0,0,0,0,0,0,0,0,0,0,0,0,0,0,0,0,0],"sum_hessian":[1.71555E5,1.05293E5,6.6262E4,2.188E3,1.03105E5,6.4388E4,1.874E3,9.22E2,1.266E3,1.12E3,1.01985E5,1.628E3,6.276E4,9.7E2,9.04E2,7.93E2,1.29E2,7.24E2,5.42E2,1.05E2,1.015E3,1.00298E5,1.687E3,5.12E2,1.116E3,6.1746E4,1.014E3,6.02E2,3.68E2,2.26E2,6.78E2,2.77E2,5.16E2,5.99E2,1.25E2,2.25E2,7.9E2,8.606E4,1.4238E4,8.95E2,7.92E2,4.7E1,1.069E3,2.47E3,5.9276E4,7.2E2,2.94E2,1.01E2,5.01E2,9.5E1,2.73E2,4.09E2,2.69E2,3.3E1,2.44E2,3.58E2,1.58E2,1.54E2,7.1E1,5.18E2,2.72E2,3.33E2,8.5727E4,9.502E3,4.736E3,1.63E2,7.32E2,5.75E2,2.17E2,9.62E2,1.07E2,1.581E3,8.89E2,5.7845E4,1.431E3],"tree_param":{"num_deleted":"0","num_feature":"6","num_nodes":"75","size_leaf_vector":"0"}},{"base_weights":[-2.810417E-1,-2.783855E-1,-2.8454974E-1,-2.800888E-1,-2.6909125E-1,-2.5704113E-1,-2.8486946E-1,-2.6675105E-1,-2.8038663E-1,-2.7322006E-1,-2.5682524E-1,-2.2868013E-1,-2.6248044E-1,-2.8523332E-1,-2.681394E-1,-2.7667102E-1,-2.610182E-1,-2.8103045E-1,-2.7671334E-1,-2.6394302E-1,-2.7808976E-1,-2.2095326E-1,-2.5795496E-1,-2.6791883E-1,-2.854006E-1,-2.7147672E-1,-2.4260549E-1,-2.8111255E-1,-2.4482253E-1,-2.4141367E-1,-2.7698144E-1,-2.71071E-1,-2.5923586E-1,-2.834502E-1,-2.6828226E-1,-2.5921276E-1,-2.2272682E-1,-2.8560424E-1,-2.7745393E-1,-2.8137118E-1,-2.7011147E-1,-2.689195E-1,-2.7778974E-1,-2.2693314E-1,-2.6023093E-1,-2.7223366E-1,-2.861969E-1,-2.690021E-1,-2.1615931E-1,-2.2651684E-1,-2.6024345E-1,-2.861293E-1,-2.825726E-1],"categories":[],"categories_nodes":[],"categories_segments":[],"categories_sizes":[],"default_left":[1,1,1,1,1,1,1,1,1,1,1,0,0,1,1,0,0,1,1,1,1,0,1,0,1,0,0,1,0,0,1,0,1,1,1,1,0,1,0,0,0,0,0,0,0,0,0,0,0,0,0,0,0],"id":14,"left_children":[1,3,5,7,9,11,13,15,17,19,21,-1,-1,23,25,-1,-1,27,29,31,33,-1,35,-1,37,-1,-1,39,-1,-1,41,-1,43,45,47,49,-1,51,-1,-1,-1,-1,-1,-1,-1,-1,-1,-1,-1,-1,-1,-1,-1],"loss_changes":[1.5214844E0,1.4707031E0,5.761719E-1,2.529297E-1,6.972656E-1,7.249069E-2,3.6865234E-1,3.1448364E-2,1.1376953E-1,4.3804932E-1,9.8358154E-2,0E0,0E0,1.303711E-1,6.800842E-2,0E0,0E0,1.352539E-1,4.7668457E-2,6.1157227E-2,3.1329346E-1,0E0,1.06658936E-1,0E0,3.564453E-2,0E0,0E0,1.18652344E-1,0E0,0E0,3.540039E-3,0E0,1.751709E-2,6.90918E-2,4.0771484E-2,6.1538696E-2,0E0,2.9296875E-2,0E0,0E0,0E0,0E0,0E0,0E0,0E0,0E0,0E0,0E0,0E0,0E0,0E0,0E0,0E0],"parents":[2147483647,0,0,1,1,2,2,3,3,4,4,5,5,6,6,7,7,8,8,9,9,10,10,13,13,14,14,17,17,18,18,19,19,20,20,22,22,24,24,27,27,30,30,32,32,33,33,34,34,35,35,37,37],"right_children":[2,4,6,8,10,12,14,16,18,20,22,-1,-1,24,26,-1,-1,28,30,32,34,-1,36,-1,38,-1,-1,40,-1,-1,42,-1,44,46,48,50,-1,52,-1,-1,-1,-1,-1,-1,-1,-1,-1,-1,-1,-1,-1,-1,-1],"split_conditions":[1.6217766E0,3.4692965E-2,-2.4709003E-1,-6.29558E-1,1.5481617E-2,-2.132385E0,1.5330812E-1,-7.136483E-1,1.4030482E-1,-4.7397554E-2,-2.4342518E0,-6.8604045E-2,-7.8744136E-2,-1.1479325E0,3.929913E-1,-8.300131E-2,-7.830546E-2,6.391921E-1,-5.825863E-1,5.7783157E-2,1.4498553E-1,-6.628598E-2,2.2287333E0,-8.037565E-2,5.760534E-1,-8.144302E-2,-7.278165E-2,7.152535E-1,-7.3446766E-2,-7.242411E-2,-6.765346E-2,-8.13213E-2,-1.6827073E0,-2.0532887E-2,2.6911192E0,-2.7842016E0,-6.681805E-2,3.1965861E0,-8.323618E-2,-8.441135E-2,-8.1033446E-2,-8.0675855E-2,-8.333693E-2,-6.807994E-2,-7.8069285E-2,-8.1670105E-2,-8.585907E-2,-8.0700636E-2,-6.48478E-2,-6.7955054E-2,-7.807304E-2,-8.5838795E-2,-8.477178E-2],"split_indices":[5,5,1,0,2,3,1,1,4,0,3,0,0,3,1,0,0,3,3,5,0,0,3,0,4,0,0,0,0,0,5,0,4,1,4,4,0,5,0,0,0,0,0,0,0,0,0,0,0,0,0,0,0],"split_type":[0,0,0,0,0,0,0,0,0,0,0,0,0,0,0,0,0,0,0,0,0,0,0,0,0,0,0,0,0,0,0,0,0,0,0,0,0,0,0,0,0,0,0,0,0,0,0,0,0,0,0,0,0],"sum_hessian":[1.71555E5,9.7676E4,7.3879E4,8.2523E4,1.5153E4,8.58E2,7.3021E4,1.822E3,8.0701E4,1.1321E4,3.832E3,1.45E2,7.13E2,7.1451E4,1.57E3,6.5E2,1.172E3,6.8602E4,1.2099E4,3.916E3,7.405E3,1.23E2,3.709E3,6.99E2,7.0752E4,1.38E3,1.9E2,6.844E4,1.62E2,9.8E1,1.2001E4,1.535E3,2.381E3,4.77E3,2.635E3,3.575E3,1.34E2,6.895E4,1.802E3,6.6844E4,1.596E3,1.124E3,1.0877E4,7.8E1,2.303E3,9.58E2,3.812E3,2.595E3,4E1,1.16E2,3.459E3,5.8692E4,1.0258E4],"tree_param":{"num_deleted":"0","num_feature":"6","num_nodes":"53","size_leaf_vector":"0"}},{"base_weights":[-2.265034E-1,-2.175716E-1,-3.6862034E-1,-2.2032027E-1,-8.4281676E-2,-3.5528418E-1,-4.5096746E-1,-2.0684648E-1,-2.3990725E-1,-1.2241536E-1,-5.2445023E-3,-3.4054592E-1,-3.7997574E-1,-5.1904505E-1,-4.2516524E-1,-2.1729651E-1,-1.8996692E-1,-3.013309E-1,-2.3263043E-1,-1.8647452E-1,-1.059379E-1,-9.7918E-2,2.3224317E-2,-3.0296794E-1,-3.4836134E-1,-3.984716E-1,-3.6452928E-1,-4.8663384E-1,-5.616455E-1,-3.1588432E-1,-4.3257692E-1,-2.0758967E-1,-2.3748572E-1,-2.0173706E-1,-1.6624337E-1,-3.9552802E-1,-2.890541E-1,-2.3577344E-1,-1.807341E-1,-1.4937103E-1,-1.9708806E-1,-1.251426E-1,-8.026746E-2,-1.829753E-1,-8.228375E-2,-6.3203853E-3,8.41146E-2,-3.083813E-1,-2.548864E-1,-3.581151E-1,-3.2447997E-1,-4.5997497E-1,-3.9465067E-1,-3.7262443E-1,-3.4510952E-1,-4.8775104E-1,-1.18191205E-1,-3.1843585E-1,-7.119024E-2,-3.9980102E-1,-4.6807593E-1,-3.1064555E-1,-2.060701E-1,-2.7919015E-1,-2.3235941E-1,-1.9387802E-1,-2.1306986E-1,-1.4308093E-1,-1.7845209E-1,-4.6548823E-1,-3.7093386E-1,-3.114231E-1,-2.770438E-1,-2.2695473E-1,-2.4495688E-1,-1.9038574E-1,-1.4685841E-1,-1.621006E-1,-1.3114277E-1,-1.8708092E-1,-2.2854157E-1,-1.3825177E-1,-1.18341066E-1,-9.203912E-2,-5.772455E-2,-2.0067456E-1,-1.3350175E-1,-9.7308636E-2,-6.259695E-2,1.53859835E-2,-2.6045205E-2,9.781637E-2,2.2966655E-2,-3.268192E-1,-3.0158412E-1,-4.0615243E-1,-3.5438785E-1,-3.2722628E-1,-2.281428E-1,-3.485192E-1,-2.756409E-1,-1.9934878E-1,-3.2674512E-1],"categories":[],"categories_nodes":[],"categories_segments":[],"categories_sizes":[],"default_left":[1,1,1,1,1,1,1,1,1,1,1,1,1,1,1,1,1,1,1,1,1,1,1,1,1,1,1,1,0,1,1,1,1,1,1,1,1,1,1,1,1,1,1,1,1,1,1,1,0,1,1,0,0,0,1,0,0,1,0,0,0,0,0,0,0,0,0,0,0,0,0,0,0,0,0,0,0,0,0,0,0,0,0,0,0,0,0,0,0,0,0,0,0,0,0,0,0,0,0,0,0,0,0],"id":15,"left_children":[1,3,5,7,9,11,13,15,17,19,21,23,25,27,29,31,33,35,37,39,41,43,45,47,49,51,53,55,-1,57,59,61,63,65,67,69,71,73,75,77,79,81,83,85,87,89,91,93,-1,95,97,-1,-1,-1,99,-1,-1,101,-1,-1,-1,-1,-1,-1,-1,-1,-1,-1,-1,-1,-1,-1,-1,-1,-1,-1,-1,-1,-1,-1,-1,-1,-1,-1,-1,-1,-1,-1,-1,-1,-1,-1,-1,-1,-1,-1,-1,-1,-1,-1,-1,-1,-1],"loss_changes":[2.1768555E2,5.911914E1,1.097876E1,4.168799E1,9.833965E0,3.0490723E0,2.256073E0,1.6487305E1,2.873584E1,2.3034744E0,2.8067925E0,1.50354E0,7.8497314E-1,2.555008E-1,6.9599915E-1,1.1291504E1,9.973511E0,7.776062E0,9.357178E0,1.4737701E-1,8.5417175E-1,3.1739593E-1,1.4649059E0,1.6893768E-1,9.3878174E-1,1.6416931E-1,1.521759E-1,3.496933E-2,0E0,2.041006E-2,9.298248E-1,6.057007E0,3.9504395E0,2.0916748E0,3.336731E0,1.1762924E0,1.5364075E0,4.3442383E0,1.0493698E0,2.8736591E-3,6.6150665E-2,7.2891235E-2,1.9450903E-1,6.4840317E-3,5.691254E-2,2.3545742E-1,2.2061765E-1,7.9574585E-3,0E0,4.3008423E-1,2.7563477E-1,0E0,0E0,0E0,3.1600952E-2,0E0,0E0,2.1514893E-3,0E0,0E0,0E0,0E0,0E0,0E0,0E0,0E0,0E0,0E0,0E0,0E0,0E0,0E0,0E0,0E0,0E0,0E0,0E0,0E0,0E0,0E0,0E0,0E0,0E0,0E0,0E0,0E0,0E0,0E0,0E0,0E0,0E0,0E0,0E0,0E0,0E0,0E0,0E0,0E0,0E0,0E0,0E0,0E0,0E0],"parents":[2147483647,0,0,1,1,2,2,3,3,4,4,5,5,6,6,7,7,8,8,9,9,10,10,11,11,12,12,13,13,14,14,15,15,16,16,17,17,18,18,19,19,20,20,21,21,22,22,23,23,24,24,25,25,26,26,27,27,29,29,30,30,31,31,32,32,33,33,34,34,35,35,36,36,37,37,38,38,39,39,40,40,41,41,42,42,43,43,44,44,45,45,46,46,47,47,49,49,50,50,54,54,57,57],"right_children":[2,4,6,8,10,12,14,16,18,20,22,24,26,28,30,32,34,36,38,40,42,44,46,48,50,52,54,56,-1,58,60,62,64,66,68,70,72,74,76,78,80,82,84,86,88,90,92,94,-1,96,98,-1,-1,-1,100,-1,-1,102,-1,-1,-1,-1,-1,-1,-1,-1,-1,-1,-1,-1,-1,-1,-1,-1,-1,-1,-1,-1,-1,-1,-1,-1,-1,-1,-1,-1,-1,-1,-1,-1,-1,-1,-1,-1,-1,-1,-1,-1,-1,-1,-1,-1,-1],"split_conditions":[3.2372499E0,9.2224336E-1,5.500753E0,1.1891124E0,1.9665086E0,5.0225334E0,-1.1596719E-1,3.6142375E-2,-1.8710704E-1,1.1984762E0,1.3017895E0,4.216621E0,3.0182632E-2,6.355278E0,-3.927933E-2,3.2108314E-2,5.007548E-2,-1.9126493E0,2.981094E-1,-2.7405124E-2,1.3331168E0,2.7288443E-1,2.6713452E0,2.5216722E-1,8.738503E-2,-1.7805515E-1,1.3403963E-1,6.9945484E-1,-1.6849366E-1,8.4232545E-1,5.868289E0,-7.9262686E-1,-4.5346367E-1,8.908802E-2,-1.0512984E-1,-2.688988E0,-7.8609145E-1,2.080059E0,6.976398E-1,-1.8536403E0,1.2412253E-1,1.0531108E0,1.6712922E0,1.478565E-1,1.0852436E0,2.9148124E-3,2.5368687E-2,-2.6405666E-2,-7.646592E-2,-1.6969597E-1,4.619177E-2,-1.379925E-1,-1.183952E-1,-1.11787334E-1,5.5545366E-1,-1.4632532E-1,-3.545736E-2,-6.0884148E-2,-2.1357073E-2,-1.1994031E-1,-1.4042279E-1,-9.3193665E-2,-6.1821032E-2,-8.375705E-2,-6.9707826E-2,-5.816341E-2,-6.392096E-2,-4.292428E-2,-5.353563E-2,-1.3964647E-1,-1.11280166E-1,-9.342693E-2,-8.311314E-2,-6.808642E-2,-7.3487066E-2,-5.7115726E-2,-4.4057526E-2,-4.863018E-2,-3.934283E-2,-5.6124277E-2,-6.856247E-2,-4.147553E-2,-3.5502322E-2,-2.7611738E-2,-1.7317366E-2,-6.020237E-2,-4.005053E-2,-2.9192591E-2,-1.8779084E-2,4.6157953E-3,-7.813562E-3,2.9344913E-2,6.8899966E-3,-9.804577E-2,-9.047524E-2,-1.2184573E-1,-1.0631636E-1,-9.816789E-2,-6.8442844E-2,-1.0455576E-1,-8.269227E-2,-5.9804637E-2,-9.802354E-2],"split_indices":[5,4,5,5,4,5,4,3,4,5,5,5,4,5,1,4,0,4,4,1,4,5,4,4,4,4,4,3,0,4,5,1,0,4,4,4,4,5,4,3,2,4,4,0,5,2,2,4,0,3,0,0,0,0,4,0,0,1,0,0,0,0,0,0,0,0,0,0,0,0,0,0,0,0,0,0,0,0,0,0,0,0,0,0,0,0,0,0,0,0,0,0,0,0,0,0,0,0,0,0,0,0,0],"split_type":[0,0,0,0,0,0,0,0,0,0,0,0,0,0,0,0,0,0,0,0,0,0,0,0,0,0,0,0,0,0,0,0,0,0,0,0,0,0,0,0,0,0,0,0,0,0,0,0,0,0,0,0,0,0,0,0,0,0,0,0,0,0,0,0,0,0,0,0,0,0,0,0,0,0,0,0,0,0,0,0,0,0,0,0,0,0,0,0,0,0,0,0,0,0,0,0,0,0,0,0,0,0,0],"sum_hessian":[1.71555E5,1.61413E5,1.0142E4,1.58151E5,3.262E3,8.733E3,1.409E3,9.3704E4,6.4447E4,2.2E3,1.062E3,5.478E3,3.255E3,3.82E2,1.027E3,5.7867E4,3.5837E4,6.822E3,5.7625E4,4.48E2,1.752E3,2.49E2,8.13E2,9.5E2,4.528E3,1.47E3,1.785E3,2.24E2,1.58E2,6.8E1,9.59E2,3.9086E4,1.8781E4,2.3948E4,1.1889E4,7.83E2,6.039E3,5.4331E4,3.294E3,1.03E2,3.45E2,1E3,7.52E2,3.7E1,2.12E2,5.48E2,2.65E2,8.49E2,1.01E2,3.205E3,1.323E3,7.9E1,1.391E3,1.247E3,5.38E2,2.23E2,1E0,6.7E1,1E0,5.05E2,4.54E2,5.65E2,3.8521E4,2.05E3,1.6731E4,1.4152E4,9.796E3,4.108E3,7.781E3,1.99E2,5.84E2,2.101E3,3.938E3,2.7729E4,2.6602E4,2.56E3,7.34E2,5.6E1,4.7E1,2.67E2,7.8E1,3.35E2,6.65E2,4.92E2,2.6E2,2.5E1,1.2E1,1.18E2,9.4E1,2.61E2,2.87E2,2.16E2,4.9E1,2.16E2,6.33E2,2.23E2,2.982E3,1.284E3,3.9E1,5.09E2,2.9E1,6E0,6.1E1],"tree_param":{"num_deleted":"0","num_feature":"6","num_nodes":"103","size_leaf_vector":"0"}},{"base_weights":[-3.1389478E-1,-3.0999115E-1,-3.99361E-1,-3.143326E-1,-2.5494403E-1,-3.777391E-1,-4.7017062E-1,-2.3446184E-1,-3.1738245E-1,-1.8528937E-1,-2.6644722E-1,-3.5264444E-1,-3.9562383E-1,-5.620691E-1,-4.405E-1,-2.95828E-1,-2.1484749E-1,-3.111931E-1,-3.332626E-1,-3.640132E-2,-1.9766568E-1,-2.512928E-1,-2.8861398E-1,-3.9838547E-1,-3.410255E-1,-3.7483093E-1,-4.1766524E-1,-5.2933264E-1,-6.0132295E-1,-4.6551523E-1,-3.7992814E-1,-3.2510993E-1,-2.5540045E-1,-1.1302238E-1,-2.2465621E-1,-3.1889582E-1,-3.0248713E-1,-3.3742157E-1,-3.0688056E-1,-1.1068313E-1,-6.3054287E-3,-2.1965568E-1,-1.5963855E-1,-2.7032802E-1,-2.3443769E-1,-2.809804E-1,-3.2126287E-1,-2.8603026E-1,-4.0367165E-1,-3.3583897E-1,-4.0266043E-1,-3.7000546E-1,-4.394219E-1,-4.1333613E-1,-5.503821E-1,-6.3947326E-1,-5.2627796E-1,-4.541067E-1,-5.101587E-1,-3.0506447E-1,-4.0052792E-1,-3.093931E-1,-3.4181976E-1,-2.2067937E-1,-2.6440045E-1,-2.6262712E-2,-1.4666498E-1,-2.0375586E-1,-2.4570052E-1,-3.0345812E-1,-3.278449E-1,-2.9047492E-1,-3.0879834E-1,-3.286012E-1,-3.4874943E-1,-3.1419486E-1,-2.965091E-1,5.0405692E-2,-1.2103266E-1,-8.17272E-2,1.1180433E-2,-2.3966573E-1,-2.0507868E-1,-1.7079332E-1,-1.02334E-1,-2.757168E-1,-2.5795588E-1,-2.233359E-1,-2.502976E-1,-2.986802E-1,-2.7197874E-1,-2.973529E-1,-3.4076008E-1,-3.092037E-1,-3.473397E-1,-3.9288685E-1,-4.2608556E-1,-4.2267796E-1,-4.663681E-1,-2.9385403E-1,-4.073811E-1],"categories":[],"categories_nodes":[],"categories_segments":[],"categories_sizes":[],"default_left":[1,1,1,1,1,1,1,1,1,1,1,1,1,1,1,1,1,1,1,1,1,1,1,1,1,1,1,0,1,1,1,1,1,1,1,1,1,1,1,1,1,1,1,1,1,1,1,0,0,1,0,0,0,1,0,0,0,1,0,0,1,0,0,0,0,0,0,0,0,0,0,0,0,0,0,0,0,0,0,0,0,0,0,0,0,0,0,0,0,0,0,0,0,0,0,0,0,0,0,0,0],"id":16,"left_children":[1,3,5,7,9,11,13,15,17,19,21,23,25,27,29,31,33,35,37,39,41,43,45,47,49,51,53,-1,55,57,59,61,63,65,67,69,71,73,75,77,79,81,83,85,87,89,91,-1,-1,93,-1,-1,-1,95,-1,-1,-1,97,-1,-1,99,-1,-1,-1,-1,-1,-1,-1,-1,-1,-1,-1,-1,-1,-1,-1,-1,-1,-1,-1,-1,-1,-1,-1,-1,-1,-1,-1,-1,-1,-1,-1,-1,-1,-1,-1,-1,-1,-1,-1,-1],"loss_changes":[5.711133E1,3.9128906E1,1.1289795E1,3.6969727E1,9.564819E0,2.4381104E0,4.5186462E0,6.6733093E0,1.4293945E1,3.1327362E0,3.3861084E0,1.1391296E0,1.3764648E0,2.2528076E-1,1.8323364E0,1.5186462E0,4.2144012E0,6.9716797E0,4.4018555E0,2.9439825E-1,1.280304E0,1.901123E0,9.500122E-1,1.6963196E-1,4.7854614E-1,3.7695312E-1,7.0040894E-1,0E0,1.931076E-1,2.4404907E-1,4.8389435E-1,9.9349976E-2,1.2071228E-1,1.0907063E0,1.6525269E0,7.6240234E0,3.663086E0,3.428711E0,3.3190918E-1,6.945416E-2,1.2620112E-1,2.407875E-1,3.5326862E-1,1.2017822E-1,5.172119E-1,4.590454E-1,2.6416016E-1,0E0,0E0,4.3693542E-1,0E0,0E0,0E0,2.4139404E-1,0E0,0E0,0E0,9.3063354E-2,0E0,0E0,1.03256226E-1,0E0,0E0,0E0,0E0,0E0,0E0,0E0,0E0,0E0,0E0,0E0,0E0,0E0,0E0,0E0,0E0,0E0,0E0,0E0,0E0,0E0,0E0,0E0,0E0,0E0,0E0,0E0,0E0,0E0,0E0,0E0,0E0,0E0,0E0,0E0,0E0,0E0,0E0,0E0,0E0],"parents":[2147483647,0,0,1,1,2,2,3,3,4,4,5,5,6,6,7,7,8,8,9,9,10,10,11,11,12,12,13,13,14,14,15,15,16,16,17,17,18,18,19,19,20,20,21,21,22,22,23,23,24,24,25,25,26,26,28,28,29,29,30,30,31,31,32,32,33,33,34,34,35,35,36,36,37,37,38,38,39,39,40,40,41,41,42,42,43,43,44,44,45,45,46,46,49,49,53,53,57,57,60,60],"right_children":[2,4,6,8,10,12,14,16,18,20,22,24,26,28,30,32,34,36,38,40,42,44,46,48,50,52,54,-1,56,58,60,62,64,66,68,70,72,74,76,78,80,82,84,86,88,90,92,-1,-1,94,-1,-1,-1,96,-1,-1,-1,98,-1,-1,100,-1,-1,-1,-1,-1,-1,-1,-1,-1,-1,-1,-1,-1,-1,-1,-1,-1,-1,-1,-1,-1,-1,-1,-1,-1,-1,-1,-1,-1,-1,-1,-1,-1,-1,-1,-1,-1,-1,-1,-1],"split_conditions":[4.2789316E-1,2.812511E0,1.5198624E0,-5.564774E-1,-9.399907E-2,1.37025E0,-3.4637555E-2,6.4268625E-1,4.6234585E-2,-4.2260948E-1,2.8497167E-2,-3.413255E-1,7.911893E-1,2.7921674E0,1.6546529E-2,4.1738892E-1,-2.4035528E-2,6.777064E-2,1.9256824E-1,4.371481E0,5.0874624E0,4.808058E0,1.448299E-1,-1.8268598E0,9.865749E-1,2.087797E0,4.779068E0,-1.587998E-1,-6.303623E-2,2.500606E0,-2.112275E-1,-2.5045207E-1,-4.4264114E-1,-4.5634806E-1,-1.1943059E0,-4.896535E-2,-4.551348E-2,2.9249178E-2,4.638903E-1,-7.2994596E-1,-7.264087E-1,4.427231E0,6.2673817E0,4.3995495E0,-1.3240885E-2,4.732443E0,-2.0628609E-2,-8.580908E-2,-1.211015E-1,-1.1533368E-1,-1.2079813E-1,-1.1100164E-1,-1.3182658E-1,-1.8518353E-1,-1.6511463E-1,-1.9184199E-1,-1.5788339E-1,1.4552724E0,-1.5304762E-1,-9.151934E-2,-1.9664037E0,-9.281793E-2,-1.0254593E-1,-6.620382E-2,-7.932014E-2,-7.878814E-3,-4.3999493E-2,-6.1126757E-2,-7.371016E-2,-9.103744E-2,-9.835347E-2,-8.714248E-2,-9.2639506E-2,-9.858037E-2,-1.0462483E-1,-9.4258465E-2,-8.895273E-2,1.5121709E-2,-3.63098E-2,-2.451816E-2,3.35413E-3,-7.189972E-2,-6.1523605E-2,-5.1238E-2,-3.0700201E-2,-8.271505E-2,-7.738677E-2,-6.700078E-2,-7.508928E-2,-8.960406E-2,-8.1593625E-2,-8.9205876E-2,-1.0222803E-1,-9.2761114E-2,-1.0420191E-1,-1.1786606E-1,-1.2782568E-1,-1.268034E-1,-1.3991044E-1,-8.815621E-2,-1.2221433E-1],"split_indices":[3,5,3,3,3,5,2,5,3,3,3,0,3,3,2,0,2,5,0,5,5,5,3,4,1,5,5,0,2,3,5,1,4,1,3,4,3,1,0,3,4,5,5,5,3,5,2,0,0,4,0,0,0,4,0,0,0,5,0,0,4,0,0,0,0,0,0,0,0,0,0,0,0,0,0,0,0,0,0,0,0,0,0,0,0,0,0,0,0,0,0,0,0,0,0,0,0,0,0,0,0],"split_type":[0,0,0,0,0,0,0,0,0,0,0,0,0,0,0,0,0,0,0,0,0,0,0,0,0,0,0,0,0,0,0,0,0,0,0,0,0,0,0,0,0,0,0,0,0,0,0,0,0,0,0,0,0,0,0,0,0,0,0,0,0,0,0,0,0,0,0,0,0,0,0,0,0,0,0,0,0,0,0,0,0,0,0,0,0,0,0,0,0,0,0,0,0,0,0,0,0,0,0,0,0],"sum_hessian":[1.71555E5,1.64066E5,7.489E3,1.52068E5,1.1998E4,5.742E3,1.747E3,5.596E3,1.46472E5,1.703E3,1.0295E4,2.398E3,3.344E3,4.22E2,1.325E3,1.352E3,4.244E3,1.05409E5,4.1063E4,1.31E2,1.572E3,6.122E3,4.173E3,4.79E2,1.919E3,1.73E3,1.614E3,2.38E2,1.84E2,9.33E2,3.92E2,7.8E2,5.72E2,3.74E2,3.87E3,5.5908E4,4.9501E4,3.5461E4,5.602E3,3.7E1,9.4E1,9.93E2,5.79E2,2.868E3,3.254E3,3.39E3,7.83E2,2.4E1,4.55E2,1.776E3,1.43E2,1.616E3,1.14E2,1.567E3,4.7E1,1.17E2,6.7E1,7.52E2,1.81E2,8.8E1,3.04E2,4.12E2,3.68E2,1.23E2,4.49E2,1.05E2,2.69E2,1.947E3,1.923E3,2.0529E4,3.5379E4,1.7066E4,3.2435E4,1.9954E4,1.5507E4,3.268E3,2.334E3,2E0,3.5E1,1.7E1,7.7E1,4.12E2,5.81E2,4.83E2,9.6E1,1.983E3,8.85E2,1.923E3,1.331E3,1.132E3,2.258E3,3.59E2,4.24E2,5.44E2,1.232E3,6.14E2,9.53E2,2.21E2,5.31E2,2.1E1,2.83E2],"tree_param":{"num_deleted":"0","num_feature":"6","num_nodes":"101","size_leaf_vector":"0"}},{"base_weights":[-2.2505257E-1,-2.2672774E-1,-1.46367E-1,-2.26065E-1,-3.065714E-1,-1.7233217E-1,-7.733045E-2,-2.2366533E-1,-2.393688E-1,-2.9164812E-1,-3.8925618E-1,-1.5072641E-1,-2.1963693E-1,-1.0102984E-1,-2.5539756E-2,-2.5269794E-1,-2.2277424E-1,-2.4188657E-1,-1.735506E-1,-2.7502298E-1,-3.170017E-1,-3.60172E-1,-4.2482352E-1,-1.4425543E-1,-2.0167181E-1,-1.9793162E-1,-2.5129092E-1,-8.525503E-2,-1.5489359E-1,-5.0254535E-2,5.048497E-3,-2.0788476E-1,-2.7097788E-1,-2.2249289E-1,-2.5449982E-1,-2.3751727E-1,-2.6765203E-1,-2.0304556E-1,-8.89321E-2,-2.174988E-1,-2.8347275E-1,-2.9134086E-1,-3.413903E-1,-1.4592431E-1,1.8749038E-2,-2.2684613E-1,-1.8213296E-1,-2.3584208E-1,-2.753169E-1,-6.961901E-2,-1.09287545E-1,-1.37302E-1,-2.0359218E-1,-7.830952E-2,-3.316404E-2,-3.9137993E-2,1.6050044E-2,-3.0025876E-1,-1.9668724E-1,-2.2765593E-1,-2.748833E-1,-2.2307508E-1,-2.0227101E-1,-2.1974345E-1,-2.640989E-1,-1.0846432E-1,-2.3859861E-1,-2.4545264E-1,-3.0598617E-1,-4.230573E-1,-1.8575601E-1,-7.401766E-3,-1.3706104E-1,-2.446143E-1,-1.6764936E-1,-2.907253E-1,-2.3803775E-1,-3.6479634E-1,-3.1544483E-1,-1.5475653E-1,-1.23794705E-1,4.332553E-1,-1.01020545E-1,-1.9660671E-1,-1.611052E-1,-1.9603091E-1,-2.4514177E-1,-1.0048348E-1,-6.606739E-2,-1.2763526E-1,-9.564708E-2,-1.2368952E-1,-1.7293552E-1,-1.00444406E-1,-5.830338E-2,-4.758514E-2,-1.9911624E-2,-5.404855E-2,-1.4753205E-2,-3.7506043E-3,2.6679851E-2],"categories":[],"categories_nodes":[],"categories_segments":[],"categories_sizes":[],"default_left":[1,1,1,1,1,1,1,1,1,1,1,1,1,1,1,1,1,1,1,1,1,0,0,1,0,1,1,1,1,1,1,1,1,1,1,1,1,1,1,1,1,0,1,1,1,0,1,1,0,1,1,1,0,1,1,1,1,0,0,0,0,0,0,0,0,0,0,0,0,0,0,0,0,0,0,0,0,0,0,0,0,0,0,0,0,0,0,0,0,0,0,0,0,0,0,0,0,0,0,0,0],"id":17,"left_children":[1,3,5,7,9,11,13,15,17,19,21,23,25,27,29,31,33,35,37,39,41,-1,-1,43,-1,45,47,49,51,53,55,57,59,61,63,65,67,69,71,73,75,-1,77,79,81,-1,83,85,-1,87,89,91,-1,93,95,97,99,-1,-1,-1,-1,-1,-1,-1,-1,-1,-1,-1,-1,-1,-1,-1,-1,-1,-1,-1,-1,-1,-1,-1,-1,-1,-1,-1,-1,-1,-1,-1,-1,-1,-1,-1,-1,-1,-1,-1,-1,-1,-1,-1,-1],"loss_changes":[2.2580078E1,8.819336E0,6.402199E0,5.265625E0,1.5892944E0,2.624237E0,1.2002802E0,3.5952148E0,4.1745605E0,4.0724182E-1,6.2156677E-2,5.603523E-1,5.0884247E-1,5.5778646E-1,2.3385212E-1,3.380951E0,1.1660156E0,2.6949463E0,2.3305092E0,2.8636932E-1,1.8717194E-1,0E0,0E0,4.3527603E-1,0E0,1.8115044E-1,5.644226E-2,1.8854499E-1,1.0140586E-1,7.939297E-2,6.8198815E-2,1.2028656E0,4.4110107E-1,1.5537109E0,3.4132385E-1,2.89917E0,2.9416962E0,2.5727367E0,9.6035814E-1,8.875322E-2,1.3542557E-1,0E0,2.3994446E-2,2.8848267E-1,8.877368E-1,0E0,6.57177E-2,2.8211594E-2,0E0,2.832961E-2,3.8847446E-2,3.390646E-2,0E0,2.2485077E-2,1.969286E-2,9.383153E-3,2.3673497E-2,0E0,0E0,0E0,0E0,0E0,0E0,0E0,0E0,0E0,0E0,0E0,0E0,0E0,0E0,0E0,0E0,0E0,0E0,0E0,0E0,0E0,0E0,0E0,0E0,0E0,0E0,0E0,0E0,0E0,0E0,0E0,0E0,0E0,0E0,0E0,0E0,0E0,0E0,0E0,0E0,0E0,0E0,0E0,0E0],"parents":[2147483647,0,0,1,1,2,2,3,3,4,4,5,5,6,6,7,7,8,8,9,9,10,10,11,11,12,12,13,13,14,14,15,15,16,16,17,17,18,18,19,19,20,20,23,23,25,25,26,26,27,27,28,28,29,29,30,30,31,31,32,32,33,33,34,34,35,35,36,36,37,37,38,38,39,39,40,40,42,42,43,43,44,44,46,46,47,47,49,49,50,50,51,51,53,53,54,54,55,55,56,56],"right_children":[2,4,6,8,10,12,14,16,18,20,22,24,26,28,30,32,34,36,38,40,42,-1,-1,44,-1,46,48,50,52,54,56,58,60,62,64,66,68,70,72,74,76,-1,78,80,82,-1,84,86,-1,88,90,92,-1,94,96,98,100,-1,-1,-1,-1,-1,-1,-1,-1,-1,-1,-1,-1,-1,-1,-1,-1,-1,-1,-1,-1,-1,-1,-1,-1,-1,-1,-1,-1,-1,-1,-1,-1,-1,-1,-1,-1,-1,-1,-1,-1,-1,-1,-1,-1],"split_conditions":[8.469118E-1,1.3179731E0,1.99147E0,2.3959146E0,2.6841478E0,9.094213E-1,2.74071E0,-6.4951754E-1,1.450201E-1,2.083971E0,3.2474403E0,2.3839734E-2,1.8780513E0,1.1235182E0,3.1524396E0,1.2588832E0,8.6327636E-1,5.075289E0,1.1955507E-2,1.1072311E0,1.4689047E0,-1.08051606E-1,-1.2744707E-1,6.01746E0,-6.0501546E-2,1.2854569E0,3.2855022E-1,7.541763E-4,7.9482937E-1,-5.373746E-1,-5.41422E-1,-2.0483985E0,-2.3817506E0,3.9009535E-1,-5.421077E-2,-4.5278322E-2,-7.6478333E-3,-2.991795E-1,4.7635837E0,4.3816894E-1,5.0019157E-1,-8.740226E-2,-5.359931E-1,1.4717214E0,6.041336E0,-6.805384E-2,1.4751263E0,2.0846725E0,-8.259507E-2,2.027707E0,1.085197E0,2.258684E0,-6.1077658E-2,2.6065826E-2,1.4216924E0,1.5998304E0,1.510019E0,-9.007763E-2,-5.9006173E-2,-6.829678E-2,-8.246499E-2,-6.692252E-2,-6.0681306E-2,-6.5923035E-2,-7.9229675E-2,-3.2539297E-2,-7.157959E-2,-7.3635794E-2,-9.1795854E-2,-1.269172E-1,-5.5726808E-2,-2.2205298E-3,-4.1118316E-2,-7.338429E-2,-5.029481E-2,-8.721759E-2,-7.141133E-2,-1.094389E-1,-9.463345E-2,-4.642696E-2,-3.7138414E-2,1.299766E-1,-3.0306164E-2,-5.8982015E-2,-4.8331562E-2,-5.8809277E-2,-7.3542535E-2,-3.0145044E-2,-1.9820217E-2,-3.829058E-2,-2.8694125E-2,-3.7106857E-2,-5.1880658E-2,-3.0133324E-2,-1.7491015E-2,-1.4275542E-2,-5.9734876E-3,-1.6214566E-2,-4.4259615E-3,-1.1251813E-3,8.003956E-3],"split_indices":[3,4,3,5,4,4,3,3,3,4,4,2,4,4,3,5,1,5,0,5,5,0,0,5,0,5,0,2,0,1,1,4,3,3,2,2,2,4,5,1,3,0,3,3,5,0,3,4,0,3,5,4,0,2,5,5,5,0,0,0,0,0,0,0,0,0,0,0,0,0,0,0,0,0,0,0,0,0,0,0,0,0,0,0,0,0,0,0,0,0,0,0,0,0,0,0,0,0,0,0,0],"split_type":[0,0,0,0,0,0,0,0,0,0,0,0,0,0,0,0,0,0,0,0,0,0,0,0,0,0,0,0,0,0,0,0,0,0,0,0,0,0,0,0,0,0,0,0,0,0,0,0,0,0,0,0,0,0,0,0,0,0,0,0,0,0,0,0,0,0,0,0,0,0,0,0,0,0,0,0,0,0,0,0,0,0,0,0,0,0,0,0,0,0,0,0,0,0,0,0,0,0,0,0,0],"sum_hessian":[1.71555E5,1.67977E5,3.578E3,1.66598E5,1.379E3,2.599E3,9.79E2,1.41155E5,2.5443E4,1.172E3,2.07E2,1.787E3,8.12E2,6.71E2,3.08E2,4.195E3,1.3696E5,2.4503E4,9.4E2,7.15E2,4.57E2,1.2E2,8.7E1,1.589E3,1.98E2,4.86E2,3.26E2,5.21E2,1.5E2,1.7E2,1.38E2,1.219E3,2.976E3,1.35764E5,1.196E3,2.0959E4,3.544E3,6.96E2,2.44E2,9.5E1,6.2E2,2.29E2,2.28E2,1.573E3,1.6E1,1.67E2,3.19E2,2.05E2,1.21E2,3.18E2,2.03E2,1.13E2,3.7E1,6.3E1,1.07E2,2.7E1,1.11E2,1.29E2,1.09E3,2.51E2,2.725E3,1.31955E5,3.809E3,2.64E2,9.32E2,1.75E2,2.0784E4,2.249E3,1.295E3,4.9E1,6.47E2,9.1E1,1.53E2,5.9E1,3.6E1,5.3E2,9E1,1.13E2,1.15E2,1.12E3,4.53E2,3E0,1.3E1,1.84E2,1.35E2,4.3E1,1.62E2,3E1,2.88E2,8.3E1,1.2E2,8.5E1,2.8E1,2.8E1,3.5E1,5E1,5.7E1,1.6E1,1.1E1,3.9E1,7.2E1],"tree_param":{"num_deleted":"0","num_feature":"6","num_nodes":"101","size_leaf_vector":"0"}},{"base_weights":[-1.7122637E-1,-1.739045E-1,-1.6833575E-1,-1.9672383E-1,-1.7317891E-1,-1.4726482E-1,-1.693539E-1,-2.0985073E-1,-1.8201943E-1,-1.727573E-1,-1.976076E-1,-1.5304299E-1,-1.1480269E-1,-1.6991508E-1,-1.4810032E-1,-1.9778945E-1,-2.2853926E-1,-1.8935695E-1,-1.7297675E-1,-1.7230721E-1,-1.8303795E-1,-2.0785178E-1,-1.7734046E-1,-1.2035289E-1,-1.5509021E-1,-1.191985E-1,-8.161016E-2,-1.5081792E-1,-1.7046782E-1,-1.599927E-1,-1.3230531E-1,-1.8099809E-1,-2.0444198E-1,-2.7456915E-1,-2.2376828E-1,-1.6943221E-1,-1.9411682E-1,-1.7096734E-1,-2.2199781E-1,-1.9086942E-1,-1.720415E-1,-1.7964676E-1,-2.0666032E-1,-2.3193115E-1,-2.0246479E-1,-1.8157017E-1,-1.5271562E-1,-1.3271005E-1,-1.0011571E-1,-1.633224E-1,-1.4739516E-1,-1.3146627E-1,-1.07269205E-1,-9.2358515E-2,-6.7915894E-2,-1.6660552E-1,-1.2584332E-1,-1.6955055E-1,-1.9238798E-1,-1.4904703E-1,-1.7783321E-1,-1.5740247E-1,-1.2745933E-1,-2.240736E-1,-2.0008473E-1,-2.28884E-1,-1.696545E-1,-1.4760208E-1,-1.812643E-1,-1.7322601E-1,-1.3823313E-1,-2.5318238E-1,-1.8777308E-1,-1.6689686E-1,-1.7279916E-1,-1.8493798E-1,-1.722068E-1,-2.5440884E-1,-2.0188212E-1,-2.1140462E-1,-1.925167E-1,-1.3704754E-1,-9.8878704E-2,-1.7373165E-1,-1.5613621E-1,-1.6621716E-1,-1.4400202E-1,-1.24072954E-1,-1.6771588E-1,-1.1020253E-1,-8.692358E-2,-1.2205885E-1,-1.6937213E-1,-1.1985692E-1,-1.3925329E-1,-1.682681E-1,-1.7547873E-1,-1.7893301E-1,-2.1362308E-1,-1.5052609E-1,-1.0991254E-1,-1.8433265E-1,-1.4938973E-1,-1.4860907E-1,-1.9490817E-1,-1.3994871E-1,-1.180718E-1],"categories":[],"categories_nodes":[],"categories_segments":[],"categories_sizes":[],"default_left":[1,1,1,1,1,1,1,1,1,1,1,1,1,1,1,1,1,1,1,1,1,1,1,1,1,1,1,1,1,1,1,0,1,0,1,1,0,1,0,1,1,1,1,0,1,0,0,1,0,1,1,1,1,0,0,1,1,1,1,1,1,1,1,0,0,0,0,0,0,0,0,0,0,0,0,0,0,0,0,0,0,0,0,0,0,0,0,0,0,0,0,0,0,0,0,0,0,0,0,0,0,0,0,0,0,0,0],"id":18,"left_children":[1,3,5,7,9,11,13,15,17,19,21,23,25,27,29,31,33,35,37,39,41,43,45,47,49,51,53,55,57,59,61,-1,63,-1,65,67,-1,69,-1,71,73,75,77,-1,79,-1,-1,81,-1,83,85,87,89,-1,-1,91,93,95,97,99,101,103,105,-1,-1,-1,-1,-1,-1,-1,-1,-1,-1,-1,-1,-1,-1,-1,-1,-1,-1,-1,-1,-1,-1,-1,-1,-1,-1,-1,-1,-1,-1,-1,-1,-1,-1,-1,-1,-1,-1,-1,-1,-1,-1,-1,-1],"loss_changes":[1.2993164E0,1.4399414E0,1.7456055E0,4.8991394E-1,8.544922E-1,6.9745636E-1,9.140625E-1,2.7915955E-1,5.337143E-2,3.6108398E-1,2.6564407E-1,1.9770813E-1,7.489872E-2,7.836914E-1,3.6071396E-1,6.1519623E-2,6.1101913E-2,3.4067154E-2,2.0458221E-2,3.6816406E-1,2.4661255E-1,7.782745E-2,2.3932457E-2,3.5478354E-2,1.6843414E-1,6.0534E-2,4.1779876E-3,8.3306503E-1,1.4658203E0,1.9903946E-1,8.684349E-2,0E0,8.544922E-3,0E0,1.02630615E-1,1.0439396E-2,0E0,1.849556E-2,0E0,1.7202759E-1,2.8344727E-1,9.038544E-2,4.8570633E-2,0E0,2.9914856E-2,0E0,0E0,3.764391E-3,0E0,8.200836E-2,7.7034E-2,4.538822E-2,6.1764717E-3,0E0,0E0,1.4250183E-1,5.0984383E-2,5.144043E-1,8.1492615E-1,2.5245667E-2,5.269432E-2,1.654768E-2,7.0469856E-2,0E0,0E0,0E0,0E0,0E0,0E0,0E0,0E0,0E0,0E0,0E0,0E0,0E0,0E0,0E0,0E0,0E0,0E0,0E0,0E0,0E0,0E0,0E0,0E0,0E0,0E0,0E0,0E0,0E0,0E0,0E0,0E0,0E0,0E0,0E0,0E0,0E0,0E0,0E0,0E0,0E0,0E0,0E0,0E0],"parents":[2147483647,0,0,1,1,2,2,3,3,4,4,5,5,6,6,7,7,8,8,9,9,10,10,11,11,12,12,13,13,14,14,15,15,16,16,17,17,18,18,19,19,20,20,21,21,22,22,23,23,24,24,25,25,26,26,27,27,28,28,29,29,30,30,32,32,34,34,35,35,37,37,39,39,40,40,41,41,42,42,44,44,47,47,49,49,50,50,51,51,52,52,55,55,56,56,57,57,58,58,59,59,60,60,61,61,62,62],"right_children":[2,4,6,8,10,12,14,16,18,20,22,24,26,28,30,32,34,36,38,40,42,44,46,48,50,52,54,56,58,60,62,-1,64,-1,66,68,-1,70,-1,72,74,76,78,-1,80,-1,-1,82,-1,84,86,88,90,-1,-1,92,94,96,98,100,102,104,106,-1,-1,-1,-1,-1,-1,-1,-1,-1,-1,-1,-1,-1,-1,-1,-1,-1,-1,-1,-1,-1,-1,-1,-1,-1,-1,-1,-1,-1,-1,-1,-1,-1,-1,-1,-1,-1,-1,-1,-1,-1,-1,-1,-1],"split_conditions":[1.9169186E-3,-5.3475964E-1,-3.2903606E-1,-1.8368581E-1,9.189043E-1,3.518635E-1,7.444796E-1,-3.0329043E-1,-7.42605E-2,2.597341E-1,-1.6711682E-1,-1.826927E-2,6.6415584E-1,-8.0485135E-2,2.4456312E-1,-2.468038E-4,-5.2583647E-1,1.3178117E0,2.0623055E0,-7.0792323E-1,1.9165246E-1,-5.558074E-1,2.419255E0,-7.9866064E-1,9.842679E-2,1.6523576E-1,-7.751767E-2,4.4777948E-1,5.5448544E-1,2.4936897E-1,4.098888E-1,-5.429943E-2,-2.5441341E0,-8.237075E-2,2.2407665E0,6.2043577E-2,-5.8235046E-2,1.2382506E0,-6.659935E-2,-2.6964529E0,-5.131975E-2,-6.1091505E-2,-4.7750488E-1,-6.957935E-2,8.358883E-3,-5.4471053E-2,-4.581469E-2,1.6570354E-1,-3.0034713E-2,-2.0634858E-1,-2.885223E-1,2.1566018E-2,2.1237905E0,-2.7707556E-2,-2.037477E-2,-4.1547588E-1,2.8157547E-1,2.2896523E-2,3.6977377E-2,2.6403637E0,1.3034763E0,1.3347328E-1,3.5897043E-1,-6.722208E-2,-6.002542E-2,-6.86652E-2,-5.0896354E-2,-4.4280626E-2,-5.437929E-2,-5.1967807E-2,-4.146994E-2,-7.595472E-2,-5.6331925E-2,-5.006906E-2,-5.183975E-2,-5.5481397E-2,-5.1662043E-2,-7.632265E-2,-6.056464E-2,-6.342139E-2,-5.7755012E-2,-4.1114263E-2,-2.9663613E-2,-5.2119497E-2,-4.6840865E-2,-4.9865153E-2,-4.320061E-2,-3.7221886E-2,-5.0314765E-2,-3.306076E-2,-2.6077075E-2,-3.661766E-2,-5.081164E-2,-3.5957076E-2,-4.1775987E-2,-5.0480433E-2,-5.264362E-2,-5.3679906E-2,-6.408693E-2,-4.5157827E-2,-3.2973763E-2,-5.52998E-2,-4.481692E-2,-4.4582725E-2,-5.8472455E-2,-4.1984614E-2,-3.5421543E-2],"split_indices":[1,4,3,1,4,1,3,3,1,3,1,5,1,5,1,5,1,5,3,3,0,1,4,3,1,4,0,1,1,0,5,0,4,0,3,2,0,3,0,3,2,1,1,0,3,0,0,2,0,4,0,2,4,0,0,0,0,2,5,3,4,5,1,0,0,0,0,0,0,0,0,0,0,0,0,0,0,0,0,0,0,0,0,0,0,0,0,0,0,0,0,0,0,0,0,0,0,0,0,0,0,0,0,0,0,0,0],"split_type":[0,0,0,0,0,0,0,0,0,0,0,0,0,0,0,0,0,0,0,0,0,0,0,0,0,0,0,0,0,0,0,0,0,0,0,0,0,0,0,0,0,0,0,0,0,0,0,0,0,0,0,0,0,0,0,0,0,0,0,0,0,0,0,0,0,0,0,0,0,0,0,0,0,0,0,0,0,0,0,0,0,0,0,0,0,0,0,0,0,0,0,0,0,0,0,0,0,0,0,0,0,0,0,0,0,0,0],"sum_hessian":[1.71555E5,8.902E4,8.2535E4,2.735E3,8.6285E4,3.811E3,7.8724E4,1.438E3,1.297E3,8.4829E4,1.456E3,3.232E3,5.79E2,7.6692E4,2.032E3,8.81E2,5.57E2,7.05E2,5.92E2,8.1288E4,3.541E3,9.61E2,4.95E2,1.94E2,3.038E3,5.09E2,7E1,2.165E3,7.4527E4,1.154E3,8.78E2,2.58E2,6.23E2,4.7E1,5.1E2,1.43E2,5.62E2,5.73E2,1.9E1,1.137E3,8.0151E4,3.104E3,4.37E2,1.68E2,7.93E2,4.17E2,7.8E1,1.17E2,7.7E1,1.458E3,1.58E3,2.46E2,2.63E2,3.6E1,3.4E1,1.323E3,8.42E2,7.1542E4,2.985E3,7.21E2,4.33E2,1.37E2,7.41E2,1.04E2,5.19E2,4.63E2,4.7E1,5.5E1,8.8E1,5.32E2,4.1E1,5E1,1.087E3,1.0317E4,6.9834E4,1.8E3,1.304E3,3.5E1,4.02E2,4.07E2,3.86E2,1.01E2,1.6E1,5.86E2,8.72E2,2.34E2,1.346E3,2.08E2,3.8E1,2.26E2,3.7E1,8E1,1.243E3,5.89E2,2.53E2,5.8842E4,1.27E4,1.833E3,1.152E3,6.92E2,2.9E1,3.48E2,8.5E1,1.15E2,2.2E1,3.12E2,4.29E2],"tree_param":{"num_deleted":"0","num_feature":"6","num_nodes":"107","size_leaf_vector":"0"}},{"base_weights":[-1.7174365E-1,-1.6795631E-1,-1.7383346E-1,-1.7142832E-1,-1.5991877E-1,-1.7333674E-1,-2.0264953E-1,-1.5555479E-1,-1.7291157E-1,-1.4026119E-1,-1.6723709E-1,-2.0013404E-1,-1.729585E-1,-1.8053512E-1,-2.1105261E-1,-1.3348716E-1,-1.6448346E-1,-1.7200322E-1,-2.0217818E-1,-1.20838046E-1,-1.462083E-1,-1.5947038E-1,-1.6859347E-1,-1.8930219E-1,-2.1653777E-1,-1.7272939E-1,-1.9710654E-1,-1.3768807E-1,-1.8296486E-1,-2.2136153E-1,-1.9868071E-1,-1.2635751E-1,-1.6181055E-1,-1.599469E-1,-1.7781217E-1,-1.6271172E-1,-1.735029E-1,-1.910935E-1,-2.1633056E-1,-9.4788656E-2,-1.2364581E-1,-1.9857009E-1,-1.457979E-1,-1.5730393E-1,-2.0252915E-1,-1.6817157E-1,-1.7683782E-1,-1.9812433E-1,-1.7469549E-1,-1.9950533E-1,-2.326721E-1,-1.9575326E-1,-1.7251897E-1,-1.9012196E-1,-2.229454E-1,-1.8570839E-1,-1.5737443E-1,-2.140818E-1,-2.4149263E-1,-2.2044861E-1,-1.90273E-1,-1.2959237E-1,-1.1476772E-1,-1.3918196E-1,-1.6601034E-1,-2.111622E-1,-1.6994059E-1,-1.8223928E-1,-1.6024283E-1,-2.0992644E-1,-1.7286168E-1,-1.6523725E-1,-1.9517986E-1,-1.2687084E-1,-2.1899822E-1,-8.352846E-2,-1.02005444E-1,-1.2042304E-1,-1.406619E-1,-1.3720046E-1,-1.4762713E-1,-1.6189109E-1,-1.6865762E-1,-2.0223609E-1,-1.7116013E-1,-1.650087E-1,-2.01169E-1,-1.8446216E-1,-2.3391885E-1,-1.836233E-1,-2.0635456E-1,-1.6702434E-1,-1.7335795E-1,-2.1850666E-1,-1.8663557E-1,-2.0062654E-1,-2.2154725E-1],"categories":[],"categories_nodes":[],"categories_segments":[],"categories_sizes":[],"default_left":[1,1,1,1,1,1,1,1,1,1,1,1,1,1,1,1,1,1,1,1,1,1,1,1,1,1,1,0,1,1,1,1,0,1,1,1,1,1,1,1,1,0,1,0,0,1,0,1,1,1,0,1,1,1,0,0,0,1,0,0,0,0,0,0,0,0,0,0,0,0,0,0,0,0,0,0,0,0,0,0,0,0,0,0,0,0,0,0,0,0,0,0,0,0,0,0,0],"id":19,"left_children":[1,3,5,7,9,11,13,15,17,19,21,23,25,27,29,31,33,35,37,39,41,43,45,47,49,51,53,-1,55,57,59,61,-1,63,65,67,69,71,73,75,77,-1,79,-1,-1,81,-1,83,85,87,-1,89,91,93,-1,-1,-1,95,-1,-1,-1,-1,-1,-1,-1,-1,-1,-1,-1,-1,-1,-1,-1,-1,-1,-1,-1,-1,-1,-1,-1,-1,-1,-1,-1,-1,-1,-1,-1,-1,-1,-1,-1,-1,-1,-1,-1],"loss_changes":[1.3291016E0,1.6757812E0,1.546875E0,9.7631836E-1,2.6273193E0,1.0666504E0,3.0884552E-1,6.974182E-1,1.0008545E0,5.604706E-1,1.1453247E-1,2.2659683E-1,5.5908203E-1,2.9047012E-2,1.2781906E-1,1.930008E-1,1.2847137E-1,4.9829102E-1,1.4173508E-1,7.451439E-2,5.329132E-2,1.5601349E-1,9.9487305E-3,8.329773E-2,1.1626816E-1,4.802246E-1,1.3808823E-1,0E0,5.176544E-3,5.469513E-2,7.1891785E-2,1.695633E-2,0E0,2.2190857E-1,1.3475227E-1,2.2476196E-1,7.2332764E-1,3.7799835E-2,9.2731476E-2,1.1498928E-3,4.1244507E-2,0E0,3.9520264E-2,0E0,0E0,